{"learner":{"attributes":{"scikit_learn":"{\"_estimator_type\": \"regressor\"}"},"feature_names":["temperature_2m_mean","precipitation_sum","wind_speed_10m_max","wind_direction_10m_dominant","pm25_yesterday"],"feature_types":["float","float","float","float","float"],"gradient_booster":{"model":{"gbtree_model_param":{"num_parallel_tree":"1","num_trees":"100"},"iteration_indptr":[0,1,2,3,4,5,6,7,8,9,10,11,12,13,14,15,16,17,18,19,20,21,22,23,24,25,26,27,28,29,30,31,32,33,34,35,36,37,38,39,40,41,42,43,44,45,46,47,48,49,50,51,52,53,54,55,56,57,58,59,60,61,62,63,64,65,66,67,68,69,70,71,72,73,74,75,76,77,78,79,80,81,82,83,84,85,86,87,88,89,90,91,92,93,94,95,96,97,98,99,100],"tree_info":[0,0,0,0,0,0,0,0,0,0,0,0,0,0,0,0,0,0,0,0,0,0,0,0,0,0,0,0,0,0,0,0,0,0,0,0,0,0,0,0,0,0,0,0,0,0,0,0,0,0,0,0,0,0,0,0,0,0,0,0,0,0,0,0,0,0,0,0,0,0,0,0,0,0,0,0,0,0,0,0,0,0,0,0,0,0,0,0,0,0,0,0,0,0,0,0,0,0,0,0],"trees":[{"base_weights":[-2.301453E-6,-2.0330338E1,2.1856182E1,-3.645918E1,-1.3150079E1,1.2483256E1,4.4128067E1,-4.16321E1,-2.47255E1,-1.7487186E1,-1.3596286E0,6.0601735E0,2.5073305E1,3.826959E1,5.8040794E1,-3.5882977E1,-5.0064976E1,-1.145237E1,-3.355181E1,-5.9488034E0,-2.1829266E1,6.588462E0,-1.269092E1,1.5548767E1,-7.1057744E-2,2.949964E1,9.874883E0,4.4042114E1,1.8653696E1,4.4683937E1,6.992912E1,-1.656944E1,-3.7417007E1,-1.6470205E1,-4.118564E1,2.7504597E0,-2.0682331E1,-2.4232624E1,-4.344704E1,-1.2843999E1,7.961701E-1,-2.7181976E1,-1.430335E1,1.1666243E1,-1.386907E1,-1.1946682E0,-1.9789686E1,3.941251E0,2.2744368E1,-6.8606677E0,8.580981E0,2.543949E1,4.3939392E1,1.626915E1,-1.0725996E1,5.907766E1,3.8181004E1,1.2952726E1,4.1371414E1,4.5895008E1,-1.6986084E0,7.773063E1,4.5519386E1,-8.375676E0,-3.879364E-1,-1.2529291E1,-9.995658E0,-8.8017645E0,-1.333653E1,4.28112E0,-3.9240615E0,2.4267197E0,-6.834055E0,-5.854897E0,-1.1702634E1,-1.3887389E1,-8.358521E0,-4.67609E0,-2.3606366E-1,4.048526E0,-1.0215814E0,-4.5909286E0,-8.483308E0,-1.3824638E0,-5.7737246E0,4.2041197E0,-3.0719087E0,-1.2767751E0,-6.036064E0,-6.6279364E0,8.541719E-1,-9.1841755E0,-4.91879E0,5.9622016E0,8.530235E-2,9.545818E0,5.3160863E0,-5.7958215E-1,-3.4383204E0,3.981473E0,5.0226927E-1,8.763894E0,3.7803822E0,7.9549756E0,1.5340711E1,3.0911417E0,9.103642E0,-4.5661554E0,1.8130219E0,2.1678133E0,1.7884596E1,6.7420764E0,1.3611051E1,3.84256E-1,5.628914E0,1.3821766E1,-5.782187E0,1.4962045E1,8.2084E0,3.0678132E0,-3.832187E0,2.615183E1,1.7255817E1,7.592064E0,1.7011654E1],"categories":[],"categories_nodes":[],"categories_segments":[],"categories_sizes":[],"default_left":[0,0,0,0,0,0,0,0,0,0,0,0,0,0,0,0,0,0,0,0,0,0,0,0,0,0,0,0,0,0,0,0,0,0,0,0,0,0,0,0,0,0,0,0,0,0,0,0,0,0,0,0,0,0,0,0,0,0,0,0,0,0,0,0,0,0,0,0,0,0,0,0,0,0,0,0,0,0,0,0,0,0,0,0,0,0,0,0,0,0,0,0,0,0,0,0,0,0,0,0,0,0,0,0,0,0,0,0,0,0,0,0,0,0,0,0,0,0,0,0,0,0,0,0,0],"id":0,"left_children":[1,3,5,7,9,11,13,15,17,19,21,23,25,27,29,31,33,35,37,39,41,43,45,47,49,51,53,55,57,59,61,63,65,-1,67,69,71,73,75,77,79,81,83,85,87,89,91,93,95,97,99,101,103,105,107,109,111,113,115,117,119,121,123,-1,-1,-1,-1,-1,-1,-1,-1,-1,-1,-1,-1,-1,-1,-1,-1,-1,-1,-1,-1,-1,-1,-1,-1,-1,-1,-1,-1,-1,-1,-1,-1,-1,-1,-1,-1,-1,-1,-1,-1,-1,-1,-1,-1,-1,-1,-1,-1,-1,-1,-1,-1,-1,-1,-1,-1,-1,-1,-1,-1,-1,-1],"loss_changes":[1.7444928E6,2.3507656E5,3.9440925E5,3.6967188E4,7.20275E4,1.0764367E5,4.3423E4,1.9196125E4,2.2343383E4,5.147372E4,3.4307223E4,5.1429367E4,2.9981688E4,4.4132062E4,2.2917062E4,7.1128125E3,5.167125E3,1.0413119E4,9.644164E3,1.3171964E4,2.9743688E4,2.3430666E4,1.2789008E4,2.8892852E4,3.166313E4,1.9284594E4,1.37424375E4,2.4710625E4,1.137933E4,4.5717656E3,1.2648531E4,3.6048408E3,2.9020938E3,0E0,1.2132656E3,6.0224453E3,3.081459E3,3.5593984E3,1.1483047E3,4.6178555E3,7.728894E3,5.2421562E3,1.4909406E4,9.399805E3,2.6185625E3,5.2155513E3,3.061293E3,7.8018105E3,9.193203E3,6.8254404E3,7.6558145E3,1.2905781E4,8.047547E3,6.320965E3,1.9762446E3,1.911E3,2.4162219E4,5.0622637E3,6.01984E3,4.3867812E3,5.2683606E2,7.0085938E3,3.7652578E3,0E0,0E0,0E0,0E0,0E0,0E0,0E0,0E0,0E0,0E0,0E0,0E0,0E0,0E0,0E0,0E0,0E0,0E0,0E0,0E0,0E0,0E0,0E0,0E0,0E0,0E0,0E0,0E0,0E0,0E0,0E0,0E0,0E0,0E0,0E0,0E0,0E0,0E0,0E0,0E0,0E0,0E0,0E0,0E0,0E0,0E0,0E0,0E0,0E0,0E0,0E0,0E0,0E0,0E0,0E0,0E0,0E0,0E0,0E0,0E0,0E0,0E0],"parents":[2147483647,0,0,1,1,2,2,3,3,4,4,5,5,6,6,7,7,8,8,9,9,10,10,11,11,12,12,13,13,14,14,15,15,16,16,17,17,18,18,19,19,20,20,21,21,22,22,23,23,24,24,25,25,26,26,27,27,28,28,29,29,30,30,31,31,32,32,34,34,35,35,36,36,37,37,38,38,39,39,40,40,41,41,42,42,43,43,44,44,45,45,46,46,47,47,48,48,49,49,50,50,51,51,52,52,53,53,54,54,55,55,56,56,57,57,58,58,59,59,60,60,61,61,62,62],"right_children":[2,4,6,8,10,12,14,16,18,20,22,24,26,28,30,32,34,36,38,40,42,44,46,48,50,52,54,56,58,60,62,64,66,-1,68,70,72,74,76,78,80,82,84,86,88,90,92,94,96,98,100,102,104,106,108,110,112,114,116,118,120,122,124,-1,-1,-1,-1,-1,-1,-1,-1,-1,-1,-1,-1,-1,-1,-1,-1,-1,-1,-1,-1,-1,-1,-1,-1,-1,-1,-1,-1,-1,-1,-1,-1,-1,-1,-1,-1,-1,-1,-1,-1,-1,-1,-1,-1,-1,-1,-1,-1,-1,-1,-1,-1,-1,-1,-1,-1,-1,-1,-1,-1,-1,-1],"split_conditions":[9.1E1,5.7E1,1.44E2,1.6726479E2,1.9748709E2,1.7817793E2,1.68E2,2.0466246E1,3E-1,1.5021105E1,9E-1,1.57908325E1,2.3979893E1,1.4E0,1.3296497E2,1.2171429E1,4.8E1,1.1292167E1,2.1868332E1,7.2E1,7.5E1,3.443855E2,1.731746E1,1.08E2,1.17E2,1.3E2,4.799999E0,1.4168641E1,1.63E2,2.39E2,2.1068459E1,5E1,4.9E1,-1.6470205E1,2.5646257E1,2.3166216E1,1.01887E1,3.3636176E2,5.2E1,1.4784529E2,1.116145E1,7.727834E0,1.5900501E1,2.81169E1,1.9652176E1,6.3E1,6.2E1,1.0587918E1,1.2475961E1,1.9453327E1,1.0000001E0,2.5069504E1,2.5459645E2,1.25E2,1.27E2,3.140594E0,1.2362899E2,1.1459084E1,2.774103E1,1.9930477E1,5.911167E0,1.2008834E1,2.8630002E0,-8.375676E0,-3.879364E-1,-1.2529291E1,-9.995658E0,-8.8017645E0,-1.333653E1,4.28112E0,-3.9240615E0,2.4267197E0,-6.834055E0,-5.854897E0,-1.1702634E1,-1.3887389E1,-8.358521E0,-4.67609E0,-2.3606366E-1,4.048526E0,-1.0215814E0,-4.5909286E0,-8.483308E0,-1.3824638E0,-5.7737246E0,4.2041197E0,-3.0719087E0,-1.2767751E0,-6.036064E0,-6.6279364E0,8.541719E-1,-9.1841755E0,-4.91879E0,5.9622016E0,8.530235E-2,9.545818E0,5.3160863E0,-5.7958215E-1,-3.4383204E0,3.981473E0,5.0226927E-1,8.763894E0,3.7803822E0,7.9549756E0,1.5340711E1,3.0911417E0,9.103642E0,-4.5661554E0,1.8130219E0,2.1678133E0,1.7884596E1,6.7420764E0,1.3611051E1,3.84256E-1,5.628914E0,1.3821766E1,-5.782187E0,1.4962045E1,8.2084E0,3.0678132E0,-3.832187E0,2.615183E1,1.7255817E1,7.592064E0,1.7011654E1],"split_indices":[4,4,4,3,3,3,4,2,1,2,1,2,2,1,3,3,4,0,2,4,4,3,2,4,4,4,1,2,4,4,2,4,4,0,3,2,2,3,4,3,2,0,0,2,2,4,4,2,2,2,1,0,3,4,4,3,3,0,2,2,0,0,0,0,0,0,0,0,0,0,0,0,0,0,0,0,0,0,0,0,0,0,0,0,0,0,0,0,0,0,0,0,0,0,0,0,0,0,0,0,0,0,0,0,0,0,0,0,0,0,0,0,0,0,0,0,0,0,0,0,0,0,0,0,0],"split_type":[0,0,0,0,0,0,0,0,0,0,0,0,0,0,0,0,0,0,0,0,0,0,0,0,0,0,0,0,0,0,0,0,0,0,0,0,0,0,0,0,0,0,0,0,0,0,0,0,0,0,0,0,0,0,0,0,0,0,0,0,0,0,0,0,0,0,0,0,0,0,0,0,0,0,0,0,0,0,0,0,0,0,0,0,0,0,0,0,0,0,0,0,0,0,0,0,0,0,0,0,0,0,0,0,0,0,0,0,0,0,0,0,0,0,0,0,0,0,0,0,0,0,0,0,0],"sum_hessian":[3.924E3,2.033E3,1.891E3,6.25E2,1.408E3,1.332E3,5.59E2,4.32E2,1.93E2,1.029E3,3.79E2,8.83E2,4.49E2,3.96E2,1.63E2,2.6E2,1.72E2,7.8E1,1.15E2,2.82E2,7.47E2,2.23E2,1.56E2,3.46E2,5.37E2,3.47E2,1.02E2,3.05E2,9.1E1,7.9E1,8.4E1,2E1,2.4E2,1.08E2,6.4E1,3.1E1,4.7E1,6.1E1,5.4E1,1.39E2,1.43E2,4.35E2,3.12E2,1.79E2,4.4E1,6E1,9.6E1,1.33E2,2.13E2,3.01E2,2.36E2,2.73E2,7.4E1,7.8E1,2.4E1,8.3E1,2.22E2,7.4E1,1.7E1,7.7E1,2E0,6.2E1,2.2E1,1.1E1,9E0,1.12E2,1.28E2,1.6E1,4.8E1,1.8E1,1.3E1,3E0,4.4E1,4.8E1,1.3E1,4.4E1,1E1,1.13E2,2.6E1,3.5E1,1.08E2,3.8E1,3.97E2,1.06E2,2.06E2,1.62E2,1.7E1,1.8E1,2.6E1,9E0,5.1E1,2.1E1,7.5E1,2.4E1,1.09E2,7.4E1,1.39E2,1.46E2,1.55E2,1.4E2,9.6E1,2.1E2,6.3E1,2.3E1,5.1E1,5.6E1,2.2E1,1.9E1,5E0,1E0,8.2E1,7.1E1,1.51E2,2.5E1,4.9E1,1.6E1,1E0,6.2E1,1.5E1,1E0,1E0,4E1,2.2E1,9E0,1.3E1],"tree_param":{"num_deleted":"0","num_feature":"5","num_nodes":"125","size_leaf_vector":"1"}},{"base_weights":[1.26376655E-2,-1.0934312E1,2.0254158E1,-2.0548977E1,-2.781791E0,1.316831E1,3.236345E1,-2.983024E1,-1.665878E1,-6.502572E0,5.289127E0,9.272648E0,2.21881E1,2.559956E1,4.0557697E1,-3.3474224E1,-2.1879593E1,-1.9689367E1,-5.6729503E0,-6.406272E-1,-1.1312877E1,1.026319E1,-2.3319252E0,1.7361431E1,4.192497E0,2.7580078E1,1.3459706E1,3.8855038E1,2.1349714E1,4.301434E1,1.1270739E1,-1.3977432E1,-3.5231037E1,-1.1285232E1,-2.8413008E1,-1.5204334E1,-2.5368462E1,4.192822E0,-1.4349176E1,-7.6596546E0,2.0961387E0,-5.96086E0,-1.7228079E1,1.6546596E0,1.6119612E1,-4.1189086E-1,-2.2528826E1,1.6249931E1,4.6869003E1,-4.4100556E0,7.2829757E0,1.8048233E1,3.1835314E1,-1.7978003E1,1.5265548E1,3.344815E1,4.988882E1,1.4949458E1,3.3594738E1,3.6998875E1,5.125758E1,2.0547266E0,1.0999389E1,6.59289E-1,-5.03861E0,-8.566566E0,-1.1385498E1,4.2448792E0,-4.943895E0,4.8019412E-1,-8.946864E0,4.453492E0,-4.7248263E0,-6.5696774E0,-9.127509E0,3.9084466E0,-1.6820275E0,-1.6974541E0,-6.77099E0,-2.970223E0,5.151688E-1,2.123207E0,-1.1330446E0,-6.1434984E-1,-5.405939E0,-4.6108704E0,-8.509321E0,5.132143E0,-7.4916655E-1,1.0175961E0,5.963493E0,-1.4377038E0,1.7023771E0,3.0896876E0,-7.6827927E0,5.2147403E0,-3.0532799E0,4.7556005E0,1.869264E1,3.0620748E-2,-4.482525E0,2.9447598E0,9.905408E-2,9.257906E0,4.029992E0,1.0731604E1,2.9181223E0,-7.3937383E0,2.304142E0,9.391826E0,2.778333E0,1.144271E1,6.1734166E0,7.456198E0,1.6378246E1,-4.235867E0,4.9648438E0,1.1117515E1,4.4274154E0,1.1679968E1,6.416341E0,1.676474E1,8.259315E0,3.9588513E0,-2.8030677E0],"categories":[],"categories_nodes":[],"categories_segments":[],"categories_sizes":[],"default_left":[0,0,0,0,0,0,0,0,0,0,0,0,0,0,0,0,0,0,0,0,0,0,0,0,0,0,0,0,0,0,0,0,0,0,0,0,0,0,0,0,0,0,0,0,0,0,0,0,0,0,0,0,0,0,0,0,0,0,0,0,0,0,0,0,0,0,0,0,0,0,0,0,0,0,0,0,0,0,0,0,0,0,0,0,0,0,0,0,0,0,0,0,0,0,0,0,0,0,0,0,0,0,0,0,0,0,0,0,0,0,0,0,0,0,0,0,0,0,0,0,0,0,0,0,0],"id":1,"left_children":[1,3,5,7,9,11,13,15,17,19,21,23,25,27,29,31,33,35,37,39,41,43,45,47,49,51,53,55,57,59,61,63,65,67,69,71,73,75,77,79,81,83,85,87,89,91,93,95,97,99,101,103,105,107,109,111,113,115,117,119,121,123,-1,-1,-1,-1,-1,-1,-1,-1,-1,-1,-1,-1,-1,-1,-1,-1,-1,-1,-1,-1,-1,-1,-1,-1,-1,-1,-1,-1,-1,-1,-1,-1,-1,-1,-1,-1,-1,-1,-1,-1,-1,-1,-1,-1,-1,-1,-1,-1,-1,-1,-1,-1,-1,-1,-1,-1,-1,-1,-1,-1,-1,-1,-1],"loss_changes":[8.699344E5,1.9966469E5,1.1781256E5,4.1710906E4,4.1475957E4,3.0399516E4,2.7117625E4,9.2339375E3,2.7388766E4,2.6639613E4,1.6551645E4,2.499348E4,1.1959367E4,1.500025E4,1.591925E4,7.522625E3,7.3624805E3,1.6093984E4,1.5467744E4,8.218484E3,1.6327945E4,1.3282936E4,6.6994424E3,6.945828E3,1.0028457E4,5.955633E3,6.065135E3,2.3284219E3,1.6347602E4,8.516781E3,4.371241E3,9.940957E2,2.8030312E3,6.0464204E3,2.9251836E3,6.195922E3,4.316203E3,7.4325625E3,6.7311934E3,2.538733E3,9.037103E3,1.289232E4,4.6555156E3,6.9716636E3,7.4433438E3,4.2663823E3,1.7806299E3,7.0009844E3,2.8434512E3,4.753556E3,4.874913E3,2.6598945E3,9.225719E3,1.2158033E3,9.05257E3,2.1150234E3,9.990625E2,6.884744E3,4.2158594E3,2.9419688E3,7.8985E3,2.0281996E3,0E0,0E0,0E0,0E0,0E0,0E0,0E0,0E0,0E0,0E0,0E0,0E0,0E0,0E0,0E0,0E0,0E0,0E0,0E0,0E0,0E0,0E0,0E0,0E0,0E0,0E0,0E0,0E0,0E0,0E0,0E0,0E0,0E0,0E0,0E0,0E0,0E0,0E0,0E0,0E0,0E0,0E0,0E0,0E0,0E0,0E0,0E0,0E0,0E0,0E0,0E0,0E0,0E0,0E0,0E0,0E0,0E0,0E0,0E0,0E0,0E0,0E0,0E0],"parents":[2147483647,0,0,1,1,2,2,3,3,4,4,5,5,6,6,7,7,8,8,9,9,10,10,11,11,12,12,13,13,14,14,15,15,16,16,17,17,18,18,19,19,20,20,21,21,22,22,23,23,24,24,25,25,26,26,27,27,28,28,29,29,30,30,31,31,32,32,33,33,34,34,35,35,36,36,37,37,38,38,39,39,40,40,41,41,42,42,43,43,44,44,45,45,46,46,47,47,48,48,49,49,50,50,51,51,52,52,53,53,54,54,55,55,56,56,57,57,58,58,59,59,60,60,61,61],"right_children":[2,4,6,8,10,12,14,16,18,20,22,24,26,28,30,32,34,36,38,40,42,44,46,48,50,52,54,56,58,60,62,64,66,68,70,72,74,76,78,80,82,84,86,88,90,92,94,96,98,100,102,104,106,108,110,112,114,116,118,120,122,124,-1,-1,-1,-1,-1,-1,-1,-1,-1,-1,-1,-1,-1,-1,-1,-1,-1,-1,-1,-1,-1,-1,-1,-1,-1,-1,-1,-1,-1,-1,-1,-1,-1,-1,-1,-1,-1,-1,-1,-1,-1,-1,-1,-1,-1,-1,-1,-1,-1,-1,-1,-1,-1,-1,-1,-1,-1,-1,-1,-1,-1,-1,-1],"split_conditions":[1.08E2,6.9E1,1.47E2,4.9E1,1.835395E2,1.8662198E2,1.554236E2,1.6606718E2,2.3070518E2,1.673516E1,8E-1,1.5683776E1,2.0833395E1,1.3896187E1,6.1E0,1.3039754E1,2E-1,1.8391737E1,2.0833395E1,7.8E1,1.9254667E1,8.2E1,3.09E1,1.55843E1,1.17E2,2.4104373E2,8.2574993E-1,1E-1,1.68E2,1.64E2,1.66E2,2.2822111E1,2.0842415E1,5.127834E0,1.7103459E2,7.105409E0,2.4242418E1,1E0,4E-1,1.2650615E2,2.0713E1,5.2999997E0,9.8E0,1.4480773E1,3.457E0,2.9912622E2,9.3876505E0,1.5463246E1,1.26E2,2.1868332E1,4.8000007E0,1.12E2,3.5097308E2,2.917777E1,6.3882504E0,1.73E2,1.55E2,3.457E0,8.199999E0,8E-1,2.3795427E1,1.8079027E1,1.0999389E1,6.59289E-1,-5.03861E0,-8.566566E0,-1.1385498E1,4.2448792E0,-4.943895E0,4.8019412E-1,-8.946864E0,4.453492E0,-4.7248263E0,-6.5696774E0,-9.127509E0,3.9084466E0,-1.6820275E0,-1.6974541E0,-6.77099E0,-2.970223E0,5.151688E-1,2.123207E0,-1.1330446E0,-6.1434984E-1,-5.405939E0,-4.6108704E0,-8.509321E0,5.132143E0,-7.4916655E-1,1.0175961E0,5.963493E0,-1.4377038E0,1.7023771E0,3.0896876E0,-7.6827927E0,5.2147403E0,-3.0532799E0,4.7556005E0,1.869264E1,3.0620748E-2,-4.482525E0,2.9447598E0,9.905408E-2,9.257906E0,4.029992E0,1.0731604E1,2.9181223E0,-7.3937383E0,2.304142E0,9.391826E0,2.778333E0,1.144271E1,6.1734166E0,7.456198E0,1.6378246E1,-4.235867E0,4.9648438E0,1.1117515E1,4.4274154E0,1.1679968E1,6.416341E0,1.676474E1,8.259315E0,3.9588513E0,-2.8030677E0],"split_indices":[4,4,4,4,3,3,3,3,3,2,1,2,2,2,1,2,1,2,2,4,0,4,1,2,4,3,0,1,4,4,4,3,0,0,3,3,0,1,1,3,0,1,1,2,0,3,2,2,4,2,1,4,3,2,0,4,4,0,1,1,2,2,0,0,0,0,0,0,0,0,0,0,0,0,0,0,0,0,0,0,0,0,0,0,0,0,0,0,0,0,0,0,0,0,0,0,0,0,0,0,0,0,0,0,0,0,0,0,0,0,0,0,0,0,0,0,0,0,0,0,0,0,0,0,0],"split_type":[0,0,0,0,0,0,0,0,0,0,0,0,0,0,0,0,0,0,0,0,0,0,0,0,0,0,0,0,0,0,0,0,0,0,0,0,0,0,0,0,0,0,0,0,0,0,0,0,0,0,0,0,0,0,0,0,0,0,0,0,0,0,0,0,0,0,0,0,0,0,0,0,0,0,0,0,0,0,0,0,0,0,0,0,0,0,0,0,0,0,0,0,0,0,0,0,0,0,0,0,0,0,0,0,0,0,0,0,0,0,0,0,0,0,0,0,0,0,0,0,0,0,0,0,0],"sum_hessian":[3.924E3,2.547E3,1.377E3,1.168E3,1.379E3,8.7E2,5.07E2,3.43E2,8.25E2,9.44E2,4.35E2,6.09E2,2.61E2,2.8E2,2.27E2,2.33E2,1.1E2,6.46E2,1.79E2,4.26E2,5.18E2,2.63E2,1.72E2,2.34E2,3.75E2,1.6E2,1.01E2,6.6E1,2.14E2,2.09E2,1.8E1,2E1,2.13E2,4.3E1,6.7E1,3.63E2,2.83E2,8.4E1,9.5E1,1.19E2,3.07E2,2.73E2,2.45E2,1.07E2,1.56E2,1.58E2,1.4E1,2.27E2,7E0,9.9E1,2.76E2,5.1E1,1.09E2,5E0,9.6E1,4.7E1,1.9E1,1.42E2,7.2E1,1.24E2,8.5E1,1.4E1,4E0,3E0,1.7E1,6.5E1,1.48E2,7E0,3.6E1,3E0,6.4E1,6E0,3.57E2,1.71E2,1.12E2,4.4E1,4E1,4.7E1,4.8E1,9.6E1,2.3E1,1.66E2,1.41E2,2.07E2,6.6E1,2.12E2,3.3E1,2.2E1,8.5E1,3.6E1,1.2E2,9.2E1,6.6E1,1E0,1.3E1,2.18E2,9E0,3E0,4E0,7E1,2.9E1,2.02E2,7.4E1,1.2E1,3.9E1,9.2E1,1.7E1,4E0,1E0,2.5E1,7.1E1,3.3E1,1.4E1,4E0,1.5E1,7E0,1.35E2,6E1,1.2E1,1.09E2,1.5E1,7E1,1.5E1,7E0,7E0],"tree_param":{"num_deleted":"0","num_feature":"5","num_nodes":"125","size_leaf_vector":"1"}},{"base_weights":[3.481864E-2,-1.0220387E1,1.1059689E1,-1.88339E1,-6.6963778E0,6.217049E0,2.1949104E1,-1.1346019E1,-2.164159E1,1.5514714E-1,-9.037619E0,2.9049506E0,1.267805E1,1.5962303E1,2.6315605E1,-1.0142029E1,-8.625855E0,-1.5075345E1,-2.4180483E1,-3.6817946E0,6.6796165E0,-4.8166046E0,-1.4218707E1,1.7447767E1,1.7256123E0,1.7155048E1,6.2586236E0,4.5853813E1,1.4774861E1,1.9947618E1,3.209318E1,-2.0191202E1,-8.037994E0,-1.9501282E1,-7.068712E0,-2.9892887E1,-2.1822296E1,2.8710654E0,-5.533811E0,-2.8518293E0,1.01052E1,-2.5147974E0,-1.4002702E1,-1.8033068E1,-1.1341092E1,2.9754072E1,7.3307247E0,3.5134642E0,-5.4365134E0,-1.2612499E1,1.8391254E1,2.7979242E1,3.1361985E0,1.2623405E-1,5.1480347E1,2.528402E1,1.0972323E1,2.3517872E1,7.2503314E0,3.573707E1,2.1176777E1,-1.2294931E0,-6.6336265E0,-3.629679E0,-5.3760433E-1,-1.7600702E0,-6.358396E0,8.668054E-2,-4.2357073E0,-3.2811052E-1,-9.1672945E0,5.774197E-1,-6.647376E0,-5.7014084E-1,4.787437E0,6.3624626E-1,-2.3751144E0,4.7532797E0,-2.3227181E0,3.7246068E0,-8.830398E-1,-1.6207342E0,8.1952125E-1,-9.767826E0,-3.5433571E0,-3.583758E0,-6.189392E0,-2.819744E0,-6.2792764E0,1.0094278E1,-4.5616946E0,-4.2899337E0,3.8563504E0,1.335825E0,-2.5536594E0,-5.5076866E0,-3.038715E-1,-1.231437E0,-5.7054377E0,7.6589746E0,4.374637E0,9.650365E0,1.236992E-2,1.4411544E0,-3.7144022E0,4.761602E0,1.8211338E1,8.24785E0,1.9985445E0,-3.8740456E-1,4.430739E0,7.680407E0,-1.9236044E0,-5.606111E0,2.7799149E0,9.34319E0,1.4775767E1,-3.5371451E0,7.1253047E0],"categories":[],"categories_nodes":[],"categories_segments":[],"categories_sizes":[],"default_left":[0,0,0,0,0,0,0,0,0,0,0,0,0,0,0,0,0,0,0,0,0,0,0,0,0,0,0,0,0,0,0,0,0,0,0,0,0,0,0,0,0,0,0,0,0,0,0,0,0,0,0,0,0,0,0,0,0,0,0,0,0,0,0,0,0,0,0,0,0,0,0,0,0,0,0,0,0,0,0,0,0,0,0,0,0,0,0,0,0,0,0,0,0,0,0,0,0,0,0,0,0,0,0,0,0,0,0,0,0,0,0,0,0,0,0,0,0,0,0],"id":2,"left_children":[1,3,5,7,9,11,13,15,17,19,21,23,25,27,29,31,-1,33,35,37,39,41,43,45,47,49,51,53,55,57,59,61,63,65,67,69,71,73,75,77,79,81,83,85,87,89,91,93,95,97,99,101,103,-1,105,107,109,111,113,115,117,-1,-1,-1,-1,-1,-1,-1,-1,-1,-1,-1,-1,-1,-1,-1,-1,-1,-1,-1,-1,-1,-1,-1,-1,-1,-1,-1,-1,-1,-1,-1,-1,-1,-1,-1,-1,-1,-1,-1,-1,-1,-1,-1,-1,-1,-1,-1,-1,-1,-1,-1,-1,-1,-1,-1,-1,-1,-1],"loss_changes":[4.4388262E5,6.161411E4,9.963534E4,1.2158422E4,2.3180742E4,2.8017879E4,1.4794219E4,3.1244824E3,6.7706562E3,9.262143E3,2.3484906E4,1.4856875E4,1.2653086E4,8.125129E3,1.1685E4,3.0938496E3,0E0,4.1854473E3,3.4832344E3,2.8435767E3,4.501972E3,1.2545838E4,5.0970312E3,7.8746016E3,1.0314176E4,9.836469E3,1.2391318E4,2.2790117E3,9.313328E3,7.1733633E3,6.1645938E3,7.1310547E2,3.2503418E3,1.6765215E3,2.3383962E3,1.6321562E3,1.8040234E3,3.277486E3,3.3369814E3,3.505747E3,3.0811338E3,7.241382E3,4.454842E3,3.0116406E3,4.9804375E3,5.588131E3,4.604653E3,7.3122227E3,9.184781E3,5.2140393E2,6.452922E3,2.6901836E3,4.2516826E3,0E0,1.6641406E3,2.4082266E3,8.307246E3,8.0213203E3,2.1079302E3,6.4741406E3,4.1838535E3,0E0,0E0,0E0,0E0,0E0,0E0,0E0,0E0,0E0,0E0,0E0,0E0,0E0,0E0,0E0,0E0,0E0,0E0,0E0,0E0,0E0,0E0,0E0,0E0,0E0,0E0,0E0,0E0,0E0,0E0,0E0,0E0,0E0,0E0,0E0,0E0,0E0,0E0,0E0,0E0,0E0,0E0,0E0,0E0,0E0,0E0,0E0,0E0,0E0,0E0,0E0,0E0,0E0,0E0,0E0,0E0,0E0,0E0],"parents":[2147483647,0,0,1,1,2,2,3,3,4,4,5,5,6,6,7,7,8,8,9,9,10,10,11,11,12,12,13,13,14,14,15,15,17,17,18,18,19,19,20,20,21,21,22,22,23,23,24,24,25,25,26,26,27,27,28,28,29,29,30,30,31,31,32,32,33,33,34,34,35,35,36,36,37,37,38,38,39,39,40,40,41,41,42,42,43,43,44,44,45,45,46,46,47,47,48,48,49,49,50,50,51,51,52,52,54,54,55,55,56,56,57,57,58,58,59,59,60,60],"right_children":[2,4,6,8,10,12,14,16,18,20,22,24,26,28,30,32,-1,34,36,38,40,42,44,46,48,50,52,54,56,58,60,62,64,66,68,70,72,74,76,78,80,82,84,86,88,90,92,94,96,98,100,102,104,-1,106,108,110,112,114,116,118,-1,-1,-1,-1,-1,-1,-1,-1,-1,-1,-1,-1,-1,-1,-1,-1,-1,-1,-1,-1,-1,-1,-1,-1,-1,-1,-1,-1,-1,-1,-1,-1,-1,-1,-1,-1,-1,-1,-1,-1,-1,-1,-1,-1,-1,-1,-1,-1,-1,-1,-1,-1,-1,-1,-1,-1,-1,-1],"split_conditions":[9.1E1,5.6E1,1.43E2,1.7708834E1,1.4973577E1,1.7817793E2,1.2594899E2,1.21E1,1.645007E1,1.4784529E2,2.094242E1,1.116145E1,4E-1,4.7061553E0,1.58E2,4.3E1,-8.625855E0,1.4064E2,3.9E1,1.116145E1,6.5E1,6E0,1.2650615E2,1.4115336E1,5.2999997E0,-5.138333E-1,1.1928989E1,8.2574993E-1,1.405845E1,2.290743E1,2.1068459E1,3.2734165E0,1.554236E2,1.0041354E1,1.0000001E0,1.8273666E1,4.0962877E0,1.0587918E1,1.1292167E1,5.9E1,9E0,2.1278526E2,5.596334E0,1.7287498E1,2.4766848E1,1.37E2,9.8E1,2.4863466E1,1.2008834E1,1.02E2,1.5978486E1,3.097783E1,3.52127E2,1.2623405E-1,1.45E2,1.10631744E2,6.4861665E0,8.199999E0,2.3042812E1,3.1036438E2,8.2574993E-1,-1.2294931E0,-6.6336265E0,-3.629679E0,-5.3760433E-1,-1.7600702E0,-6.358396E0,8.668054E-2,-4.2357073E0,-3.2811052E-1,-9.1672945E0,5.774197E-1,-6.647376E0,-5.7014084E-1,4.787437E0,6.3624626E-1,-2.3751144E0,4.7532797E0,-2.3227181E0,3.7246068E0,-8.830398E-1,-1.6207342E0,8.1952125E-1,-9.767826E0,-3.5433571E0,-3.583758E0,-6.189392E0,-2.819744E0,-6.2792764E0,1.0094278E1,-4.5616946E0,-4.2899337E0,3.8563504E0,1.335825E0,-2.5536594E0,-5.5076866E0,-3.038715E-1,-1.231437E0,-5.7054377E0,7.6589746E0,4.374637E0,9.650365E0,1.236992E-2,1.4411544E0,-3.7144022E0,4.761602E0,1.8211338E1,8.24785E0,1.9985445E0,-3.8740456E-1,4.430739E0,7.680407E0,-1.9236044E0,-5.606111E0,2.7799149E0,9.34319E0,1.4775767E1,-3.5371451E0,7.1253047E0],"split_indices":[4,4,4,0,2,3,3,1,2,3,0,2,1,3,4,4,0,3,4,2,4,1,3,0,1,0,2,0,2,2,2,0,3,2,1,0,3,2,0,4,1,3,0,2,2,4,4,2,0,4,2,0,3,0,4,3,0,1,2,3,0,0,0,0,0,0,0,0,0,0,0,0,0,0,0,0,0,0,0,0,0,0,0,0,0,0,0,0,0,0,0,0,0,0,0,0,0,0,0,0,0,0,0,0,0,0,0,0,0,0,0,0,0,0,0,0,0,0,0],"split_type":[0,0,0,0,0,0,0,0,0,0,0,0,0,0,0,0,0,0,0,0,0,0,0,0,0,0,0,0,0,0,0,0,0,0,0,0,0,0,0,0,0,0,0,0,0,0,0,0,0,0,0,0,0,0,0,0,0,0,0,0,0,0,0,0,0,0,0,0,0,0,0,0,0,0,0,0,0,0,0,0,0,0,0,0,0,0,0,0,0,0,0,0,0,0,0,0,0,0,0,0,0,0,0,0,0,0,0,0,0,0,0,0,0,0,0,0,0,0,0],"sum_hessian":[3.924E3,2.033E3,1.891E3,5.89E2,1.444E3,1.31E3,5.81E2,1.62E2,4.27E2,3.68E2,1.076E3,8.67E2,4.43E2,2.47E2,3.34E2,1.53E2,9E0,1.21E2,3.06E2,2.32E2,1.36E2,5.94E2,4.82E2,6.4E1,8.03E2,2.6E2,1.83E2,8E0,2.39E2,1.61E2,1.73E2,2.5E1,1.28E2,7.7E1,4.4E1,8.6E1,2.2E2,5.1E1,1.81E2,3.6E1,1E2,4.76E2,1.18E2,2.05E2,2.77E2,2.8E1,3.6E1,6.43E2,1.6E2,1E1,2.5E2,2.2E1,1.61E2,1E0,7E0,6.2E1,1.77E2,1.25E2,3.6E1,1.28E2,4.5E1,3E0,2.2E1,7.7E1,5.1E1,9E0,6.8E1,2.2E1,2.2E1,2E0,8.4E1,3E0,2.17E2,3.8E1,1.3E1,4.3E1,1.38E2,7E0,2.9E1,8.5E1,1.5E1,3.07E2,1.69E2,1.1E1,1.07E2,6.3E1,1.42E2,2.32E2,4.5E1,2.6E1,2E0,7E0,2.9E1,5.97E2,4.6E1,4E1,1.2E2,5E0,5E0,8.5E1,1.65E2,1.9E1,3E0,1.46E2,1.5E1,2E0,5E0,5.5E1,7E0,4.2E1,1.35E2,1.17E2,8E0,2E0,3.4E1,9.8E1,3E1,3E0,4.2E1],"tree_param":{"num_deleted":"0","num_feature":"5","num_nodes":"119","size_leaf_vector":"1"}},{"base_weights":[2.5611589E-2,-5.6049595E0,1.0436838E1,-1.0446881E1,-1.4992995E0,7.0477295E0,1.6227146E1,-7.7709866E0,-1.452499E1,-9.433437E-2,-7.9119053E0,1.3986073E1,5.11743E0,1.7653122E1,-4.4563034E-1,-1.0366298E1,-9.863666E-1,-1.0184252E1,-1.8039515E1,-2.9050496E0,4.5596933E0,-1.7903715E0,-1.23942175E1,1.2557211E1,4.1168053E1,1.0009971E0,8.985436E0,1.6582678E1,3.4522877E1,-1.0036285E1,1.2366667E1,-3.5871983E0,-1.1803576E1,5.724353E-1,-1.4810386E1,-1.6269861E1,-6.126852E0,-3.2303177E1,-1.7322548E1,-1.2983975E0,-9.829259E0,6.552768E0,-1.0599146E1,-1.8758024E1,-7.646657E-1,-1.9163635E1,-1.0349436E1,2.1803267E1,9.6937E0,1.3431883E1,1.8493378E0,7.211658E0,-1.9845691E0,1.5281885E1,5.5791383E0,6.8747964E0,1.8360075E1,5.6781788E1,2.216219E1,-2.7428654E1,-1.2612714E0,1.8299204E1,-1.2972015E1,6.099619E0,-1.7467556E0,-4.155837E0,-2.5774767E0,8.94137E-1,-2.7025986E0,1.8596398E0,-5.6647577E0,-5.3055234E0,4.8305755E0,-6.3320005E-1,-5.887802E0,-2.0319552E0,-1.0253658E1,-4.879861E0,-6.786299E0,1.0382099E0,-1.4154692E0,-2.4211633E0,-7.2605596E0,3.1985672E0,-4.957081E-1,-5.2269397E0,-3.366338E-1,-6.3894463E0,-9.0860826E-1,1.443349E-1,-3.30035E0,-6.691337E0,-1.4280187E0,-3.8690891E0,-1.8809555E0,1.0205986E1,2.3899758E0,-2.1303449E0,3.35426E0,3.954161E0,-8.591517E-1,-3.7868416E0,8.703699E-1,5.5036373E0,1.112918E0,1.9152737E0,-3.8314936E0,1.3316651E1,1.1785982E0,1.7451408E0,5.85602E0,4.5288506E0,1.8031641E1,1.1961883E1,2.5524523E0,-2.8487442E0,-1.0886759E1,-1.4859358E0,5.285518E0,-3.2146397E-1,6.9693565E0,-6.3241963E0,-9.726754E-1],"categories":[],"categories_nodes":[],"categories_segments":[],"categories_sizes":[],"default_left":[0,0,0,0,0,0,0,0,0,0,0,0,0,0,0,0,0,0,0,0,0,0,0,0,0,0,0,0,0,0,0,0,0,0,0,0,0,0,0,0,0,0,0,0,0,0,0,0,0,0,0,0,0,0,0,0,0,0,0,0,0,0,0,0,0,0,0,0,0,0,0,0,0,0,0,0,0,0,0,0,0,0,0,0,0,0,0,0,0,0,0,0,0,0,0,0,0,0,0,0,0,0,0,0,0,0,0,0,0,0,0,0,0,0,0,0,0,0,0,0,0,0,0],"id":3,"left_children":[1,3,5,7,9,11,13,15,17,19,21,23,25,27,29,31,33,35,37,39,41,43,45,47,49,51,53,55,57,59,61,63,65,67,69,71,73,75,77,79,81,83,85,87,89,91,93,95,97,-1,-1,99,101,103,105,107,109,111,113,115,117,119,121,-1,-1,-1,-1,-1,-1,-1,-1,-1,-1,-1,-1,-1,-1,-1,-1,-1,-1,-1,-1,-1,-1,-1,-1,-1,-1,-1,-1,-1,-1,-1,-1,-1,-1,-1,-1,-1,-1,-1,-1,-1,-1,-1,-1,-1,-1,-1,-1,-1,-1,-1,-1,-1,-1,-1,-1,-1,-1,-1,-1],"loss_changes":[2.3014652E5,5.0636758E4,2.6927484E4,1.2643945E4,1.2432348E4,1.1593797E4,1.20855625E4,1.2456375E4,6.864375E3,1.4834185E4,6.782588E3,6.823664E3,1.0865998E4,7.8787188E3,5.1621265E3,4.9463125E3,4.2536133E3,5.0608965E3,2.0379688E3,7.8524663E3,1.2970277E4,1.8304614E3,1.7810703E3,4.580834E3,8.596553E2,6.170369E3,7.464289E3,7.5003906E3,6.170248E3,3.6282434E3,2.943186E3,4.9838994E3,2.6586055E3,4.1335737E3,1.8280952E3,4.087246E3,6.8438945E3,2.9524707E2,9.9771094E2,9.374635E3,3.1665605E3,1.2762219E4,3.2140063E3,1.7522144E2,1.2932902E3,1.3414795E3,1.0831377E3,6.82859E3,3.5761406E3,0E0,0E0,6.5328037E3,1.1731291E4,4.2925547E3,3.4796377E3,7.5621147E3,5.3134766E3,3.3958594E2,4.2553877E3,9.265615E2,1.2721805E3,1.457936E3,2.4723181E2,0E0,0E0,0E0,0E0,0E0,0E0,0E0,0E0,0E0,0E0,0E0,0E0,0E0,0E0,0E0,0E0,0E0,0E0,0E0,0E0,0E0,0E0,0E0,0E0,0E0,0E0,0E0,0E0,0E0,0E0,0E0,0E0,0E0,0E0,0E0,0E0,0E0,0E0,0E0,0E0,0E0,0E0,0E0,0E0,0E0,0E0,0E0,0E0,0E0,0E0,0E0,0E0,0E0,0E0,0E0,0E0,0E0,0E0,0E0,0E0],"parents":[2147483647,0,0,1,1,2,2,3,3,4,4,5,5,6,6,7,7,8,8,9,9,10,10,11,11,12,12,13,13,14,14,15,15,16,16,17,17,18,18,19,19,20,20,21,21,22,22,23,23,24,24,25,25,26,26,27,27,28,28,29,29,30,30,31,31,32,32,33,33,34,34,35,35,36,36,37,37,38,38,39,39,40,40,41,41,42,42,43,43,44,44,45,45,46,46,47,47,48,48,51,51,52,52,53,53,54,54,55,55,56,56,57,57,58,58,59,59,60,60,61,61,62,62],"right_children":[2,4,6,8,10,12,14,16,18,20,22,24,26,28,30,32,34,36,38,40,42,44,46,48,50,52,54,56,58,60,62,64,66,68,70,72,74,76,78,80,82,84,86,88,90,92,94,96,98,-1,-1,100,102,104,106,108,110,112,114,116,118,120,122,-1,-1,-1,-1,-1,-1,-1,-1,-1,-1,-1,-1,-1,-1,-1,-1,-1,-1,-1,-1,-1,-1,-1,-1,-1,-1,-1,-1,-1,-1,-1,-1,-1,-1,-1,-1,-1,-1,-1,-1,-1,-1,-1,-1,-1,-1,-1,-1,-1,-1,-1,-1,-1,-1,-1,-1,-1,-1,-1,-1],"split_conditions":[1.08E2,6.9E1,1.47E2,2.0545246E1,2.6123667E1,1.3896187E1,1.16E1,1.6086092E2,2.094242E1,1.5843187E2,1.6343367E1,3.2611005E2,1.3839871E2,2.05E2,1.63E2,1.23340845E1,1.4200001E1,7.085966E1,2.7E1,6.6000004E0,3.5010614E2,2.6513E1,1.1177225E2,1.13E2,4.8000007E0,4.358564E1,1.1631751E1,3.7519215E1,2.12E2,1.6096334E1,2.1479666E1,5.5650244E0,5.9E1,2.9007002E1,1.8057E1,6.8E1,3.443855E2,2.5233406E1,1.68E1,5.2431347E1,2.774103E1,2.1599998E1,1.4650749E1,1.1283782E2,1.1800001E1,2.9957003E1,1.6000001E0,1.8371584E1,3.9984171E0,1.3431883E1,1.8493378E0,2.2104116E1,1.3019501E1,2.4766848E1,3.5334406E2,4.0962877E0,3.2734165E0,2.06E2,1.457889E1,6.1609688E1,2.5759504E1,6.982E0,7.152834E0,6.099619E0,-1.7467556E0,-4.155837E0,-2.5774767E0,8.94137E-1,-2.7025986E0,1.8596398E0,-5.6647577E0,-5.3055234E0,4.8305755E0,-6.3320005E-1,-5.887802E0,-2.0319552E0,-1.0253658E1,-4.879861E0,-6.786299E0,1.0382099E0,-1.4154692E0,-2.4211633E0,-7.2605596E0,3.1985672E0,-4.957081E-1,-5.2269397E0,-3.366338E-1,-6.3894463E0,-9.0860826E-1,1.443349E-1,-3.30035E0,-6.691337E0,-1.4280187E0,-3.8690891E0,-1.8809555E0,1.0205986E1,2.3899758E0,-2.1303449E0,3.35426E0,3.954161E0,-8.591517E-1,-3.7868416E0,8.703699E-1,5.5036373E0,1.112918E0,1.9152737E0,-3.8314936E0,1.3316651E1,1.1785982E0,1.7451408E0,5.85602E0,4.5288506E0,1.8031641E1,1.1961883E1,2.5524523E0,-2.8487442E0,-1.0886759E1,-1.4859358E0,5.285518E0,-3.2146397E-1,6.9693565E0,-6.3241963E0,-9.726754E-1],"split_indices":[4,4,4,2,0,2,1,3,0,3,2,3,3,4,4,0,1,3,4,1,3,0,3,4,1,3,0,3,4,0,2,3,4,0,0,4,3,2,1,3,2,2,0,3,1,0,1,0,0,0,0,2,0,2,3,3,0,4,2,3,2,0,0,0,0,0,0,0,0,0,0,0,0,0,0,0,0,0,0,0,0,0,0,0,0,0,0,0,0,0,0,0,0,0,0,0,0,0,0,0,0,0,0,0,0,0,0,0,0,0,0,0,0,0,0,0,0,0,0,0,0,0,0],"split_type":[0,0,0,0,0,0,0,0,0,0,0,0,0,0,0,0,0,0,0,0,0,0,0,0,0,0,0,0,0,0,0,0,0,0,0,0,0,0,0,0,0,0,0,0,0,0,0,0,0,0,0,0,0,0,0,0,0,0,0,0,0,0,0,0,0,0,0,0,0,0,0,0,0,0,0,0,0,0,0,0,0,0,0,0,0,0,0,0,0,0,0,0,0,0,0,0,0,0,0,0,0,0,0,0,0,0,0,0,0,0,0,0,0,0,0,0,0,0,0,0,0,0,0],"sum_hessian":[3.924E3,2.547E3,1.377E3,1.168E3,1.379E3,8.7E2,5.07E2,7.07E2,4.61E2,1.132E3,2.47E2,1.88E2,6.82E2,4.67E2,4E1,5.11E2,1.96E2,2.08E2,2.53E2,7.06E2,4.26E2,1.05E2,1.42E2,1.8E2,8E0,3.31E2,3.51E2,4.41E2,2.6E1,2.3E1,1.7E1,9E1,4.21E2,1.77E2,1.9E1,8.2E1,1.26E2,1E1,2.43E2,5.74E2,1.32E2,3.77E2,4.9E1,5E0,1E2,3.1E1,1.11E2,4.1E1,1.39E2,7E0,1E0,1.07E2,2.24E2,1.22E2,2.29E2,6.9E1,3.72E2,8E0,1.8E1,7E0,1.6E1,1.4E1,3E0,7E0,8.3E1,2.55E2,1.66E2,1.42E2,3.5E1,3E0,1.6E1,7.9E1,3E0,9.8E1,2.8E1,1E0,9E0,2.06E2,3.7E1,2.4E2,3.34E2,1.19E2,1.3E1,2.51E2,1.26E2,2.8E1,2.1E1,4E0,1E0,9E1,1E1,2.5E1,6E0,6.7E1,4.4E1,2.1E1,2E1,1.1E1,1.28E2,6.7E1,4E1,7E1,1.54E2,9.6E1,2.6E1,2.2E2,9E0,4E0,6.5E1,3.2E1,3.4E2,1E0,7E0,7E0,1.1E1,3E0,4E0,1.4E1,2E0,3E0,1.1E1,1E0,2E0],"tree_param":{"num_deleted":"0","num_feature":"5","num_nodes":"123","size_leaf_vector":"1"}},{"base_weights":[1.95537E-2,-5.8912787E0,5.169688E0,-9.508226E0,-4.004246E0,1.7924445E0,1.031671E1,-8.32247E0,-1.6387978E1,-3.5802922E0,-1.8475473E1,2.313835E0,-1.6641504E1,8.895485E0,1.9455334E1,-9.735838E0,-3.7877643E0,8.540385E0,-1.7202686E1,-4.748781E0,1.1644977E0,-2.0614962E1,-1.943454E0,6.4949045E0,-1.9672088E-1,-1.8762554E1,-1.6269532E-1,7.649028E0,1.5465222E1,3.5262943E1,1.6221373E1,-4.1071124E0,-1.06012E1,-5.165677E-1,-1.291268E1,-2.2403517E1,-1.4739796E1,-1.2754743E-1,-6.6039815E0,5.276207E0,-1.0448264E1,-2.0955267E1,-1.6119164E0,-2.9623566E0,3.1982347E-1,4.0706684E1,5.9566607E0,-3.0278952E0,2.4575546E0,-9.896638E0,-2.2513151E1,-1.5451325E0,1.4637848E0,1.3585701E1,5.4256043E0,1.086999E1,2.2021868E1,9.56082E0,4.1923492E1,9.9838823E-1,2.0858974E1,-1.8191683E0,5.1194515E0,-3.5969083E0,-2.1343997E0,1.5333657E0,-1.6747446E0,-4.2999296E0,1.9628022E0,-6.9028835E0,-9.967581E-1,-5.0791054E0,-3.2661135E0,-1.112371E0,7.658303E-1,-4.581841E-1,-2.3126547E0,-5.280024E-1,2.3576858E0,-4.208724E0,-1.3029885E0,-3.406425E0,-6.611148E0,-1.3166943E0,-3.0714646E-1,-1.3241353E0,1.4688718E1,1.4253535E0,4.5167937E0,-1.759389E-1,-2.0132058E0,2.3725169E0,3.381167E-2,-7.7193418E0,-1.0556537E0,-9.672293E0,-5.237444E0,-6.010675E-1,4.616969E0,2.2710261E0,3.2564723E-1,6.04764E0,1.435408E0,3.6099207E0,8.238732E0,-3.7723286E0,5.471472E0,2.8811479E0,1.3952936E1,1.0386747E1,-1.7329054E0,7.5406423E0,1.9899176E0],"categories":[],"categories_nodes":[],"categories_segments":[],"categories_sizes":[],"default_left":[0,0,0,0,0,0,0,0,0,0,0,0,0,0,0,0,0,0,0,0,0,0,0,0,0,0,0,0,0,0,0,0,0,0,0,0,0,0,0,0,0,0,0,0,0,0,0,0,0,0,0,0,0,0,0,0,0,0,0,0,0,0,0,0,0,0,0,0,0,0,0,0,0,0,0,0,0,0,0,0,0,0,0,0,0,0,0,0,0,0,0,0,0,0,0,0,0,0,0,0,0,0,0,0,0,0,0,0,0,0,0,0,0],"id":4,"left_children":[1,3,5,7,9,11,13,15,17,19,21,23,25,27,29,31,33,-1,35,37,39,41,43,45,47,49,51,53,55,57,59,61,63,65,67,69,71,73,75,77,79,81,-1,83,-1,85,87,89,91,93,95,-1,-1,97,99,101,103,105,107,109,111,-1,-1,-1,-1,-1,-1,-1,-1,-1,-1,-1,-1,-1,-1,-1,-1,-1,-1,-1,-1,-1,-1,-1,-1,-1,-1,-1,-1,-1,-1,-1,-1,-1,-1,-1,-1,-1,-1,-1,-1,-1,-1,-1,-1,-1,-1,-1,-1,-1,-1,-1,-1],"loss_changes":[1.1951367E5,1.2438566E4,3.645052E4,4.97034E3,7.314414E3,1.2225614E4,1.0619992E4,3.398461E3,3.8152793E3,6.492286E3,1.1625176E3,1.295434E4,1.2202803E3,5.7858945E3,5.1024375E3,1.9437812E3,3.8439006E3,0E0,8.2259375E2,8.0495E3,1.1132732E4,4.301367E1,1.8490204E1,8.283328E3,5.808803E3,8.0802246E2,1.5087097E2,7.9517305E3,3.1953633E3,2.6806016E3,6.6154004E3,2.423497E3,1.6235859E3,2.7654822E3,1.0333584E3,2.3580078E2,3.5581738E2,2.6005151E3,3.7463105E3,3.1395444E3,1.2725742E3,5.098828E1,0E0,6.5687103E0,0E0,2.82362E3,4.941332E3,3.3588044E3,5.0988813E3,1.0203369E3,4.6979102E2,0E0,0E0,4.671635E3,4.1242227E3,3.8037812E3,2.1694004E3,1.1897196E3,1.6285137E3,5.4392656E3,4.213547E3,0E0,0E0,0E0,0E0,0E0,0E0,0E0,0E0,0E0,0E0,0E0,0E0,0E0,0E0,0E0,0E0,0E0,0E0,0E0,0E0,0E0,0E0,0E0,0E0,0E0,0E0,0E0,0E0,0E0,0E0,0E0,0E0,0E0,0E0,0E0,0E0,0E0,0E0,0E0,0E0,0E0,0E0,0E0,0E0,0E0,0E0,0E0,0E0,0E0,0E0,0E0,0E0],"parents":[2147483647,0,0,1,1,2,2,3,3,4,4,5,5,6,6,7,7,8,8,9,9,10,10,11,11,12,12,13,13,14,14,15,15,16,16,18,18,19,19,20,20,21,21,22,22,23,23,24,24,25,25,26,26,27,27,28,28,29,29,30,30,31,31,32,32,33,33,34,34,35,35,36,36,37,37,38,38,39,39,40,40,41,41,43,43,45,45,46,46,47,47,48,48,49,49,50,50,53,53,54,54,55,55,56,56,57,57,58,58,59,59,60,60],"right_children":[2,4,6,8,10,12,14,16,18,20,22,24,26,28,30,32,34,-1,36,38,40,42,44,46,48,50,52,54,56,58,60,62,64,66,68,70,72,74,76,78,80,82,-1,84,-1,86,88,90,92,94,96,-1,-1,98,100,102,104,106,108,110,112,-1,-1,-1,-1,-1,-1,-1,-1,-1,-1,-1,-1,-1,-1,-1,-1,-1,-1,-1,-1,-1,-1,-1,-1,-1,-1,-1,-1,-1,-1,-1,-1,-1,-1,-1,-1,-1,-1,-1,-1,-1,-1,-1,-1,-1,-1,-1,-1,-1,-1,-1,-1],"split_conditions":[8.5E1,5.7E1,1.3E2,1.16E1,3.1550869E1,2.8100002E1,3.1705103E2,2.0633221E2,1.0041354E1,2.5459645E2,2.81505E1,1.5876775E1,2.5475752E1,1.71E2,1.404E1,2.2822111E1,2.6518099E1,8.540385E0,4.1E1,1.5021105E1,3.413884E2,3.5484863E2,3.7490158E1,9.196609E0,1.4356339E2,2.094242E1,2.6823668E1,1.4372974E1,1.3296497E2,1.36E2,3.2734165E0,2.0780594E1,1.5E0,3E-1,5.6E1,2.8046585E1,1.425794E2,8.1995346E1,2.6476425E1,6.4E1,1.7302584E1,3.2217484E1,-1.6119164E0,1.37859E2,3.1982347E-1,7.4900837E0,2.9713254E2,7.283606E1,1.0509084E1,1.3313E1,9.3E1,-1.5451325E0,1.4637848E0,4.552584E0,1.2E0,3.5076862E1,1.48257065E1,3.9984171E0,1.0883676E1,3.2611005E2,8E-1,-1.8191683E0,5.1194515E0,-3.5969083E0,-2.1343997E0,1.5333657E0,-1.6747446E0,-4.2999296E0,1.9628022E0,-6.9028835E0,-9.967581E-1,-5.0791054E0,-3.2661135E0,-1.112371E0,7.658303E-1,-4.581841E-1,-2.3126547E0,-5.280024E-1,2.3576858E0,-4.208724E0,-1.3029885E0,-3.406425E0,-6.611148E0,-1.3166943E0,-3.0714646E-1,-1.3241353E0,1.4688718E1,1.4253535E0,4.5167937E0,-1.759389E-1,-2.0132058E0,2.3725169E0,3.381167E-2,-7.7193418E0,-1.0556537E0,-9.672293E0,-5.237444E0,-6.010675E-1,4.616969E0,2.2710261E0,3.2564723E-1,6.04764E0,1.435408E0,3.6099207E0,8.238732E0,-3.7723286E0,5.471472E0,2.8811479E0,1.3952936E1,1.0386747E1,-1.7329054E0,7.5406423E0,1.9899176E0],"split_indices":[4,4,4,1,2,1,3,3,2,3,0,2,0,4,2,3,2,0,4,2,3,3,2,3,3,0,0,2,3,4,0,3,1,1,4,0,3,3,3,4,0,2,0,3,0,0,3,3,0,0,4,0,0,0,1,3,2,0,2,3,1,0,0,0,0,0,0,0,0,0,0,0,0,0,0,0,0,0,0,0,0,0,0,0,0,0,0,0,0,0,0,0,0,0,0,0,0,0,0,0,0,0,0,0,0,0,0,0,0,0,0,0,0],"split_type":[0,0,0,0,0,0,0,0,0,0,0,0,0,0,0,0,0,0,0,0,0,0,0,0,0,0,0,0,0,0,0,0,0,0,0,0,0,0,0,0,0,0,0,0,0,0,0,0,0,0,0,0,0,0,0,0,0,0,0,0,0,0,0,0,0,0,0,0,0,0,0,0,0,0,0,0,0,0,0,0,0,0,0,0,0,0,0,0,0,0,0,0,0,0,0,0,0,0,0,0,0,0,0,0,0,0,0,0,0,0,0,0,0],"sum_hessian":[3.924E3,1.827E3,2.097E3,6.25E2,1.202E3,1.267E3,8.3E2,5.35E2,9E1,1.169E3,3.3E1,1.233E3,3.4E1,7.2E2,1.1E2,4.07E2,1.28E2,1E0,8.9E1,9.38E2,2.31E2,2.9E1,4E0,4.62E2,7.71E2,3E1,4E0,6.07E2,1.13E2,1.7E1,9.3E1,5.5E1,3.52E2,9.5E1,3.3E1,2.6E1,6.3E1,2.69E2,6.69E2,1.71E2,6E1,2.8E1,1E0,3E0,1E0,6E0,4.56E2,3.73E2,3.98E2,1E1,2E1,2E0,2E0,1.64E2,4.43E2,6.8E1,4.5E1,4E0,1.3E1,2.2E1,7.1E1,5.1E1,4E0,2.5E2,1.02E2,4.5E1,5E1,3.1E1,2E0,2.5E1,1E0,3.8E1,2.5E1,1.15E2,1.54E2,1.2E2,5.49E2,4.6E1,1.25E2,3.7E1,2.3E1,4E0,2.4E1,1E0,2E0,1E0,5E0,4.04E2,5.2E1,2.25E2,1.48E2,1.19E2,2.79E2,2E0,8E0,5E0,1.5E1,1.7E1,1.47E2,2.96E2,1.47E2,2.6E1,4.2E1,1.7E1,2.8E1,1E0,3E0,2E0,1.1E1,3E0,1.9E1,5.4E1,1.7E1],"tree_param":{"num_deleted":"0","num_feature":"5","num_nodes":"113","size_leaf_vector":"1"}},{"base_weights":[2.0329643E-2,-2.8559418E0,5.3387036E0,-4.9810314E0,-2.764229E-1,4.401072E0,1.2252628E1,-1.1545754E1,-4.298348E0,8.984234E-1,-4.212223E0,9.230895E0,3.0505946E0,2.8753214E1,1.0994452E1,-8.905607E0,-1.5385485E1,-5.3748097E0,-1.4865725E-1,2.0464573E0,-3.96237E0,-1.3280349E0,-9.621316E0,7.022207E0,1.7536392E1,3.0067718E-2,5.69573E0,1.08959205E-1,3.1555897E1,-2.2167881E1,1.2026567E1,7.6580977E0,-9.878146E0,-1.829416E1,-1.2238971E1,-2.7217324E0,-7.0083466E0,5.958173E0,-3.7162106E0,2.340034E-1,5.708459E0,-9.074027E-3,-5.90426E0,-1.4527052E1,8.520546E-3,-1.8125517E1,-7.452024E0,1.0417141E1,-3.5587866E0,8.576975E0,2.5869509E1,1.5921706E0,-9.645377E0,9.115671E0,3.042411E0,1.900724E0,1.009625E1,-3.1826885E0,-1.0129134E1,1.3606303E1,-3.1407124E-1,4.5716496E0,-7.4260026E-1,-3.5408072E0,-1.5649557E0,-5.5855427E0,-1.5765983E0,-5.1470613E0,-2.7019339E0,-6.6738254E-1,-5.8265142E0,-1.7402419E0,-2.8309093E0,2.2611957E0,-1.4475986E0,1.24993004E-1,-2.2696714E0,1.5806139E0,-7.282457E-1,2.2245584E0,-3.6842732E0,-8.5007936E-1,3.6180508E0,-4.1468706E0,-1.3411113E0,5.3899384E-1,-5.529679E0,1.0643657E0,-1.767169E0,-5.854306E0,8.2270664E-1,1.0762058E-1,-3.032553E0,5.2635984E0,1.5676773E0,-2.4470456E0,4.296259E0,-2.8911896E0,4.5321956E0,9.085276E0,-1.4854752E-1,-1.4330174E-1,3.037888E0,6.9370437E0,-3.511054E0,1.1477471E1,2.4373336E0,1.7303983E0,-1.2620459E0,-2.1333985E0,7.011887E-1,3.2675605E0,6.8895755E0,-2.1491103E0,4.373741E0],"categories":[],"categories_nodes":[],"categories_segments":[],"categories_sizes":[],"default_left":[0,0,0,0,0,0,0,0,0,0,0,0,0,0,0,0,0,0,0,0,0,0,0,0,0,0,0,0,0,0,0,0,0,0,0,0,0,0,0,0,0,0,0,0,0,0,0,0,0,0,0,0,0,0,0,0,0,0,0,0,0,0,0,0,0,0,0,0,0,0,0,0,0,0,0,0,0,0,0,0,0,0,0,0,0,0,0,0,0,0,0,0,0,0,0,0,0,0,0,0,0,0,0,0,0,0,0,0,0,0,0,0,0,0,0],"id":5,"left_children":[1,3,5,7,9,11,13,15,17,19,21,23,25,27,29,31,33,35,37,39,41,43,45,47,49,51,53,-1,55,57,59,61,63,65,67,69,71,73,75,77,79,81,83,85,87,89,91,93,95,97,99,101,103,105,107,-1,-1,109,-1,111,113,-1,-1,-1,-1,-1,-1,-1,-1,-1,-1,-1,-1,-1,-1,-1,-1,-1,-1,-1,-1,-1,-1,-1,-1,-1,-1,-1,-1,-1,-1,-1,-1,-1,-1,-1,-1,-1,-1,-1,-1,-1,-1,-1,-1,-1,-1,-1,-1,-1,-1,-1,-1,-1,-1],"loss_changes":[6.0056312E4,1.3966016E4,8.879258E3,6.211203E3,5.330587E3,7.8967617E3,3.0886172E3,1.1909902E3,5.658867E3,4.9634644E3,4.1214463E3,4.738084E3,7.598038E3,8.6379004E2,5.5376133E3,1.364355E3,2.520127E2,4.340832E3,5.7301895E3,4.770818E3,1.3050137E3,3.0696956E3,1.5621533E3,7.6165654E3,3.884412E3,6.741105E3,4.572883E3,0E0,3.159619E2,9.93292E2,2.9285156E3,4.2181534E2,6.202656E2,7.870117E0,2.906001E2,3.1530498E3,1.7689219E3,1.6881553E3,2.6440203E3,6.4715044E3,7.3984023E3,1.9772959E3,1.2326143E3,1.0530759E3,3.3406619E3,5.751924E2,1.559813E3,5.829332E3,4.391795E3,3.4760667E3,3.2740078E3,6.787926E3,4.452078E3,6.073174E3,5.69492E3,0E0,0E0,8.167936E1,0E0,3.1286328E3,1.9406738E3,0E0,0E0,0E0,0E0,0E0,0E0,0E0,0E0,0E0,0E0,0E0,0E0,0E0,0E0,0E0,0E0,0E0,0E0,0E0,0E0,0E0,0E0,0E0,0E0,0E0,0E0,0E0,0E0,0E0,0E0,0E0,0E0,0E0,0E0,0E0,0E0,0E0,0E0,0E0,0E0,0E0,0E0,0E0,0E0,0E0,0E0,0E0,0E0,0E0,0E0,0E0,0E0,0E0,0E0],"parents":[2147483647,0,0,1,1,2,2,3,3,4,4,5,5,6,6,7,7,8,8,9,9,10,10,11,11,12,12,13,13,14,14,15,15,16,16,17,17,18,18,19,19,20,20,21,21,22,22,23,23,24,24,25,25,26,26,28,28,29,29,30,30,31,31,32,32,33,33,34,34,35,35,36,36,37,37,38,38,39,39,40,40,41,41,42,42,43,43,44,44,45,45,46,46,47,47,48,48,49,49,50,50,51,51,52,52,53,53,54,54,57,57,59,59,60,60],"right_children":[2,4,6,8,10,12,14,16,18,20,22,24,26,28,30,32,34,36,38,40,42,44,46,48,50,52,54,-1,56,58,60,62,64,66,68,70,72,74,76,78,80,82,84,86,88,90,92,94,96,98,100,102,104,106,108,-1,-1,110,-1,112,114,-1,-1,-1,-1,-1,-1,-1,-1,-1,-1,-1,-1,-1,-1,-1,-1,-1,-1,-1,-1,-1,-1,-1,-1,-1,-1,-1,-1,-1,-1,-1,-1,-1,-1,-1,-1,-1,-1,-1,-1,-1,-1,-1,-1,-1,-1,-1,-1,-1,-1,-1,-1,-1,-1],"split_conditions":[1.08E2,7.4E1,1.68E2,3.9E1,2.1434364E1,1.3896187E1,1.0041354E1,2.7E0,2.4421712E2,2.6123667E1,1.8371584E1,1.3202726E1,1.394324E2,3.457E0,1.0739832E1,1.1841756E1,3.2E1,1.6516901E1,3.1229312E2,1.5843187E2,1.4799459E1,6.4639726E0,2.0531748E1,1.257426E1,1.34E2,1.56E2,1.2681999E1,1.08959205E-1,5.339794E1,8.836167E0,2.3795427E1,3.7E1,7E-1,2.8554918E1,6.470697E1,2.16E1,2.6002832E1,2.884047E1,2E-1,5.1847176E1,3.52127E2,1.3830749E1,8.6472595E1,8.7E1,2E0,2.884047E1,2.1982E1,1.2135918E1,2.5232002E1,5.482861E1,1.4000001E0,1.44E2,1.0426589E1,1.425794E2,2.2288042E1,1.900724E0,1.009625E1,5.221584E0,-1.0129134E1,2.2002612E2,3.3531793E2,4.5716496E0,-7.4260026E-1,-3.5408072E0,-1.5649557E0,-5.5855427E0,-1.5765983E0,-5.1470613E0,-2.7019339E0,-6.6738254E-1,-5.8265142E0,-1.7402419E0,-2.8309093E0,2.2611957E0,-1.4475986E0,1.24993004E-1,-2.2696714E0,1.5806139E0,-7.282457E-1,2.2245584E0,-3.6842732E0,-8.5007936E-1,3.6180508E0,-4.1468706E0,-1.3411113E0,5.3899384E-1,-5.529679E0,1.0643657E0,-1.767169E0,-5.854306E0,8.2270664E-1,1.0762058E-1,-3.032553E0,5.2635984E0,1.5676773E0,-2.4470456E0,4.296259E0,-2.8911896E0,4.5321956E0,9.085276E0,-1.4854752E-1,-1.4330174E-1,3.037888E0,6.9370437E0,-3.511054E0,1.1477471E1,2.4373336E0,1.7303983E0,-1.2620459E0,-2.1333985E0,7.011887E-1,3.2675605E0,6.8895755E0,-2.1491103E0,4.373741E0],"split_indices":[4,4,4,4,2,2,2,1,3,0,0,2,3,0,2,2,4,2,3,3,2,3,0,2,4,4,0,0,3,0,2,4,1,0,3,1,0,2,1,3,3,2,3,4,1,2,0,0,0,3,1,4,3,3,2,0,0,0,0,3,3,0,0,0,0,0,0,0,0,0,0,0,0,0,0,0,0,0,0,0,0,0,0,0,0,0,0,0,0,0,0,0,0,0,0,0,0,0,0,0,0,0,0,0,0,0,0,0,0,0,0,0,0,0,0],"split_type":[0,0,0,0,0,0,0,0,0,0,0,0,0,0,0,0,0,0,0,0,0,0,0,0,0,0,0,0,0,0,0,0,0,0,0,0,0,0,0,0,0,0,0,0,0,0,0,0,0,0,0,0,0,0,0,0,0,0,0,0,0,0,0,0,0,0,0,0,0,0,0,0,0,0,0,0,0,0,0,0,0,0,0,0,0,0,0,0,0,0,0,0,0,0,0,0,0,0,0,0,0,0,0,0,0,0,0,0,0,0,0,0,0,0,0],"sum_hessian":[3.924E3,2.547E3,1.377E3,1.396E3,1.151E3,1.214E3,1.63E2,1.3E2,1.266E3,8.87E2,2.64E2,2.64E2,9.5E2,1E1,1.53E2,7.9E1,5.1E1,1.005E3,2.61E2,7.18E2,1.69E2,1.73E2,9.1E1,2.1E2,5.4E1,4.44E2,5.06E2,1E0,9E0,4E0,1.49E2,4E0,7.5E1,2.4E1,2.7E1,3.84E2,6.21E2,9.6E1,1.65E2,4.81E2,2.37E2,5.6E1,1.13E2,1.5E1,1.58E2,1.7E1,7.4E1,1.59E2,5.1E1,2.7E1,2.7E1,3.83E2,6.1E1,2.2E2,2.86E2,1E0,8E0,2E0,2E0,1.32E2,1.7E1,2E0,2E0,5.2E1,2.3E1,2.3E1,1E0,9E0,1.8E1,3.74E2,1E1,4.17E2,2.04E2,8.4E1,1.2E1,8E1,8.5E1,1.66E2,3.15E2,2.17E2,2E1,4.6E1,1E1,1.6E1,9.7E1,3E0,1.2E1,9.9E1,5.9E1,1.6E1,1E0,1.9E1,5.5E1,6.6E1,9.3E1,4.1E1,1E1,7E0,2E1,2.3E1,4E0,3.09E2,7.4E1,3E0,5.8E1,6E0,2.14E2,2.08E2,7.8E1,1E0,1E0,1.04E2,2.8E1,1.2E1,5E0],"tree_param":{"num_deleted":"0","num_feature":"5","num_nodes":"115","size_leaf_vector":"1"}},{"base_weights":[1.607249E-2,-2.9833086E0,2.6294434E0,-2.392564E0,-8.549639E0,8.6912537E-1,5.3123E0,4.6702564E-1,-3.344601E0,8.187572E0,-9.400448E0,1.2263848E0,-1.1751651E1,4.2112827E0,1.0202954E1,-5.287642E0,2.4396074E0,-5.177937E0,-1.4211856E0,7.7094817E0,-4.850824E0,-1.8852364E1,-8.13208E0,3.7783651E0,-3.0573106E-1,-1.8911518E1,-7.682065E0,-1.0309189E1,4.6669173E0,9.328198E0,3.4055126E1,-2.1013172E0,-1.3675425E1,4.6514177E0,-3.6389537E0,-2.8465114E0,-7.2837753E0,2.6038952E0,-3.2754989E0,-1.0551685E1,4.367266E0,-2.0412713E-1,-1.9824114E1,-2.3817842E0,-1.067705E1,2.9295364E1,3.3792462E0,3.26122E-1,-5.85257E0,-2.3924837E1,-1.1912743E1,-4.4684615E0,-2.2632967E1,8.759943E0,-1.5311334E1,5.3944774E0,-4.12678E0,1.165726E1,-2.2135314E-1,2.7064316E0,1.4321132E1,2.161304E-1,-2.9383993E0,5.1088543E0,-5.780819E0,9.35919E0,1.1368653E0,8.032128E-1,-2.7096725E0,-1.7641624E-3,-1.6155865E0,-4.066901E0,-1.936172E0,-3.8575895E0,1.1676866E0,-4.7949106E-1,-1.7299972E0,-3.897883E0,-4.8418695E-1,1.5915676E0,3.7370226E-1,-6.382961E0,-2.8264525E0,3.9224246E-1,-4.3723755E0,-2.8151731E0,-4.7700586E0,-1.3626069E0,1.0707581E1,1.1248759E0,-4.0649753E0,3.831568E-1,-1.2840313E0,-1.9110543E0,5.178161E0,-7.8166013E0,-1.9908509E0,-3.9789875E0,-5.714173E-1,8.8618135E-1,-3.4453914E0,-7.942181E0,-1.6665093E0,-9.809708E-1,5.360942E0,-5.3086433E0,-1.8150884E0,1.5459279E0,8.650497E0,-1.800145E0,3.2778213E0,4.5667267E0,1.7196076E-1,1.3316061E0,-7.3227873E0],"categories":[],"categories_nodes":[],"categories_segments":[],"categories_sizes":[],"default_left":[0,0,0,0,0,0,0,0,0,0,0,0,0,0,0,0,0,0,0,0,0,0,0,0,0,0,0,0,0,0,0,0,0,0,0,0,0,0,0,0,0,0,0,0,0,0,0,0,0,0,0,0,0,0,0,0,0,0,0,0,0,0,0,0,0,0,0,0,0,0,0,0,0,0,0,0,0,0,0,0,0,0,0,0,0,0,0,0,0,0,0,0,0,0,0,0,0,0,0,0,0,0,0,0,0,0,0,0,0,0,0,0,0,0,0],"id":6,"left_children":[1,3,5,7,9,11,13,15,17,19,21,23,25,27,29,31,33,35,37,-1,39,41,43,45,47,49,51,53,55,57,59,61,63,65,67,69,71,73,75,77,79,-1,81,83,85,87,89,91,93,95,97,99,101,103,105,107,109,111,113,-1,-1,-1,-1,-1,-1,-1,-1,-1,-1,-1,-1,-1,-1,-1,-1,-1,-1,-1,-1,-1,-1,-1,-1,-1,-1,-1,-1,-1,-1,-1,-1,-1,-1,-1,-1,-1,-1,-1,-1,-1,-1,-1,-1,-1,-1,-1,-1,-1,-1,-1,-1,-1,-1,-1,-1],"loss_changes":[3.0773938E4,5.9905166E3,9.903569E3,4.5044697E3,2.568999E3,5.731685E3,4.431713E3,4.7124424E3,4.3687383E3,2.1794604E3,1.8487715E3,4.8260083E3,8.7453955E2,4.54701E3,2.8537773E3,2.8042407E3,4.1713154E3,3.0968652E3,4.5390317E3,0E0,3.6138837E2,3.220244E2,2.155084E3,4.6163423E3,2.7076045E3,1.3603467E2,1.0519761E3,2.1372441E3,4.2449043E3,3.2943213E3,1.281895E3,1.7003364E3,5.3092617E3,5.075314E3,2.851642E3,2.185122E3,1.6459102E3,3.8750386E3,1.7288975E3,6.630716E1,2.1751976E0,0E0,7.1504395E1,2.1332288E3,5.464824E2,1.6772158E3,2.9159907E3,3.0457632E3,1.0550767E3,4.8093506E1,6.935132E1,1.1275388E3,1.1531958E2,6.063838E2,2.682915E2,3.3028965E3,1.5039945E3,4.6937334E3,3.4898474E3,0E0,0E0,0E0,0E0,0E0,0E0,0E0,0E0,0E0,0E0,0E0,0E0,0E0,0E0,0E0,0E0,0E0,0E0,0E0,0E0,0E0,0E0,0E0,0E0,0E0,0E0,0E0,0E0,0E0,0E0,0E0,0E0,0E0,0E0,0E0,0E0,0E0,0E0,0E0,0E0,0E0,0E0,0E0,0E0,0E0,0E0,0E0,0E0,0E0,0E0,0E0,0E0,0E0,0E0,0E0,0E0],"parents":[2147483647,0,0,1,1,2,2,3,3,4,4,5,5,6,6,7,7,8,8,9,9,10,10,11,11,12,12,13,13,14,14,15,15,16,16,17,17,18,18,20,20,21,21,22,22,23,23,24,24,25,25,26,26,27,27,28,28,29,29,30,30,31,31,32,32,33,33,34,34,35,35,36,36,37,37,38,38,39,39,40,40,42,42,43,43,44,44,45,45,46,46,47,47,48,48,49,49,50,50,51,51,52,52,53,53,54,54,55,55,56,56,57,57,58,58],"right_children":[2,4,6,8,10,12,14,16,18,20,22,24,26,28,30,32,34,36,38,-1,40,42,44,46,48,50,52,54,56,58,60,62,64,66,68,70,72,74,76,78,80,-1,82,84,86,88,90,92,94,96,98,100,102,104,106,108,110,112,114,-1,-1,-1,-1,-1,-1,-1,-1,-1,-1,-1,-1,-1,-1,-1,-1,-1,-1,-1,-1,-1,-1,-1,-1,-1,-1,-1,-1,-1,-1,-1,-1,-1,-1,-1,-1,-1,-1,-1,-1,-1,-1,-1,-1,-1,-1,-1,-1,-1,-1,-1,-1,-1,-1,-1,-1],"split_conditions":[8.5E1,1.4200001E1,1.3E2,1.2681999E1,1.1384199E1,2.8100002E1,2.9713254E2,4.442167E0,1.2650615E2,1.1283782E2,9.888249E0,1.5876775E1,1.5072783E1,3.2734165E0,3.5911588E2,7.5E1,2E0,6.1609688E1,1.6676977E1,7.7094817E0,2.3100002E1,3.811166E0,2.2057001E1,9.196609E0,2.7367418E1,3.72E1,6.29E1,1.1928989E1,2.4863466E1,3E-1,5.596334E0,3.3636176E2,1.2620554E1,5.5650244E0,1.9164719E1,1.8E1,6.961805E1,1.5675751E1,2.7182005E1,2.6948668E1,2.3952585E1,-2.0412713E-1,2.6717722E1,2.7943514E1,4.9199997E1,7.4900837E0,1.29E2,2.5509243E1,1.29E2,2.4707E1,2.2490335E1,9.9E1,7.7E1,9.726664E0,3.0984166E0,2.4482647E1,2.3100002E1,1.1882003E1,3.5484863E2,2.7064316E0,1.4321132E1,2.161304E-1,-2.9383993E0,5.1088543E0,-5.780819E0,9.35919E0,1.1368653E0,8.032128E-1,-2.7096725E0,-1.7641624E-3,-1.6155865E0,-4.066901E0,-1.936172E0,-3.8575895E0,1.1676866E0,-4.7949106E-1,-1.7299972E0,-3.897883E0,-4.8418695E-1,1.5915676E0,3.7370226E-1,-6.382961E0,-2.8264525E0,3.9224246E-1,-4.3723755E0,-2.8151731E0,-4.7700586E0,-1.3626069E0,1.0707581E1,1.1248759E0,-4.0649753E0,3.831568E-1,-1.2840313E0,-1.9110543E0,5.178161E0,-7.8166013E0,-1.9908509E0,-3.9789875E0,-5.714173E-1,8.8618135E-1,-3.4453914E0,-7.942181E0,-1.6665093E0,-9.809708E-1,5.360942E0,-5.3086433E0,-1.8150884E0,1.5459279E0,8.650497E0,-1.800145E0,3.2778213E0,4.5667267E0,1.7196076E-1,1.3316061E0,-7.3227873E0],"split_indices":[4,1,4,0,2,1,3,0,3,3,0,2,2,0,3,4,1,3,2,0,1,0,0,3,0,1,1,2,2,1,0,3,2,3,2,2,3,0,0,0,0,0,2,2,1,0,4,2,4,0,0,4,1,2,0,2,1,0,3,0,0,0,0,0,0,0,0,0,0,0,0,0,0,0,0,0,0,0,0,0,0,0,0,0,0,0,0,0,0,0,0,0,0,0,0,0,0,0,0,0,0,0,0,0,0,0,0,0,0,0,0,0,0,0,0],"split_type":[0,0,0,0,0,0,0,0,0,0,0,0,0,0,0,0,0,0,0,0,0,0,0,0,0,0,0,0,0,0,0,0,0,0,0,0,0,0,0,0,0,0,0,0,0,0,0,0,0,0,0,0,0,0,0,0,0,0,0,0,0,0,0,0,0,0,0,0,0,0,0,0,0,0,0,0,0,0,0,0,0,0,0,0,0,0,0,0,0,0,0,0,0,0,0,0,0,0,0,0,0,0,0,0,0,0,0,0,0,0,0,0,0,0,0],"sum_hessian":[3.924E3,1.827E3,2.097E3,1.653E3,1.74E2,1.267E3,8.3E2,4.13E2,1.24E3,8E0,1.66E2,1.233E3,3.4E1,6.79E2,1.51E2,1.05E2,3.08E2,6.34E2,6.06E2,3E0,5E0,1.8E1,1.48E2,4.62E2,7.71E2,1.1E1,2.3E1,2E1,6.59E2,1.47E2,4E0,7.7E1,2.8E1,2.26E2,8.2E1,3.02E2,3.32E2,1.91E2,4.15E2,3E0,2E0,1E0,1.7E1,4.6E1,1.02E2,6E0,4.56E2,6.93E2,7.8E1,5E0,6E0,2E1,3E0,4E0,1.6E1,6.09E2,5E1,1.18E2,2.9E1,2E0,2E0,5.7E1,2E1,4E0,2.4E1,6E0,2.2E2,3.8E1,4.4E1,1.43E2,1.59E2,3.7E1,2.95E2,1.4E1,1.77E2,2.49E2,1.66E2,2E0,1E0,1E0,1E0,1.4E1,3E0,3.6E1,1E1,8.4E1,1.8E1,1E0,5E0,4.47E2,9E0,5.75E2,1.18E2,7.7E1,1E0,4E0,1E0,5E0,1E0,1E1,1E1,2E0,1E0,2E0,2E0,1.2E1,4E0,6.04E2,5E0,4.5E1,5E0,8.9E1,2.9E1,2.5E1,4E0],"tree_param":{"num_deleted":"0","num_feature":"5","num_nodes":"115","size_leaf_vector":"1"}},{"base_weights":[7.158837E-3,-1.3229673E0,3.083841E0,-2.5173816E-1,-3.4189305E0,3.4367478E0,-7.958684E0,-7.635758E-1,3.6014426E0,-2.001583E0,-6.050594E0,3.2861693E0,3.1574263E1,-2.1823666E1,-2.7226658E0,3.5063367E0,-1.1809844E0,1.0139337E1,-1.1728473E0,-1.323036E1,-1.6340946E0,-5.25289E0,-2.2133097E1,1.5014031E1,2.9892433E0,9.3377155E-1,3.6644085E1,2.601121E0,-7.8525825E0,-9.152458E0,8.047337E-1,-6.4618263E0,6.674955E0,2.6110027E0,-1.6233014E0,2.0487175E1,1.0628351E0,-3.2707443E0,9.8997555E0,-2.018665E1,-3.258189E0,-7.130049E-1,-6.2701755E0,-4.721809E0,-1.4716393E1,-3.0017687E1,-1.1481869E1,-3.0754955E0,1.6523823E1,2.6897445E0,1.54532175E1,2.313945E0,1.258456E1,-1.1040388E1,1.175837E0,1.20945425E1,-4.0912366E0,5.329685E0,-2.7864974E0,2.775556E0,-7.060491E-1,2.8263053E-1,6.153394E0,-2.8280962E0,-3.9756092E-1,1.510219E0,8.665738E0,-4.6707726E0,1.4063569E0,-6.182989E-1,-5.9738374E0,4.59027E0,-1.5759192E0,-1.9281304E0,-6.759062E0,-4.087639E0,4.9511525E-1,-3.144073E-1,5.8808746E0,-4.1259885E0,-5.47202E-1,-1.733088E0,-3.3435336E-1,-5.4047794E0,-3.2805238E0,-1.8166615E0,-9.772733E0,-4.456375E0,1.8190694E0,-1.2446984E0,-1.392746E-1,6.443585E0,3.43752E0,-1.5530418E0,9.578005E-1,9.555939E0,1.9184254E0,-1.5321574E0,-3.9467366E0,-2.291278E0,5.2705464E0,-4.7975335E0,6.804472E-1],"categories":[],"categories_nodes":[],"categories_segments":[],"categories_sizes":[],"default_left":[0,0,0,0,0,0,0,0,0,0,0,0,0,0,0,0,0,0,0,0,0,0,0,0,0,0,0,0,0,0,0,0,0,0,0,0,0,0,0,0,0,0,0,0,0,0,0,0,0,0,0,0,0,0,0,0,0,0,0,0,0,0,0,0,0,0,0,0,0,0,0,0,0,0,0,0,0,0,0,0,0,0,0,0,0,0,0,0,0,0,0,0,0,0,0,0,0,0,0,0,0,0,0],"id":7,"left_children":[1,3,5,7,9,11,13,15,17,19,21,23,25,27,29,31,33,35,37,39,41,43,45,47,49,-1,51,-1,-1,53,55,57,59,61,63,65,67,69,71,73,75,77,79,81,83,85,87,89,91,93,95,-1,-1,97,-1,99,101,-1,-1,-1,-1,-1,-1,-1,-1,-1,-1,-1,-1,-1,-1,-1,-1,-1,-1,-1,-1,-1,-1,-1,-1,-1,-1,-1,-1,-1,-1,-1,-1,-1,-1,-1,-1,-1,-1,-1,-1,-1,-1,-1,-1,-1,-1],"loss_changes":[1.6066654E4,6.1533887E3,4.6452725E3,3.582298E3,3.445582E3,4.7644463E3,2.6266812E3,2.8611646E3,6.6604316E3,2.470755E3,4.0403564E3,3.938879E3,7.517173E2,1.5539326E3,6.424178E2,4.5598306E3,2.4547163E3,8.431222E3,2.912798E3,1.2522446E3,2.4978936E3,1.4885371E3,9.150488E2,8.155376E2,4.128133E3,0E0,4.4375732E2,0E0,0E0,2.900609E2,1.0996985E3,2.561772E3,2.5577031E3,4.5513745E3,3.0325896E3,5.305547E3,3.0272761E3,2.0728916E3,1.7172277E3,2.0990479E2,4.8048392E2,3.3555952E3,3.2022214E3,1.1164038E3,2.619629E0,2.9311377E2,5.634774E2,6.483349E0,4.0644043E2,4.3367793E3,3.6588154E3,0E0,0E0,4.577063E1,0E0,7.822567E2,1.095795E3,0E0,0E0,0E0,0E0,0E0,0E0,0E0,0E0,0E0,0E0,0E0,0E0,0E0,0E0,0E0,0E0,0E0,0E0,0E0,0E0,0E0,0E0,0E0,0E0,0E0,0E0,0E0,0E0,0E0,0E0,0E0,0E0,0E0,0E0,0E0,0E0,0E0,0E0,0E0,0E0,0E0,0E0,0E0,0E0,0E0,0E0],"parents":[2147483647,0,0,1,1,2,2,3,3,4,4,5,5,6,6,7,7,8,8,9,9,10,10,11,11,12,12,13,13,14,14,15,15,16,16,17,17,18,18,19,19,20,20,21,21,22,22,23,23,24,24,26,26,29,29,30,30,31,31,32,32,33,33,34,34,35,35,36,36,37,37,38,38,39,39,40,40,41,41,42,42,43,43,44,44,45,45,46,46,47,47,48,48,49,49,50,50,53,53,55,55,56,56],"right_children":[2,4,6,8,10,12,14,16,18,20,22,24,26,28,30,32,34,36,38,40,42,44,46,48,50,-1,52,-1,-1,54,56,58,60,62,64,66,68,70,72,74,76,78,80,82,84,86,88,90,92,94,96,-1,-1,98,-1,100,102,-1,-1,-1,-1,-1,-1,-1,-1,-1,-1,-1,-1,-1,-1,-1,-1,-1,-1,-1,-1,-1,-1,-1,-1,-1,-1,-1,-1,-1,-1,-1,-1,-1,-1,-1,-1,-1,-1,-1,-1,-1,-1,-1,-1,-1,-1],"split_conditions":[1.15E2,2.0418695E1,2.27E1,2.9713254E2,2.2415335E1,3.5911588E2,6.773729E1,1.116145E1,3.3248868E2,-5.138333E-1,1.03E2,9.565437E0,2.5174165E0,1.0483357E1,1.9376562E1,9.3876505E0,2.3824263E1,1.0877833E1,6.6E0,3.1229312E2,9.300001E0,3.3248868E2,2.4557001E1,3.457E0,2.05E2,9.3377155E-1,1.3363711E1,2.601121E0,-7.8525825E0,1.75E2,1.15590096E2,8.938251E0,2.5417421E1,2.1689093E1,4.692167E0,1.4799459E1,1.1298495E1,3.5911588E2,2.45E1,6.6E1,2.3906818E1,2.2182001E1,1.2573667E1,1.7734933E2,2.3952585E1,1.06E2,6.7999997E0,2.2965832E0,1.0690242E2,3.0984166E0,2.12E2,2.313945E0,1.258456E1,1.37E2,1.175837E0,2.0057001E1,1.2650615E2,5.329685E0,-2.7864974E0,2.775556E0,-7.060491E-1,2.8263053E-1,6.153394E0,-2.8280962E0,-3.9756092E-1,1.510219E0,8.665738E0,-4.6707726E0,1.4063569E0,-6.182989E-1,-5.9738374E0,4.59027E0,-1.5759192E0,-1.9281304E0,-6.759062E0,-4.087639E0,4.9511525E-1,-3.144073E-1,5.8808746E0,-4.1259885E0,-5.47202E-1,-1.733088E0,-3.3435336E-1,-5.4047794E0,-3.2805238E0,-1.8166615E0,-9.772733E0,-4.456375E0,1.8190694E0,-1.2446984E0,-1.392746E-1,6.443585E0,3.43752E0,-1.5530418E0,9.578005E-1,9.555939E0,1.9184254E0,-1.5321574E0,-3.9467366E0,-2.291278E0,5.2705464E0,-4.7975335E0,6.804472E-1],"split_indices":[4,2,1,3,0,3,3,2,3,0,4,2,0,2,2,2,3,0,1,3,1,3,0,0,4,0,2,0,0,4,3,0,0,3,0,2,2,3,1,4,2,0,0,3,0,4,1,0,3,0,4,0,0,4,0,0,3,0,0,0,0,0,0,0,0,0,0,0,0,0,0,0,0,0,0,0,0,0,0,0,0,0,0,0,0,0,0,0,0,0,0,0,0,0,0,0,0,0,0,0,0,0,0],"split_type":[0,0,0,0,0,0,0,0,0,0,0,0,0,0,0,0,0,0,0,0,0,0,0,0,0,0,0,0,0,0,0,0,0,0,0,0,0,0,0,0,0,0,0,0,0,0,0,0,0,0,0,0,0,0,0,0,0,0,0,0,0,0,0,0,0,0,0,0,0,0,0,0,0,0,0,0,0,0,0,0,0,0,0,0,0,0,0,0,0,0,0,0,0,0,0,0,0,0,0,0,0,0,0],"sum_hessian":[3.924E3,2.74E3,1.184E3,1.814E3,9.26E2,1.148E3,3.6E1,1.602E3,2.12E2,6.03E2,3.23E2,1.143E3,5E0,9E0,2.7E1,1.42E2,1.46E3,8.9E1,1.23E2,1.8E1,5.85E2,3.09E2,1.4E1,2.7E1,1.116E3,1E0,4E0,1E0,8E0,9E0,1.8E1,3.4E1,1.08E2,1.52E2,1.308E3,4.1E1,4.8E1,1.04E2,1.9E1,1E1,8E0,4.89E2,9.6E1,2.94E2,1.5E1,7E0,7E0,2E0,2.5E1,1.091E3,2.5E1,1E0,3E0,8E0,1E0,5E0,1.3E1,3E0,3.1E1,8.4E1,2.4E1,1.4E2,1.2E1,4.7E1,1.261E3,1.5E1,2.6E1,8E0,4E1,9.8E1,6E0,1.4E1,5E0,2E0,8E0,2E0,6E0,4.82E2,7E0,3.5E1,6.1E1,2.27E2,6.7E1,6E0,9E0,1E0,6E0,6E0,1E0,1E0,1E0,1.1E1,1.4E1,6.5E1,1.026E3,8E0,1.7E1,3E0,5E0,1E0,4E0,4E0,9E0],"tree_param":{"num_deleted":"0","num_feature":"5","num_nodes":"103","size_leaf_vector":"1"}},{"base_weights":[4.8347656E-3,-2.1782866E0,1.2107722E0,-3.2316527E0,-6.2141514E-1,2.2651005E0,-7.133164E-1,-2.4242806E0,-5.3127146E0,2.8023934E-1,-6.339436E0,1.1882644E0,5.1754794E0,-6.3283806E0,3.200567E-2,-3.1848729E0,2.5072436E0,-1.567886E0,-6.3858433E0,-4.2668257E0,1.1273186E0,-1.4019675E0,-1.064058E1,1.0096308E1,7.982291E-1,-2.1365705E0,7.671182E0,9.750322E0,-8.5078945E0,2.4037302E0,-1.822808E0,-2.7911892E0,-8.753299E0,3.9142761E0,-9.183935E0,3.7512033E0,-2.3649018E0,-6.568688E0,3.9515042E0,-3.0731034E0,-1.1149785E1,1.0972612E1,7.028921E-1,5.401544E0,-8.131691E0,-4.893929E0,-1.1485894E1,-3.4908025E0,1.6592913E1,6.9485134E-1,2.4229382E1,1.6325672E1,-3.6987E0,1.1138137E1,2.2783966E0,2.5530763E0,9.867036E0,-2.145323E1,-5.942224E0,5.6235355E-1,9.708592E0,-9.7308445E0,-2.4480397E-1,-7.691278E-1,-4.39078E0,-3.8255594E0,-1.0373762E0,2.7944136E0,3.237206E-1,-3.4901485E0,-1.2186166E-1,-1.3580434E0,4.5433855E-1,-2.1295252E0,-3.309394E-1,-1.2272849E0,3.1099143E0,-5.9556684E0,-2.1030319E0,8.798263E0,1.9710358E0,3.3900613E-1,-3.074993E0,6.65475E-1,6.4919086E0,-3.5852878E0,2.7534914E0,-3.2981863E0,7.288734E-1,-4.347644E0,-2.5519793E0,5.2133455E0,-2.229542E0,7.3947563E0,1.4235061E0,8.604302E-1,-3.7957784E-2,-4.308071E0,1.6422762E1,8.758347E-1,9.706077E0,-4.128315E0,-5.2053595E-1,5.89954E0,2.4722598E0,3.6900983E0,-2.952089E-1,-3.7789388E0,2.9426134E0,-7.7017446E0,1.194381E0,-6.857109E0,-1.271657E0,-3.7606647E0,3.5939187E-1,3.889115E0,-4.1382995E0,-1.924975E0,-5.6961136E0,3.7039201E0,-2.3150538E-1],"categories":[],"categories_nodes":[],"categories_segments":[],"categories_sizes":[],"default_left":[0,0,0,0,0,0,0,0,0,0,0,0,0,0,0,0,0,0,0,0,0,0,0,0,0,0,0,0,0,0,0,0,0,0,0,0,0,0,0,0,0,0,0,0,0,0,0,0,0,0,0,0,0,0,0,0,0,0,0,0,0,0,0,0,0,0,0,0,0,0,0,0,0,0,0,0,0,0,0,0,0,0,0,0,0,0,0,0,0,0,0,0,0,0,0,0,0,0,0,0,0,0,0,0,0,0,0,0,0,0,0,0,0,0,0,0,0,0,0,0,0],"id":8,"left_children":[1,3,5,7,9,11,13,15,17,19,21,23,25,27,29,31,33,35,37,39,41,43,45,47,49,51,53,55,57,59,61,63,65,67,69,-1,71,73,-1,75,77,79,81,83,85,87,89,91,93,95,97,99,101,103,105,107,-1,109,111,113,115,117,119,-1,-1,-1,-1,-1,-1,-1,-1,-1,-1,-1,-1,-1,-1,-1,-1,-1,-1,-1,-1,-1,-1,-1,-1,-1,-1,-1,-1,-1,-1,-1,-1,-1,-1,-1,-1,-1,-1,-1,-1,-1,-1,-1,-1,-1,-1,-1,-1,-1,-1,-1,-1,-1,-1,-1,-1,-1,-1],"loss_changes":[1.0336014E4,2.2890107E3,5.1319985E3,1.3867188E3,2.9147354E3,5.1148076E3,3.7499907E3,2.2660146E3,9.2232227E2,1.8883033E3,1.620313E3,4.140436E3,8.0640674E3,3.7625483E3,3.4884744E3,1.119896E3,1.3683877E3,6.239935E2,7.301992E2,5.983937E2,1.7180508E3,1.7379965E3,1.4295605E2,4.4714272E3,2.756651E3,3.3193506E3,6.125787E3,2.0810854E3,2.961371E3,4.675489E3,5.5507344E3,1.2797698E3,6.758181E2,1.1076777E3,1.8881482E2,0E0,4.345841E2,5.1042188E2,0E0,9.589234E2,2.5711243E2,1.181041E3,1.8688597E3,9.34123E2,1.3658082E3,3.3942566E2,1.9019873E2,1.5272849E3,3.128335E3,2.0371133E3,6.6735713E3,1.8394097E3,2.0507373E3,4.7789453E3,4.262559E3,1.3326698E3,0E0,1.7119272E3,2.179271E3,2.3377703E3,5.5341714E3,2.1483013E3,2.4773982E3,0E0,0E0,0E0,0E0,0E0,0E0,0E0,0E0,0E0,0E0,0E0,0E0,0E0,0E0,0E0,0E0,0E0,0E0,0E0,0E0,0E0,0E0,0E0,0E0,0E0,0E0,0E0,0E0,0E0,0E0,0E0,0E0,0E0,0E0,0E0,0E0,0E0,0E0,0E0,0E0,0E0,0E0,0E0,0E0,0E0,0E0,0E0,0E0,0E0,0E0,0E0,0E0,0E0,0E0,0E0,0E0,0E0,0E0],"parents":[2147483647,0,0,1,1,2,2,3,3,4,4,5,5,6,6,7,7,8,8,9,9,10,10,11,11,12,12,13,13,14,14,15,15,16,16,17,17,18,18,19,19,20,20,21,21,22,22,23,23,24,24,25,25,26,26,27,27,28,28,29,29,30,30,31,31,32,32,33,33,34,34,36,36,37,37,39,39,40,40,41,41,42,42,43,43,44,44,45,45,46,46,47,47,48,48,49,49,50,50,51,51,52,52,53,53,54,54,55,55,57,57,58,58,59,59,60,60,61,61,62,62],"right_children":[2,4,6,8,10,12,14,16,18,20,22,24,26,28,30,32,34,36,38,40,42,44,46,48,50,52,54,56,58,60,62,64,66,68,70,-1,72,74,-1,76,78,80,82,84,86,88,90,92,94,96,98,100,102,104,106,108,-1,110,112,114,116,118,120,-1,-1,-1,-1,-1,-1,-1,-1,-1,-1,-1,-1,-1,-1,-1,-1,-1,-1,-1,-1,-1,-1,-1,-1,-1,-1,-1,-1,-1,-1,-1,-1,-1,-1,-1,-1,-1,-1,-1,-1,-1,-1,-1,-1,-1,-1,-1,-1,-1,-1,-1,-1,-1,-1,-1,-1,-1,-1],"split_conditions":[7.4E1,1.4889679E2,9.0000004E-1,2.5417421E1,3.443855E2,2.2462715E2,1.4000001E0,2.3817167E1,6.2623642E1,4.5E1,2.1434364E1,1.0041354E1,3.457E0,1.257426E1,5.7999997E0,1.4800001E1,2.16E1,1.0587918E1,7.3E1,3.3097485E2,4.7E1,3E-1,4.552584E0,9.107359E0,2.34E2,1.2964998E1,3.3359296E2,1.224E1,8.938251E0,4.6E0,9.888249E0,3.096837E1,1.9038E1,2.4371582E1,2.4804916E1,3.7512033E0,2.8332003E1,3.009033E1,3.9515042E0,3.2611005E2,1.2620554E1,3.811166E0,3.1583838E1,2.1038E1,6.3E1,2.81169E1,1.6096334E1,8.225035E0,1.21E2,5.1847176E1,6.4861665E0,1.29E2,-5.138333E-1,6.652834E0,1.6199999E1,4.4494015E1,9.867036E0,1.64E2,1.4920457E1,4.16325E0,2.4766848E1,2.2805367E1,2.3824263E1,-7.691278E-1,-4.39078E0,-3.8255594E0,-1.0373762E0,2.7944136E0,3.237206E-1,-3.4901485E0,-1.2186166E-1,-1.3580434E0,4.5433855E-1,-2.1295252E0,-3.309394E-1,-1.2272849E0,3.1099143E0,-5.9556684E0,-2.1030319E0,8.798263E0,1.9710358E0,3.3900613E-1,-3.074993E0,6.65475E-1,6.4919086E0,-3.5852878E0,2.7534914E0,-3.2981863E0,7.288734E-1,-4.347644E0,-2.5519793E0,5.2133455E0,-2.229542E0,7.3947563E0,1.4235061E0,8.604302E-1,-3.7957784E-2,-4.308071E0,1.6422762E1,8.758347E-1,9.706077E0,-4.128315E0,-5.2053595E-1,5.89954E0,2.4722598E0,3.6900983E0,-2.952089E-1,-3.7789388E0,2.9426134E0,-7.7017446E0,1.194381E0,-6.857109E0,-1.271657E0,-3.7606647E0,3.5939187E-1,3.889115E0,-4.1382995E0,-1.924975E0,-5.6961136E0,3.7039201E0,-2.3150538E-1],"split_indices":[4,3,1,0,3,3,1,0,3,4,2,2,0,2,1,1,1,2,4,3,4,1,0,2,4,2,3,2,0,1,0,2,0,0,0,0,0,0,0,3,2,0,0,0,4,2,0,2,4,3,0,4,0,0,2,3,0,4,3,0,2,2,3,0,0,0,0,0,0,0,0,0,0,0,0,0,0,0,0,0,0,0,0,0,0,0,0,0,0,0,0,0,0,0,0,0,0,0,0,0,0,0,0,0,0,0,0,0,0,0,0,0,0,0,0,0,0,0,0,0,0],"split_type":[0,0,0,0,0,0,0,0,0,0,0,0,0,0,0,0,0,0,0,0,0,0,0,0,0,0,0,0,0,0,0,0,0,0,0,0,0,0,0,0,0,0,0,0,0,0,0,0,0,0,0,0,0,0,0,0,0,0,0,0,0,0,0,0,0,0,0,0,0,0,0,0,0,0,0,0,0,0,0,0,0,0,0,0,0,0,0,0,0,0,0,0,0,0,0,0,0,0,0,0,0,0,0,0,0,0,0,0,0,0,0,0,0,0,0,0,0,0,0,0,0],"sum_hessian":[3.924E3,1.396E3,2.528E3,8.32E2,5.64E2,1.633E3,8.95E2,6.01E2,2.31E2,4.88E2,7.6E1,1.193E3,4.4E2,1.04E2,7.91E2,5.21E2,8E1,5.2E1,1.79E2,7.6E1,4.12E2,3.6E1,4E1,4.9E1,1.144E3,1.12E2,3.28E2,1.2E1,9.2E1,3.47E2,4.44E2,4.88E2,3.3E1,7.2E1,8E0,2E0,5E1,1.78E2,1E0,6.6E1,1E1,1.6E1,3.96E2,1.8E1,1.8E1,6E0,3.4E1,1.6E1,3.3E1,1.14E3,4E0,8E0,1.04E2,1.99E2,1.29E2,1E1,2E0,1.4E1,7.8E1,2.78E2,6.9E1,7.3E1,3.71E2,4.8E2,8E0,1.8E1,1.5E1,2.4E1,4.8E1,6E0,2E0,3.2E1,1.8E1,1.62E2,1.6E1,6.2E1,4E0,2E0,8E0,2E0,1.4E1,3.82E2,1.4E1,1.6E1,2E0,1.5E1,3E0,3E0,3E0,1.5E1,1.9E1,2E0,1.4E1,1.9E1,1.4E1,3.12E2,8.28E2,2E0,2E0,5E0,3E0,1.6E1,8.8E1,4.9E1,1.5E2,3.1E1,9.8E1,3E0,7E0,1.2E1,2E0,6E0,7.2E1,1.2E1,2.66E2,6.1E1,8E0,5.5E1,1.8E1,1.4E1,3.57E2],"tree_param":{"num_deleted":"0","num_feature":"5","num_nodes":"121","size_leaf_vector":"1"}},{"base_weights":[8.880496E-3,-5.9997976E-1,2.5999887E0,-4.2614323E-1,-5.6851916E0,5.461922E0,1.0335622E0,-2.2151878E0,-7.595642E-3,-1.2832358E1,-4.058969E0,-3.8529631E-1,8.48856E0,-2.8955965E1,1.8573551E0,-4.282031E0,-1.6926272E0,1.4406356E-1,-6.4915586E0,-8.862601E0,-1.9956396E1,2.3830946E-1,-5.996716E0,-3.348315E0,9.060003E0,1.0011966E1,-1.1148383E1,-3.428367E1,2.3093669E-1,-1.5522864E-1,4.952808E0,-2.8544858E0,-6.6723533E0,-1.4439017E0,-9.091298E0,-9.539704E0,2.4027994E-1,-7.5353775E0,5.8712373E0,1.6360308E0,-1.074871E1,-5.161194E-1,-6.9778557E0,-5.554181E0,6.4275274E0,-7.5534053E0,1.6242981E0,5.5663342E0,-7.2824774E0,2.4368778E1,1.796164E0,1.08803425E1,-1.0770716E1,7.464121E0,-1.7478546E1,-1.3457924E1,-4.0411083E1,-4.3742526E-1,5.413468E-1,-1.2075446E1,1.2832227E0,2.859317E1,3.7296839E0,-1.2686309E0,8.773703E-1,-2.2593396E0,-3.6409188E-2,-7.0200074E-1,6.351234E-2,2.755362E0,-3.3158264E0,2.5785792E0,-4.0789385E0,-6.651671E-2,8.1646115E-1,-3.3101327E0,-1.4090148E0,2.9014356E0,-1.3994431E0,8.7994885E-1,-1.4373493E-1,-9.525971E-1,-4.241546E0,-1.6481169E-1,-4.6361775E0,3.5181386E0,2.960807E-1,-1.4418514E0,-3.6511106E0,-4.5336458E-1,1.3467286E0,-4.3045363E0,2.482571E0,-1.4751585E0,-1.2573323E1,2.9341955E0,9.859414E0,-4.9666085E0,2.1913862E0,2.343061E0,5.790365E0,9.849262E-1,-9.181046E0,-1.8492566E0,4.2184863E0,-5.9349003E0,-1.6521469E0,2.2225733E0,-6.8648853E0,-1.3513067E1,-5.302734E0,1.729392E0,-4.976296E0,8.134445E-1,-2.765014E0,-7.9183966E-2,9.6699915E0,-2.7450197E0,1.4147613E0],"categories":[],"categories_nodes":[],"categories_segments":[],"categories_sizes":[],"default_left":[0,0,0,0,0,0,0,0,0,0,0,0,0,0,0,0,0,0,0,0,0,0,0,0,0,0,0,0,0,0,0,0,0,0,0,0,0,0,0,0,0,0,0,0,0,0,0,0,0,0,0,0,0,0,0,0,0,0,0,0,0,0,0,0,0,0,0,0,0,0,0,0,0,0,0,0,0,0,0,0,0,0,0,0,0,0,0,0,0,0,0,0,0,0,0,0,0,0,0,0,0,0,0,0,0,0,0,0,0,0,0,0,0,0,0,0,0,0,0],"id":9,"left_children":[1,3,5,7,9,11,13,15,17,19,21,23,25,27,29,31,33,35,37,39,41,43,45,47,49,51,53,55,57,59,61,63,65,67,69,71,73,75,77,79,81,-1,-1,83,85,87,89,91,93,95,97,99,101,103,105,107,109,-1,-1,111,113,115,117,-1,-1,-1,-1,-1,-1,-1,-1,-1,-1,-1,-1,-1,-1,-1,-1,-1,-1,-1,-1,-1,-1,-1,-1,-1,-1,-1,-1,-1,-1,-1,-1,-1,-1,-1,-1,-1,-1,-1,-1,-1,-1,-1,-1,-1,-1,-1,-1,-1,-1,-1,-1,-1,-1,-1,-1],"loss_changes":[6.1937295E3,2.8077988E3,3.3431616E3,2.302544E3,1.1683167E3,4.6753867E3,1.2011081E4,6.224221E2,2.4524336E3,3.6046753E2,7.2588135E2,2.5771162E3,5.316833E3,2.0294062E3,2.9412617E3,3.8019214E2,8.462648E2,2.2729358E3,7.797998E2,2.94807E2,3.2139844E2,1.0395272E3,7.2408203E2,2.4955542E3,2.4026404E3,3.040835E3,1.6621245E3,8.5983887E2,1.0604385E1,4.9365854E3,5.2715645E3,6.0802167E2,2.4099756E2,6.725629E2,6.3922314E2,1.8825247E3,2.7678838E3,4.7450806E2,2.4531166E2,9.6362E0,2.631709E2,0E0,0E0,7.3470496E2,3.920876E2,5.757009E2,1.0559268E2,1.3055754E3,3.8073296E3,5.4613965E2,1.7383478E3,3.8823613E3,2.0515547E3,4.4632947E2,1.66927E2,9.5619934E2,4.6385742E1,0E0,0E0,2.5910645E3,3.8791238E3,9.5390137E2,2.3040786E3,0E0,0E0,0E0,0E0,0E0,0E0,0E0,0E0,0E0,0E0,0E0,0E0,0E0,0E0,0E0,0E0,0E0,0E0,0E0,0E0,0E0,0E0,0E0,0E0,0E0,0E0,0E0,0E0,0E0,0E0,0E0,0E0,0E0,0E0,0E0,0E0,0E0,0E0,0E0,0E0,0E0,0E0,0E0,0E0,0E0,0E0,0E0,0E0,0E0,0E0,0E0,0E0,0E0,0E0,0E0,0E0],"parents":[2147483647,0,0,1,1,2,2,3,3,4,4,5,5,6,6,7,7,8,8,9,9,10,10,11,11,12,12,13,13,14,14,15,15,16,16,17,17,18,18,19,19,20,20,21,21,22,22,23,23,24,24,25,25,26,26,27,27,28,28,29,29,30,30,31,31,32,32,33,33,34,34,35,35,36,36,37,37,38,38,39,39,40,40,43,43,44,44,45,45,46,46,47,47,48,48,49,49,50,50,51,51,52,52,53,53,54,54,55,55,56,56,59,59,60,60,61,61,62,62],"right_children":[2,4,6,8,10,12,14,16,18,20,22,24,26,28,30,32,34,36,38,40,42,44,46,48,50,52,54,56,58,60,62,64,66,68,70,72,74,76,78,80,82,-1,-1,84,86,88,90,92,94,96,98,100,102,104,106,108,110,-1,-1,112,114,116,118,-1,-1,-1,-1,-1,-1,-1,-1,-1,-1,-1,-1,-1,-1,-1,-1,-1,-1,-1,-1,-1,-1,-1,-1,-1,-1,-1,-1,-1,-1,-1,-1,-1,-1,-1,-1,-1,-1,-1,-1,-1,-1,-1,-1,-1,-1,-1,-1,-1,-1,-1,-1,-1,-1,-1,-1],"split_conditions":[1.34E2,3.1550869E1,8.702832E0,5.7E1,2.3824263E1,4.552584E0,8.938251E0,3.9E1,3.09E1,9.1E1,1.8184084E1,1.76E2,5.7999997E0,1.64E2,1.8571333E1,2.266857E1,3.009033E1,-5.138333E-1,2.6823668E1,3E-1,4.692167E0,8.1E1,2.81505E1,1.93825E0,1.83E2,3.5605487E2,1.7610588E1,1.6563911E1,1E-1,1.2864649E1,1.8888002E1,2.1178896E1,2.884047E1,1.4957426E2,1.1609651E1,6.5E1,2.9912622E2,1.8335276E1,3.4199997E1,1.6215336E1,1.0213248E1,-5.161194E-1,-6.9778557E0,7E1,2.71605E2,2.1787502E2,4.8E1,-5.138333E-1,1.72E2,1.8709612E1,1.92E2,2.2002612E2,2E-1,6.652834E0,2.0999998E1,1E-1,2E-1,-4.3742526E-1,5.413468E-1,9.565437E0,1.7373667E1,4.358564E1,6.470697E1,-1.2686309E0,8.773703E-1,-2.2593396E0,-3.6409188E-2,-7.0200074E-1,6.351234E-2,2.755362E0,-3.3158264E0,2.5785792E0,-4.0789385E0,-6.651671E-2,8.1646115E-1,-3.3101327E0,-1.4090148E0,2.9014356E0,-1.3994431E0,8.7994885E-1,-1.4373493E-1,-9.525971E-1,-4.241546E0,-1.6481169E-1,-4.6361775E0,3.5181386E0,2.960807E-1,-1.4418514E0,-3.6511106E0,-4.5336458E-1,1.3467286E0,-4.3045363E0,2.482571E0,-1.4751585E0,-1.2573323E1,2.9341955E0,9.859414E0,-4.9666085E0,2.1913862E0,2.343061E0,5.790365E0,9.849262E-1,-9.181046E0,-1.8492566E0,4.2184863E0,-5.9349003E0,-1.6521469E0,2.2225733E0,-6.8648853E0,-1.3513067E1,-5.302734E0,1.729392E0,-4.976296E0,8.134445E-1,-2.765014E0,-7.9183966E-2,9.6699915E0,-2.7450197E0,1.4147613E0],"split_indices":[4,2,0,4,3,0,0,4,1,4,0,4,1,4,0,2,0,0,0,1,0,4,0,0,4,3,2,2,1,2,0,2,2,3,2,4,3,2,1,0,0,0,0,4,3,3,4,0,4,2,4,3,1,0,1,1,1,0,0,2,0,3,3,0,0,0,0,0,0,0,0,0,0,0,0,0,0,0,0,0,0,0,0,0,0,0,0,0,0,0,0,0,0,0,0,0,0,0,0,0,0,0,0,0,0,0,0,0,0,0,0,0,0,0,0,0,0,0,0],"split_type":[0,0,0,0,0,0,0,0,0,0,0,0,0,0,0,0,0,0,0,0,0,0,0,0,0,0,0,0,0,0,0,0,0,0,0,0,0,0,0,0,0,0,0,0,0,0,0,0,0,0,0,0,0,0,0,0,0,0,0,0,0,0,0,0,0,0,0,0,0,0,0,0,0,0,0,0,0,0,0,0,0,0,0,0,0,0,0,0,0,0,0,0,0,0,0,0,0,0,0,0,0,0,0,0,0,0,0,0,0,0,0,0,0,0,0,0,0,0,0],"sum_hessian":[3.924E3,3.178E3,7.46E2,3.074E3,1.04E2,2.63E2,4.83E2,5.82E2,2.492E3,1.8E1,8.6E1,9E1,1.73E2,1.2E1,4.71E2,1.16E2,4.66E2,2.436E3,5.6E1,1.3E1,5E0,2.7E1,5.9E1,6.9E1,2.1E1,1.61E2,1.2E1,1E1,2E0,2.86E2,1.85E2,7.4E1,4.2E1,4.52E2,1.4E1,2.3E1,2.413E3,5.2E1,4E0,2E0,1.1E1,1E0,4E0,1.4E1,1.3E1,4.9E1,1E1,2.1E1,4.8E1,6E0,1.5E1,1.55E2,6E0,3E0,9E0,3E0,7E0,1E0,1E0,3E1,2.56E2,8E0,1.77E2,6E1,1.4E1,3.7E1,5E0,2.93E2,1.59E2,1E0,1.3E1,4E0,1.9E1,2.035E3,3.78E2,2.2E1,3E1,3E0,1E0,1E0,1E0,4E0,7E0,1E1,4E0,6E0,7E0,3.2E1,1.7E1,5E0,5E0,2E0,1.9E1,4.6E1,2E0,3E0,3E0,3E0,1.2E1,1.15E2,4E1,4E0,2E0,1E0,2E0,7E0,2E0,1E0,2E0,5E0,2E0,6E0,2.4E1,2.26E2,3E1,1E0,7E0,1.2E1,1.65E2],"tree_param":{"num_deleted":"0","num_feature":"5","num_nodes":"119","size_leaf_vector":"1"}},{"base_weights":[-8.159327E-3,-1.0478716E0,8.058607E-1,-7.878659E-1,-5.599285E0,1.5857121E0,-6.6405016E-1,-1.2528849E0,1.7281497E0,-4.2233357E0,-1.2472667E1,-3.3963915E-2,3.128516E0,-5.4092135E0,-2.2397503E-2,1.6280879E0,-1.611397E0,2.6800559E0,-7.99021E0,-1.190875E0,-6.866435E0,5.7882605E0,-1.6119886E1,2.3394644E0,-3.0504053E0,-1.1259246E0,3.8607981E0,-1.6197077E1,-3.5655246E0,9.052731E-1,-3.0577347E0,-1.4014254E0,1.02214985E1,-9.046701E0,-1.4045491E0,1.4910884E0,1.1696212E1,5.6610217E0,-1.5648269E1,-7.7218075E0,3.4041593E0,-7.3927913E0,2.2071238E0,-1.799928E1,1.2468373E0,1.4207724E0,1.2687769E1,-1.6745548E0,-7.494268E0,1.3490438E1,-3.2457492E0,8.780241E0,2.8469527E0,-5.9591646E0,-2.7148111E1,2.4982884E0,-6.41911E0,1.6729951E0,-5.5740094E0,-1.4678539E0,-8.812952E0,-1.4610794E0,1.3983343E0,4.559309E-2,4.359474E0,-7.5148076E-1,-6.5707536E0,7.0137435E-1,-6.279139E-1,2.4467661E0,6.7733176E-2,-1.8816899E0,4.528164E0,2.3925397E0,-1.9277791E0,-5.223899E0,1.3586873E0,-1.2044785E0,-5.351614E0,1.5875976E0,-3.2836158E0,-2.6299589E0,-1.2351776E0,-3.3888438E0,-7.1810746E0,1.931857E-1,5.15804E0,1.6852041E0,1.2717013E1,-8.721967E-1,4.0662355E0,3.2655892E0,-3.7305846E0,2.4488676E0,7.430576E0,-4.2028146E0,-2.2565718E-1,3.123055E0,-2.4213645E0,-5.661866E0,1.0708848E0,2.1787446E0,-3.4730382E0,-2.9073257E0,-1.0036157E1,-2.0804262E0,2.6482086E0,-7.6894727E0,-9.036979E-1,4.4056484E-1,7.4297986E0,-1.985651E0,2.820674E0,-6.7617625E-1,4.3494387E0,-3.572016E0,-3.7852126E-1],"categories":[],"categories_nodes":[],"categories_segments":[],"categories_sizes":[],"default_left":[0,0,0,0,0,0,0,0,0,0,0,0,0,0,0,0,0,0,0,0,0,0,0,0,0,0,0,0,0,0,0,0,0,0,0,0,0,0,0,0,0,0,0,0,0,0,0,0,0,0,0,0,0,0,0,0,0,0,0,0,0,0,0,0,0,0,0,0,0,0,0,0,0,0,0,0,0,0,0,0,0,0,0,0,0,0,0,0,0,0,0,0,0,0,0,0,0,0,0,0,0,0,0,0,0,0,0,0,0,0,0,0,0,0,0,0,0],"id":10,"left_children":[1,3,5,7,9,11,13,15,17,19,21,23,25,27,29,31,33,35,37,39,41,-1,43,45,47,49,51,53,55,57,59,61,63,65,67,69,71,73,75,77,79,81,-1,83,-1,85,87,89,91,93,95,97,99,101,103,105,107,109,111,113,115,-1,-1,-1,-1,-1,-1,-1,-1,-1,-1,-1,-1,-1,-1,-1,-1,-1,-1,-1,-1,-1,-1,-1,-1,-1,-1,-1,-1,-1,-1,-1,-1,-1,-1,-1,-1,-1,-1,-1,-1,-1,-1,-1,-1,-1,-1,-1,-1,-1,-1,-1,-1,-1,-1,-1,-1],"loss_changes":[3.322755E3,2.035759E3,2.525232E3,1.9115969E3,8.268645E2,3.5959407E3,2.3260654E3,1.4259099E3,2.3804106E3,6.250154E2,2.0489312E3,5.0401294E3,2.300434E3,1.7521902E3,1.9006127E3,3.9975037E3,1.872854E3,2.4803003E3,2.4930496E3,1.166661E3,3.6882788E2,0E0,6.0830005E2,3.7276938E3,1.8828186E3,3.4210564E3,3.1121758E3,1.2957244E3,1.3830217E3,2.5810322E3,1.4327815E3,2.420118E3,1.73381E3,2.7204255E3,3.0814443E3,1.7437987E3,1.7430505E3,3.0298248E2,6.129724E2,5.284131E2,6.8098224E2,1.4839453E2,0E0,2.4701562E2,0E0,4.436602E3,6.4821235E3,4.5074775E3,6.7647593E3,6.390049E2,2.566078E3,3.0229814E3,8.276445E3,6.782706E2,3.3627295E2,1.6134785E3,3.4572358E3,2.1495747E3,9.2284973E2,1.6014691E3,7.7927466E2,0E0,0E0,0E0,0E0,0E0,0E0,0E0,0E0,0E0,0E0,0E0,0E0,0E0,0E0,0E0,0E0,0E0,0E0,0E0,0E0,0E0,0E0,0E0,0E0,0E0,0E0,0E0,0E0,0E0,0E0,0E0,0E0,0E0,0E0,0E0,0E0,0E0,0E0,0E0,0E0,0E0,0E0,0E0,0E0,0E0,0E0,0E0,0E0,0E0,0E0,0E0,0E0,0E0,0E0,0E0,0E0],"parents":[2147483647,0,0,1,1,2,2,3,3,4,4,5,5,6,6,7,7,8,8,9,9,10,10,11,11,12,12,13,13,14,14,15,15,16,16,17,17,18,18,19,19,20,20,22,22,23,23,24,24,25,25,26,26,27,27,28,28,29,29,30,30,31,31,32,32,33,33,34,34,35,35,36,36,37,37,38,38,39,39,40,40,41,41,43,43,45,45,46,46,47,47,48,48,49,49,50,50,51,51,52,52,53,53,54,54,55,55,56,56,57,57,58,58,59,59,60,60],"right_children":[2,4,6,8,10,12,14,16,18,20,22,24,26,28,30,32,34,36,38,40,42,-1,44,46,48,50,52,54,56,58,60,62,64,66,68,70,72,74,76,78,80,82,-1,84,-1,86,88,90,92,94,96,98,100,102,104,106,108,110,112,114,116,-1,-1,-1,-1,-1,-1,-1,-1,-1,-1,-1,-1,-1,-1,-1,-1,-1,-1,-1,-1,-1,-1,-1,-1,-1,-1,-1,-1,-1,-1,-1,-1,-1,-1,-1,-1,-1,-1,-1,-1,-1,-1,-1,-1,-1,-1,-1,-1,-1,-1,-1,-1,-1,-1,-1,-1],"split_conditions":[8.2E1,3.443855E2,9.0000004E-1,2.5459645E2,7.5E1,1.4356339E2,1.4000001E0,1.2783802E1,7.9E1,2.1434364E1,2.2965832E0,7.6081696E1,3.457E0,2.0026937E1,2.2401142E1,1.210157E1,4.692167E0,7.4E1,1.692383E1,1.5530151E1,7.4E1,5.7882605E0,6E-1,6.885545E1,1.305507E2,1.2964998E1,6.3882504E0,1.0000001E0,1.5844089E1,2.3100002E1,2.1915337E1,2.4242418E1,7.420814E1,7.1E1,1.3450752E1,2.8479037E2,2.8630002E0,3.413884E2,2.4707E1,1.4973577E1,3.5911588E2,2.81169E1,2.2071238E0,7.8E1,1.2468373E0,6E-1,1.44E2,1.2650615E2,1.0967418E1,3.0477435E2,2.9180145E2,2E-1,6.8671665E0,5.809084E0,9.1E1,1.1000001E0,9.1E1,3.5911588E2,2.1325253E1,2.0713E1,2.27E1,-1.4610794E0,1.3983343E0,4.559309E-2,4.359474E0,-7.5148076E-1,-6.5707536E0,7.0137435E-1,-6.279139E-1,2.4467661E0,6.7733176E-2,-1.8816899E0,4.528164E0,2.3925397E0,-1.9277791E0,-5.223899E0,1.3586873E0,-1.2044785E0,-5.351614E0,1.5875976E0,-3.2836158E0,-2.6299589E0,-1.2351776E0,-3.3888438E0,-7.1810746E0,1.931857E-1,5.15804E0,1.6852041E0,1.2717013E1,-8.721967E-1,4.0662355E0,3.2655892E0,-3.7305846E0,2.4488676E0,7.430576E0,-4.2028146E0,-2.2565718E-1,3.123055E0,-2.4213645E0,-5.661866E0,1.0708848E0,2.1787446E0,-3.4730382E0,-2.9073257E0,-1.0036157E1,-2.0804262E0,2.6482086E0,-7.6894727E0,-9.036979E-1,4.4056484E-1,7.4297986E0,-1.985651E0,2.820674E0,-6.7617625E-1,4.3494387E0,-3.572016E0,-3.7852126E-1],"split_indices":[4,3,1,3,4,3,1,2,4,2,0,3,0,3,2,2,0,4,2,2,4,0,1,3,3,2,0,1,2,1,0,0,3,4,0,3,0,3,0,2,3,2,0,4,0,1,4,3,0,3,3,1,0,0,4,1,4,3,2,0,1,0,0,0,0,0,0,0,0,0,0,0,0,0,0,0,0,0,0,0,0,0,0,0,0,0,0,0,0,0,0,0,0,0,0,0,0,0,0,0,0,0,0,0,0,0,0,0,0,0,0,0,0,0,0,0,0],"split_type":[0,0,0,0,0,0,0,0,0,0,0,0,0,0,0,0,0,0,0,0,0,0,0,0,0,0,0,0,0,0,0,0,0,0,0,0,0,0,0,0,0,0,0,0,0,0,0,0,0,0,0,0,0,0,0,0,0,0,0,0,0,0,0,0,0,0,0,0,0,0,0,0,0,0,0,0,0,0,0,0,0,0,0,0,0,0,0,0,0,0,0,0,0,0,0,0,0,0,0,0,0,0,0,0,0,0,0,0,0,0,0,0,0,0,0,0,0],"sum_hessian":[3.924E3,1.723E3,2.201E3,1.631E3,9.2E1,1.438E3,7.63E2,1.377E3,2.54E2,7.8E1,1.4E1,7.02E2,7.36E2,9E1,6.73E2,1.52E2,1.225E3,2.32E2,2.2E1,3.7E1,4.1E1,1E0,1.3E1,3.93E2,3.09E2,1.08E2,6.28E2,1.2E1,7.8E1,5.16E2,1.57E2,1.13E2,3.9E1,3.2E1,1.193E3,2.06E2,2.6E1,8E0,1.4E1,1.5E1,2.2E1,4E1,1E0,1.2E1,1E0,3.62E2,3.1E1,2.37E2,7.2E1,1.3E1,9.5E1,1.06E2,5.22E2,7E0,5E0,2.5E1,5.3E1,4.62E2,5.4E1,1.24E2,3.3E1,7.2E1,4.1E1,1.2E1,2.7E1,2.2E1,1E1,1.85E2,1.008E3,3.2E1,1.74E2,4E0,2.2E1,7E0,1E0,1.3E1,1E0,1.2E1,3E0,2E1,2E0,2.7E1,1.3E1,7E0,5E0,3.46E2,1.6E1,2.6E1,5E0,2.2E2,1.7E1,1.5E1,5.7E1,1E1,3E0,1.7E1,7.8E1,9.7E1,9E0,1.6E1,5.06E2,2E0,5E0,2E0,3E0,1E1,1.5E1,7E0,4.6E1,4.59E2,3E0,5.1E1,3E0,1.19E2,5E0,2.3E1,1E1],"tree_param":{"num_deleted":"0","num_feature":"5","num_nodes":"117","size_leaf_vector":"1"}},{"base_weights":[-6.828471E-3,5.752184E0,-1.0074795E-1,-7.069146E-1,1.4971167E1,-4.2755198E-1,1.2836561E0,3.172497E0,-6.5777583E0,2.2112278E1,-1.9443953E1,-4.188508E0,-3.09571E-1,1.0559709E0,1.2982805E1,1.4898777E1,-1.1758634E0,6.228878E0,2.6417461E1,-8.287107E0,-1.4348694E0,-5.0892186E0,1.7574965E1,-1.22920886E-1,-3.337695E0,3.5110698E0,-1.360831E-1,1.5330138E1,-2.6298776E0,6.062719E0,7.328451E0,-6.739086E0,6.5172462E0,-2.6262057E0,7.238935E0,3.219614E1,1.0457194E1,-9.557784E0,-7.939131E-1,-1.9159424E0,2.7690935E1,7.996588E-1,-1.108163E0,-8.222137E0,5.5537996E0,6.206723E-1,1.0539564E1,-1.5066009E1,4.9952242E-1,1.5997491E1,1.098285E0,-2.1985704E-1,3.9307742E0,-4.272503E0,-4.6485394E-2,-1.3971849E-1,5.656165E0,3.3962152E0,1.1369027E1,4.8964944E0,1.0333667E0,-7.978987E-1,-4.812105E0,7.6044154E0,-7.4446946E-1,2.3213654E0,1.0139556E1,3.4337675E-3,1.1185049E0,-7.7452846E-2,-8.501001E-1,-5.7848396E0,-1.1576173E0,-2.2008302E0,2.437282E0,-1.4385401E0,1.4669325E0,8.095062E0,2.0866938E0,8.974213E-1,-8.206071E0,-4.2017028E-1,1.1490278E0,5.2165413E0,1.808519E0],"categories":[],"categories_nodes":[],"categories_segments":[],"categories_sizes":[],"default_left":[0,0,0,0,0,0,0,0,0,0,0,0,0,0,0,0,0,0,0,0,0,0,0,0,0,0,0,0,0,0,0,0,0,0,0,0,0,0,0,0,0,0,0,0,0,0,0,0,0,0,0,0,0,0,0,0,0,0,0,0,0,0,0,0,0,0,0,0,0,0,0,0,0,0,0,0,0,0,0,0,0,0,0,0,0],"id":11,"left_children":[1,3,5,7,9,11,13,15,-1,17,19,21,23,25,27,29,31,33,35,-1,-1,37,39,41,43,45,47,49,-1,51,-1,53,55,-1,-1,57,59,61,63,-1,65,67,69,71,73,75,77,79,81,83,-1,-1,-1,-1,-1,-1,-1,-1,-1,-1,-1,-1,-1,-1,-1,-1,-1,-1,-1,-1,-1,-1,-1,-1,-1,-1,-1,-1,-1,-1,-1,-1,-1,-1,-1],"loss_changes":[2.1235469E3,3.7620015E3,1.7482814E3,3.1976064E3,6.819767E3,1.3857761E3,1.9521179E3,1.700192E3,0E0,1.3398301E3,4.674967E2,1.9516888E3,1.7132751E3,2.1222705E3,8.491199E2,6.0971924E2,1.1138823E3,1.8204767E3,1.2312158E3,0E0,0E0,1.7582468E3,1.1464205E3,2.5977974E3,7.689343E3,4.8081475E3,4.6479126E3,4.2671387E1,0E0,2.9664172E2,0E0,7.3876416E2,9.563915E2,0E0,0E0,9.9901465E2,1.9053094E2,1.969626E3,2.180592E3,0E0,1.04065674E2,3.4072021E3,2.0261864E3,5.427488E3,2.1469888E3,3.9308337E3,3.878749E3,4.519455E3,2.979704E3,6.1576904E1,0E0,0E0,0E0,0E0,0E0,0E0,0E0,0E0,0E0,0E0,0E0,0E0,0E0,0E0,0E0,0E0,0E0,0E0,0E0,0E0,0E0,0E0,0E0,0E0,0E0,0E0,0E0,0E0,0E0,0E0,0E0,0E0,0E0,0E0,0E0],"parents":[2147483647,0,0,1,1,2,2,3,3,4,4,5,5,6,6,7,7,9,9,10,10,11,11,12,12,13,13,14,14,15,15,16,16,17,17,18,18,21,21,22,22,23,23,24,24,25,25,26,26,27,27,29,29,31,31,32,32,35,35,36,36,37,37,38,38,40,40,41,41,42,42,43,43,44,44,45,45,46,46,47,47,48,48,49,49],"right_children":[2,4,6,8,10,12,14,16,-1,18,20,22,24,26,28,30,32,34,36,-1,-1,38,40,42,44,46,48,50,-1,52,-1,54,56,-1,-1,58,60,62,64,-1,66,68,70,72,74,76,78,80,82,84,-1,-1,-1,-1,-1,-1,-1,-1,-1,-1,-1,-1,-1,-1,-1,-1,-1,-1,-1,-1,-1,-1,-1,-1,-1,-1,-1,-1,-1,-1,-1,-1,-1,-1,-1],"split_conditions":[4.0962877E0,9.5E1,1.34E2,8.6E1,2.3166216E1,1.0426589E1,2.9836172E1,6.3882504E0,-6.5777583E0,1.4291592E1,2.131338E0,1.2E2,1.26E2,8.082001E0,1.66E2,3.457E0,2.0907913E1,7.4900837E0,1.9969458E1,-8.287107E0,-1.4348694E0,4E-1,9.233832E0,2.0402834E1,1.8184084E1,6.4861665E0,2.0026937E1,1.8864824E1,-2.6298776E0,6.5E1,7.328451E0,2.131338E0,6.2E1,-2.6262057E0,7.238935E0,1.2676196E0,5.3611665E0,2.03774E1,6E-1,-1.9159424E0,1.2135918E1,1.06E2,1.9969458E1,1.4291592E1,5.873631E1,1.5243614E2,2.9161892E1,1.0426589E1,1.9164719E1,3.1583838E1,1.098285E0,-2.1985704E-1,3.9307742E0,-4.272503E0,-4.6485394E-2,-1.3971849E-1,5.656165E0,3.3962152E0,1.1369027E1,4.8964944E0,1.0333667E0,-7.978987E-1,-4.812105E0,7.6044154E0,-7.4446946E-1,2.3213654E0,1.0139556E1,3.4337675E-3,1.1185049E0,-7.7452846E-2,-8.501001E-1,-5.7848396E0,-1.1576173E0,-2.2008302E0,2.437282E0,-1.4385401E0,1.4669325E0,8.095062E0,2.0866938E0,8.974213E-1,-8.206071E0,-4.2017028E-1,1.1490278E0,5.2165413E0,1.808519E0],"split_indices":[3,4,4,4,2,3,0,0,0,2,3,4,4,0,4,0,2,0,2,0,0,1,0,0,0,0,3,2,0,4,0,3,4,0,0,3,0,2,1,0,0,4,2,2,3,3,3,3,2,0,0,0,0,0,0,0,0,0,0,0,0,0,0,0,0,0,0,0,0,0,0,0,0,0,0,0,0,0,0,0,0,0,0,0,0],"split_type":[0,0,0,0,0,0,0,0,0,0,0,0,0,0,0,0,0,0,0,0,0,0,0,0,0,0,0,0,0,0,0,0,0,0,0,0,0,0,0,0,0,0,0,0,0,0,0,0,0,0,0,0,0,0,0,0,0,0,0,0,0,0,0,0,0,0,0,0,0,0,0,0,0,0,0,0,0,0,0,0,0,0,0,0,0],"sum_hessian":[3.924E3,6.2E1,3.862E3,3.7E1,2.5E1,3.125E3,7.37E2,3.2E1,5E0,2.1E1,4E0,9.4E1,3.031E3,7.24E2,1.3E1,8E0,2.4E1,5E0,1.6E1,2E0,2E0,9.1E1,3E0,2.856E3,1.75E2,2.36E2,4.88E2,1.2E1,1E0,5E0,3E0,1.4E1,1E1,3E0,2E0,1.1E1,5E0,4.4E1,4.7E1,1E0,2E0,1.475E3,1.381E3,1.13E2,6.2E1,1.68E2,6.8E1,1.9E1,4.69E2,1.1E1,1E0,3E0,2E0,6E0,8E0,7E0,3E0,3E0,8E0,2E0,3E0,2.2E1,2.2E1,2E0,4.5E1,1E0,1E0,1.163E3,3.12E2,9.26E2,4.55E2,3.1E1,8.2E1,1E1,5.2E1,7.4E1,9.4E1,1.1E1,5.7E1,8E0,1.1E1,2.99E2,1.7E2,9E0,2E0],"tree_param":{"num_deleted":"0","num_feature":"5","num_nodes":"85","size_leaf_vector":"1"}},{"base_weights":[4.303314E-3,-6.2632895E0,5.580785E-2,-1.593913E0,-1.0833047E1,1.3922164E0,-2.400718E-1,1.2528908E1,-4.3122163E0,-1.6857605E1,2.0174828E0,1.989749E0,-4.846505E0,-8.141303E0,-4.4557862E-2,7.503308E0,-1.8652989E0,-9.955353E0,-2.0718193E0,-9.511082E-1,-1.7909292E1,7.973484E0,-1.978904E0,1.0256205E0,6.8825755E0,-1.1789504E1,-1.0027862E0,-1.1842242E1,-2.566789E0,8.963911E0,-1.3807715E-1,-5.218506E-1,-3.6342409E0,-3.6428902E0,3.85569E0,-1.3714967E0,-5.6649876E0,3.3052132E0,-1.7372933E-1,5.7678223E0,5.1660236E-2,1.0871297E0,1.1660063E1,-8.479538E-1,-1.9299196E1,1.5750291E1,-3.7671106E0,-5.718872E0,-1.6757118E1,1.8223295E1,-5.3458767E0,1.9796022E1,-5.60844E-1,1.008931E-1,-1.8426615E0,7.905335E-1,-1.6625339E0,1.5715474E0,1.6351318E-1,2.093763E0,-5.0118513E0,2.743224E0,-2.217329E-1,-1.6113698E0,4.068001E0,2.9450717E0,1.02265415E1,1.9771641E0,-2.0716138E0,-6.285309E0,-2.042823E0,6.521532E0,-2.128568E0,4.348859E0,-1.760007E0,-2.543477E0,2.6453762E0,-1.357095E0,-5.876791E0,-2.621988E0,9.037311E0,1.7441747E-1,-4.9997478E0,-4.687602E0,7.0326653E0,2.524068E0,-7.673102E0,-3.1330488E-3,1.5814174E0,1.0934935E-1,-9.869973E-1],"categories":[],"categories_nodes":[],"categories_segments":[],"categories_sizes":[],"default_left":[0,0,0,0,0,0,0,0,0,0,0,0,0,0,0,0,0,0,0,0,0,0,0,0,0,0,0,0,0,0,0,0,0,0,0,0,0,0,0,0,0,0,0,0,0,0,0,0,0,0,0,0,0,0,0,0,0,0,0,0,0,0,0,0,0,0,0,0,0,0,0,0,0,0,0,0,0,0,0,0,0,0,0,0,0,0,0,0,0,0,0],"id":12,"left_children":[1,3,5,7,9,11,13,15,17,19,21,23,25,27,29,-1,-1,31,33,-1,35,37,-1,39,41,43,45,47,49,51,53,-1,-1,55,57,-1,-1,-1,-1,59,61,63,65,67,69,71,73,75,77,79,81,83,85,87,89,-1,-1,-1,-1,-1,-1,-1,-1,-1,-1,-1,-1,-1,-1,-1,-1,-1,-1,-1,-1,-1,-1,-1,-1,-1,-1,-1,-1,-1,-1,-1,-1,-1,-1,-1,-1],"loss_changes":[1.2673768E3,6.655464E2,1.5400845E3,7.066592E2,1.27271E3,2.641498E3,4.926008E3,8.5750085E2,1.6901727E2,1.01562744E2,3.604197E2,3.035608E3,1.6427677E3,1.558185E3,2.623833E3,0E0,0E0,4.9872375E1,1.25796295E2,0E0,4.3580566E1,1.10512726E2,0E0,2.4938083E3,2.9222173E3,1.791324E3,1.9580818E3,1.2885659E3,1.9462985E3,3.312645E3,1.255623E3,0E0,0E0,1.3381552E2,1.0878689E1,0E0,0E0,0E0,0E0,2.6212705E3,3.2350732E3,4.0199963E3,2.063025E3,4.9609186E2,1.2553955E2,9.7505334E2,1.4654739E3,9.572378E2,7.775708E2,1.546852E3,1.9554843E3,2.3035894E3,4.256286E3,1.5566552E3,1.2119097E3,0E0,0E0,0E0,0E0,0E0,0E0,0E0,0E0,0E0,0E0,0E0,0E0,0E0,0E0,0E0,0E0,0E0,0E0,0E0,0E0,0E0,0E0,0E0,0E0,0E0,0E0,0E0,0E0,0E0,0E0,0E0,0E0,0E0,0E0,0E0,0E0],"parents":[2147483647,0,0,1,1,2,2,3,3,4,4,5,5,6,6,7,7,8,8,9,9,10,10,11,11,12,12,13,13,14,14,17,17,18,18,20,20,21,21,23,23,24,24,25,25,26,26,27,27,28,28,29,29,30,30,33,33,34,34,39,39,40,40,41,41,42,42,43,43,44,44,45,45,46,46,47,47,48,48,49,49,50,50,51,51,52,52,53,53,54,54],"right_children":[2,4,6,8,10,12,14,16,18,20,22,24,26,28,30,-1,-1,32,34,-1,36,38,-1,40,42,44,46,48,50,52,54,-1,-1,56,58,-1,-1,-1,-1,60,62,64,66,68,70,72,74,76,78,80,82,84,86,88,90,-1,-1,-1,-1,-1,-1,-1,-1,-1,-1,-1,-1,-1,-1,-1,-1,-1,-1,-1,-1,-1,-1,-1,-1,-1,-1,-1,-1,-1,-1,-1,-1,-1,-1,-1,-1],"split_conditions":[-5.138333E-1,-1.8075833E0,7.9361687E0,6.2E1,2.3906818E1,5.7999997E0,8.386167E0,1.933639E1,7.3E1,1.2815993E1,3.0430117E1,6.8671665E0,3.2227406E1,1.2E2,8.604917E0,7.503308E0,-1.8652989E0,2.1599998E1,2.946287E1,-9.511082E-1,1.1384199E1,1E-1,-1.978904E0,1.2783802E1,1E2,8.340745E0,4.1295273E1,7.7E1,1.25E2,9.8E1,2.4863466E1,-5.218506E-1,-3.6342409E0,2.71605E2,3.2217484E1,-1.3714967E0,-5.6649876E0,3.3052132E0,-1.7372933E-1,6.652834E0,9.196609E0,2.03774E1,2.4863466E1,7.152834E0,2.6141552E1,6.4861665E0,1.3324863E1,6.8E1,1.4480773E1,8.004917E0,1.7610588E1,1.1841756E1,1E-1,2.427265E1,1.8371584E1,7.905335E-1,-1.6625339E0,1.5715474E0,1.6351318E-1,2.093763E0,-5.0118513E0,2.743224E0,-2.217329E-1,-1.6113698E0,4.068001E0,2.9450717E0,1.02265415E1,1.9771641E0,-2.0716138E0,-6.285309E0,-2.042823E0,6.521532E0,-2.128568E0,4.348859E0,-1.760007E0,-2.543477E0,2.6453762E0,-1.357095E0,-5.876791E0,-2.621988E0,9.037311E0,1.7441747E-1,-4.9997478E0,-4.687602E0,7.0326653E0,2.524068E0,-7.673102E0,-3.1330488E-3,1.5814174E0,1.0934935E-1,-9.869973E-1],"split_indices":[0,0,0,4,2,1,0,2,4,3,2,0,3,4,0,0,0,2,2,0,2,1,0,2,4,3,3,4,4,4,2,0,0,3,2,0,0,0,0,0,3,2,2,0,2,0,2,4,2,0,2,2,1,2,0,0,0,0,0,0,0,0,0,0,0,0,0,0,0,0,0,0,0,0,0,0,0,0,0,0,0,0,0,0,0,0,0,0,0,0,0],"split_type":[0,0,0,0,0,0,0,0,0,0,0,0,0,0,0,0,0,0,0,0,0,0,0,0,0,0,0,0,0,0,0,0,0,0,0,0,0,0,0,0,0,0,0,0,0,0,0,0,0,0,0,0,0,0,0,0,0,0,0,0,0,0,0,0,0,0,0,0,0,0,0,0,0,0,0,0,0,0,0,0,0,0,0,0,0,0,0,0,0,0,0],"sum_hessian":[3.924E3,3.1E1,3.893E3,1.6E1,1.5E1,7.05E2,3.188E3,2E0,1.4E1,1E1,5E0,6.44E2,6.1E1,7.6E1,3.112E3,1E0,1E0,3E0,1.1E1,1E0,9E0,3E0,2E0,5.39E2,1.05E2,2.1E1,4E1,4.5E1,3.1E1,3.1E1,3.081E3,1E0,2E0,9E0,2E0,1E0,8E0,2E0,1E0,9.1E1,4.48E2,4.8E1,5.7E1,9E0,1.2E1,5E0,3.5E1,2.1E1,2.4E1,3E0,2.8E1,1.4E1,1.7E1,2.703E3,3.78E2,2E0,7E0,1E0,1E0,8.7E1,4E0,3.5E1,4.13E2,3.2E1,1.6E1,5.4E1,3E0,4E0,5E0,1E1,2E0,4E0,1E0,3E0,3.2E1,1.8E1,3E0,5E0,1.9E1,1E0,2E0,1.9E1,9E0,1E0,1.3E1,1.3E1,4E0,2.647E3,5.6E1,1.5E2,2.28E2],"tree_param":{"num_deleted":"0","num_feature":"5","num_nodes":"91","size_leaf_vector":"1"}},{"base_weights":[3.4345922E-3,7.247962E-2,-4.163055E0,-4.7597408E-1,7.367358E-1,-8.875918E0,1.4740539E0,1.8882827E-1,-2.2243974E0,8.184335E-1,-9.434732E0,-1.2679712E1,3.5216777E0,-4.1759017E-1,1.3874138E1,-2.0785686E-1,4.1714444E0,-8.072685E0,-6.268804E-1,1.3172314E0,-4.5783594E-1,-6.7277275E-2,-1.0990368E1,-7.130946E0,-2.0102377E1,-3.961891E0,1.4086719E1,1.3696411E1,-2.0945668E0,1.0586998E0,4.843856E0,1.3123253E-1,-9.943236E0,1.1814463E1,1.9594718E0,-1.0968772E1,3.3364037E-1,-1.7676564E0,5.429383E0,2.619373E0,2.7587166E-1,-3.8968036E0,9.230045E-1,1.3898621E-1,-1.6926098E-1,-1.2725234E1,-4.6320763E-1,-1.0768339E1,3.7524657E0,-2.662454E0,-7.104626E0,9.099518E-1,1.8855198E1,1.216404E0,4.9469814E0,4.149603E0,-5.277094E0,-1.3425257E0,1.7158738E-1,-1.232695E0,-6.6347136E0,-1.524774E0,6.40859E0,6.2293277E0,4.241752E-1,-1.4873427E0,-5.35289E0,1.565885E0,-6.7569566E0,-3.5879597E-1,-3.6594007E0,2.0572205E0,-6.275486E0,-4.5309886E-1,1.0081984E0,-5.95602E0,1.3522874E-1,-4.168921E0,-7.4833953E-1,1.3808854E0,-4.0700324E-2,-1.6360657E0,-4.9992294E0,-4.3763027E0,4.416258E-1,2.3820775E0,-1.9498055E0,-2.0233636E0,8.2525927E-1,6.103592E-1,7.1351733E0,-3.6734266E0,2.3188477E0,3.6310816E-1,-3.8180327E0],"categories":[],"categories_nodes":[],"categories_segments":[],"categories_sizes":[],"default_left":[0,0,0,0,0,0,0,0,0,0,0,0,0,0,0,0,0,0,0,0,0,0,0,0,0,0,0,0,0,0,0,0,0,0,0,0,0,0,0,0,0,0,0,0,0,0,0,0,0,0,0,0,0,0,0,0,0,0,0,0,0,0,0,0,0,0,0,0,0,0,0,0,0,0,0,0,0,0,0,0,0,0,0,0,0,0,0,0,0,0,0,0,0,0,0],"id":13,"left_children":[1,3,5,7,9,11,13,15,17,19,21,23,25,27,29,31,33,35,37,39,41,43,45,47,49,-1,51,53,55,-1,-1,57,59,61,63,65,67,69,71,73,75,77,79,-1,-1,81,-1,83,85,87,-1,-1,89,-1,-1,91,93,-1,-1,-1,-1,-1,-1,-1,-1,-1,-1,-1,-1,-1,-1,-1,-1,-1,-1,-1,-1,-1,-1,-1,-1,-1,-1,-1,-1,-1,-1,-1,-1,-1,-1,-1,-1,-1,-1],"loss_changes":[1.1294276E3,1.4073304E3,1.7133666E3,2.4599656E3,1.4594534E3,1.6951807E3,7.0949005E2,2.4243486E3,5.441756E3,1.1044686E3,2.0327356E2,9.6868994E2,1.7766196E3,6.6774695E2,3.7038696E1,4.6097295E3,2.3268044E3,3.0468408E3,3.1807551E3,1.6902068E3,2.3209456E3,1.0523423E0,1.7700952E2,7.133912E2,6.236763E2,0E0,2.5906067E2,1.3941895E1,5.1870386E2,0E0,0E0,2.7432231E3,3.2469404E3,5.109635E3,1.0888855E3,3.7543467E3,3.8029333E3,2.2929822E3,2.890067E3,1.7010352E3,2.4521238E3,1.9285315E3,1.3602788E3,0E0,0E0,1.9554309E2,0E0,6.2922815E2,2.6626895E2,8.48463E1,0E0,0E0,2.8322778E2,0E0,0E0,6.228556E2,8.37005E2,0E0,0E0,0E0,0E0,0E0,0E0,0E0,0E0,0E0,0E0,0E0,0E0,0E0,0E0,0E0,0E0,0E0,0E0,0E0,0E0,0E0,0E0,0E0,0E0,0E0,0E0,0E0,0E0,0E0,0E0,0E0,0E0,0E0,0E0,0E0,0E0,0E0,0E0],"parents":[2147483647,0,0,1,1,2,2,3,3,4,4,5,5,6,6,7,7,8,8,9,9,10,10,11,11,12,12,13,13,14,14,15,15,16,16,17,17,18,18,19,19,20,20,21,21,22,22,23,23,24,24,26,26,27,27,28,28,31,31,32,32,33,33,34,34,35,35,36,36,37,37,38,38,39,39,40,40,41,41,42,42,45,45,47,47,48,48,49,49,52,52,55,55,56,56],"right_children":[2,4,6,8,10,12,14,16,18,20,22,24,26,28,30,32,34,36,38,40,42,44,46,48,50,-1,52,54,56,-1,-1,58,60,62,64,66,68,70,72,74,76,78,80,-1,-1,82,-1,84,86,88,-1,-1,90,-1,-1,92,94,-1,-1,-1,-1,-1,-1,-1,-1,-1,-1,-1,-1,-1,-1,-1,-1,-1,-1,-1,-1,-1,-1,-1,-1,-1,-1,-1,-1,-1,-1,-1,-1,-1,-1,-1,-1,-1,-1],"split_conditions":[3.5605487E2,1.4356339E2,1.4650749E1,1.026063E2,3.7490158E1,3.5911588E2,1.25E2,9.3505E1,1.5023666E1,2.1E0,1E-1,4E-1,1E2,1.5900501E1,1.6034082E1,8.9570816E1,9.52773E1,1.3523259E2,1.32E2,1.7873556E1,1.5629971E1,-1.8075833E0,3.3531793E2,1E-1,6.1E1,-3.961891E0,5.127834E0,1.5675751E1,1.6299694E1,1.0586998E0,4.843856E0,5.127834E0,1.15E2,7E1,8.225035E0,1.2E2,1.425794E2,1.21E2,1.4064E2,6.5E1,1.7917007E1,1.2573667E1,1.7917007E1,1.3898621E-1,-1.6926098E-1,2.0348875E2,-4.6320763E-1,7.727834E0,3E-1,6.8671665E0,-7.104626E0,9.099518E-1,1.3363711E1,1.216404E0,4.9469814E0,1.6694252E1,7.2E1,-1.3425257E0,1.7158738E-1,-1.232695E0,-6.6347136E0,-1.524774E0,6.40859E0,6.2293277E0,4.241752E-1,-1.4873427E0,-5.35289E0,1.565885E0,-6.7569566E0,-3.5879597E-1,-3.6594007E0,2.0572205E0,-6.275486E0,-4.5309886E-1,1.0081984E0,-5.95602E0,1.3522874E-1,-4.168921E0,-7.4833953E-1,1.3808854E0,-4.0700324E-2,-1.6360657E0,-4.9992294E0,-4.3763027E0,4.416258E-1,2.3820775E0,-1.9498055E0,-2.0233636E0,8.2525927E-1,6.103592E-1,7.1351733E0,-3.6734266E0,2.3188477E0,3.6310816E-1,-3.8180327E0],"split_indices":[3,3,0,3,2,3,4,3,0,1,1,1,4,0,0,3,3,3,4,2,2,0,3,1,4,0,0,0,2,0,0,0,4,4,2,4,3,4,3,4,2,0,2,0,0,3,0,0,1,0,0,0,2,0,0,0,4,0,0,0,0,0,0,0,0,0,0,0,0,0,0,0,0,0,0,0,0,0,0,0,0,0,0,0,0,0,0,0,0,0,0,0,0,0,0],"split_type":[0,0,0,0,0,0,0,0,0,0,0,0,0,0,0,0,0,0,0,0,0,0,0,0,0,0,0,0,0,0,0,0,0,0,0,0,0,0,0,0,0,0,0,0,0,0,0,0,0,0,0,0,0,0,0,0,0,0,0,0,0,0,0,0,0,0,0,0,0,0,0,0,0,0,0,0,0,0,0,0,0,0,0,0,0,0,0,0,0,0,0,0,0,0,0],"sum_hessian":[3.924E3,3.861E3,6.3E1,2.115E3,1.746E3,3.4E1,2.9E1,1.533E3,5.82E2,1.733E3,1.3E1,2.6E1,8E0,2.6E1,3E0,1.395E3,1.38E2,1.24E2,4.58E2,1.246E3,4.87E2,2E0,1.1E1,1.6E1,1E1,3E0,5E0,2E0,2.4E1,1E0,2E0,1.349E3,4.6E1,3E1,1.08E2,9.2E1,3.2E1,3.86E2,7.2E1,5.53E2,6.93E2,1.39E2,3.48E2,1E0,1E0,9E0,2E0,1.2E1,4E0,2E0,8E0,2E0,3E0,1E0,1E0,8E0,1.6E1,1.17E2,1.232E3,3.2E1,1.4E1,1.1E1,1.9E1,2E0,1.06E2,5E1,4.2E1,2.7E1,5E0,3.67E2,1.9E1,6.9E1,3E0,8.4E1,4.69E2,5E0,6.88E2,1.6E1,1.23E2,7.7E1,2.71E2,4E0,5E0,9E0,3E0,3E0,1E0,1E0,1E0,1E0,2E0,1E0,7E0,9E0,7E0],"tree_param":{"num_deleted":"0","num_feature":"5","num_nodes":"95","size_leaf_vector":"1"}},{"base_weights":[-6.1545093E-3,4.432423E-2,-5.4604917E0,3.7569265E0,-1.6788172E-2,-1.1514074E1,-3.0161836E0,-8.7953967E-1,1.03888035E1,-4.74596E0,2.3072323E-2,-1.099309E0,-4.306427E0,1.5124755E0,-5.7690697E0,2.0405068E0,-1.6793205E1,1.6080425E1,-1.6732092E1,2.406686E0,-6.489136E0,1.0850738E0,-2.0317428E-1,-1.79033E0,6.6394377E0,-1.1672736E1,-4.692297E-1,9.905972E0,-8.7268096E-1,-6.839824E0,-2.4270744E0,9.44949E0,1.1988219E1,-7.061236E0,-1.3048103E0,6.3575263E0,-4.2561173E0,-9.124807E0,5.817251E-1,-6.439089E-1,2.7201595E0,-4.4596477E0,-7.4293114E-2,2.3312805E0,-2.2431565E-2,-5.8079606E-1,-1.45956545E1,-2.4785004E0,4.0506244E0,5.066319E0,1.0801415E0,-1.5469903E0,1.5145223E0,-1.1807859E0,4.9491186E0,-2.140361E0,1.5203968E0,-1.4253631E0,-3.7757773E0,1.1193058E0,-1.0500973E0,-1.5394434E0,3.7792528E-1,1.721448E0,2.8899986E-1,-4.1571873E-1,-2.580448E0,1.7512674E0,-4.0546384E-2,-5.0148516E0,-5.989615E-1,1.3872261E-1,1.6180288E0],"categories":[],"categories_nodes":[],"categories_segments":[],"categories_sizes":[],"default_left":[0,0,0,0,0,0,0,0,0,0,0,0,0,0,0,0,0,0,0,0,0,0,0,0,0,0,0,0,0,0,0,0,0,0,0,0,0,0,0,0,0,0,0,0,0,0,0,0,0,0,0,0,0,0,0,0,0,0,0,0,0,0,0,0,0,0,0,0,0,0,0,0,0],"id":14,"left_children":[1,3,5,7,9,11,13,15,17,19,21,-1,-1,23,25,27,29,31,33,35,37,39,41,-1,43,45,47,49,51,-1,-1,-1,53,-1,-1,-1,55,57,59,61,63,65,67,-1,-1,-1,69,-1,71,-1,-1,-1,-1,-1,-1,-1,-1,-1,-1,-1,-1,-1,-1,-1,-1,-1,-1,-1,-1,-1,-1,-1,-1],"loss_changes":[1.0809047E3,8.8264984E2,4.9795703E2,1.9462913E3,7.2171484E2,1.7038428E2,3.453314E2,1.800075E3,4.282468E3,4.1460345E2,9.125418E2,0E0,0E0,4.6148273E2,5.264272E2,7.647928E2,1.2917786E2,1.01043994E3,3.1897144E2,9.6632306E2,4.8985632E2,1.8873837E3,1.7172705E3,0E0,5.3760803E1,1.9942078E2,3.856717E2,3.3540747E2,6.6017444E2,0E0,0E0,0E0,1.4291238E3,0E0,0E0,0E0,1.9718991E2,2.278147E2,1.1590438E2,2.782876E3,1.8130938E3,1.1593965E3,1.0945933E3,0E0,0E0,0E0,1.2692517E2,0E0,3.123394E1,0E0,0E0,0E0,0E0,0E0,0E0,0E0,0E0,0E0,0E0,0E0,0E0,0E0,0E0,0E0,0E0,0E0,0E0,0E0,0E0,0E0,0E0,0E0,0E0],"parents":[2147483647,0,0,1,1,2,2,3,3,4,4,5,5,6,6,7,7,8,8,9,9,10,10,13,13,14,14,15,15,16,16,17,17,18,18,19,19,20,20,21,21,22,22,24,24,25,25,26,26,27,27,28,28,32,32,36,36,37,37,38,38,39,39,40,40,41,41,42,42,46,46,48,48],"right_children":[2,4,6,8,10,12,14,16,18,20,22,-1,-1,24,26,28,30,32,34,36,38,40,42,-1,44,46,48,50,52,-1,-1,-1,54,-1,-1,-1,56,58,60,62,64,66,68,-1,-1,-1,70,-1,72,-1,-1,-1,-1,-1,-1,-1,-1,-1,-1,-1,-1,-1,-1,-1,-1,-1,-1,-1,-1,-1,-1,-1,-1],"split_conditions":[4.9199997E1,4.0962877E0,1.8335276E1,9.5E1,-5.138333E-1,1.3979871E1,6.29E1,8.6E1,2.3166216E1,6.5E1,7.846583E0,-1.099309E0,-4.306427E0,7.3E1,2.3817167E1,6.3882504E0,1E-1,1.01E2,2.131338E0,1.933639E1,2.7059933E1,4.9695E0,8.386167E0,-1.79033E0,2.4465332E1,6.7E1,3.6E1,1.9930477E1,2.0907913E1,-6.839824E0,-2.4270744E0,9.44949E0,1.4291592E1,-7.061236E0,-1.3048103E0,6.3575263E0,6.2E1,-1.8075833E0,3.2217484E1,8.1995346E1,5.339794E1,1.8837322E1,8.604917E0,2.3312805E0,-2.2431565E-2,-5.8079606E-1,3.7490158E1,-2.4785004E0,2.4242418E1,5.066319E0,1.0801415E0,-1.5469903E0,1.5145223E0,-1.1807859E0,4.9491186E0,-2.140361E0,1.5203968E0,-1.4253631E0,-3.7757773E0,1.1193058E0,-1.0500973E0,-1.5394434E0,3.7792528E-1,1.721448E0,2.8899986E-1,-4.1571873E-1,-2.580448E0,1.7512674E0,-4.0546384E-2,-5.0148516E0,-5.989615E-1,1.3872261E-1,1.6180288E0],"split_indices":[1,3,2,4,0,2,1,4,2,4,0,0,0,4,0,0,1,4,3,2,2,0,0,0,0,4,4,2,2,0,0,0,2,0,0,0,4,0,2,3,3,2,0,0,0,0,2,0,0,0,0,0,0,0,0,0,0,0,0,0,0,0,0,0,0,0,0,0,0,0,0,0,0],"split_type":[0,0,0,0,0,0,0,0,0,0,0,0,0,0,0,0,0,0,0,0,0,0,0,0,0,0,0,0,0,0,0,0,0,0,0,0,0,0,0,0,0,0,0,0,0,0,0,0,0,0,0,0,0,0,0,0,0,0,0,0,0,0,0,0,0,0,0,0,0,0,0,0,0],"sum_hessian":[3.924E3,3.889E3,3.5E1,6.2E1,3.827E3,9E0,2.6E1,3.7E1,2.5E1,3.1E1,3.796E3,3E0,6E0,1E1,1.6E1,3.2E1,5E0,2.1E1,4E0,6E0,2.5E1,6.66E2,3.13E3,4E0,6E0,7E0,9E0,8E0,2.4E1,2E0,3E0,3E0,1.8E1,2E0,2E0,1E0,5E0,1.8E1,7E0,3.24E2,3.42E2,9.1E1,3.039E3,5E0,1E0,2E0,5E0,3E0,6E0,3E0,5E0,1.4E1,1E1,4E0,1.4E1,4E0,1E0,9E0,9E0,4E0,3E0,9.6E1,2.28E2,1.25E2,2.17E2,5.3E1,3.8E1,3E1,3.009E3,4E0,1E0,2E0,4E0],"tree_param":{"num_deleted":"0","num_feature":"5","num_nodes":"73","size_leaf_vector":"1"}},{"base_weights":[-6.842072E-3,2.1178816E-1,-8.039934E-1,-7.02287E-2,3.2464285E0,-1.0280501E0,9.5472765E0,-3.454702E0,7.2327696E-2,4.003034E0,-6.6408463E0,-1.4924095E0,1.3045614E0,-6.07872E0,1.18804455E1,-3.8012102E0,5.355112E0,-3.3209768E-1,1.2278904E0,9.1745144E-1,7.1320357E0,1.0299911E0,-1.1201334E1,-1.1624548E0,-6.563315E0,1.0275573E-1,8.390078E0,-2.388485E0,-3.469391E-1,1.4283146E1,-3.2923024E0,-2.6589377E0,-7.34108E0,5.7015026E-1,-1.0893177E0,2.9274633E0,-1.0592957E0,2.9371276E0,-4.1011214E0,9.164982E0,3.6665714E-1,-1.9639808E0,6.8852677E0,-4.3718E0,-8.155031E-1,-1.4277239E0,1.1945553E1,-2.3858466E0,-1.3923701E1,-1.8305664E0,4.4368906E0,5.1782074E0,6.445526E0,1.6351582E1,-1.8909761E0,-2.3800735E0,8.9853746E-1,-4.3957412E-1,-2.0561929E0,-1.3267491E0,-3.3552744E0,4.308528E-1,-6.1025953E-1,-3.597645E0,-2.9014993E-1,-4.965055E0,9.4926214E-1,-3.31017E0,-1.5973447E-1,-1.2857522E-1,2.3036702E0,3.9920735E0,-1.826073E0,-1.883443E0,3.0341325E0,-1.3049474E0,2.9288864E0,3.3175633E0,9.2319375E-1,1.458133E0,-1.2982899E0,-9.9104965E-1,-1.6721818E-1,5.2881403E0,-2.0112123E-1,1.5075552E-2,-3.397975E0,-8.659638E0,-1.0698828E0,-3.0956216E-2,-2.0776603E0,-3.8883504E-2,1.9901989E0,-3.3103456E0,2.4368548E0,3.1376157E0,8.098753E0],"categories":[],"categories_nodes":[],"categories_segments":[],"categories_sizes":[],"default_left":[0,0,0,0,0,0,0,0,0,0,0,0,0,0,0,0,0,0,0,0,0,0,0,0,0,0,0,0,0,0,0,0,0,0,0,0,0,0,0,0,0,0,0,0,0,0,0,0,0,0,0,0,0,0,0,0,0,0,0,0,0,0,0,0,0,0,0,0,0,0,0,0,0,0,0,0,0,0,0,0,0,0,0,0,0,0,0,0,0,0,0,0,0,0,0,0,0],"id":15,"left_children":[1,3,5,7,9,11,13,15,17,19,21,23,25,27,29,31,-1,33,35,37,39,41,43,45,47,49,51,-1,-1,53,55,57,59,61,63,65,67,69,71,73,75,-1,77,-1,79,81,83,85,87,89,91,-1,93,95,-1,-1,-1,-1,-1,-1,-1,-1,-1,-1,-1,-1,-1,-1,-1,-1,-1,-1,-1,-1,-1,-1,-1,-1,-1,-1,-1,-1,-1,-1,-1,-1,-1,-1,-1,-1,-1,-1,-1,-1,-1,-1,-1],"loss_changes":[6.8422473E2,2.6370088E3,1.9695984E3,1.3608386E3,1.9865447E3,8.988116E2,7.284636E2,9.094453E2,1.265494E3,2.3492263E3,6.762097E2,1.1485298E3,1.1742649E3,1.8596977E1,6.303135E2,4.3739575E2,0E0,1.3711205E3,2.7319434E3,1.2688961E3,1.660831E3,3.999795E2,4.082848E2,2.2772014E3,1.2581868E3,1.0052562E3,2.3373303E2,0E0,0E0,6.9921094E2,1.1130713E2,4.2561646E2,2.5338611E2,2.068898E3,1.4413887E3,1.9106863E3,1.5706533E3,1.4236814E3,1.3254701E3,1.4261616E3,1.3276736E3,0E0,4.5427673E1,0E0,1.0077286E2,1.0397214E3,9.436388E2,6.104236E2,2.21843E3,7.2976337E2,3.7208405E2,0E0,6.173849E2,5.3308545E2,0E0,0E0,0E0,0E0,0E0,0E0,0E0,0E0,0E0,0E0,0E0,0E0,0E0,0E0,0E0,0E0,0E0,0E0,0E0,0E0,0E0,0E0,0E0,0E0,0E0,0E0,0E0,0E0,0E0,0E0,0E0,0E0,0E0,0E0,0E0,0E0,0E0,0E0,0E0,0E0,0E0,0E0,0E0],"parents":[2147483647,0,0,1,1,2,2,3,3,4,4,5,5,6,6,7,7,8,8,9,9,10,10,11,11,12,12,13,13,14,14,15,15,17,17,18,18,19,19,20,20,21,21,22,22,23,23,24,24,25,25,26,26,29,29,30,30,31,31,32,32,33,33,34,34,35,35,36,36,37,37,38,38,39,39,40,40,42,42,44,44,45,45,46,46,47,47,48,48,49,49,50,50,52,52,53,53],"right_children":[2,4,6,8,10,12,14,16,18,20,22,24,26,28,30,32,-1,34,36,38,40,42,44,46,48,50,52,-1,-1,54,56,58,60,62,64,66,68,70,72,74,76,-1,78,-1,80,82,84,86,88,90,92,-1,94,96,-1,-1,-1,-1,-1,-1,-1,-1,-1,-1,-1,-1,-1,-1,-1,-1,-1,-1,-1,-1,-1,-1,-1,-1,-1,-1,-1,-1,-1,-1,-1,-1,-1,-1,-1,-1,-1,-1,-1,-1,-1,-1,-1],"split_conditions":[2.5142168E1,2.3538002E1,1.62E2,4.6E1,3.084774E2,3.009033E1,8.6472595E1,3.5710147E2,2.4917041E2,1.1177225E2,2.412992E1,1.36E2,1.17E2,2.5232002E1,2.8554918E1,4.1E0,5.355112E0,7.6081696E1,3.3359296E2,8.5226906E1,2.0211363E1,5E1,2.884047E1,1.29E2,1.4E0,1.0000001E0,9.235786E1,-2.388485E0,-3.469391E-1,1.7873556E1,3.1240334E1,2.1248667E1,4.1E1,2.1599998E1,7.735337E1,8.225035E0,3.3531793E2,5.0584835E1,1.0483357E1,9.3876505E0,2.4804916E1,-1.9639808E0,2.3750502E1,-4.3718E0,2.4371582E1,4E-1,1.35E2,1.836353E1,4.1E0,1.8864818E2,6.7E1,5.1782074E0,1.2755868E2,1.5277749E1,-1.8909761E0,-2.3800735E0,8.9853746E-1,-4.3957412E-1,-2.0561929E0,-1.3267491E0,-3.3552744E0,4.308528E-1,-6.1025953E-1,-3.597645E0,-2.9014993E-1,-4.965055E0,9.4926214E-1,-3.31017E0,-1.5973447E-1,-1.2857522E-1,2.3036702E0,3.9920735E0,-1.826073E0,-1.883443E0,3.0341325E0,-1.3049474E0,2.9288864E0,3.3175633E0,9.2319375E-1,1.458133E0,-1.2982899E0,-9.9104965E-1,-1.6721818E-1,5.2881403E0,-2.0112123E-1,1.5075552E-2,-3.397975E0,-8.659638E0,-1.0698828E0,-3.0956216E-2,-2.0776603E0,-3.8883504E-2,1.9901989E0,-3.3103456E0,2.4368548E0,3.1376157E0,8.098753E0],"split_indices":[0,0,4,4,3,0,3,3,3,3,0,4,4,0,0,1,0,3,3,3,2,4,2,4,1,1,3,0,0,2,0,0,4,2,3,2,3,3,2,2,0,0,0,0,0,1,4,2,1,3,4,0,3,2,0,0,0,0,0,0,0,0,0,0,0,0,0,0,0,0,0,0,0,0,0,0,0,0,0,0,0,0,0,0,0,0,0,0,0,0,0,0,0,0,0,0,0],"split_type":[0,0,0,0,0,0,0,0,0,0,0,0,0,0,0,0,0,0,0,0,0,0,0,0,0,0,0,0,0,0,0,0,0,0,0,0,0,0,0,0,0,0,0,0,0,0,0,0,0,0,0,0,0,0,0,0,0,0,0,0,0,0,0,0,0,0,0,0,0,0,0,0,0,0,0,0,0,0,0,0,0,0,0,0,0,0,0,0,0,0,0,0,0,0,0,0,0],"sum_hessian":[3.924E3,3.08E3,8.44E2,2.819E3,2.61E2,8.27E2,1.7E1,1.13E2,2.706E3,2.43E2,1.8E1,6.9E2,1.37E2,2E0,1.5E1,1.12E2,1E0,2.005E3,7.01E2,1.23E2,1.2E2,7E0,1.1E1,6.49E2,4.1E1,1.18E2,1.9E1,1E0,1E0,1.3E1,2E0,8.6E1,2.6E1,9.15E2,1.09E3,4.02E2,2.99E2,8.8E1,3.5E1,9.2E1,2.8E1,3E0,4E0,8E0,3E0,6.37E2,1.2E1,2.7E1,1.4E1,8.2E1,3.6E1,2E0,1.7E1,1.2E1,1E0,1E0,1E0,6.8E1,1.8E1,1.6E1,1E1,6.87E2,2.28E2,1.1E1,1.079E3,4E0,3.98E2,1.4E1,2.85E2,5.2E1,3.6E1,3E0,3.2E1,5E0,8.7E1,1.9E1,9E0,1E0,3E0,1E0,2E0,2.01E2,4.36E2,8E0,4E0,2.2E1,5E0,5E0,9E0,6.2E1,2E1,1.2E1,2.4E1,1E0,1.6E1,9E0,3E0],"tree_param":{"num_deleted":"0","num_feature":"5","num_nodes":"97","size_leaf_vector":"1"}},{"base_weights":[-6.853506E-3,3.1113815E-2,-4.109243E0,1.0785758E0,-1.1804949E-1,-8.855717E0,-2.1990955E0,3.837108E0,-1.7768048E0,-7.174796E-1,3.7998223E-1,-9.0694916E-1,-1.0923502E1,1.3061413E0,-4.3378315E0,2.5547283E0,1.826438E1,-5.7598243E0,1.3872019E0,-3.4087403E0,-8.2783625E-2,3.1806242E-1,7.500231E0,-3.5310013E0,-8.766735E-1,-1.4177059E0,5.4279976E0,-6.5633374E-1,-9.503351E0,6.386411E0,-3.8289744E-1,-3.637398E-1,2.2944143E1,-6.851441E0,8.4689045E0,5.6469007E0,-1.7434394E0,6.3210087E0,-5.2315893E0,4.4795613E0,-3.855752E-1,4.1300058E-1,-9.34638E0,-1.4514557E0,1.9216892E1,2.582608E0,2.4339805E0,-1.7983831E0,2.0948462E0,-1.1994629E1,-6.5503156E-1,-2.5607626E0,2.6833868E0,-3.5309875E-1,5.9114876E0,1.4583119E0,-1.6401818E0,3.8812518E0,8.786876E0,-5.933265E-1,-3.4764295E0,4.875394E0,-1.0128994E0,1.0283078E0,6.302615E0,-2.0428185E0,1.7254996E0,7.4411285E-1,8.373943E0,-9.338471E-2,-2.61019E0,6.2730426E-1,7.535392E0,-1.584246E0,-3.3834845E-2,6.8951E-2,1.0440297E0,-5.3515387E0,-1.4124022E0,3.3679123E0,-3.5323212E0,-3.9402192E0,8.039319E0,9.0973467E-1,6.0161594E-3,-3.8763735E-1,1.0317572E0,-4.2530704E0,-4.8983118E-1],"categories":[],"categories_nodes":[],"categories_segments":[],"categories_sizes":[],"default_left":[0,0,0,0,0,0,0,0,0,0,0,0,0,0,0,0,0,0,0,0,0,0,0,0,0,0,0,0,0,0,0,0,0,0,0,0,0,0,0,0,0,0,0,0,0,0,0,0,0,0,0,0,0,0,0,0,0,0,0,0,0,0,0,0,0,0,0,0,0,0,0,0,0,0,0,0,0,0,0,0,0,0,0,0,0,0,0,0,0],"id":16,"left_children":[1,3,5,7,9,11,13,15,17,19,21,-1,23,25,27,29,31,33,35,37,39,41,43,-1,-1,-1,45,47,49,51,53,55,57,59,61,63,65,67,69,71,73,75,77,79,81,-1,83,-1,85,87,-1,-1,-1,-1,-1,-1,-1,-1,-1,-1,-1,-1,-1,-1,-1,-1,-1,-1,-1,-1,-1,-1,-1,-1,-1,-1,-1,-1,-1,-1,-1,-1,-1,-1,-1,-1,-1,-1,-1],"loss_changes":[6.11473E2,6.079122E2,3.069182E2,3.8269973E3,1.0170837E3,8.758118E1,2.0807874E2,4.5231455E3,3.01994E3,2.6404905E3,8.1810034E2,0E0,1.3016724E1,2.991366E2,3.1704907E2,2.5688247E3,1.7518491E3,1.7044492E3,1.796814E3,5.2651494E3,1.7312897E3,1.6976104E3,1.7060347E3,0E0,0E0,0E0,4.5708023E1,1.7410994E2,1.01461975E2,3.8556108E3,2.0969177E3,1.5990079E2,6.3701074E2,2.2624946E3,7.923455E2,1.8711792E3,3.0008147E3,3.8283552E3,4.247413E3,3.7925513E3,1.5684823E3,1.0266991E3,6.2502637E2,1.4409095E3,2.0686943E3,0E0,7.1624794E0,0E0,4.0869904E1,8.991437E1,0E0,0E0,0E0,0E0,0E0,0E0,0E0,0E0,0E0,0E0,0E0,0E0,0E0,0E0,0E0,0E0,0E0,0E0,0E0,0E0,0E0,0E0,0E0,0E0,0E0,0E0,0E0,0E0,0E0,0E0,0E0,0E0,0E0,0E0,0E0,0E0,0E0,0E0,0E0],"parents":[2147483647,0,0,1,1,2,2,3,3,4,4,5,5,6,6,7,7,8,8,9,9,10,10,12,12,13,13,14,14,15,15,16,16,17,17,18,18,19,19,20,20,21,21,22,22,26,26,27,27,28,28,29,29,30,30,31,31,32,32,33,33,34,34,35,35,36,36,37,37,38,38,39,39,40,40,41,41,42,42,43,43,44,44,46,46,48,48,49,49],"right_children":[2,4,6,8,10,12,14,16,18,20,22,-1,24,26,28,30,32,34,36,38,40,42,44,-1,-1,-1,46,48,50,52,54,56,58,60,62,64,66,68,70,72,74,76,78,80,82,-1,84,-1,86,88,-1,-1,-1,-1,-1,-1,-1,-1,-1,-1,-1,-1,-1,-1,-1,-1,-1,-1,-1,-1,-1,-1,-1,-1,-1,-1,-1,-1,-1,-1,-1,-1,-1,-1,-1,-1,-1,-1,