{"learner":{"attributes":{"scikit_learn":"{\"_estimator_type\": \"regressor\"}"},"feature_names":["temperature_2m_mean","precipitation_sum","wind_speed_10m_max","wind_direction_10m_dominant","pm25_1","pm25_2","pm25_3","pm25_4","pm25_5","pm25_6","pm25_7","pm25_8","pm25_9","pm25_10","pm25_11","pm25_12","pm25_13","pm25_14","pm25_15","pm25_16","pm25_17","pm25_18","pm25_19","pm25_20"],"feature_types":["float","float","float","float","float","float","float","float","float","float","float","float","float","float","float","float","float","float","float","float","float","float","float","float"],"gradient_booster":{"model":{"gbtree_model_param":{"num_parallel_tree":"1","num_trees":"100"},"iteration_indptr":[0,1,2,3,4,5,6,7,8,9,10,11,12,13,14,15,16,17,18,19,20,21,22,23,24,25,26,27,28,29,30,31,32,33,34,35,36,37,38,39,40,41,42,43,44,45,46,47,48,49,50,51,52,53,54,55,56,57,58,59,60,61,62,63,64,65,66,67,68,69,70,71,72,73,74,75,76,77,78,79,80,81,82,83,84,85,86,87,88,89,90,91,92,93,94,95,96,97,98,99,100],"tree_info":[0,0,0,0,0,0,0,0,0,0,0,0,0,0,0,0,0,0,0,0,0,0,0,0,0,0,0,0,0,0,0,0,0,0,0,0,0,0,0,0,0,0,0,0,0,0,0,0,0,0,0,0,0,0,0,0,0,0,0,0,0,0,0,0,0,0,0,0,0,0,0,0,0,0,0,0,0,0,0,0,0,0,0,0,0,0,0,0,0,0,0,0,0,0,0,0,0,0,0,0],"trees":[{"base_weights":[-3.7463335E-6,-1.9410067E1,2.1339592E1,-3.513932E1,-1.22415285E1,9.100724E0,3.7070545E1,-2.1466862E1,-4.0994617E1,-1.7580572E1,1.2906442E0,3.3130105E0,2.078336E1,2.660428E1,4.5819065E1,3.85327E0,-2.594042E1,-3.376767E1,-4.766627E1,-5.4325094E0,-2.2079197E1,9.314868E0,-1.2678147E1,-3.3156137E0,1.1420493E1,2.5075512E1,6.6065793E0,4.416438E1,1.9831974E1,3.9998783E1,6.1103497E1,-9.617809E0,1.0611342E1,-3.2647427E1,-1.5892965E1,-3.8505672E1,-2.3625256E1,-5.230159E1,-3.898701E1,-1.0592329E1,5.970264E0,-2.7023918E1,-1.4923794E1,2.0396772E-1,1.7094221E1,-9.1192883E-1,-2.0422792E1,-7.7592454E0,5.6317983E0,2.231039E1,4.271235E0,1.9531494E1,3.468959E1,-2.186011E0,2.1919937E1,2.7555904E1,5.3450016E1,1.4623439E1,4.3131393E1,4.5455814E1,2.2854849E1,6.641563E1,4.295327E1,2.098272E0,8.627054E0,-1.0014815E1,5.8013697E0,-1.1368068E0,-9.065091E0,-1.170002E1,5.0513697E0,-7.945063E0,3.6689494E0,-1.6120077E1,-9.514156E0,-1.2103393E1,3.3351595E0,-5.3893676E0,-6.321233E-1,-3.4286823E0,2.942137E0,-8.790286E0,-4.8258686E0,-5.30712E0,1.1126705E0,4.599425E0,-1.5382013E0,-2.170777E0,5.976701E0,-1.7116028E0,6.1570354E0,-9.940216E0,-4.275995E0,4.771016E0,-2.8777704E0,2.7124493E0,-5.209187E0,4.2748003E0,1.172517E1,-1.5776056E0,2.7570484E0,1.5140404E0,7.3074055E0,1.1759846E1,4.6776023E0,-1.8814143E0,4.8024654E0,8.806792E0,-2.011938E0,9.708541E0,-1.2810509E0,4.3689494E0,1.693436E1,-3.186879E0,5.0676036E0,4.8024654E0,1.465017E1,1.1387278E1,1.6318312E1,-4.359333E-1,8.149758E0,1.7518919E1,2.8708143E1,7.9248095E0,1.8764069E1],"categories":[],"categories_nodes":[],"categories_segments":[],"categories_sizes":[],"default_left":[0,0,0,0,0,0,0,0,0,0,0,0,0,0,0,0,0,0,0,0,0,0,0,0,0,0,0,0,0,0,0,0,0,0,0,0,0,0,0,0,0,0,0,0,0,0,0,0,0,0,0,0,0,0,0,0,0,0,0,0,0,0,0,0,0,0,0,0,0,0,0,0,0,0,0,0,0,0,0,0,0,0,0,0,0,0,0,0,0,0,0,0,0,0,0,0,0,0,0,0,0,0,0,0,0,0,0,0,0,0,0,0,0,0,0,0,0,0,0,0,0,0,0,0,0],"id":0,"left_children":[1,3,5,7,9,11,13,15,17,19,21,23,25,27,29,31,33,35,37,39,41,43,45,47,49,51,53,55,57,59,61,-1,63,65,67,69,71,73,75,77,79,81,83,85,87,89,91,93,95,97,99,101,103,105,107,109,111,113,115,117,119,121,123,-1,-1,-1,-1,-1,-1,-1,-1,-1,-1,-1,-1,-1,-1,-1,-1,-1,-1,-1,-1,-1,-1,-1,-1,-1,-1,-1,-1,-1,-1,-1,-1,-1,-1,-1,-1,-1,-1,-1,-1,-1,-1,-1,-1,-1,-1,-1,-1,-1,-1,-1,-1,-1,-1,-1,-1,-1,-1,-1,-1,-1,-1],"loss_changes":[1.6182908E6,2.3026819E5,3.579592E5,5.0356062E4,1.0167684E5,7.079243E4,7.33145E4,2.207454E4,1.9942812E4,5.502147E4,4.4841492E4,3.7764367E4,2.0948906E4,4.3482188E4,3.6876125E4,7.621198E3,1.0600219E4,9.56625E3,7.2140938E3,1.6184374E4,2.5637469E4,1.7999248E4,1.3285652E4,1.5430431E4,2.450679E4,1.35004375E4,1.1088732E4,1.44118125E4,3.2256703E4,2.9179375E4,8.7171875E3,0E0,1.5053557E3,4.3915312E3,1.1674805E4,4.6788125E3,7.70275E3,2.6296562E3,6.162453E3,1.1785082E4,5.853299E3,1.0337656E4,1.5685055E4,9.595197E3,9.57091E3,6.1792627E3,6.4288555E3,1.1388293E4,1.0271707E4,1.6344609E4,9.048705E3,1.1831797E4,7.6571016E3,4.0398916E3,6.58288E3,6.1033516E3,6.755453E3,1.2951379E4,6.7971016E3,1.4288969E4,8.42282E3,1.57775625E4,8.068492E3,0E0,0E0,0E0,0E0,0E0,0E0,0E0,0E0,0E0,0E0,0E0,0E0,0E0,0E0,0E0,0E0,0E0,0E0,0E0,0E0,0E0,0E0,0E0,0E0,0E0,0E0,0E0,0E0,0E0,0E0,0E0,0E0,0E0,0E0,0E0,0E0,0E0,0E0,0E0,0E0,0E0,0E0,0E0,0E0,0E0,0E0,0E0,0E0,0E0,0E0,0E0,0E0,0E0,0E0,0E0,0E0,0E0,0E0,0E0,0E0,0E0,0E0],"parents":[2147483647,0,0,1,1,2,2,3,3,4,4,5,5,6,6,7,7,8,8,9,9,10,10,11,11,12,12,13,13,14,14,15,15,16,16,17,17,18,18,19,19,20,20,21,21,22,22,23,23,24,24,25,25,26,26,27,27,28,28,29,29,30,30,32,32,33,33,34,34,35,35,36,36,37,37,38,38,39,39,40,40,41,41,42,42,43,43,44,44,45,45,46,46,47,47,48,48,49,49,50,50,51,51,52,52,53,53,54,54,55,55,56,56,57,57,58,58,59,59,60,60,61,61,62,62],"right_children":[2,4,6,8,10,12,14,16,18,20,22,24,26,28,30,32,34,36,38,40,42,44,46,48,50,52,54,56,58,60,62,-1,64,66,68,70,72,74,76,78,80,82,84,86,88,90,92,94,96,98,100,102,104,106,108,110,112,114,116,118,120,122,124,-1,-1,-1,-1,-1,-1,-1,-1,-1,-1,-1,-1,-1,-1,-1,-1,-1,-1,-1,-1,-1,-1,-1,-1,-1,-1,-1,-1,-1,-1,-1,-1,-1,-1,-1,-1,-1,-1,-1,-1,-1,-1,-1,-1,-1,-1,-1,-1,-1,-1,-1,-1,-1,-1,-1,-1,-1,-1,-1,-1,-1,-1],"split_conditions":[9.1E1,5.7E1,1.3E2,1.7798666E1,2.0025636E2,1.7776161E2,1.3804037E2,3.7E1,1.9453327E1,1.5021105E1,9E-1,1.04E2,2.4014996E1,1.4113652E1,1.63E2,1.6279802E1,1.576E2,1.4096744E2,4.8E1,1.01E2,7.5E1,9.3E1,1.7447933E1,1.06E2,1.5807239E1,1.15E2,1.12E2,1.47E2,1.68E2,8E-1,2.1046917E1,-9.617809E0,3.6E1,1.82E2,3E-1,1.62E2,1.28E2,1.01E2,1.39E2,7.2E1,5.7E1,1.22E2,1.36E2,1.51884165E1,6.3E1,1.37E2,6.4E1,7.604917E0,2.3452555E1,1.34E2,9.7E1,6.9E1,2.1261345E1,1.35E2,4.7999997E0,1.2865985E2,6E1,5.7E1,6.202584E0,1.23E2,6.2E1,3.0901877E2,1.37E2,2.098272E0,8.627054E0,-1.0014815E1,5.8013697E0,-1.1368068E0,-9.065091E0,-1.170002E1,5.0513697E0,-7.945063E0,3.6689494E0,-1.6120077E1,-9.514156E0,-1.2103393E1,3.3351595E0,-5.3893676E0,-6.321233E-1,-3.4286823E0,2.942137E0,-8.790286E0,-4.8258686E0,-5.30712E0,1.1126705E0,4.599425E0,-1.5382013E0,-2.170777E0,5.976701E0,-1.7116028E0,6.1570354E0,-9.940216E0,-4.275995E0,4.771016E0,-2.8777704E0,2.7124493E0,-5.209187E0,4.2748003E0,1.172517E1,-1.5776056E0,2.7570484E0,1.5140404E0,7.3074055E0,1.1759846E1,4.6776023E0,-1.8814143E0,4.8024654E0,8.806792E0,-2.011938E0,9.708541E0,-1.2810509E0,4.3689494E0,1.693436E1,-3.186879E0,5.0676036E0,4.8024654E0,1.465017E1,1.1387278E1,1.6318312E1,-4.359333E-1,8.149758E0,1.7518919E1,2.8708143E1,7.9248095E0,1.8764069E1],"split_indices":[4,4,4,0,3,3,3,5,2,2,1,15,2,2,4,2,3,3,4,21,4,22,2,9,2,8,6,4,4,1,2,0,4,17,1,18,18,6,12,4,14,17,19,2,14,17,15,0,2,19,9,12,2,22,1,3,16,16,0,10,6,3,16,0,0,0,0,0,0,0,0,0,0,0,0,0,0,0,0,0,0,0,0,0,0,0,0,0,0,0,0,0,0,0,0,0,0,0,0,0,0,0,0,0,0,0,0,0,0,0,0,0,0,0,0,0,0,0,0,0,0,0,0,0,0],"split_type":[0,0,0,0,0,0,0,0,0,0,0,0,0,0,0,0,0,0,0,0,0,0,0,0,0,0,0,0,0,0,0,0,0,0,0,0,0,0,0,0,0,0,0,0,0,0,0,0,0,0,0,0,0,0,0,0,0,0,0,0,0,0,0,0,0,0,0,0,0,0,0,0,0,0,0,0,0,0,0,0,0,0,0,0,0,0,0,0,0,0,0,0,0,0,0,0,0,0,0,0,0,0,0,0,0,0,0,0,0,0,0,0,0,0,0,0,0,0,0,0,0,0,0,0,0],"sum_hessian":[3.905E3,2.045E3,1.86E3,6.39E2,1.406E3,1.047E3,8.13E2,1.93E2,4.46E2,1.008E3,3.98E2,7.01E2,3.46E2,3.72E2,4.41E2,2.9E1,1.64E2,2.17E2,2.29E2,2.73E2,7.35E2,2.53E2,1.45E2,3.86E2,3.15E2,2.65E2,8.1E1,1.02E2,2.7E2,3.22E2,1.19E2,4E0,2.5E1,9.7E1,6.7E1,1.46E2,7.1E1,1.46E2,8.3E1,1.88E2,8.5E1,4.33E2,3.02E2,1.17E2,1.36E2,5.8E1,8.7E1,2.58E2,1.28E2,1.24E2,1.91E2,1.7E2,9.5E1,5.2E1,2.9E1,3.8E1,6.4E1,2.22E2,4.8E1,2.43E2,7.9E1,9E1,2.9E1,2.2E1,3E0,9.6E1,1E0,3.7E1,3E1,1.45E2,1E0,6.6E1,5E0,1.35E2,1.1E1,8.1E1,2E0,1E2,8.8E1,1.5E1,7E1,3.57E2,7.6E1,2.63E2,3.9E1,3E1,8.7E1,1.4E1,1.22E2,4.8E1,1E1,2.7E1,6E1,1.8E1,2.4E2,1.12E2,1.6E1,8.5E1,3.9E1,6.5E1,1.26E2,4.3E1,1.27E2,7.6E1,1.9E1,4.3E1,9E0,2.3E1,6E0,3.3E1,5E0,5E0,5.9E1,1.8E1,2.04E2,9E0,3.9E1,1.35E2,1.08E2,1.2E1,6.7E1,7.3E1,1.7E1,1.7E1,1.2E1],"tree_param":{"num_deleted":"0","num_feature":"24","num_nodes":"125","size_leaf_vector":"1"}},{"base_weights":[3.202315E-2,-1.0698987E1,2.0128973E1,-2.0172651E1,-2.6729448E0,1.3904236E1,3.1512024E1,-1.5784197E1,-2.7477402E1,-7.1105466E0,6.1313567E0,9.694816E0,2.697895E1,-2.6695335E1,3.2305145E1,-1.9605198E1,-5.4515424E0,-3.246364E1,-1.889647E1,-1.0167603E0,-1.231591E1,-4.0782547E0,9.877876E0,2.127801E1,6.0943465E0,4.036747E1,1.900342E1,4.7353137E-1,-3.1670704E1,3.1371155E1,2.3122692E1,-2.2122837E1,-4.8248367E0,-7.4090333E0,2.86773E1,-3.9339542E1,-2.7569948E1,-6.9316044E0,-2.6561314E1,-5.5453615E0,1.0369286E1,-6.8348155E0,-1.7926237E1,2.046359E0,-1.3005074E1,6.823282E0,2.1950993E1,1.4226391E1,2.90903E1,-6.1615605E0,9.017447E0,4.1787464E1,3.2957382E0,8.259192E0,2.9316523E1,-1.0338764E1,-2.656722E0,4.247653E1,2.7440271E1,-8.633116E0,-5.5390763E0,-3.8889122E0,7.95953E-1,-2.6385903E0,1.0901403E1,-6.7374787E0,1.2760836E1,-2.5806189E0,-1.186169E1,-9.479347E0,-6.3800817E0,-5.3176975E0,1.0294127E0,-9.487801E0,-5.045885E0,-2.0755162E0,7.017017E0,-4.5285153E-1,4.685874E0,-9.134135E-1,-5.6737213E0,-5.569813E0,4.9108763E0,-5.8813626E-1,4.749595E0,-4.4174194E-2,-5.219979E0,4.0484257E0,1.587773E-1,7.6219325E0,-3.5370803E0,1.0990835E0,5.8052554E0,1.2246618E1,5.070522E0,9.044035E0,-2.9054358E0,4.4603047E0,2.9285118E-1,-1.1757363E0,1.2734742E1,-2.6343088E0,5.928906E0,-2.037752E0,7.3286853E0,1.0754291E1,4.1202765E0,1.1717976E1,2.0277977E1,4.847665E0,9.621319E0],"categories":[],"categories_nodes":[],"categories_segments":[],"categories_sizes":[],"default_left":[0,0,0,0,0,0,0,0,0,0,0,0,0,0,0,0,0,0,0,0,0,0,0,0,0,0,0,0,0,0,0,0,0,0,0,0,0,0,0,0,0,0,0,0,0,0,0,0,0,0,0,0,0,0,0,0,0,0,0,0,0,0,0,0,0,0,0,0,0,0,0,0,0,0,0,0,0,0,0,0,0,0,0,0,0,0,0,0,0,0,0,0,0,0,0,0,0,0,0,0,0,0,0,0,0,0,0,0,0,0,0],"id":1,"left_children":[1,3,5,7,9,11,13,15,17,19,21,23,25,27,29,31,33,35,37,39,41,43,45,47,49,51,53,-1,55,57,-1,59,61,63,65,67,69,71,73,75,77,79,81,83,85,87,89,91,93,95,97,99,101,103,105,-1,-1,107,109,-1,-1,-1,-1,-1,-1,-1,-1,-1,-1,-1,-1,-1,-1,-1,-1,-1,-1,-1,-1,-1,-1,-1,-1,-1,-1,-1,-1,-1,-1,-1,-1,-1,-1,-1,-1,-1,-1,-1,-1,-1,-1,-1,-1,-1,-1,-1,-1,-1,-1,-1,-1],"loss_changes":[8.425856E5,1.9360984E5,9.592669E4,3.7008375E4,5.396018E4,4.8226E4,2.3021875E4,2.8793266E4,1.8084281E4,2.9106777E4,1.7750268E4,2.7729227E4,2.2083922E4,1.0346973E3,1.7402438E4,1.9764266E4,1.3507039E4,8.1687188E3,1.4764426E4,2.1920154E4,1.5099086E4,6.8607783E3,1.2352023E4,8.29025E3,1.8362262E4,4.0209766E3,1.4827527E4,0E0,7.69834E1,1.9177156E4,0E0,1.0572016E4,4.842143E3,1.1781528E4,8.750752E3,3.4639062E2,3.4916016E3,7.3316294E3,4.352586E3,1.2239459E4,7.570002E3,1.1477799E4,5.657914E3,4.173769E3,2.8793604E3,1.1414244E4,8.227752E3,4.530033E3,9.891543E3,1.2956289E4,1.941439E4,2.4648125E3,9.690257E2,1.671593E4,6.529758E3,0E0,0E0,7.6575E3,1.7609656E4,0E0,0E0,0E0,0E0,0E0,0E0,0E0,0E0,0E0,0E0,0E0,0E0,0E0,0E0,0E0,0E0,0E0,0E0,0E0,0E0,0E0,0E0,0E0,0E0,0E0,0E0,0E0,0E0,0E0,0E0,0E0,0E0,0E0,0E0,0E0,0E0,0E0,0E0,0E0,0E0,0E0,0E0,0E0,0E0,0E0,0E0,0E0,0E0,0E0,0E0,0E0,0E0],"parents":[2147483647,0,0,1,1,2,2,3,3,4,4,5,5,6,6,7,7,8,8,9,9,10,10,11,11,12,12,13,13,14,14,15,15,16,16,17,17,18,18,19,19,20,20,21,21,22,22,23,23,24,24,25,25,26,26,28,28,29,29,31,31,32,32,33,33,34,34,35,35,36,36,37,37,38,38,39,39,40,40,41,41,42,42,43,43,44,44,45,45,46,46,47,47,48,48,49,49,50,50,51,51,52,52,53,53,54,54,57,57,58,58],"right_children":[2,4,6,8,10,12,14,16,18,20,22,24,26,28,30,32,34,36,38,40,42,44,46,48,50,52,54,-1,56,58,-1,60,62,64,66,68,70,72,74,76,78,80,82,84,86,88,90,92,94,96,98,100,102,104,106,-1,-1,108,110,-1,-1,-1,-1,-1,-1,-1,-1,-1,-1,-1,-1,-1,-1,-1,-1,-1,-1,-1,-1,-1,-1,-1,-1,-1,-1,-1,-1,-1,-1,-1,-1,-1,-1,-1,-1,-1,-1,-1,-1,-1,-1,-1,-1,-1,-1,-1,-1,-1,-1,-1,-1],"split_conditions":[1.08E2,6.9E1,1.47E2,2.0808498E1,1.8470966E2,2.3997688E2,4.2E1,1.6065483E2,1.7776161E2,1.6808569E1,6.8E1,1.405845E1,1.7595861E1,1.3849477E1,2.1E2,1.31E2,1.45E2,4.8E1,2E-1,1.19E2,1.9196585E1,7E-1,1.32E2,1.05E2,6.8E1,1.69E2,9.3E1,4.7353137E-1,7.352862E1,1.405845E1,2.3122692E1,5.2E1,1.29E2,1.6E2,4.5E1,3.2E1,8.8E1,7.6E1,8.2E1,1.55E2,8.7E1,5.3E0,1.61E2,1.09E2,1.609969E1,1.7902534E1,3.5010614E2,7.1E1,1.25E2,6.4E1,1.1E0,-1.5284166E0,1.5840832E0,9.2E1,2.5842384E1,-1.0338764E1,-2.656722E0,3.1277078E2,8.688371E1,-8.633116E0,-5.5390763E0,-3.8889122E0,7.95953E-1,-2.6385903E0,1.0901403E1,-6.7374787E0,1.2760836E1,-2.5806189E0,-1.186169E1,-9.479347E0,-6.3800817E0,-5.3176975E0,1.0294127E0,-9.487801E0,-5.045885E0,-2.0755162E0,7.017017E0,-4.5285153E-1,4.685874E0,-9.134135E-1,-5.6737213E0,-5.569813E0,4.9108763E0,-5.8813626E-1,4.749595E0,-4.4174194E-2,-5.219979E0,4.0484257E0,1.587773E-1,7.6219325E0,-3.5370803E0,1.0990835E0,5.8052554E0,1.2246618E1,5.070522E0,9.044035E0,-2.9054358E0,4.4603047E0,2.9285118E-1,-1.1757363E0,1.2734742E1,-2.6343088E0,5.928906E0,-2.037752E0,7.3286853E0,1.0754291E1,4.1202765E0,1.1717976E1,2.0277977E1,4.847665E0,9.621319E0],"split_indices":[4,4,4,2,3,3,23,3,3,2,16,2,2,2,16,15,14,4,1,7,0,1,9,13,13,11,20,0,3,2,0,4,21,19,4,18,17,16,7,9,20,1,8,6,2,2,3,19,4,5,1,0,0,11,2,0,0,3,3,0,0,0,0,0,0,0,0,0,0,0,0,0,0,0,0,0,0,0,0,0,0,0,0,0,0,0,0,0,0,0,0,0,0,0,0,0,0,0,0,0,0,0,0,0,0,0,0,0,0,0,0],"split_type":[0,0,0,0,0,0,0,0,0,0,0,0,0,0,0,0,0,0,0,0,0,0,0,0,0,0,0,0,0,0,0,0,0,0,0,0,0,0,0,0,0,0,0,0,0,0,0,0,0,0,0,0,0,0,0,0,0,0,0,0,0,0,0,0,0,0,0,0,0,0,0,0,0,0,0,0,0,0,0,0,0,0,0,0,0,0,0,0,0,0,0,0,0,0,0,0,0,0,0,0,0,0,0,0,0,0,0,0,0,0,0],"sum_hessian":[3.905E3,2.546E3,1.359E3,1.167E3,1.379E3,8.8E2,4.79E2,7.31E2,4.36E2,9.17E2,4.62E2,6.67E2,2.13E2,6E0,4.73E2,5.33E2,1.98E2,2.74E2,1.62E2,4.23E2,4.94E2,1.24E2,3.38E2,1.57E2,5.1E2,7.8E1,1.35E2,1E0,5E0,4.65E2,8E0,4.55E2,7.8E1,1.88E2,1E1,1.11E2,1.63E2,6.4E1,9.8E1,3.03E2,1.2E2,2.51E2,2.43E2,7.4E1,5E1,2.71E2,6.7E1,8.4E1,7.3E1,9.8E1,4.12E2,7.5E1,3E0,6.7E1,6.8E1,4E0,1E0,1.19E2,3.46E2,1.59E2,2.96E2,3.7E1,4.1E1,1.83E2,5E0,2E0,8E0,1E0,1.1E2,9.7E1,6.6E1,3.1E1,3.3E1,6.3E1,3.5E1,2.9E2,1.3E1,3.7E1,8.3E1,1.92E2,5.9E1,2.39E2,4E0,5.8E1,1.6E1,1.3E1,3.7E1,1.31E2,1.4E2,6.1E1,6E0,2.8E1,5.6E1,3.6E1,3.7E1,8E0,9E1,2.38E2,1.74E2,1E0,7.4E1,2E0,1E0,3.5E1,3.2E1,4.7E1,2.1E1,1.07E2,1.2E1,1.02E2,2.44E2],"tree_param":{"num_deleted":"0","num_feature":"24","num_nodes":"111","size_leaf_vector":"1"}},{"base_weights":[4.3976333E-2,-7.5061674E0,1.4183809E1,-1.4165464E1,-1.8644538E0,9.1748495E0,2.152151E1,-1.9918613E1,-1.0773977E1,-5.211561E0,4.0740204E0,4.802633E0,1.6832201E1,2.350835E1,7.301721E0,-1.7639887E1,-3.0034374E1,-1.3626333E1,-4.1807427E0,-6.9172287E0,5.904989E0,7.17984E0,-4.080146E0,-1.089926E0,1.0281503E1,1.0955886E1,2.3578537E1,2.3000124E1,2.3585526E1,1.9579694E0,3.0170345E1,-3.4725585E0,-1.8936954E1,-3.9009514E1,-2.7461538E1,-1.5908126E1,-2.0854578E0,-2.0176271E1,-1.0104486E0,-8.477246E0,4.4630837E0,2.6133316E1,2.7053943E0,1.272811E1,2.7496264E0,-1.0458212E1,1.7422172E0,1.1381586E1,-4.665899E0,1.93779E1,4.3948984E0,1.408502E1,-3.556958E0,2.1643057E1,1.8572037E1,1.9157995E1,2.9646868E1,2.710004E1,-2.6999204E0,1.2478228E1,9.910296E0,-3.0768867E0,3.5396712E0,4.487024E0,-5.8217707E0,-3.1074488E0,-1.20948515E1,-8.392509E0,-2.3086503E0,-7.3298416E0,-4.0909677E0,1.1154189E0,-3.45568E0,-6.526396E0,5.4968147E0,5.6933355E-1,-4.740129E0,-3.0538626E0,1.9154033E-1,2.4790046E0,-5.271452E0,-1.5480477E0,1.2248019E1,-3.8005095E0,2.1851113E0,4.4943748E0,-4.1706243E0,-3.4845402E0,2.1179535E0,-1.7053823E0,-5.5725484E0,-5.844265E-1,5.230011E0,5.7472687E0,-7.47192E-1,4.6016994E-1,-3.1001089E0,4.9241114E0,1.7559544E1,5.499922E0,5.694465E-2,3.164299E0,6.8360248E0,-2.8589656E0,4.9729543E0,7.1931367E0,5.983417E-1,-6.193523E0,6.0060005E0,-4.1914926E0,9.467656E0,9.867219E0,1.3665253E0,-4.061525E0,3.7188275E0,-2.4789429E-1,4.645554E0],"categories":[],"categories_nodes":[],"categories_segments":[],"categories_sizes":[],"default_left":[0,0,0,0,0,0,0,0,0,0,0,0,0,0,0,0,0,0,0,0,0,0,0,0,0,0,0,0,0,0,0,0,0,0,0,0,0,0,0,0,0,0,0,0,0,0,0,0,0,0,0,0,0,0,0,0,0,0,0,0,0,0,0,0,0,0,0,0,0,0,0,0,0,0,0,0,0,0,0,0,0,0,0,0,0,0,0,0,0,0,0,0,0,0,0,0,0,0,0,0,0,0,0,0,0,0,0,0,0,0,0,0,0,0,0,0,0],"id":2,"left_children":[1,3,5,7,9,11,13,15,17,19,21,23,25,27,29,31,33,35,37,39,41,43,45,47,49,51,53,55,-1,57,59,61,63,65,67,69,71,73,75,77,79,81,83,85,87,89,91,93,95,97,99,101,103,105,-1,107,109,111,113,-1,115,-1,-1,-1,-1,-1,-1,-1,-1,-1,-1,-1,-1,-1,-1,-1,-1,-1,-1,-1,-1,-1,-1,-1,-1,-1,-1,-1,-1,-1,-1,-1,-1,-1,-1,-1,-1,-1,-1,-1,-1,-1,-1,-1,-1,-1,-1,-1,-1,-1,-1,-1,-1,-1,-1,-1,-1],"loss_changes":[4.1710228E5,9.5663984E4,4.9788344E4,2.2575094E4,2.745109E4,2.7037633E4,1.5395453E4,9.428266E3,1.3803234E4,1.6783527E4,1.2641329E4,1.6702324E4,1.1396898E4,1.17198125E4,8.37302E3,6.457711E3,7.298828E2,1.35024375E4,1.1338771E4,1.3637004E4,7.566547E3,8.838393E3,5.1429077E3,1.1202553E4,1.4265404E4,7.270709E3,8.749117E3,1.1690078E4,0E0,6.748381E3,2.596584E3,3.3325347E3,5.4559062E3,1.4396289E2,4.3430078E2,7.9741484E3,4.7511016E3,2.6469482E3,8.1163584E3,1.0465395E4,7.9327666E3,7.5675996E3,7.3420137E3,9.808504E3,1.2588882E4,2.4517158E3,4.2610376E3,6.08844E3,6.867994E3,1.1225555E4,9.608755E3,3.7919824E3,3.6453896E3,5.9599844E3,0E0,1.0946625E4,1.4952172E4,1.0251377E3,8.185107E3,0E0,3.719278E2,0E0,0E0,0E0,0E0,0E0,0E0,0E0,0E0,0E0,0E0,0E0,0E0,0E0,0E0,0E0,0E0,0E0,0E0,0E0,0E0,0E0,0E0,0E0,0E0,0E0,0E0,0E0,0E0,0E0,0E0,0E0,0E0,0E0,0E0,0E0,0E0,0E0,0E0,0E0,0E0,0E0,0E0,0E0,0E0,0E0,0E0,0E0,0E0,0E0,0E0,0E0,0E0,0E0,0E0,0E0,0E0],"parents":[2147483647,0,0,1,1,2,2,3,3,4,4,5,5,6,6,7,7,8,8,9,9,10,10,11,11,12,12,13,13,14,14,15,15,16,16,17,17,18,18,19,19,20,20,21,21,22,22,23,23,24,24,25,25,26,26,27,27,29,29,30,30,31,31,32,32,33,33,34,34,35,35,36,36,37,37,38,38,39,39,40,40,41,41,42,42,43,43,44,44,45,45,46,46,47,47,48,48,49,49,50,50,51,51,52,52,53,53,55,55,56,56,57,57,58,58,60,60],"right_children":[2,4,6,8,10,12,14,16,18,20,22,24,26,28,30,32,34,36,38,40,42,44,46,48,50,52,54,56,-1,58,60,62,64,66,68,70,72,74,76,78,80,82,84,86,88,90,92,94,96,98,100,102,104,106,-1,108,110,112,114,-1,116,-1,-1,-1,-1,-1,-1,-1,-1,-1,-1,-1,-1,-1,-1,-1,-1,-1,-1,-1,-1,-1,-1,-1,-1,-1,-1,-1,-1,-1,-1,-1,-1,-1,-1,-1,-1,-1,-1,-1,-1,-1,-1,-1,-1,-1,-1,-1,-1,-1,-1,-1,-1,-1,-1,-1,-1],"split_conditions":[1.08E2,6.9E1,1.43E2,6.4E1,1.753495E2,1.7269432E2,6.6E0,2.6476522E1,1.753495E2,1.41E2,2.3379915E1,9.9E1,1.13E2,2.28E2,1.55E2,1.1841756E1,3.2E1,1.29E2,4.6E1,1.36E2,6.5E1,1.7902534E1,7.5E1,1.4154915E1,1.5807239E1,2.4014996E1,1.7E2,1.27E2,2.3585526E1,6.8E1,1.13E2,8.6E1,3.2695E0,1.7E1,1.29E2,4.8E1,1.8161278E1,1.07E2,3.454533E2,1.3E2,2.4703974E1,7.3E1,8.317417E0,3.5334406E2,7E1,7.5E1,2.8139133E2,9.4E1,1.02E2,1.55843E1,3.735506E1,1.3E2,1.36E2,5.8E0,1.8572037E1,4.3E1,6.6E1,1.32E2,1.28E2,1.2478228E1,3.735506E1,-3.0768867E0,3.5396712E0,4.487024E0,-5.8217707E0,-3.1074488E0,-1.20948515E1,-8.392509E0,-2.3086503E0,-7.3298416E0,-4.0909677E0,1.1154189E0,-3.45568E0,-6.526396E0,5.4968147E0,5.6933355E-1,-4.740129E0,-3.0538626E0,1.9154033E-1,2.4790046E0,-5.271452E0,-1.5480477E0,1.2248019E1,-3.8005095E0,2.1851113E0,4.4943748E0,-4.1706243E0,-3.4845402E0,2.1179535E0,-1.7053823E0,-5.5725484E0,-5.844265E-1,5.230011E0,5.7472687E0,-7.47192E-1,4.6016994E-1,-3.1001089E0,4.9241114E0,1.7559544E1,5.499922E0,5.694465E-2,3.164299E0,6.8360248E0,-2.8589656E0,4.9729543E0,7.1931367E0,5.983417E-1,-6.193523E0,6.0060005E0,-4.1914926E0,9.467656E0,9.867219E0,1.3665253E0,-4.061525E0,3.7188275E0,-2.4789429E-1,4.645554E0],"split_indices":[4,4,4,7,3,3,1,2,3,8,0,15,17,11,11,2,4,21,4,19,12,2,23,2,2,2,13,18,0,11,17,11,0,5,15,4,2,5,3,12,2,20,0,3,19,20,3,23,5,2,3,4,9,1,0,23,17,5,16,0,3,0,0,0,0,0,0,0,0,0,0,0,0,0,0,0,0,0,0,0,0,0,0,0,0,0,0,0,0,0,0,0,0,0,0,0,0,0,0,0,0,0,0,0,0,0,0,0,0,0,0,0,0,0,0,0,0],"split_type":[0,0,0,0,0,0,0,0,0,0,0,0,0,0,0,0,0,0,0,0,0,0,0,0,0,0,0,0,0,0,0,0,0,0,0,0,0,0,0,0,0,0,0,0,0,0,0,0,0,0,0,0,0,0,0,0,0,0,0,0,0,0,0,0,0,0,0,0,0,0,0,0,0,0,0,0,0,0,0,0,0,0,0,0,0,0,0,0,0,0,0,0,0,0,0,0,0,0,0,0,0,0,0,0,0,0,0,0,0,0,0,0,0,0,0,0,0],"sum_hessian":[3.905E3,2.546E3,1.359E3,1.167E3,1.379E3,8.09E2,5.5E2,4.31E2,7.36E2,8.82E2,4.97E2,5.16E2,2.93E2,4.82E2,6.8E1,3.54E2,7.7E1,5.13E2,2.23E2,7.65E2,1.17E2,3.6E2,1.37E2,2.49E2,2.67E2,1.58E2,1.35E2,4.79E2,3E0,5.6E1,1.2E1,3E1,3.24E2,1.4E1,6.3E1,4.28E2,8.5E1,3.6E1,1.87E2,6.73E2,9.2E1,1.5E1,1.02E2,1.59E2,2.01E2,6.5E1,7.2E1,5.5E1,1.94E2,1.04E2,1.63E2,1.3E2,2.8E1,1.3E2,5E0,3.06E2,1.73E2,8E0,4.8E1,7E0,5E0,2.1E1,9E0,4E0,3.2E2,1E0,1.3E1,6.1E1,2E0,8.8E1,3.4E2,5.3E1,3.2E1,3.5E1,1E0,1.57E2,3E1,5.67E2,1.06E2,7.9E1,1.3E1,5E0,1E1,2.3E1,7.9E1,1.47E2,1.2E1,4.6E1,1.55E2,4.2E1,2.3E1,5.9E1,1.3E1,3.5E1,2E1,9.3E1,1.01E2,9.8E1,6E0,3.7E1,1.26E2,9.4E1,3.6E1,2.2E1,6E0,1.16E2,1.4E1,6E0,3E2,7E0,1.66E2,6E0,2E0,2.8E1,2E1,2E0,3E0],"tree_param":{"num_deleted":"0","num_feature":"24","num_nodes":"117","size_leaf_vector":"1"}},{"base_weights":[5.109515E-2,-8.152586E0,6.845885E0,-1.2931642E1,-5.4410496E0,2.7824523E0,1.3446793E1,-6.8793855E0,-1.5529419E1,6.724824E-1,-7.3870482E0,4.6921644E0,-5.906795E0,1.0113928E1,1.966459E1,-7.7791147E0,2.2608654E1,-2.2405014E0,-1.6480083E1,-1.3446294E0,1.4950466E1,-9.5083076E-1,-1.0002181E1,-2.0044248E0,7.5925417E0,-3.2605913E0,-2.1237223E1,9.709026E0,1.8340097E1,2.1464663E0,2.1968397E1,-1.7492069E0,-1.1730816E1,9.446284E0,-3.2679212E0,-1.218139E1,2.379925E0,-1.7887238E1,-8.584612E0,-1.0562377E1,9.4298154E-1,6.6188116E0,2.6380058E1,2.674596E0,-1.700814E1,-1.103484E1,1.0586843E0,-7.867885E0,3.013836E0,8.928332E0,-1.7118498E0,2.3832192E0,-1.1097762E1,-2.327888E1,2.4900224E0,9.1376E0,4.5780975E1,-1.1771409E1,1.6756777E1,2.3700712E1,5.429536E0,-8.2813635E0,2.1179168E-2,-2.7180715E0,-6.937867E0,-3.1519663E-1,-5.0404835E0,2.6682959E0,-1.898034E0,-6.8035607E0,-4.833438E0,2.6579719E0,-3.4639225E0,-4.245812E0,8.4023714E-1,-3.1022732E0,9.210487E-1,4.532963E0,-1.9144448E0,9.006365E0,-3.1432447E0,1.1069226E0,-6.7973113E0,2.1191726E0,-6.238664E0,-3.368127E0,8.482158E0,-2.8555176E0,2.327241E0,-2.7870584E0,6.8764243E0,4.341245E-1,6.8364754E0,1.0666003E0,3.304803E0,-2.8496485E0,1.435533E0,-1.6196536E-1,7.3661566E0,-3.6540394E0,1.2135541E1,-4.2656264E0,-9.011716E0,4.9257684E0,2.0483093E0,-2.4041061E0,1.6383223E1,-7.970093E0,1.7738968E-2,8.422673E0,-2.6020842E0,3.5690844E0,7.9953413E0,6.0979466E0,-1.2661216E0],"categories":[],"categories_nodes":[],"categories_segments":[],"categories_sizes":[],"default_left":[0,0,0,0,0,0,0,0,0,0,0,0,0,0,0,0,0,0,0,0,0,0,0,0,0,0,0,0,0,0,0,0,0,0,0,0,0,0,0,0,0,0,0,0,0,0,0,0,0,0,0,0,0,0,0,0,0,0,0,0,0,0,0,0,0,0,0,0,0,0,0,0,0,0,0,0,0,0,0,0,0,0,0,0,0,0,0,0,0,0,0,0,0,0,0,0,0,0,0,0,0,0,0,0,0,0,0,0,0,0,0,0,0,0,0],"id":3,"left_children":[1,3,5,7,9,11,13,15,17,19,21,23,25,27,29,31,33,35,37,39,41,43,45,47,49,51,53,55,-1,57,59,61,63,-1,-1,65,67,69,71,73,75,77,79,81,83,85,87,89,91,93,95,97,99,101,-1,103,105,107,109,111,113,-1,-1,-1,-1,-1,-1,-1,-1,-1,-1,-1,-1,-1,-1,-1,-1,-1,-1,-1,-1,-1,-1,-1,-1,-1,-1,-1,-1,-1,-1,-1,-1,-1,-1,-1,-1,-1,-1,-1,-1,-1,-1,-1,-1,-1,-1,-1,-1,-1,-1,-1,-1,-1,-1],"loss_changes":[2.1778519E5,2.2866336E4,5.7281945E4,9.955508E3,1.3460387E4,2.1998121E4,1.6669703E4,5.3229385E3,5.6101562E3,7.9113823E3,1.4431973E4,2.11082E4,9.626371E3,1.0396488E4,1.1374266E4,4.483046E3,2.127759E3,1.4528563E3,4.479383E3,5.0918354E3,3.0631265E3,1.4540925E4,6.979172E3,9.704331E3,9.43625E3,9.093908E3,2.3038926E3,1.0485664E4,0E0,7.110964E3,7.033953E3,3.577874E3,3.2597559E3,0E0,0E0,4.9661182E2,1.3040883E3,2.6380469E3,3.460662E3,2.3425898E3,4.6883066E3,2.4145361E3,2.1934043E3,5.329662E3,4.340745E3,4.534297E3,3.8290774E3,6.8693154E3,5.481757E3,7.3977617E3,4.902254E3,7.7901035E3,5.291135E3,1.5940664E3,0E0,8.667855E3,4.237586E3,3.1522822E3,5.136821E3,7.553625E3,3.6796538E3,0E0,0E0,0E0,0E0,0E0,0E0,0E0,0E0,0E0,0E0,0E0,0E0,0E0,0E0,0E0,0E0,0E0,0E0,0E0,0E0,0E0,0E0,0E0,0E0,0E0,0E0,0E0,0E0,0E0,0E0,0E0,0E0,0E0,0E0,0E0,0E0,0E0,0E0,0E0,0E0,0E0,0E0,0E0,0E0,0E0,0E0,0E0,0E0,0E0,0E0,0E0,0E0,0E0,0E0],"parents":[2147483647,0,0,1,1,2,2,3,3,4,4,5,5,6,6,7,7,8,8,9,9,10,10,11,11,12,12,13,13,14,14,15,15,16,16,17,17,18,18,19,19,20,20,21,21,22,22,23,23,24,24,25,25,26,26,27,27,29,29,30,30,31,31,32,32,35,35,36,36,37,37,38,38,39,39,40,40,41,41,42,42,43,43,44,44,45,45,46,46,47,47,48,48,49,49,50,50,51,51,52,52,53,53,55,55,56,56,57,57,58,58,59,59,60,60],"right_children":[2,4,6,8,10,12,14,16,18,20,22,24,26,28,30,32,34,36,38,40,42,44,46,48,50,52,54,56,-1,58,60,62,64,-1,-1,66,68,70,72,74,76,78,80,82,84,86,88,90,92,94,96,98,100,102,-1,104,106,108,110,112,114,-1,-1,-1,-1,-1,-1,-1,-1,-1,-1,-1,-1,-1,-1,-1,-1,-1,-1,-1,-1,-1,-1,-1,-1,-1,-1,-1,-1,-1,-1,-1,-1,-1,-1,-1,-1,-1,-1,-1,-1,-1,-1,-1,-1,-1,-1,-1,-1,-1,-1,-1,-1,-1,-1],"split_conditions":[8.3E1,5.7E1,1.3E2,1.7798666E1,1.481259E1,5.6999993E0,1.753495E2,1.82E2,1.1841756E1,1.37E2,1.3450752E1,7.3E1,2.7800001E1,1.96E2,6.8E1,5.6E1,2.30653E1,5.6E1,1E2,5.5E1,1.28E2,6.8000007E0,1.36E2,7.5E1,2.4826954E1,1.9164719E1,1.54E2,2.16E2,1.8340097E1,8.5E1,6.0999994E0,2.9E1,4.1E0,9.446284E0,-3.2679212E0,4.4E1,8.4E1,3.9E1,5.1E1,1.6764464E2,5.2E1,8.6E1,1.71E2,3.030208E1,5.6E1,1.7E2,8.6E1,1.37E2,1.63E2,7.4E1,1.8242033E2,1.53E2,1.75E2,9.7E1,2.4900224E0,1.405845E1,4.3715835E0,9.6E1,1.14E2,4.3715835E0,1.02E2,-8.2813635E0,2.1179168E-2,-2.7180715E0,-6.937867E0,-3.1519663E-1,-5.0404835E0,2.6682959E0,-1.898034E0,-6.8035607E0,-4.833438E0,2.6579719E0,-3.4639225E0,-4.245812E0,8.4023714E-1,-3.1022732E0,9.210487E-1,4.532963E0,-1.9144448E0,9.006365E0,-3.1432447E0,1.1069226E0,-6.7973113E0,2.1191726E0,-6.238664E0,-3.368127E0,8.482158E0,-2.8555176E0,2.327241E0,-2.7870584E0,6.8764243E0,4.341245E-1,6.8364754E0,1.0666003E0,3.304803E0,-2.8496485E0,1.435533E0,-1.6196536E-1,7.3661566E0,-3.6540394E0,1.2135541E1,-4.2656264E0,-9.011716E0,4.9257684E0,2.0483093E0,-2.4041061E0,1.6383223E1,-7.970093E0,1.7738968E-2,8.422673E0,-2.6020842E0,3.5690844E0,7.9953413E0,6.0979466E0,-1.2661216E0],"split_indices":[4,4,4,0,2,1,3,17,2,13,0,13,1,13,18,5,2,23,10,18,9,1,11,23,2,2,16,16,0,8,1,4,1,0,0,5,7,4,22,3,9,10,15,2,6,20,7,8,16,7,3,18,11,18,0,2,0,6,22,0,18,0,0,0,0,0,0,0,0,0,0,0,0,0,0,0,0,0,0,0,0,0,0,0,0,0,0,0,0,0,0,0,0,0,0,0,0,0,0,0,0,0,0,0,0,0,0,0,0,0,0,0,0,0,0],"split_type":[0,0,0,0,0,0,0,0,0,0,0,0,0,0,0,0,0,0,0,0,0,0,0,0,0,0,0,0,0,0,0,0,0,0,0,0,0,0,0,0,0,0,0,0,0,0,0,0,0,0,0,0,0,0,0,0,0,0,0,0,0,0,0,0,0,0,0,0,0,0,0,0,0,0,0,0,0,0,0,0,0,0,0,0,0,0,0,0,0,0,0,0,0,0,0,0,0,0,0,0,0,0,0,0,0,0,0,0,0,0,0,0,0,0,0],"sum_hessian":[3.905E3,1.769E3,2.136E3,6.39E2,1.13E3,1.323E3,8.13E2,1.93E2,4.46E2,2.73E2,8.57E2,1.085E3,2.38E2,5.31E2,2.82E2,1.88E2,5E0,3E1,4.16E2,2.4E2,3.3E1,2.48E2,6.09E2,3.28E2,7.57E2,2.04E2,3.4E1,5.28E2,3E0,3.3E1,2.49E2,7.5E1,1.13E2,4E0,1E0,9E0,2.1E1,3.52E2,6.4E1,4.7E1,1.93E2,2E1,1.3E1,2.03E2,4.5E1,5.57E2,5.2E1,1.51E2,1.77E2,6.62E2,9.5E1,1.19E2,8.5E1,3.2E1,2E0,5.21E2,7E0,1.7E1,1.6E1,2.25E2,2.4E1,4E0,7.1E1,9.3E1,2E1,3E0,6E0,1.2E1,9E0,9.2E1,2.6E2,9E0,5.5E1,3.7E1,1E1,3E1,1.63E2,1.2E1,8E0,1.2E1,1E0,1.96E2,7E0,6E0,3.9E1,5.55E2,2E0,2E1,3.2E1,1.45E2,6E0,1.65E2,1.2E1,1.86E2,4.76E2,4.3E1,5.2E1,1.06E2,1.3E1,8.4E1,1E0,1.5E1,1.7E1,1.24E2,3.97E2,1E0,6E0,7E0,1E1,1.1E1,5E0,4.6E1,1.79E2,9E0,1.5E1],"tree_param":{"num_deleted":"0","num_feature":"24","num_nodes":"115","size_leaf_vector":"1"}},{"base_weights":[4.643611E-2,-4.9759226E0,5.568037E0,-3.9545155E0,-1.5168733E1,3.2389505E0,1.1426457E1,-5.480085E0,2.0651803E0,4.4557886E0,-1.6191765E1,1.1473057E0,9.133022E0,1.3934843E1,5.1133246E0,-2.6436903E0,-8.39424E0,3.0600312E0,-1.684096E1,1.2137342E1,-5.2540855E0,-1.6731745E1,1.1345327E1,1.3133379E1,1.3072169E-1,1.29311E1,3.3018901E0,1.3286647E1,4.6391136E1,-1.5101441E1,8.114694E0,-4.8816442E0,2.8106234E0,-9.981363E0,-1.7295632E0,3.6540098E0,-2.3457542E1,-4.5746365E0,-2.5346045E1,4.7419534E0,7.532247E-1,-1.7114517E1,1.0791141E1,-1.5444363E0,1.8559183E1,6.7843976E0,2.4001797E1,8.229917E0,-1.1711015E0,-2.3890662E0,1.5991299E1,2.6972317E1,8.5293394E-1,1.1746665E1,2.6912247E1,9.191956E0,1.7829727E1,-2.2911987E1,6.941831E0,-1.3831784E0,1.3152455E1,-2.2340739E0,1.5875661E-1,-7.958717E-1,2.4894812E0,-3.6777456E0,-1.222748E0,-2.9955392E0,5.871145E-1,5.3879935E-1,3.4592066E0,-9.651412E0,5.3678817E-1,-3.0276713E0,5.5736756E-1,-8.799547E0,-3.3113933E0,7.9789126E-1,-4.5894015E-1,-5.280538E0,8.0426335E-1,-2.0850713E0,6.9410844E0,1.7541916E0,6.597441E0,2.9720514E0,-5.3293905E0,1.0075989E1,1.8406637E0,1.3385822E0,7.4729705E0,-1.6190931E0,5.4513514E-1,-3.2828984E0,2.031842E0,-7.341469E0,5.1223717E0,-3.2722757E0,9.311382E0,-2.2128873E0,1.2191383E0,3.0023665E0,7.3090262E0,-7.608749E-1,1.0940525E1,4.2108836E0,-7.450333E-2,-7.844707E0,-3.7425002E-1,6.43117E0,-4.409795E0,8.9163E-1,-8.00852E0,5.1240034E0,-5.4090357E-1],"categories":[],"categories_nodes":[],"categories_segments":[],"categories_sizes":[],"default_left":[0,0,0,0,0,0,0,0,0,0,0,0,0,0,0,0,0,0,0,0,0,0,0,0,0,0,0,0,0,0,0,0,0,0,0,0,0,0,0,0,0,0,0,0,0,0,0,0,0,0,0,0,0,0,0,0,0,0,0,0,0,0,0,0,0,0,0,0,0,0,0,0,0,0,0,0,0,0,0,0,0,0,0,0,0,0,0,0,0,0,0,0,0,0,0,0,0,0,0,0,0,0,0,0,0,0,0,0,0,0,0,0,0,0,0],"id":4,"left_children":[1,3,5,7,9,11,13,15,17,19,21,23,25,27,29,31,33,35,37,39,-1,41,43,45,47,49,51,53,55,57,59,61,63,65,67,69,71,73,75,-1,77,79,81,-1,83,85,87,89,91,93,95,97,99,101,103,105,-1,107,109,111,113,-1,-1,-1,-1,-1,-1,-1,-1,-1,-1,-1,-1,-1,-1,-1,-1,-1,-1,-1,-1,-1,-1,-1,-1,-1,-1,-1,-1,-1,-1,-1,-1,-1,-1,-1,-1,-1,-1,-1,-1,-1,-1,-1,-1,-1,-1,-1,-1,-1,-1,-1,-1,-1,-1],"loss_changes":[1.083468E5,2.1240938E4,2.5355902E4,1.7101746E4,3.806375E3,1.6423152E4,8.305867E3,1.2252367E4,7.1424473E3,1.9001606E3,2.8217305E3,1.2000361E4,7.6866387E3,7.335992E3,9.344681E3,9.217424E3,7.725582E3,5.7402793E3,1.8662466E3,3.222561E2,0E0,2.0177773E3,5.714705E2,5.150422E3,9.593879E3,9.930465E3,8.0345234E3,7.4896094E3,2.8495762E3,3.6024512E3,6.3819785E3,7.429869E3,6.618035E3,7.89991E3,4.3413213E3,5.1307993E3,1.8175366E3,3.3817938E2,3.0355322E2,0E0,1.712588E1,1.7062656E3,8.179022E2,0E0,2.3015137E0,4.0086355E3,4.588787E3,7.807927E3,9.910031E3,2.8954348E3,8.132332E3,2.34062E3,3.3856826E3,7.12725E3,1.0504838E4,1.406814E2,0E0,1.01931055E3,2.1972954E3,5.2606353E3,5.141039E3,0E0,0E0,0E0,0E0,0E0,0E0,0E0,0E0,0E0,0E0,0E0,0E0,0E0,0E0,0E0,0E0,0E0,0E0,0E0,0E0,0E0,0E0,0E0,0E0,0E0,0E0,0E0,0E0,0E0,0E0,0E0,0E0,0E0,0E0,0E0,0E0,0E0,0E0,0E0,0E0,0E0,0E0,0E0,0E0,0E0,0E0,0E0,0E0,0E0,0E0,0E0,0E0,0E0,0E0],"parents":[2147483647,0,0,1,1,2,2,3,3,4,4,5,5,6,6,7,7,8,8,9,9,10,10,11,11,12,12,13,13,14,14,15,15,16,16,17,17,18,18,19,19,21,21,22,22,23,23,24,24,25,25,26,26,27,27,28,28,29,29,30,30,31,31,32,32,33,33,34,34,35,35,36,36,37,37,38,38,40,40,41,41,42,42,44,44,45,45,46,46,47,47,48,48,49,49,50,50,51,51,52,52,53,53,54,54,55,55,57,57,58,58,59,59,60,60],"right_children":[2,4,6,8,10,12,14,16,18,20,22,24,26,28,30,32,34,36,38,40,-1,42,44,46,48,50,52,54,56,58,60,62,64,66,68,70,72,74,76,-1,78,80,82,-1,84,86,88,90,92,94,96,98,100,102,104,106,-1,108,110,112,114,-1,-1,-1,-1,-1,-1,-1,-1,-1,-1,-1,-1,-1,-1,-1,-1,-1,-1,-1,-1,-1,-1,-1,-1,-1,-1,-1,-1,-1,-1,-1,-1,-1,-1,-1,-1,-1,-1,-1,-1,-1,-1,-1,-1,-1,-1,-1,-1,-1,-1,-1,-1,-1,-1],"split_conditions":[9.1E1,1.4300001E1,1.44E2,1.22E2,1.1384198E1,2.2443613E2,2.0275383E1,1.8161278E1,1.7E2,9.2E1,1.72E2,1.1113451E1,4E-1,2E2,6E1,1.6065483E2,1.11E2,1.55E2,1.4E2,1.6672421E2,-5.2540855E0,1.78E2,5.971583E0,1.13E2,7.1E1,2.4275832E0,1.1966953E1,1.65E2,1.24E2,1.1E2,1.04E2,8.7E1,7.4E1,1.9386852E2,6E1,1.41E2,1.27E2,7.7E1,1.65E2,4.7419534E0,2.391742E1,1.66E2,8.231749E0,-1.5444363E0,1.7417418E1,1.54E2,1E-1,1.27E2,8.7E1,1.2E2,4.4E1,6.1E1,7E1,1.57E2,3.8198723E1,1.1988252E1,1.7829727E1,1.49E2,9.154668E0,9.9E1,1.67E2,-2.2340739E0,1.5875661E-1,-7.958717E-1,2.4894812E0,-3.6777456E0,-1.222748E0,-2.9955392E0,5.871145E-1,5.3879935E-1,3.4592066E0,-9.651412E0,5.3678817E-1,-3.0276713E0,5.5736756E-1,-8.799547E0,-3.3113933E0,7.9789126E-1,-4.5894015E-1,-5.280538E0,8.0426335E-1,-2.0850713E0,6.9410844E0,1.7541916E0,6.597441E0,2.9720514E0,-5.3293905E0,1.0075989E1,1.8406637E0,1.3385822E0,7.4729705E0,-1.6190931E0,5.4513514E-1,-3.2828984E0,2.031842E0,-7.341469E0,5.1223717E0,-3.2722757E0,9.311382E0,-2.2128873E0,1.2191383E0,3.0023665E0,7.3090262E0,-7.608749E-1,1.0940525E1,4.2108836E0,-7.450333E-2,-7.844707E0,-3.7425002E-1,6.43117E0,-4.409795E0,8.9163E-1,-8.00852E0,5.1240034E0,-5.4090357E-1],"split_indices":[4,1,4,16,2,3,2,2,14,9,13,2,1,11,23,3,14,5,16,3,0,15,0,9,5,0,2,18,5,18,14,13,7,3,4,18,12,19,17,0,0,18,0,0,0,7,1,21,17,20,6,8,18,15,3,0,0,21,0,14,5,0,0,0,0,0,0,0,0,0,0,0,0,0,0,0,0,0,0,0,0,0,0,0,0,0,0,0,0,0,0,0,0,0,0,0,0,0,0,0,0,0,0,0,0,0,0,0,0,0,0,0,0,0,0],"split_type":[0,0,0,0,0,0,0,0,0,0,0,0,0,0,0,0,0,0,0,0,0,0,0,0,0,0,0,0,0,0,0,0,0,0,0,0,0,0,0,0,0,0,0,0,0,0,0,0,0,0,0,0,0,0,0,0,0,0,0,0,0,0,0,0,0,0,0,0,0,0,0,0,0,0,0,0,0,0,0,0,0,0,0,0,0,0,0,0,0,0,0,0,0,0,0,0,0,0,0,0,0,0,0,0,0,0,0,0,0,0,0,0,0,0,0],"sum_hessian":[3.905E3,2.045E3,1.86E3,1.86E3,1.85E2,1.332E3,5.28E2,1.484E3,3.76E2,9E0,1.76E2,9.84E2,3.48E2,3.77E2,1.51E2,7.53E2,7.31E2,3.58E2,1.8E1,7E0,2E0,1.73E2,3E0,7.6E1,9.08E2,2.1E2,1.38E2,3.71E2,6E0,1.9E1,1.32E2,5.34E2,2.19E2,5.9E2,1.41E2,3.51E2,7E0,8E0,1E1,5E0,2E0,1.71E2,2E0,1E0,2E0,4.9E1,2.7E1,1.25E2,7.83E2,3.5E1,1.75E2,1.2E1,1.26E2,3.35E2,3.6E1,2E0,4E0,1.4E1,5E0,4.6E1,8.6E1,3.62E2,1.72E2,1.1E2,1.09E2,4.25E2,1.65E2,4.3E1,9.8E1,2.85E2,6.6E1,5E0,2E0,4E0,4E0,7E0,3E0,1E0,1E0,1.67E2,4E0,1E0,1E0,1E0,1E0,4.4E1,5E0,1.7E1,1E1,1.03E2,2.2E1,3.24E2,4.59E2,1.8E1,1.7E1,4E0,1.71E2,1E0,1.1E1,3.5E1,9.1E1,2.96E2,3.9E1,9E0,2.7E1,1E0,1E0,1.2E1,2E0,3E0,2E0,4E1,6E0,6.8E1,1.8E1],"tree_param":{"num_deleted":"0","num_feature":"24","num_nodes":"115","size_leaf_vector":"1"}},{"base_weights":[4.0754694E-2,-2.7680917E0,5.3011155E0,-6.5982466E0,-1.2167675E0,4.169596E0,1.3821777E1,-9.551102E0,-3.8671682E0,-4.4333506E0,6.311031E-1,1.009985E1,2.457168E0,1.1172047E1,2.9814558E1,-1.2827743E1,-6.7852273E0,-6.3230453E0,2.6101995E0,-4.0054846E0,-2.5485626E1,-2.7533953E0,3.2176752E0,9.071153E0,2.8188902E1,-1.1800631E0,5.643941E0,9.661391E0,4.2796238E1,3.780098E1,1.4078503E1,-3.3277602E0,-1.4008531E1,-7.7806826E0,6.49814E0,-6.7426715E0,7.232109E0,5.8484297E0,-6.6194572E0,-9.435296E0,-2.6818368E0,-9.951516E0,-1.0989898E1,-3.2034671E0,2.5326456E1,3.8649364E0,-1.986694E1,-2.1347084E0,1.0512142E1,4.290947E1,1.5243089E1,-7.5833983E0,2.1930506E0,4.9723E0,3.4927284E1,1.29383335E1,-6.5734806E0,1.6158358E1,4.1332674E0,1.6174027E0,3.987931E1,5.489235E0,4.2304573E0,1.3345919E0,-2.4704142E0,-4.3342824E0,1.4254503E0,-2.4521527E0,3.468546E0,4.50573E0,-3.553023E0,3.5504987E0,-2.1816208E0,6.28536E0,9.2916864E-1,-3.7290313E0,2.1085765E0,3.3287632E0,-3.272636E0,-1.9457706E0,1.4833339E-2,-5.6441236E-1,-3.7305984E0,-1.3412514E-1,-2.0840533E0,8.520623E0,5.695667E-1,5.207482E-1,2.6153462E0,-9.515914E0,-4.614521E0,-7.3115344E0,2.1177926E0,2.8984141E0,1.2071496E1,4.773087E0,1.5729447E1,3.6456987E-1,5.7232327E0,8.70293E0,-2.8691068E0,1.9781778E-3,6.2770433E0,-8.809344E-1,1.9314969E0,4.460187E0,1.6807747E1,2.9129899E0,8.417815E0,-6.650435E0,2.1382897E0,1.2457056E1,3.0223277E0,1.6789795E0,1.9805146E-2],"categories":[],"categories_nodes":[],"categories_segments":[],"categories_sizes":[],"default_left":[0,0,0,0,0,0,0,0,0,0,0,0,0,0,0,0,0,0,0,0,0,0,0,0,0,0,0,0,0,0,0,0,0,0,0,0,0,0,0,0,0,0,0,0,0,0,0,0,0,0,0,0,0,0,0,0,0,0,0,0,0,0,0,0,0,0,0,0,0,0,0,0,0,0,0,0,0,0,0,0,0,0,0,0,0,0,0,0,0,0,0,0,0,0,0,0,0,0,0,0,0,0,0,0,0,0,0,0,0,0,0,0,0,0,0],"id":5,"left_children":[1,3,5,7,9,11,13,15,17,19,21,23,25,27,29,31,33,35,37,39,41,43,45,47,49,51,53,55,57,59,61,63,65,67,69,71,-1,73,75,77,79,-1,81,83,85,87,89,91,93,95,97,99,101,103,105,107,109,-1,-1,-1,111,-1,113,-1,-1,-1,-1,-1,-1,-1,-1,-1,-1,-1,-1,-1,-1,-1,-1,-1,-1,-1,-1,-1,-1,-1,-1,-1,-1,-1,-1,-1,-1,-1,-1,-1,-1,-1,-1,-1,-1,-1,-1,-1,-1,-1,-1,-1,-1,-1,-1,-1,-1,-1,-1],"loss_changes":[5.7727953E4,1.5125766E4,1.3054531E4,5.8823906E3,1.0784905E4,1.2181652E4,6.404787E3,3.1030566E3,6.1091226E3,5.860917E3,1.0102509E4,4.7498926E3,1.0832681E4,6.1792383E3,2.232664E3,1.7481777E3,2.6025967E3,3.7124004E3,3.2068152E3,4.6463486E3,1.0838477E3,6.4001084E3,9.848707E3,4.156209E3,2.0139033E3,9.455472E3,9.620939E3,7.16075E3,1.1844658E3,7.2800977E2,2.965287E2,7.616434E2,1.2383125E3,1.4633516E3,2.3659043E3,2.7906846E3,0E0,3.217619E3,2.3078774E3,3.9631074E3,5.444666E3,0E0,5.5598938E1,5.083758E3,5.2251953E2,6.5665547E3,4.6901367E2,6.3054883E3,5.352051E3,7.083203E2,4.609065E2,1.1219674E4,1.1753449E4,5.6769727E3,3.8226504E3,5.1461523E3,5.072275E3,0E0,0E0,0E0,2.1874219E2,0E0,2.2387375E1,0E0,0E0,0E0,0E0,0E0,0E0,0E0,0E0,0E0,0E0,0E0,0E0,0E0,0E0,0E0,0E0,0E0,0E0,0E0,0E0,0E0,0E0,0E0,0E0,0E0,0E0,0E0,0E0,0E0,0E0,0E0,0E0,0E0,0E0,0E0,0E0,0E0,0E0,0E0,0E0,0E0,0E0,0E0,0E0,0E0,0E0,0E0,0E0,0E0,0E0,0E0,0E0],"parents":[2147483647,0,0,1,1,2,2,3,3,4,4,5,5,6,6,7,7,8,8,9,9,10,10,11,11,12,12,13,13,14,14,15,15,16,16,17,17,18,18,19,19,20,20,21,21,22,22,23,23,24,24,25,25,26,26,27,27,28,28,29,29,30,30,31,31,32,32,33,33,34,34,35,35,37,37,38,38,39,39,40,40,42,42,43,43,44,44,45,45,46,46,47,47,48,48,49,49,50,50,51,51,52,52,53,53,54,54,55,55,56,56,60,60,62,62],"right_children":[2,4,6,8,10,12,14,16,18,20,22,24,26,28,30,32,34,36,38,40,42,44,46,48,50,52,54,56,58,60,62,64,66,68,70,72,-1,74,76,78,80,-1,82,84,86,88,90,92,94,96,98,100,102,104,106,108,110,-1,-1,-1,112,-1,114,-1,-1,-1,-1,-1,-1,-1,-1,-1,-1,-1,-1,-1,-1,-1,-1,-1,-1,-1,-1,-1,-1,-1,-1,-1,-1,-1,-1,-1,-1,-1,-1,-1,-1,-1,-1,-1,-1,-1,-1,-1,-1,-1,-1,-1,-1,-1,-1,-1,-1,-1,-1],"split_conditions":[1.08E2,5.9E1,1.68E2,7.2E1,7.3E1,1.4113652E1,1.66E2,4.7E1,1.09E2,1.55E2,8.7E1,3.2776422E2,1.3804037E2,1.93E2,1.94E2,3.4E1,1.31E2,1.71E2,1.27E2,5.2E1,1.18E2,1.73E2,3.1452133E1,4.471334E0,1.16E2,1.1236168E1,1.83E2,1.6E2,1.83E2,1.1310046E1,1.51E2,2.5146584E1,1.04E2,1.27E2,8.6E1,3.5E1,7.232109E0,1.4917212E1,1.32E2,3.3E1,7.4E1,-9.951516E0,8.638377E0,8.8E1,9.8E1,1.31E2,6.8E1,5.264091E1,1.72E2,5.7E1,9.2E1,5.7E1,1.59E2,6.8E1,1.36E2,1.8529665E1,9.7E1,1.6158358E1,4.1332674E0,1.6174027E0,2.3828083E1,5.489235E0,1.23340845E1,1.3345919E0,-2.4704142E0,-4.3342824E0,1.4254503E0,-2.4521527E0,3.468546E0,4.50573E0,-3.553023E0,3.5504987E0,-2.1816208E0,6.28536E0,9.2916864E-1,-3.7290313E0,2.1085765E0,3.3287632E0,-3.272636E0,-1.9457706E0,1.4833339E-2,-5.6441236E-1,-3.7305984E0,-1.3412514E-1,-2.0840533E0,8.520623E0,5.695667E-1,5.207482E-1,2.6153462E0,-9.515914E0,-4.614521E0,-7.3115344E0,2.1177926E0,2.8984141E0,1.2071496E1,4.773087E0,1.5729447E1,3.6456987E-1,5.7232327E0,8.70293E0,-2.8691068E0,1.9781778E-3,6.2770433E0,-8.809344E-1,1.9314969E0,4.460187E0,1.6807747E1,2.9129899E0,8.417815E0,-6.650435E0,2.1382897E0,1.2457056E1,3.0223277E0,1.6789795E0,1.9805146E-2],"split_indices":[4,4,4,12,10,2,15,4,21,5,20,3,3,18,15,6,6,8,9,14,20,18,2,0,8,0,15,6,5,3,19,0,5,11,18,16,0,2,17,8,4,0,3,5,5,16,8,3,22,7,20,19,11,13,8,0,23,0,0,0,2,0,0,0,0,0,0,0,0,0,0,0,0,0,0,0,0,0,0,0,0,0,0,0,0,0,0,0,0,0,0,0,0,0,0,0,0,0,0,0,0,0,0,0,0,0,0,0,0,0,0,0,0,0,0],"split_type":[0,0,0,0,0,0,0,0,0,0,0,0,0,0,0,0,0,0,0,0,0,0,0,0,0,0,0,0,0,0,0,0,0,0,0,0,0,0,0,0,0,0,0,0,0,0,0,0,0,0,0,0,0,0,0,0,0,0,0,0,0,0,0,0,0,0,0,0,0,0,0,0,0,0,0,0,0,0,0,0,0,0,0,0,0,0,0,0,0,0,0,0,0,0,0,0,0,0,0,0,0,0,0,0,0,0,0,0,0,0,0,0,0,0,0],"sum_hessian":[3.905E3,2.546E3,1.359E3,7.33E2,1.813E3,1.201E3,1.58E2,3.51E2,3.82E2,6.61E2,1.152E3,2.68E2,9.33E2,1.37E2,2.1E1,1.59E2,1.92E2,2.77E2,1.05E2,6.49E2,1.2E1,4.99E2,6.53E2,2.55E2,1.3E1,4.36E2,4.97E2,1.32E2,5E0,1.3E1,8E0,1.8E1,1.41E2,1.79E2,1.3E1,2.74E2,3E0,7.8E1,2.7E1,1.26E2,5.23E2,7E0,5E0,4.92E2,7E0,6.36E2,1.7E1,2.9E1,2.26E2,5E0,8E0,1.5E2,2.86E2,4.87E2,1E1,1.1E2,2.2E1,3E0,2E0,1E0,1.2E1,5E0,3E0,7E0,1.1E1,1.38E2,3E0,1.76E2,3E0,9E0,4E0,7E0,2.67E2,1.1E1,6.7E1,1.9E1,8E0,8E0,1.18E2,2.18E2,3.05E2,1E0,4E0,2.84E2,2.08E2,6E0,1E0,4.43E2,1.93E2,3E0,1.4E1,8E0,2.1E1,2.21E2,5E0,2E0,3E0,2E0,6E0,7E0,1.43E2,2.57E2,2.9E1,7.6E1,4.11E2,6E0,4E0,9.2E1,1.8E1,1E1,1.2E1,1.1E1,1E0,2E0,1E0],"tree_param":{"num_deleted":"0","num_feature":"24","num_nodes":"115","size_leaf_vector":"1"}},{"base_weights":[5.7731334E-2,-3.0885592E0,2.5605671E0,-2.6170187E0,-1.1758809E1,3.7060258E0,-3.2666671E0,-3.8039925E0,1.2191491E0,-1.335869E1,-2.2338219E0,1.4069929E0,6.319489E0,-1.4566531E1,-1.6368564E0,2.7414725E0,-4.5954027E0,-2.642284E0,5.2773986E0,-1.5794895E1,-6.226015E0,2.4320896E0,-5.096227E0,1.7287254E1,8.110398E-1,-8.2978845E-1,7.426473E0,6.356705E-1,-2.1452547E1,-5.5403376E0,2.559882E0,-5.7975066E-1,1.2722193E1,9.868895E-1,-5.644239E0,-8.520845E-2,-9.55428E0,1.4996051E1,1.5066308E0,-1.3542421E1,-2.2925432E1,2.1630876E0,-1.1554931E1,7.8721845E-1,1.5984668E0,-2.1428678E0,-2.030316E0,1.9389997E1,-3.856514E0,-1.0309793E0,5.4233985E0,-1.3975769E1,2.6086173E0,7.255738E-1,8.513961E0,1.7572752E1,-9.590145E0,-2.393702E1,1.301897E0,2.6399612E-1,-1.1002317E1,-2.3403947E0,7.4909534E0,3.4928339E0,-7.899641E-1,1.7170085E0,1.0425893E1,1.2173617E0,-1.2857876E0,-2.0449119E0,-7.313625E-1,1.3916712E0,-9.915678E-1,-3.272372E0,5.1279993E0,5.902726E-1,6.6656404E0,-2.770434E-1,3.7582986E0,-4.6387544E0,-1.5827539E0,-7.306504E0,-1.080011E0,3.4238138E0,-1.3091531E0,-4.716903E-1,-4.317747E0,-1.9888306E-2,4.1349754E-1,4.4734958E-3,-7.6360536E-1,6.4815464E0,9.321387E-1,-3.4241743E0,7.401772E-1,-7.868499E-1,1.6394523E0,7.630721E-1,4.194578E0,-2.1566029E-1,-7.541355E0,-2.9465325E0,2.4601135E0,1.0609254E0,-4.856359E0,-1.7060574E0,2.710122E0,8.300623E0,-5.2384645E-1,-5.49298E0,5.0578017E0,-3.3711295E0,-9.448083E0,-5.38665E-1,1.5891358E0,9.2572254E-1,-5.31497E0,2.4604264E-1,-4.204286E0,-3.9877186E0,5.2068365E-1,3.523306E0,-1.7662102E0],"categories":[],"categories_nodes":[],"categories_segments":[],"categories_sizes":[],"default_left":[0,0,0,0,0,0,0,0,0,0,0,0,0,0,0,0,0,0,0,0,0,0,0,0,0,0,0,0,0,0,0,0,0,0,0,0,0,0,0,0,0,0,0,0,0,0,0,0,0,0,0,0,0,0,0,0,0,0,0,0,0,0,0,0,0,0,0,0,0,0,0,0,0,0,0,0,0,0,0,0,0,0,0,0,0,0,0,0,0,0,0,0,0,0,0,0,0,0,0,0,0,0,0,0,0,0,0,0,0,0,0,0,0,0,0,0,0,0,0,0,0,0,0],"id":6,"left_children":[1,3,5,7,9,11,13,15,17,19,21,23,25,27,29,31,33,35,37,39,41,43,45,47,49,51,53,55,57,59,61,63,65,67,69,71,73,75,77,79,81,83,85,87,-1,-1,89,91,93,95,97,99,101,103,105,107,109,111,113,115,117,119,121,-1,-1,-1,-1,-1,-1,-1,-1,-1,-1,-1,-1,-1,-1,-1,-1,-1,-1,-1,-1,-1,-1,-1,-1,-1,-1,-1,-1,-1,-1,-1,-1,-1,-1,-1,-1,-1,-1,-1,-1,-1,-1,-1,-1,-1,-1,-1,-1,-1,-1,-1,-1,-1,-1,-1,-1,-1,-1,-1,-1],"loss_changes":[3.0766287E4,7.046201E3,1.4536593E4,7.485924E3,1.326416E3,1.0920459E4,6.5693135E3,6.5136816E3,6.1098306E3,1.2222881E3,1.993747E2,9.156488E3,6.7410938E3,4.7243535E3,5.1580957E3,4.5155312E3,6.5630703E3,3.5340852E3,6.9402954E3,5.889697E2,9.6379553E2,2.4388111E1,4.1971725E1,1.630876E3,7.9494014E3,5.234597E3,5.3644453E3,2.7664573E3,1.7836787E3,5.170518E3,3.6904014E3,2.6158044E3,5.043548E3,2.8997144E3,3.5274453E3,2.2514558E3,2.1342812E3,4.943658E3,3.707527E3,6.326885E2,2.4384619E2,5.9314825E2,3.4561255E2,2.6139612E0,0E0,0E0,5.3047714E0,1.087081E3,2.1932613E2,6.932058E3,6.545202E3,3.5333198E3,6.475259E3,5.001514E3,4.7311094E3,1.218575E3,2.6150325E3,2.33321E3,5.9011196E1,4.1135947E3,3.0026406E3,3.4603835E3,4.3937964E3,0E0,0E0,0E0,0E0,0E0,0E0,0E0,0E0,0E0,0E0,0E0,0E0,0E0,0E0,0E0,0E0,0E0,0E0,0E0,0E0,0E0,0E0,0E0,0E0,0E0,0E0,0E0,0E0,0E0,0E0,0E0,0E0,0E0,0E0,0E0,0E0,0E0,0E0,0E0,0E0,0E0,0E0,0E0,0E0,0E0,0E0,0E0,0E0,0E0,0E0,0E0,0E0,0E0,0E0,0E0,0E0,0E0,0E0,0E0,0E0],"parents":[2147483647,0,0,1,1,2,2,3,3,4,4,5,5,6,6,7,7,8,8,9,9,10,10,11,11,12,12,13,13,14,14,15,15,16,16,17,17,18,18,19,19,20,20,21,21,22,22,23,23,24,24,25,25,26,26,27,27,28,28,29,29,30,30,31,31,32,32,33,33,34,34,35,35,36,36,37,37,38,38,39,39,40,40,41,41,42,42,43,43,46,46,47,47,48,48,49,49,50,50,51,51,52,52,53,53,54,54,55,55,56,56,57,57,58,58,59,59,60,60,61,61,62,62],"right_children":[2,4,6,8,10,12,14,16,18,20,22,24,26,28,30,32,34,36,38,40,42,44,46,48,50,52,54,56,58,60,62,64,66,68,70,72,74,76,78,80,82,84,86,88,-1,-1,90,92,94,96,98,100,102,104,106,108,110,112,114,116,118,120,122,-1,-1,-1,-1,-1,-1,-1,-1,-1,-1,-1,-1,-1,-1,-1,-1,-1,-1,-1,-1,-1,-1,-1,-1,-1,-1,-1,-1,-1,-1,-1,-1,-1,-1,-1,-1,-1,-1,-1,-1,-1,-1,-1,-1,-1,-1,-1,-1,-1,-1,-1,-1,-1,-1,-1,-1,-1,-1,-1,-1],"split_conditions":[8.2E1,3.030208E1,5.8E0,2.1220586E2,2.8167421E1,1.06E2,9.0528345E0,1.2783802E1,8.7E1,8.9E1,6.3E1,1.0182337E1,6.8E1,9.4E1,9.7E1,1.07E2,2.5725939E1,3.439811E2,1.06E2,6.8E1,8.3E1,2.88445E1,7.3E1,1.39E2,1.19E2,6.4E1,6.8E1,7.8E1,1.66E2,1.8328207E1,1.17E2,4.8E1,7.5E1,9.000001E-1,1.05E2,1E-1,1.59E2,7.3E1,1.31E2,9.2E1,1.11E2,2.1000001E0,1.2E2,9.9E0,1.5984668E0,-2.1428678E0,7.1E1,1.26E2,8.836514E0,1.29E2,1.4E2,8.7E1,7.8E1,1.47E2,5.9E1,1.05E1,1.58E2,1.07E2,6.9234166E0,2.67E1,5.8E1,7.5E1,1.59E2,3.4928339E0,-7.899641E-1,1.7170085E0,1.0425893E1,1.2173617E0,-1.2857876E0,-2.0449119E0,-7.313625E-1,1.3916712E0,-9.915678E-1,-3.272372E0,5.1279993E0,5.902726E-1,6.6656404E0,-2.770434E-1,3.7582986E0,-4.6387544E0,-1.5827539E0,-7.306504E0,-1.080011E0,3.4238138E0,-1.3091531E0,-4.716903E-1,-4.317747E0,-1.9888306E-2,4.1349754E-1,4.4734958E-3,-7.6360536E-1,6.4815464E0,9.321387E-1,-3.4241743E0,7.401772E-1,-7.868499E-1,1.6394523E0,7.630721E-1,4.194578E0,-2.1566029E-1,-7.541355E0,-2.9465325E0,2.4601135E0,1.0609254E0,-4.856359E0,-1.7060574E0,2.710122E0,8.300623E0,-5.2384645E-1,-5.49298E0,5.0578017E0,-3.3711295E0,-9.448083E0,-5.38665E-1,1.5891358E0,9.2572254E-1,-5.31497E0,2.4604264E-1,-4.204286E0,-3.9877186E0,5.2068365E-1,3.523306E0,-1.7662102E0],"split_indices":[4,2,1,3,0,15,0,2,22,9,18,2,13,16,22,19,3,3,22,4,10,0,10,18,10,22,18,11,4,2,4,5,4,1,11,1,23,20,5,15,5,1,9,1,0,0,7,21,2,21,7,10,7,8,12,1,8,4,0,1,20,14,22,0,0,0,0,0,0,0,0,0,0,0,0,0,0,0,0,0,0,0,0,0,0,0,0,0,0,0,0,0,0,0,0,0,0,0,0,0,0,0,0,0,0,0,0,0,0,0,0,0,0,0,0,0,0,0,0,0,0,0,0],"split_type":[0,0,0,0,0,0,0,0,0,0,0,0,0,0,0,0,0,0,0,0,0,0,0,0,0,0,0,0,0,0,0,0,0,0,0,0,0,0,0,0,0,0,0,0,0,0,0,0,0,0,0,0,0,0,0,0,0,0,0,0,0,0,0,0,0,0,0,0,0,0,0,0,0,0,0,0,0,0,0,0,0,0,0,0,0,0,0,0,0,0,0,0,0,0,0,0,0,0,0,0,0,0,0,0,0,0,0,0,0,0,0,0,0,0,0,0,0,0,0,0,0,0,0],"sum_hessian":[3.905E3,1.73E3,2.175E3,1.642E3,8.8E1,1.818E3,3.57E2,1.254E3,3.88E2,7.5E1,1.3E1,9.68E2,8.5E2,4.4E1,3.13E2,1.35E2,1.119E3,1.99E2,1.89E2,5.5E1,2E1,5E0,8E0,3.4E1,9.34E2,1.14E2,7.36E2,1.4E1,3E1,1.62E2,1.51E2,1.02E2,3.3E1,1.77E2,9.42E2,1.46E2,5.3E1,5.2E1,1.37E2,4.4E1,1.1E1,8E0,1.2E1,4E0,1E0,4E0,4E0,3.1E1,3E0,6.68E2,2.66E2,2.3E1,9.1E1,1.03E2,6.33E2,5E0,9E0,2.7E1,3E0,7.9E1,8.3E1,7.6E1,7.5E1,1.4E1,8.8E1,2.6E1,7E0,1.12E2,6.5E1,6.89E2,2.53E2,5.9E1,8.7E1,5.1E1,2E0,1.9E1,3.3E1,1.13E2,2.4E1,3.5E1,9E0,1E1,1E0,3E0,5E0,3E0,9E0,2E0,2E0,1E0,3E0,2.7E1,4E0,1E0,2E0,5.37E2,1.31E2,2E2,6.6E1,1.1E1,1.2E1,2.8E1,6.3E1,8.9E1,1.4E1,2.2E1,6.11E2,3E0,2E0,7E0,2E0,1.1E1,1.6E1,2E0,1E0,6.9E1,1E1,1.7E1,6.6E1,2E1,5.6E1,5.7E1,1.8E1],"tree_param":{"num_deleted":"0","num_feature":"24","num_nodes":"123","size_leaf_vector":"1"}},{"base_weights":[3.831811E-2,-1.253436E0,3.2207172E0,1.9289107E0,-2.734068E0,3.0154045E0,2.8412914E1,1.047126E0,9.883135E0,-3.80179E0,8.739488E-1,7.9845226E-1,5.0415087E0,1.3687224E1,1.2203317E1,-5.3211913E0,2.1303532E0,-1.3794028E0,1.4628383E1,-1.54287615E1,-3.5062177E0,3.53552E0,-4.188863E0,5.220735E0,-1.7051085E0,3.461709E0,1.1682432E1,4.54381E0,1.2635772E0,-3.8254056E0,-1.5945814E1,2.7932584E0,-1.0184791E1,1.0142507E1,-1.906059E1,-6.358355E0,1.7855276E1,4.623859E0,-2.132322E1,-2.4276145E0,-6.4456205E0,9.091933E0,-9.882548E-1,-1.0732743E0,-1.4395132E1,2.1401992E0,2.1989658E1,-6.301126E0,4.614289E0,5.88179E0,-1.8663242E-1,1.8404406E1,5.3321095E0,2.9210973E-1,-2.459454E0,-7.2717094E0,-2.5450593E-1,2.8631392E-1,1.9148073E0,-6.99918E0,-6.9352037E-1,1.1869721E0,7.2592297E0,-9.805871E-2,-1.0385266E1,-4.257391E0,8.2387894E-1,8.186744E0,2.634488E0,5.151279E0,-1.3534493E0,-1.3484901E0,-7.7125278E0,-2.4552045E0,-4.5017618E-1,-1.9964609E0,6.6832614E0,9.777123E-1,5.825655E0,-4.6851298E-1,8.748249E0,-1.5245566E0,3.0245783E0,-3.333732E-1,-6.6582575E0,-4.8763335E-1,3.858576E0,4.363539E0,8.837626E0,-3.0829313E0,5.0526285E-1,-1.384196E0,3.2458522E0,-2.8804746E0,2.0332618E0,-1.1593705E0,1.7684311E0,3.376144E0,9.295274E0,-1.5938395E0,3.2781785E0],"categories":[],"categories_nodes":[],"categories_segments":[],"categories_sizes":[],"default_left":[0,0,0,0,0,0,0,0,0,0,0,0,0,0,0,0,0,0,0,0,0,0,0,0,0,0,0,0,0,0,0,0,0,0,0,0,0,0,0,0,0,0,0,0,0,0,0,0,0,0,0,0,0,0,0,0,0,0,0,0,0,0,0,0,0,0,0,0,0,0,0,0,0,0,0,0,0,0,0,0,0,0,0,0,0,0,0,0,0,0,0,0,0,0,0,0,0,0,0,0,0],"id":7,"left_children":[1,3,5,7,9,11,13,15,17,19,21,23,25,-1,27,29,31,33,35,37,39,41,43,45,47,49,51,-1,-1,53,55,57,59,61,63,65,67,69,71,73,75,77,79,81,83,85,87,89,91,93,95,97,99,-1,-1,-1,-1,-1,-1,-1,-1,-1,-1,-1,-1,-1,-1,-1,-1,-1,-1,-1,-1,-1,-1,-1,-1,-1,-1,-1,-1,-1,-1,-1,-1,-1,-1,-1,-1,-1,-1,-1,-1,-1,-1,-1,-1,-1,-1,-1,-1],"loss_changes":[1.6061122E4,1.30996E4,5.74866E3,6.1829375E3,7.311246E3,5.0267627E3,1.9541089E3,5.5024097E3,4.723208E3,4.9771035E3,5.8629746E3,5.943201E3,6.0969844E3,0E0,7.730438E1,1.7824907E3,5.5879785E3,5.69379E3,4.312293E3,4.3537715E3,4.514924E3,7.172735E3,4.7543306E3,9.974448E3,9.991188E3,4.1861777E3,4.6827754E3,0E0,0E0,2.1694792E3,1.7323281E3,4.264452E3,3.5684841E3,1.3822891E3,3.1945237E3,6.80817E2,4.3827363E3,1.1090642E3,1.9507109E3,5.574867E3,2.4501943E3,7.6468945E3,2.777226E3,5.2383525E3,3.6014E3,6.6826455E3,1.2396348E3,6.3344023E3,8.353123E3,4.0178008E3,4.272512E3,4.508789E3,3.572087E3,0E0,0E0,0E0,0E0,0E0,0E0,0E0,0E0,0E0,0E0,0E0,0E0,0E0,0E0,0E0,0E0,0E0,0E0,0E0,0E0,0E0,0E0,0E0,0E0,0E0,0E0,0E0,0E0,0E0,0E0,0E0,0E0,0E0,0E0,0E0,0E0,0E0,0E0,0E0,0E0,0E0,0E0,0E0,0E0,0E0,0E0,0E0,0E0],"parents":[2147483647,0,0,1,1,2,2,3,3,4,4,5,5,6,6,7,7,8,8,9,9,10,10,11,11,12,12,14,14,15,15,16,16,17,17,18,18,19,19,20,20,21,21,22,22,23,23,24,24,25,25,26,26,29,29,30,30,31,31,32,32,33,33,34,34,35,35,36,36,37,37,38,38,39,39,40,40,41,41,42,42,43,43,44,44,45,45,46,46,47,47,48,48,49,49,50,50,51,51,52,52],"right_children":[2,4,6,8,10,12,14,16,18,20,22,24,26,-1,28,30,32,34,36,38,40,42,44,46,48,50,52,-1,-1,54,56,58,60,62,64,66,68,70,72,74,76,78,80,82,84,86,88,90,92,94,96,98,100,-1,-1,-1,-1,-1,-1,-1,-1,-1,-1,-1,-1,-1,-1,-1,-1,-1,-1,-1,-1,-1,-1,-1,-1,-1,-1,-1,-1,-1,-1,-1,-1,-1,-1,-1,-1,-1,-1,-1,-1,-1,-1,-1,-1,-1,-1,-1,-1],"split_conditions":[1.17E2,1.5876775E1,2.08E2,1.08E2,2.7812997E2,1.3804037E2,1.47E2,5.3E1,7E1,4.809083E0,3.454533E2,8.3E1,1.64E2,1.3687224E1,1.39E2,1.02E2,1.44E2,9E1,6.3E1,5.6073303E0,2.6388252E1,2.1924562E1,1.14E2,2.3521334E1,1.36E2,1.3E2,1.36E2,4.54381E0,1.2635772E0,4.6E1,4.6E1,8.4E1,7.8E1,8.8E1,6.3E1,1.1E2,1.0048118E2,8.8E1,7.5E1,5.4E1,1.75E2,1.07E2,1.93E2,1.27E2,9E1,9.9E1,9.7E1,1.9376562E1,1.110075E1,2.838E0,1.28E2,2.3997688E2,1.1E2,2.9210973E-1,-2.459454E0,-7.2717094E0,-2.5450593E-1,2.8631392E-1,1.9148073E0,-6.99918E0,-6.9352037E-1,1.1869721E0,7.2592297E0,-9.805871E-2,-1.0385266E1,-4.257391E0,8.2387894E-1,8.186744E0,2.634488E0,5.151279E0,-1.3534493E0,-1.3484901E0,-7.7125278E0,-2.4552045E0,-4.5017618E-1,-1.9964609E0,6.6832614E0,9.777123E-1,5.825655E0,-4.6851298E-1,8.748249E0,-1.5245566E0,3.0245783E0,-3.333732E-1,-6.6582575E0,-4.8763335E-1,3.858576E0,4.363539E0,8.837626E0,-3.0829313E0,5.0526285E-1,-1.384196E0,3.2458522E0,-2.8804746E0,2.0332618E0,-1.1593705E0,1.7684311E0,3.376144E0,9.295274E0,-1.5938395E0,3.2781785E0],"split_indices":[4,2,13,4,3,3,12,7,10,0,3,18,4,0,4,5,5,16,16,3,0,2,14,0,18,5,6,0,0,7,7,4,23,17,9,4,3,10,10,14,8,8,18,6,16,19,16,2,0,0,9,3,10,0,0,0,0,0,0,0,0,0,0,0,0,0,0,0,0,0,0,0,0,0,0,0,0,0,0,0,0,0,0,0,0,0,0,0,0,0,0,0,0,0,0,0,0,0,0,0,0],"split_type":[0,0,0,0,0,0,0,0,0,0,0,0,0,0,0,0,0,0,0,0,0,0,0,0,0,0,0,0,0,0,0,0,0,0,0,0,0,0,0,0,0,0,0,0,0,0,0,0,0,0,0,0,0,0,0,0,0,0,0,0,0,0,0,0,0,0,0,0,0,0,0,0,0,0,0,0,0,0,0,0,0,0,0,0,0,0,0,0,0,0,0,0,0,0,0,0,0,0,0,0,0],"sum_hessian":[3.905E3,2.778E3,1.127E3,8.82E2,1.896E3,1.119E3,8E0,7.95E2,8.7E1,1.463E3,4.33E2,5.35E2,5.84E2,3E0,5E0,1.15E2,6.8E2,2.6E1,6.1E1,3.5E1,1.428E3,2.84E2,1.49E2,1.93E2,3.42E2,4.73E2,1.11E2,3E0,2E0,1.02E2,1.3E1,6.46E2,3.4E1,1.6E1,1E1,8E0,5.3E1,8E0,2.7E1,1.046E3,3.82E2,1.27E2,1.57E2,1.15E2,3.4E1,1.64E2,2.9E1,1.98E2,1.44E2,2.84E2,1.89E2,5.3E1,5.8E1,4.9E1,5.3E1,8E0,5E0,4.28E2,2.18E2,1.2E1,2.2E1,1.2E1,4E0,5E0,5E0,4E0,4E0,2.5E1,2.8E1,3E0,5E0,6E0,2.1E1,1.44E2,9.02E2,3.8E2,2E0,8.2E1,4.5E1,1.55E2,2E0,8.5E1,3E1,1.3E1,2.1E1,1.22E2,4.2E1,1.6E1,1.3E1,1.32E2,6.6E1,5.8E1,8.6E1,1.5E1,2.69E2,1.18E2,7.1E1,3.5E1,1.8E1,2E1,3.8E1],"tree_param":{"num_deleted":"0","num_feature":"24","num_nodes":"101","size_leaf_vector":"1"}},{"base_weights":[3.8532685E-2,1.0399317E0,-2.8376741E0,-5.550076E-1,3.4061654E0,-3.2208097E0,1.0220724E1,2.8096912E0,-2.0612094E0,5.053069E0,3.759093E-1,-1.3406277E0,-5.338714E0,1.5258487E1,-7.792028E0,-3.723936E0,5.0404344E0,-5.243358E0,-2.7685356E-1,6.272227E0,-1.79695E0,1.069171E0,-1.0876369E1,8.8656604E-2,-7.434028E0,-1.5852193E0,-6.567282E0,2.195138E1,-3.461075E-2,-3.252492E0,1.5758458E0,-4.705725E0,2.3136433E1,7.6665096E0,-7.982633E-1,-8.948034E0,-4.269768E-1,-5.0255746E-1,3.426607E1,-8.2624394E-1,7.757644E0,7.4006767E0,-3.2506008E0,5.2068237E-2,9.471137E0,9.772656E0,-1.6824675E1,-6.014128E0,1.8505895E0,-1.22257595E1,-6.3987494E-1,-3.0709376E0,1.0308181E1,-7.975323E0,-2.908329E0,2.6451551E1,-1.9099656E0,-3.2386782E0,5.351649E0,-1.7131897E0,4.2595234E0,9.154718E0,-9.571118E-1,1.3484949E0,4.927316E0,8.359681E-1,-3.9949906E0,8.22254E-1,-3.072457E0,-8.533228E-1,3.4340684E0,2.4917197E0,-3.7544587E-1,1.4986258E1,2.146779E0,-3.8024077E0,7.647545E-1,2.1105437E0,5.7551703E0,4.1459923E0,9.679361E-1,-2.0371718E0,4.2274454E-1,-3.777391E-1,1.2760785E0,4.04305E0,-1.5039667E-1,6.256701E0,-2.4786737E0,-7.253991E0,-1.1065936E0,-4.100537E0,-8.321712E-1,-4.6507916E-1,1.635729E0,2.7879303E0,-4.329355E0,-6.1862445E0,9.789245E-1,-1.5367954E0,1.7201377E-1,-1.1035613E0,5.852909E0,-2.0054297E0,-5.7968855E0,-1.3543806E0,2.6938524E0,3.465984E0,8.839326E0,2.6746368E-1,2.2076445E0],"categories":[],"categories_nodes":[],"categories_segments":[],"categories_sizes":[],"default_left":[0,0,0,0,0,0,0,0,0,0,0,0,0,0,0,0,0,0,0,0,0,0,0,0,0,0,0,0,0,0,0,0,0,0,0,0,0,0,0,0,0,0,0,0,0,0,0,0,0,0,0,0,0,0,0,0,0,0,0,0,0,0,0,0,0,0,0,0,0,0,0,0,0,0,0,0,0,0,0,0,0,0,0,0,0,0,0,0,0,0,0,0,0,0,0,0,0,0,0,0,0,0,0,0,0,0,0,0,0,0,0],"id":8,"left_children":[1,3,5,7,9,11,13,15,17,19,21,23,25,27,29,31,33,35,37,39,41,43,45,47,49,51,53,55,57,-1,-1,59,61,63,65,67,69,71,73,75,77,79,81,83,85,87,89,91,93,95,97,99,101,103,105,107,-1,-1,109,-1,-1,-1,-1,-1,-1,-1,-1,-1,-1,-1,-1,-1,-1,-1,-1,-1,-1,-1,-1,-1,-1,-1,-1,-1,-1,-1,-1,-1,-1,-1,-1,-1,-1,-1,-1,-1,-1,-1,-1,-1,-1,-1,-1,-1,-1,-1,-1,-1,-1,-1,-1],"loss_changes":[1.1253132E4,1.0938939E4,5.081082E3,8.783422E3,5.8220615E3,3.8992305E3,2.7504692E3,7.8308867E3,6.7952173E3,6.3248164E3,3.2255474E3,4.5381533E3,2.115455E3,2.3549268E3,3.354211E2,3.7217295E3,6.1392637E3,7.6687256E3,6.004911E3,6.7757793E3,1.5616223E3,3.3237693E3,3.1122622E3,4.559521E3,3.2151963E3,2.0637336E3,1.7645342E3,2.2073745E3,5.214658E2,0E0,0E0,2.60767E3,1.0687227E3,7.5923066E3,5.6466265E3,3.7020938E3,5.4289653E3,5.0503354E3,1.7690674E3,4.511588E3,4.2486816E3,3.841397E2,1.659107E3,1.9225001E3,1.6845144E3,1.3716008E3,1.7465767E3,2.3182498E3,4.0384824E3,2.8866846E3,3.3426462E3,7.7307806E2,1.7448545E3,3.5320225E3,1.9118593E3,2.88E2,0E0,0E0,4.7152267E1,0E0,0E0,0E0,0E0,0E0,0E0,0E0,0E0,0E0,0E0,0E0,0E0,0E0,0E0,0E0,0E0,0E0,0E0,0E0,0E0,0E0,0E0,0E0,0E0,0E0,0E0,0E0,0E0,0E0,0E0,0E0,0E0,0E0,0E0,0E0,0E0,0E0,0E0,0E0,0E0,0E0,0E0,0E0,0E0,0E0,0E0,0E0,0E0,0E0,0E0,0E0,0E0],"parents":[2147483647,0,0,1,1,2,2,3,3,4,4,5,5,6,6,7,7,8,8,9,9,10,10,11,11,12,12,13,13,14,14,15,15,16,16,17,17,18,18,19,19,20,20,21,21,22,22,23,23,24,24,25,25,26,26,27,27,28,28,31,31,32,32,33,33,34,34,35,35,36,36,37,37,38,38,39,39,40,40,41,41,42,42,43,43,44,44,45,45,46,46,47,47,48,48,49,49,50,50,51,51,52,52,53,53,54,54,55,55,58,58],"right_children":[2,4,6,8,10,12,14,16,18,20,22,24,26,28,30,32,34,36,38,40,42,44,46,48,50,52,54,56,58,-1,-1,60,62,64,66,68,70,72,74,76,78,80,82,84,86,88,90,92,94,96,98,100,102,104,106,108,-1,-1,110,-1,-1,-1,-1,-1,-1,-1,-1,-1,-1,-1,-1,-1,-1,-1,-1,-1,-1,-1,-1,-1,-1,-1,-1,-1,-1,-1,-1,-1,-1,-1,-1,-1,-1,-1,-1,-1,-1,-1,-1,-1,-1,-1,-1,-1,-1,-1,-1,-1,-1,-1,-1],"split_conditions":[2.1575987E1,1.4835469E2,1.77E2,4.7258778E1,8E-1,1.7482002E1,4.8999996E0,5.8E1,7.3E1,2.7559084E1,3.5484863E2,6E0,6E1,1.48E2,1.2573667E1,1.59E2,1.2E2,2.3812998E1,1.99E2,4.054667E0,4.3E1,1.41E2,1.4658676E1,4.471334E0,1.2452834E1,1.05E2,1.06E2,1.97E2,1.03E2,-3.252492E0,1.5758458E0,1.52E2,1.2836169E1,1.13E2,1.51E2,5E1,1.03E2,1.1269782E1,2.3E0,8.6E1,1.62E2,3.7E1,8.1E1,1.17E2,1.22E2,2.047367E1,4.9999995E0,8.1E1,9.4E1,8.638377E0,7.6E1,6.5E1,1.6464595E2,1.27E2,1.48E2,2.838E0,-1.9099656E0,-3.2386782E0,1.46E2,-1.7131897E0,4.2595234E0,9.154718E0,-9.571118E-1,1.3484949E0,4.927316E0,8.359681E-1,-3.9949906E0,8.22254E-1,-3.072457E0,-8.533228E-1,3.4340684E0,2.4917197E0,-3.7544587E-1,1.4986258E1,2.146779E0,-3.8024077E0,7.647545E-1,2.1105437E0,5.7551703E0,4.1459923E0,9.679361E-1,-2.0371718E0,4.2274454E-1,-3.777391E-1,1.2760785E0,4.04305E0,-1.5039667E-1,6.256701E0,-2.4786737E0,-7.253991E0,-1.1065936E0,-4.100537E0,-8.321712E-1,-4.6507916E-1,1.635729E0,2.7879303E0,-4.329355E0,-6.1862445E0,9.789245E-1,-1.5367954E0,1.7201377E-1,-1.1035613E0,5.852909E0,-2.0054297E0,-5.7968855E0,-1.3543806E0,2.6938524E0,3.465984E0,8.839326E0,2.6746368E-1,2.2076445E0],"split_indices":[2,3,17,3,1,0,1,14,19,0,3,1,17,12,0,6,12,0,6,0,17,13,2,0,0,6,15,17,4,0,0,17,0,13,6,12,4,2,1,17,22,16,11,17,4,0,1,22,17,3,15,16,3,11,21,0,0,0,16,0,0,0,0,0,0,0,0,0,0,0,0,0,0,0,0,0,0,0,0,0,0,0,0,0,0,0,0,0,0,0,0,0,0,0,0,0,0,0,0,0,0,0,0,0,0,0,0,0,0,0,0],"split_type":[0,0,0,0,0,0,0,0,0,0,0,0,0,0,0,0,0,0,0,0,0,0,0,0,0,0,0,0,0,0,0,0,0,0,0,0,0,0,0,0,0,0,0,0,0,0,0,0,0,0,0,0,0,0,0,0,0,0,0,0,0,0,0,0,0,0,0,0,0,0,0,0,0,0,0,0,0,0,0,0,0,0,0,0,0,0,0,0,0,0,0,0,0,0,0,0,0,0,0,0,0,0,0,0,0,0,0,0,0,0,0],"sum_hessian":[3.905E3,2.897E3,1.008E3,1.731E3,1.166E3,9.8E2,2.8E1,5.35E2,1.196E3,7.55E2,4.11E2,5.2E2,4.6E2,2.2E1,6E0,1.36E2,3.99E2,4.29E2,7.67E2,6.41E2,1.14E2,3.88E2,2.3E1,4.22E2,9.8E1,1.14E2,3.46E2,1.5E1,7E0,5E0,1E0,1.32E2,4E0,2.75E2,1.24E2,2.42E2,1.87E2,7.63E2,4E0,1.11E2,5.3E2,1.5E1,9.9E1,3.47E2,4.1E1,5E0,1.8E1,9.4E1,3.28E2,5.7E1,4.1E1,1.02E2,1.2E1,2.49E2,9.7E1,1.3E1,2E0,2E0,5E0,1.26E2,6E0,3E0,1E0,2.03E2,7.2E1,9.7E1,2.7E1,2.4E1,2.18E2,1.56E2,3.1E1,5.9E1,7.04E2,2E0,2E0,2.4E1,8.7E1,5E2,3E1,5E0,1E1,5.6E1,4.3E1,2.65E2,8.2E1,2.9E1,1.2E1,3E0,2E0,1.1E1,7E0,2.7E1,6.7E1,1.69E2,1.59E2,5E0,5.2E1,6E0,3.5E1,6.5E1,3.7E1,5E0,7E0,2.25E2,2.4E1,8.6E1,1.1E1,3E0,1E1,2E0,3E0],"tree_param":{"num_deleted":"0","num_feature":"24","num_nodes":"111","size_leaf_vector":"1"}},{"base_weights":[3.627646E-2,3.235544E-1,-6.0538955E0,-2.951984E0,8.150378E-1,-8.334331E0,-1.3904164E0,-3.3257444E0,2.3152405E1,1.6562107E0,-9.801427E-1,-1.1157739E1,3.1959113E-1,1.0330153E1,-6.3804126E0,-2.698087E0,-1.629832E1,2.9006983E1,-1.7962601E0,1.5789969E0,1.0617499E1,-2.6705058E0,1.3429648E0,-1.3169291E1,5.590957E-1,-5.870987E0,4.2126093E0,-2.9606035E0,1.34718E1,4.7790182E-1,-1.2636967E1,-2.1796367E0,-1.6080072E1,-8.350304E0,-9.641067E0,1.0206767E1,3.7951677E0,3.7211964E-1,3.5987852E0,-4.7167664E0,-5.670251E-1,4.687546E0,-3.4583955E0,-1.0208372E1,-1.880123E1,8.3953E0,-4.5675397E0,1.9714355E0,-8.704176E0,-6.083348E-1,1.256399E1,1.6429743E1,-1.4467591E0,9.918053E0,-4.950606E0,-4.217655E0,-1.8141285E1,-1.3911633E0,2.4435921E-1,7.285616E0,-6.0362253E0,7.386896E-1,-4.046691E0,7.0585966E-1,-4.0185344E-1,9.1625345E-1,3.1853054E0,-1.2151898E0,-5.184273E0,-1.6629974E0,4.664346E-1,2.63478E0,-2.7060154E-1,-6.5828776E-1,-4.8834925E0,1.597466E0,-3.2808602E0,-6.1122766E0,-1.422905E-1,-2.7180119E0,4.167492E0,-3.4537584E-1,1.0188248E0,-2.9053195E0,-1.2936059E-1,1.7973278E0,-1.644559E0,3.3059236E-1,4.2871995E0,2.1181436E0,6.255118E0,9.8903483E-1,5.9563723E0,4.127746E0,-2.7646487E0,-8.968363E-2,-3.978499E0,-6.2899094E0,-5.2067184E-1],"categories":[],"categories_nodes":[],"categories_segments":[],"categories_sizes":[],"default_left":[0,0,0,0,0,0,0,0,0,0,0,0,0,0,0,0,0,0,0,0,0,0,0,0,0,0,0,0,0,0,0,0,0,0,0,0,0,0,0,0,0,0,0,0,0,0,0,0,0,0,0,0,0,0,0,0,0,0,0,0,0,0,0,0,0,0,0,0,0,0,0,0,0,0,0,0,0,0,0,0,0,0,0,0,0,0,0,0,0,0,0,0,0,0,0,0,0,0,0],"id":9,"left_children":[1,3,5,7,9,11,13,15,17,19,21,23,25,27,29,31,33,35,-1,37,-1,39,41,43,45,47,49,-1,51,53,55,57,59,61,-1,-1,-1,63,65,67,69,71,73,75,77,79,-1,81,83,85,87,89,-1,91,93,95,97,-1,-1,-1,-1,-1,-1,-1,-1,-1,-1,-1,-1,-1,-1,-1,-1,-1,-1,-1,-1,-1,-1,-1,-1,-1,-1,-1,-1,-1,-1,-1,-1,-1,-1,-1,-1,-1,-1,-1,-1,-1,-1],"loss_changes":[6.8357866E3,6.008841E3,1.8601299E3,4.828553E3,4.901759E3,2.8867256E3,3.516561E3,3.8724883E3,1.367895E3,5.7008115E3,4.07185E3,2.105005E3,7.477332E2,1.2751854E3,1.8082345E3,3.1563809E3,2.5011216E3,6.1816406E1,0E0,5.3760874E3,0E0,2.5798877E3,7.033792E3,1.0754258E3,1.8594575E3,2.8378848E2,7.7261237E2,0E0,9.4505005E2,1.1252649E3,9.430232E2,3.2709011E3,3.2614053E3,9.222112E2,0E0,0E0,0E0,4.688555E3,3.12117E3,2.4743003E3,3.1445664E3,5.913416E3,2.8813047E3,6.461221E2,7.110537E2,1.0852635E3,0E0,2.1704664E1,6.880823E1,4.5095477E2,1.2279016E2,4.326416E2,0E0,4.6088287E2,1.2439282E3,3.504439E2,5.6612744E2,0E0,0E0,0E0,0E0,0E0,0E0,0E0,0E0,0E0,0E0,0E0,0E0,0E0,0E0,0E0,0E0,0E0,0E0,0E0,0E0,0E0,0E0,0E0,0E0,0E0,0E0,0E0,0E0,0E0,0E0,0E0,0E0,0E0,0E0,0E0,0E0,0E0,0E0,0E0,0E0,0E0,0E0],"parents":[2147483647,0,0,1,1,2,2,3,3,4,4,5,5,6,6,7,7,8,8,9,9,10,10,11,11,12,12,13,13,14,14,15,15,16,16,17,17,19,19,21,21,22,22,23,23,24,24,25,25,26,26,28,28,29,29,30,30,31,31,32,32,33,33,37,37,38,38,39,39,40,40,41,41,42,42,43,43,44,44,45,45,47,47,48,48,49,49,50,50,51,51,53,53,54,54,55,55,56,56],"right_children":[2,4,6,8,10,12,14,16,18,20,22,24,26,28,30,32,34,36,-1,38,-1,40,42,44,46,48,50,-1,52,54,56,58,60,62,-1,-1,-1,64,66,68,70,72,74,76,78,80,-1,82,84,86,88,90,-1,92,94,96,98,-1,-1,-1,-1,-1,-1,-1,-1,-1,-1,-1,-1,-1,-1,-1,-1,-1,-1,-1,-1,-1,-1,-1,-1,-1,-1,-1,-1,-1,-1,-1,-1,-1,-1,-1,-1,-1,-1,-1,-1,-1,-1],"split_conditions":[2.1300001E1,5.4E1,1.08E2,1.69E2,2.0275383E1,2.6698668E1,9.1E1,1.44E2,2.0275383E1,2.12E2,1.04E2,1.25E2,6.5E1,6.3E1,1.26E2,1.37E2,1.29E2,9.977834E0,-1.7962601E0,1.5275893E2,1.0617499E1,8.8E1,4E-1,9.7E1,1.42E2,3.6E1,1.6065483E2,-2.9606035E0,2.4994501E1,8E1,1E2,6.5E1,1.2676196E0,1.12E2,-9.641067E0,1.0206767E1,3.7951677E0,7.352862E1,1.62E2,1.43E2,8.1E1,2.4014996E1,1.62E2,2.9E1,1.66E2,6.2E1,-4.5675397E0,2.6865335E1,8.9E1,5.6E1,1.4154915E1,6.2E1,-1.4467591E0,7.5E1,2.2599998E1,2.0919502E1,2.418707E1,-1.3911633E0,2.4435921E-1,7.285616E0,-6.0362253E0,7.386896E-1,-4.046691E0,7.0585966E-1,-4.0185344E-1,9.1625345E-1,3.1853054E0,-1.2151898E0,-5.184273E0,-1.6629974E0,4.664346E-1,2.63478E0,-2.7060154E-1,-6.5828776E-1,-4.8834925E0,1.597466E0,-3.2808602E0,-6.1122766E0,-1.422905E-1,-2.7180119E0,4.167492E0,-3.4537584E-1,1.0188248E0,-2.9053195E0,-1.2936059E-1,1.7973278E0,-1.644559E0,3.3059236E-1,4.2871995E0,2.1181436E0,6.255118E0,9.8903483E-1,5.9563723E0,4.127746E0,-2.7646487E0,-8.968363E-2,-3.978499E0,-6.2899094E0,-5.2067184E-1],"split_indices":[1,8,7,4,2,0,19,15,2,13,14,15,22,21,15,5,17,0,0,3,0,20,1,12,15,20,3,0,0,4,11,6,3,20,0,0,0,3,17,13,17,2,21,13,17,6,0,0,4,9,2,19,0,4,1,0,2,0,0,0,0,0,0,0,0,0,0,0,0,0,0,0,0,0,0,0,0,0,0,0,0,0,0,0,0,0,0,0,0,0,0,0,0,0,0,0,0,0,0],"split_type":[0,0,0,0,0,0,0,0,0,0,0,0,0,0,0,0,0,0,0,0,0,0,0,0,0,0,0,0,0,0,0,0,0,0,0,0,0,0,0,0,0,0,0,0,0,0,0,0,0,0,0,0,0,0,0,0,0,0,0,0,0,0,0,0,0,0,0,0,0,0,0,0,0,0,0,0,0,0,0,0,0,0,0,0,0,0,0,0,0,0,0,0,0,0,0,0,0,0,0],"sum_hessian":[3.905E3,3.73E3,1.75E2,4.86E2,3.244E3,1.17E2,5.8E1,4.8E2,6E0,2.209E3,1.035E3,8.8E1,2.9E1,1.7E1,4.1E1,4.59E2,2.1E1,5E0,1E0,2.205E3,4E0,5.99E2,4.36E2,7.5E1,1.3E1,1.1E1,1.8E1,2E0,1.5E1,2E1,2.1E1,4.43E2,1.6E1,1.5E1,6E0,3E0,2E0,1.381E3,8.24E2,3.03E2,2.96E2,2.57E2,1.79E2,5.1E1,2.4E1,9E0,4E0,3E0,8E0,1.2E1,6E0,1.3E1,2E0,7E0,1.3E1,9E0,1.2E1,2.43E2,2E2,1E0,1.5E1,5E0,1E1,6.4E2,7.41E2,7.66E2,5.8E1,2.89E2,1.4E1,8.8E1,2.08E2,1.48E2,1.09E2,1.64E2,1.5E1,2E0,4.9E1,2.2E1,2E0,2E0,7E0,1E0,2E0,7E0,1E0,5E0,7E0,1E0,5E0,5E0,8E0,5E0,2E0,2E0,1.1E1,7E0,2E0,1E1,2E0],"tree_param":{"num_deleted":"0","num_feature":"24","num_nodes":"99","size_leaf_vector":"1"}},{"base_weights":[2.4461297E-2,-1.627989E0,7.077921E-1,-2.2677853E1,-1.4969627E0,-1.4468749E0,1.3656588E0,-1.5713437E0,-7.4134674E0,-1.6850667E0,1.09949E1,1.5757239E1,-1.9361243E0,2.1457913E0,-6.969347E-1,-1.3156544E0,-1.048889E1,3.7688105E0,8.2751255E0,-6.7552376E-1,2.6275864E1,1.6822752E0,-4.197297E0,1.9726233E0,2.398818E1,-3.3963792E0,9.172457E-1,-1.5438488E0,9.208723E0,3.618864E0,-2.0028091E1,-7.19303E0,9.439965E0,4.8861747E0,-9.044323E0,1.146896E1,4.285086E0,1.274333E-1,1.7295576E1,-7.015844E0,6.272953E-1,-3.0387585E0,2.4493387E0,3.8357716E1,8.244554E0,4.406366E0,-5.394811E0,7.7222595E0,-1.5480551E-2,-4.208653E-1,-5.331352E0,-3.4397738E0,3.5171196E0,2.145322E0,-5.2809834E0,-3.4382656E0,-9.434275E0,4.445698E-1,-2.919671E0,6.9271696E-1,3.3442507E0,-3.714394E0,-4.740685E-1,3.1497493E0,-1.007206E0,-9.306069E-1,8.546195E-1,6.7811103E0,8.0757755E-1,-2.9381158E0,-6.1101496E-1,7.435421E-1,-3.7405937E0,1.1528342E0,-2.0910041E0,6.9852567E-1,6.932298E0,2.3583448E0,1.2865439E1,-1.2668045E0,4.2227955E0,-1.240621E0,4.3095937E0,-2.1304178E0,4.7569552E-1,1.031054E0,4.502079E0,-2.3410308E0,2.1713032E-1],"categories":[],"categories_nodes":[],"categories_segments":[],"categories_sizes":[],"default_left":[0,0,0,0,0,0,0,0,0,0,0,0,0,0,0,0,0,0,0,0,0,0,0,0,0,0,0,0,0,0,0,0,0,0,0,0,0,0,0,0,0,0,0,0,0,0,0,0,0,0,0,0,0,0,0,0,0,0,0,0,0,0,0,0,0,0,0,0,0,0,0,0,0,0,0,0,0,0,0,0,0,0,0,0,0,0,0,0,0],"id":10,"left_children":[1,3,5,7,9,11,13,-1,-1,15,17,19,21,23,25,27,29,31,-1,33,35,37,39,41,43,45,47,49,51,53,55,57,59,-1,61,-1,63,65,67,69,71,73,75,77,79,81,83,85,87,-1,-1,-1,-1,-1,-1,-1,-1,-1,-1,-1,-1,-1,-1,-1,-1,-1,-1,-1,-1,-1,-1,-1,-1,-1,-1,-1,-1,-1,-1,-1,-1,-1,-1,-1,-1,-1,-1,-1,-1],"loss_changes":[4.411691E3,3.1185474E3,3.919901E3,1.18840576E2,2.6902163E3,5.476374E3,3.4095618E3,0E0,0E0,3.6319624E3,1.9338752E3,3.1290513E3,5.1616113E3,5.766236E3,2.5391167E3,2.6007437E3,6.128431E3,8.760637E2,0E0,1.2829716E3,2.727837E3,5.8969165E3,5.2805576E3,3.653061E3,2.398501E3,3.4231013E3,2.316853E3,2.3883557E3,1.3303518E3,1.5501421E3,2.2810762E3,1.2455939E2,8.3846436E1,0E0,1.2988034E2,0E0,2.7270294E2,1.9598424E3,1.6445479E3,3.368745E3,3.5218835E3,3.6248442E3,3.4284102E3,4.9123926E2,5.6835114E2,3.8874224E3,2.0840747E3,1.3220076E3,1.8594767E3,0E0,0E0,0E0,0E0,0E0,0E0,0E0,0E0,0E0,0E0,0E0,0E0,0E0,0E0,0E0,0E0,0E0,0E0,0E0,0E0,0E0,0E0,0E0,0E0,0E0,0E0,0E0,0E0,0E0,0E0,0E0,0E0,0E0,0E0,0E0,0E0,0E0,0E0,0E0,0E0],"parents":[2147483647,0,0,1,1,2,2,3,3,4,4,5,5,6,6,9,9,10,10,11,11,12,12,13,13,14,14,15,15,16,16,17,17,19,19,20,20,21,21,22,22,23,23,24,24,25,25,26,26,27,27,28,28,29,29,30,30,31,31,32,32,34,34,36,36,37,37,38,38,39,39,40,40,41,41,42,42,43,43,44,44,45,45,46,46,47,47,48,48],"right_children":[2,4,6,8,10,12,14,-1,-1,16,18,20,22,24,26,28,30,32,-1,34,36,38,40,42,44,46,48,50,52,54,56,58,60,-1,62,-1,64,66,68,70,72,74,76,78,80,82,84,86,88,-1,-1,-1,-1,-1,-1,-1,-1,-1,-1,-1,-1,-1,-1,-1,-1,-1,-1,-1,-1,-1,-1,-1,-1,-1,-1,-1,-1,-1,-1,-1,-1,-1,-1,-1,-1,-1,-1,-1,-1],"split_conditions":[6.8E1,-4.5550013E-1,6.8E1,1.9453327E1,1.75E2,7.6247087E0,2.1575987E1,-1.5713437E0,-7.4134674E0,1.55E2,1.24E2,5.1E1,7.1E1,1.99E2,1.3992879E2,1.47E2,6.8E1,4.0394096E1,8.2751255E0,5.1E1,2E-1,1.05E2,9.7E1,5.8E1,1.24E2,8.9E1,6.1E1,1.76E2,5.4E1,1.51E2,1.13E2,2.838E0,6.7E1,4.8861747E0,1.5702834E1,1.146896E1,2.0919502E1,6.6E1,2.037575E1,2.3612999E1,2.5455843E1,8.4E1,2.12E2,7.7E1,1.39E2,9.5E1,1.39E2,1.01E2,6.5E1,-4.208653E-1,-5.331352E0,-3.4397738E0,3.5171196E0,2.145322E0,-5.2809834E0,-3.4382656E0,-9.434275E0,4.445698E-1,-2.919671E0,6.9271696E-1,3.3442507E0,-3.714394E0,-4.740685E-1,3.1497493E0,-1.007206E0,-9.306069E-1,8.546195E-1,6.7811103E0,8.0757755E-1,-2.9381158E0,-6.1101496E-1,7.435421E-1,-3.7405937E0,1.1528342E0,-2.0910041E0,6.9852567E-1,6.932298E0,2.3583448E0,1.2865439E1,-1.2668045E0,4.2227955E0,-1.240621E0,4.3095937E0,-2.1304178E0,4.7569552E-1,1.031054E0,4.502079E0,-2.3410308E0,2.1713032E-1],"split_indices":[10,0,23,2,17,3,2,0,0,5,11,23,5,6,3,5,9,3,0,8,1,4,21,21,8,10,14,14,9,7,21,0,7,0,0,0,0,16,0,0,2,10,13,4,7,8,15,5,15,0,0,0,0,0,0,0,0,0,0,0,0,0,0,0,0,0,0,0,0,0,0,0,0,0,0,0,0,0,0,0,0,0,0,0,0,0,0,0,0],"split_type":[0,0,0,0,0,0,0,0,0,0,0,0,0,0,0,0,0,0,0,0,0,0,0,0,0,0,0,0,0,0,0,0,0,0,0,0,0,0,0,0,0,0,0,0,0,0,0,0,0,0,0,0,0,0,0,0,0,0,0,0,0,0,0,0,0,0,0,0,0,0,0,0,0,0,0,0,0,0,0,0,0,0,0,0,0,0,0,0,0],"sum_hessian":[3.905E3,1.142E3,2.763E3,6E0,1.136E3,6.46E2,2.117E3,1E0,5E0,1.12E3,1.6E1,1.7E1,6.29E2,1.536E3,5.81E2,1.076E3,4.4E1,1.2E1,4E0,7E0,1E1,2.42E2,3.87E2,1.525E3,1.1E1,2.17E2,3.64E2,1.054E3,2.2E1,1.8E1,2.6E1,4E0,8E0,2E0,5E0,6E0,4E0,2.21E2,2.1E1,2.44E2,1.43E2,1.32E2,1.393E3,5E0,6E0,4.4E1,1.73E2,4.3E1,3.21E2,1.046E3,8E0,2E0,2E1,1.6E1,2E0,1.6E1,1E1,1E0,3E0,2E0,6E0,3E0,2E0,2E0,2E0,1.01E2,1.2E2,1.5E1,6E0,1.56E2,8.8E1,1.26E2,1.7E1,4.8E1,8.4E1,1.386E3,7E0,1E0,4E0,2E0,4E0,2.4E1,2E1,1.39E2,3.4E1,2.8E1,1.5E1,2.7E1,2.94E2],"tree_param":{"num_deleted":"0","num_feature":"24","num_nodes":"89","size_leaf_vector":"1"}},{"base_weights":[2.3303226E-2,-2.1156114E-1,3.9032001E0,-6.482997E-2,-7.786156E0,5.3932385E0,-3.9865327E0,7.4389035E-1,-1.3508574E0,-9.531364E0,1.0310188E1,1.5728787E0,1.0104483E1,-2.097786E1,1.1099472E-1,6.0933465E-1,2.19025E1,-4.758893E0,-7.1612847E-1,-2.1519785E1,-2.9257321E0,-3.0734131E0,1.0563644E1,-2.4792862E1,1.1703062E1,-7.325518E0,-2.4753053E0,-2.7222888E0,1.4821871E1,-3.1007354E0,1.0720743E0,1.2282298E1,1.0193005E1,6.5285945E0,-6.86864E0,-1.1714953E0,5.228429E0,-9.121165E0,-2.9724432E1,-5.289736E0,6.788322E0,-8.147229E0,-8.029898E-1,1.7899626E1,1.3116864E0,-1.0032674E1,1.732933E-1,1.28991375E1,-1.4546181E1,-1.3050148E1,-8.077791E-1,5.41992E0,2.7656364E-1,-1.7036535E0,1.8821191E-2,1.4418545E0,1.721155E-1,-2.3551385E0,4.705554E0,-2.1171277E0,3.4508278E0,5.800462E0,-2.2220407E0,-4.903396E-1,1.3703434E0,3.7435982E0,-3.096506E-1,-8.425172E0,4.501053E-1,-5.880249E-1,-9.512813E0,-4.728504E0,-4.5741028E-1,2.4070816E0,-1.4712671E0,7.373447E0,2.101822E0,2.9199452E0,-2.8137314E0,2.9580414E0,6.545123E0,-5.677046E0,-2.0337753E0,-5.368039E0,-1.6413666E0,1.5376405E0,-4.8507604E-1],"categories":[],"categories_nodes":[],"categories_segments":[],"categories_sizes":[],"default_left":[0,0,0,0,0,0,0,0,0,0,0,0,0,0,0,0,0,0,0,0,0,0,0,0,0,0,0,0,0,0,0,0,0,0,0,0,0,0,0,0,0,0,0,0,0,0,0,0,0,0,0,0,0,0,0,0,0,0,0,0,0,0,0,0,0,0,0,0,0,0,0,0,0,0,0,0,0,0,0,0,0,0,0,0,0,0,0],"id":11,"left_children":[1,3,5,7,9,11,13,15,17,19,-1,21,23,25,27,29,31,33,35,37,39,41,43,45,47,-1,-1,49,51,53,55,-1,57,59,61,63,65,67,69,71,-1,-1,73,75,77,-1,-1,79,81,83,85,-1,-1,-1,-1,-1,-1,-1,-1,-1,-1,-1,-1,-1,-1,-1,-1,-1,-1,-1,-1,-1,-1,-1,-1,-1,-1,-1,-1,-1,-1,-1,-1,-1,-1,-1,-1],"loss_changes":[3.5601667E3,4.0940002E3,2.6430889E3,3.7607366E3,5.477227E3,3.367853E3,2.5087358E3,6.3070195E3,3.01639E3,5.322035E3,0E0,4.418707E3,4.9761904E3,1.050332E2,1.2907518E3,3.792294E3,2.7037236E3,5.2600527E3,3.194917E3,2.1703086E3,2.8380771E3,3.8058574E3,2.4199204E3,8.970747E2,2.7307158E3,0E0,0E0,5.0355087E2,2.0883948E2,1.998522E3,3.6502173E3,0E0,1.1141145E3,2.4463862E3,2.7520273E3,2.9170205E3,3.825706E3,2.2576797E3,7.093965E2,1.6319121E3,0E0,0E0,2.392345E3,1.2828623E3,1.6218341E3,0E0,0E0,1.8988057E3,7.7058105E0,4.8929382E1,1.1870665E2,0E0,0E0,0E0,0E0,0E0,0E0,0E0,0E0,0E0,0E0,0E0,0E0,0E0,0E0,0E0,0E0,0E0,0E0,0E0,0E0,0E0,0E0,0E0,0E0,0E0,0E0,0E0,0E0,0E0,0E0,0E0,0E0,0E0,0E0,0E0,0E0],"parents":[2147483647,0,0,1,1,2,2,3,3,4,4,5,5,6,6,7,7,8,8,9,9,11,11,12,12,13,13,14,14,15,15,16,16,17,17,18,18,19,19,20,20,21,21,22,22,23,23,24,24,27,27,28,28,29,29,30,30,32,32,33,33,34,34,35,35,36,36,37,37,38,38,39,39,42,42,43,43,44,44,47,47,48,48,49,49,50,50],"right_children":[2,4,6,8,10,12,14,16,18,20,-1,22,24,26,28,30,32,34,36,38,40,42,44,46,48,-1,-1,50,52,54,56,-1,58,60,62,64,66,68,70,72,-1,-1,74,76,78,-1,-1,80,82,84,86,-1,-1,-1,-1,-1,-1,-1,-1,-1,-1,-1,-1,-1,-1,-1,-1,-1,-1,-1,-1,-1,-1,-1,-1,-1,-1,-1,-1,-1,-1,-1,-1,-1,-1,-1,-1],"split_conditions":[1.63E2,1.72E2,1.75E2,9.0000004E-1,2.28E2,1.19E2,1.47E2,1.96E2,1.0490334E1,6.8317504E0,1.0310188E1,2E-1,5.6E1,1.83E2,1.08E2,5.1E1,6.9E1,5.6E1,1.46E2,1.07E2,1.76E2,5.8E1,1.19E2,1E-1,2.08E2,-7.325518E0,-2.4753053E0,1.54E2,2.5455843E1,1.5903006E2,2.6972216E1,1.2282298E1,7.7E1,4.7E1,4.5E1,1.49E2,1.18E2,1.84E2,1.0829959E1,7.7E1,6.788322E0,-8.147229E0,7.9E1,7.9E1,2.5E0,-1.0032674E1,1.732933E-1,1.47E2,9.1949993E-1,1.6055353E1,3.7257507E0,5.41992E0,2.7656364E-1,-1.7036535E0,1.8821191E-2,1.4418545E0,1.721155E-1,-2.3551385E0,4.705554E0,-2.1171277E0,3.4508278E0,5.800462E0,-2.2220407E0,-4.903396E-1,1.3703434E0,3.7435982E0,-3.096506E-1,-8.425172E0,4.501053E-1,-5.880249E-1,-9.512813E0,-4.728504E0,-4.5741028E-1,2.4070816E0,-1.4712671E0,7.373447E0,2.101822E0,2.9199452E0,-2.8137314E0,2.9580414E0,6.545123E0,-5.677046E0,-2.0337753E0,-5.368039E0,-1.6413666E0,1.5376405E0,-4.8507604E-1],"split_indices":[4,5,20,1,6,22,21,21,0,0,0,1,13,20,18,8,18,5,20,19,21,21,19,1,12,0,0,14,2,3,3,0,19,4,17,17,18,5,2,18,0,0,17,22,1,0,0,13,0,2,0,0,0,0,0,0,0,0,0,0,0,0,0,0,0,0,0,0,0,0,0,0,0,0,0,0,0,0,0,0,0,0,0,0,0,0,0],"split_type":[0,0,0,0,0,0,0,0,0,0,0,0,0,0,0,0,0,0,0,0,0,0,0,0,0,0,0,0,0,0,0,0,0,0,0,0,0,0,0,0,0,0,0,0,0,0,0,0,0,0,0,0,0,0,0,0,0,0,0,0,0,0,0,0,0,0,0,0,0,0,0,0,0,0,0,0,0,0,0,0,0,0,0,0,0,0,0],"sum_hessian":[3.905E3,3.683E3,2.22E2,3.614E3,6.9E1,1.87E2,3.5E1,2.219E3,1.395E3,6.7E1,2E0,1.04E2,8.3E1,6E0,2.9E1,2.206E3,1.3E1,2.18E2,1.177E3,2.3E1,4.4E1,6.9E1,3.5E1,3E0,8E1,4E0,2E0,2.5E1,4E0,2.44E2,1.962E3,4E0,9E0,3.4E1,1.84E2,1.094E3,8.3E1,1E1,1.3E1,4.1E1,3E0,5E0,6.4E1,1.9E1,1.6E1,2E0,1E0,7.7E1,3E0,3E0,2.2E1,3E0,1E0,1.34E2,1.1E2,2.3E2,1.732E3,2E0,7E0,9E0,2.5E1,3E0,1.81E2,1.013E3,8.1E1,3.8E1,4.5E1,3E0,7E0,1E0,1.2E1,1E1,3.1E1,2E1,4.4E1,1.1E1,8E0,9E0,7E0,5.9E1,1.8E1,1E0,2E0,1E0,2E0,2E0,2E1],"tree_param":{"num_deleted":"0","num_feature":"24","num_nodes":"87","size_leaf_vector":"1"}},{"base_weights":[1.678895E-2,-7.2665006E-1,1.1376629E0,-5.882404E0,-4.610401E-1,2.101901E0,-6.135955E-1,8.540573E0,-6.74232E0,8.777987E-1,-1.6374807E0,-8.1523075E0,2.4041224E0,-3.704371E-3,-7.3488345E0,4.4891586E0,-9.060269E0,1.6504359E0,-5.58018E0,-2.626855E0,1.4703056E0,1.3139179E1,-1.111437E1,6.543064E0,1.6866022E0,4.1678276E0,-8.38002E-1,-8.838991E0,4.058708E0,1.9350376E1,-3.262104E0,-1.0030361E1,7.11279E0,-8.0445457E-1,4.3438125E0,-8.793374E0,-9.493081E-1,2.6267687E-2,-4.191683E0,3.8657386E0,-3.8426E0,5.058179E0,2.962395E-1,-1.7002756E1,-6.3714576E0,-3.3337195E0,8.256448E0,-5.859889E0,2.226932E0,6.209696E0,-7.6186523E0,-4.4437532E0,3.7407756E-1,-9.445168E0,2.3112123E0,-8.603684E-1,2.471695E0,7.323117E0,1.3400681E0,-3.2259905E0,1.7295839E0,-6.2033663E0,-2.0356567E0,-3.0740896E-1,7.8633366E0,1.8450389E0,1.0553704E-1,-1.5192958E0,-4.66347E0,2.8320115E0,-1.6928914E0,-1.23586744E-1,6.2044873E0,-3.15308E0,-9.0341395E-1,1.5484365E0,-2.6043358E0,-2.1856353E0,2.5714953E0,-5.7819657E0,-1.357135E0,3.1670167E0,-2.8631463E0,3.9355762E0,-2.3155794E0,4.0330234E0,1.5592011E0,1.764805E0,-2.4700892E0,5.827613E-1,4.700276E0,8.576498E-1,5.1239004E0,-3.9374933E0,1.1449387E0,-3.8514674E-1,-2.9113626E0,-4.475228E-1,1.3248188E0,-2.3084245E0,-5.4245267E0],"categories":[],"categories_nodes":[],"categories_segments":[],"categories_sizes":[],"default_left":[0,0,0,0,0,0,0,0,0,0,0,0,0,0,0,0,0,0,0,0,0,0,0,0,0,0,0,0,0,0,0,0,0,0,0,0,0,0,0,0,0,0,0,0,0,0,0,0,0,0,0,0,0,0,0,0,0,0,0,0,0,0,0,0,0,0,0,0,0,0,0,0,0,0,0,0,0,0,0,0,0,0,0,0,0,0,0,0,0,0,0,0,0,0,0,0,0,0,0,0,0],"id":12,"left_children":[1,3,5,7,9,11,13,-1,15,17,19,21,23,25,27,29,31,33,35,37,39,41,43,45,47,49,51,53,55,57,59,61,-1,63,65,67,69,71,73,75,77,-1,-1,79,81,83,85,87,89,91,93,95,97,99,-1,-1,-1,-1,-1,-1,-1,-1,-1,-1,-1,-1,-1,-1,-1,-1,-1,-1,-1,-1,-1,-1,-1,-1,-1,-1,-1,-1,-1,-1,-1,-1,-1,-1,-1,-1,-1,-1,-1,-1,-1,-1,-1,-1,-1,-1,-1],"loss_changes":[3.255702E3,3.2140547E3,2.6321755E3,3.588926E3,3.5217058E3,3.1341338E3,2.2756733E3,0E0,2.9825146E3,5.22841E3,3.6628318E3,1.974969E3,2.890433E3,1.774965E3,8.178301E2,2.3669868E3,3.2260244E3,6.185662E3,1.6582004E3,3.7490776E3,3.6801472E3,1.6423712E2,6.1779834E2,2.4643965E3,3.4137632E3,2.092957E3,1.8591067E3,4.8391406E2,1.9735916E2,4.1813574E2,1.00875867E3,3.0382441E3,0E0,2.9423408E3,3.21388E3,1.5829443E3,2.345182E3,3.0498784E3,4.2044053E3,3.279983E3,3.9090854E3,0E0,0E0,2.2447534E2,9.5998883E2,1.6883671E3,1.881832E3,1.6093702E3,2.9472517E3,2.6101086E3,8.686418E2,1.7662798E3,2.4123638E3,4.6557178E2,0E0,0E0,0E0,0E0,0E0,0E0,0E0,0E0,0E0,0E0,0E0,0E0,0E0,0E0,0E0,0E0,0E0,0E0,0E0,0E0,0E0,0E0,0E0,0E0,0E0,0E0,0E0,0E0,0E0,0E0,0E0,0E0,0E0,0E0,0E0,0E0,0E0,0E0,0E0,0E0,0E0,0E0,0E0,0E0,0E0,0E0,0E0],"parents":[2147483647,0,0,1,1,2,2,3,3,4,4,5,5,6,6,8,8,9,9,10,10,11,11,12,12,13,13,14,14,15,15,16,16,17,17,18,18,19,19,20,20,21,21,22,22,23,23,24,24,25,25,26,26,27,27,28,28,29,29,30,30,31,31,33,33,34,34,35,35,36,36,37,37,38,38,39,39,40,40,43,43,44,44,45,45,46,46,47,47,48,48,49,49,50,50,51,51,52,52,53,53],"right_children":[2,4,6,8,10,12,14,-1,16,18,20,22,24,26,28,30,32,34,36,38,40,42,44,46,48,50,52,54,56,58,60,62,-1,64,66,68,70,72,74,76,78,-1,-1,80,82,84,86,88,90,92,94,96,98,100,-1,-1,-1,-1,-1,-1,-1,-1,-1,-1,-1,-1,-1,-1,-1,-1,-1,-1,-1,-1,-1,-1,-1,-1,-1,-1,-1,-1,-1,-1,-1,-1,-1,-1,-1,-1,-1,-1,-1,-1,-1,-1,-1,-1,-1,-1,-1],"split_conditions":[1.5903006E2,5.127834E0,9E-1,2.7E1,7.503781E1,-4.5550013E-1,2.884047E1,8.540573E0,1.210157E1,1.3200001E1,1.21E2,5.5E1,1.3708391E1,5.7E1,1.43E2,8.5E1,2.28E2,8.5E1,1E2,7.2E1,1.27E2,2.4387177E1,9E1,5.5E1,4.8E1,3.3668225E2,7.2E1,1.69E2,1.12E2,1.1113451E1,7.9E1,1.4264361E1,7.11279E0,1.8E2,1.7417418E1,9.3E1,1.25E2,1.58E2,1.1871583E1,1.7E2,1.47E2,5.058179E0,2.962395E-1,1.02E2,6.7E1,3.8E1,8.3E1,3.7E1,1.84E2,9.9E1,6.9E1,9.1E1,1.14E2,1.3E2,2.3112123E0,-8.603684E-1,2.471695E0,7.323117E0,1.3400681E0,-3.2259905E0,1.7295839E0,-6.2033663E0,-2.0356567E0,-3.0740896E-1,7.8633366E0,1.8450389E0,1.0553704E-1,-1.5192958E0,-4.66347E0,2.8320115E0,-1.6928914E0,-1.23586744E-1,6.2044873E0,-3.15308E0,-9.0341395E-1,1.5484365E0,-2.6043358E0,-2.1856353E0,2.5714953E0,-5.7819657E0,-1.357135E0,3.1670167E0,-2.8631463E0,3.9355762E0,-2.3155794E0,4.0330234E0,1.5592011E0,1.764805E0,-2.4700892E0,5.827613E-1,4.700276E0,8.576498E-1,5.1239004E0,-3.9374933E0,1.1449387E0,-3.8514674E-1,-2.9113626E0,-4.475228E-1,1.3248188E0,-2.3084245E0,-5.4245267E0],"split_indices":[3,0,1,17,3,0,2,0,2,1,21,5,2,17,13,11,11,14,16,5,13,2,7,11,6,3,18,11,8,2,17,2,0,11,0,13,16,9,0,22,4,0,0,6,16,6,13,5,18,21,18,11,22,14,0,0,0,0,0,0,0,0,0,0,0,0,0,0,0,0,0,0,0,0,0,0,0,0,0,0,0,0,0,0,0,0,0,0,0,0,0,0,0,0,0,0,0,0,0,0,0],"split_type":[0,0,0,0,0,0,0,0,0,0,0,0,0,0,0,0,0,0,0,0,0,0,0,0,0,0,0,0,0,0,0,0,0,0,0,0,0,0,0,0,0,0,0,0,0,0,0,0,0,0,0,0,0,0,0,0,0,0,0,0,0,0,0,0,0,0,0,0,0,0,0,0,0,0,0,0,0,0,0,0,0,0,0,0,0,0,0,0,0,0,0,0,0,0,0,0,0,0,0,0,0],"sum_hessian":[3.905E3,2.348E3,1.557E3,1.14E2,2.234E3,1.004E3,5.53E2,2E0,1.12E2,1.045E3,1.189E3,2.8E1,9.76E2,5.08E2,4.5E1,1.9E1,9.3E1,9.34E2,1.11E2,9.02E2,2.87E2,3E0,2.5E1,1.43E2,8.33E2,8.4E1,4.24E2,4E1,5E0,6E0,1.3E1,9.1E1,2E0,4.89E2,4.45E2,6.5E1,4.6E1,3.35E2,5.67E2,1.98E2,8.9E1,2E0,1E0,1E1,1.5E1,2.1E1,1.22E2,5.5E1,7.78E2,7.2E1,1.2E1,1.06E2,3.18E2,3.9E1,1E0,2E0,3E0,4E0,2E0,7E0,6E0,2E1,7.1E1,4.86E2,3E0,3.06E2,1.39E2,4.3E1,2.2E1,1.4E1,3.2E1,3.29E2,6E0,8.8E1,4.79E2,1.8E2,1.8E1,7E1,1.9E1,8E0,2E0,2E0,1.3E1,4E0,1.7E1,4.4E1,7.8E1,9E0,4.6E1,7.63E2,1.5E1,5.6E1,1.6E1,8E0,4E0,6.7E1,3.9E1,2.18E2,1E2,3.4E1,5E0],"tree_param":{"num_deleted":"0","num_feature":"24","num_nodes":"101","size_leaf_vector":"1"}},{"base_weights":[1.8835198E-2,2.8668096E0,-1.7087941E-1,3.3148026E0,-1.9210215E1,-2.7486908E-1,8.195998E0,-5.536408E-1,5.7659516E0,-6.855166E0,-6.9732976E-1,5.1444215E-1,-1.1070288E0,2.2071209E1,4.114106E0,-2.2762074E0,1.1406915E1,1.9760044E1,5.030316E0,1.7578247E0,-6.5549743E-1,-4.3790326E0,2.2931388E-1,3.1464876E1,1.1449051E-1,1.6783764E1,-1.0521589E-1,1.3156538E0,-1.29434E1,5.535543E0,1.286719E0,1.9077424E0,7.154573E0,-3.2389956E0,6.1147E0,2.0849922E0,-8.151659E0,-8.3881426E-1,1.1765209E1,-5.927298E0,2.206283E0,4.1430407E0,-2.5134012E-1,1.0861404E1,3.9230723E0,1.9122243E0,-1.22902E0,9.913917E-1,2.2972551E1,-5.5948925E0,6.659403E0,9.752497E-1,-3.1969864E0,-1.3502173E0,-9.989991E0,1.3705215E0,-1.0553308E0,5.391796E-2,-3.4439623E0,2.6565926E0,3.646488E-1,5.0734115E-1,4.9700933E0,9.600685E-2,-5.175396E0,-7.0650554E-1,1.4270626E-1,1.2409238E-1,6.0681543E0,-3.2795513E0,-1.0399696E0,-3.3982852E0,1.4955558E0,2.962995E0,1.5576755E-1,-8.5139406E-1,1.9553648E-1,1.869365E0,7.5223727E0,8.583515E-1,-2.3299148E0,-1.0145506E0,5.681346E0],"categories":[],"categories_nodes":[],"categories_segments":[],"categories_sizes":[],"default_left":[0,0,0,0,0,0,0,0,0,0,0,0,0,0,0,0,0,0,0,0,0,0,0,0,0,0,0,0,0,0,0,0,0,0,0,0,0,0,0,0,0,0,0,0,0,0,0,0,0,0,0,0,0,0,0,0,0,0,0,0,0,0,0,0,0,0,0,0,0,0,0,0,0,0,0,0,0,0,0,0,0,0,0],"id":13,"left_children":[1,3,5,7,9,11,13,15,17,-1,-1,19,21,23,25,27,29,31,33,35,37,39,41,43,45,47,49,51,53,-1,55,-1,-1,57,59,61,63,65,67,69,71,73,75,-1,-1,-1,-1,-1,77,79,81,-1,-1,-1,-1,-1,-1,-1,-1,-1,-1,-1,-1,-1,-1,-1,-1,-1,-1,-1,-1,-1,-1,-1,-1,-1,-1,-1,-1,-1,-1,-1,-1],"loss_changes":[2.110911E3,2.4769238E3,3.1893152E3,2.2789033E3,2.5423499E2,2.3776482E3,2.4578662E3,1.9626328E3,1.4138994E3,0E0,0E0,2.7039521E3,7.705382E3,2.0589385E3,1.9262312E3,3.1971802E3,8.3180615E2,2.3187378E2,1.2841677E3,2.938093E3,2.1911624E3,5.2231387E3,2.356239E3,1.3664307E2,1.3155504E2,6.748589E2,1.0770546E3,1.4942577E3,3.4592686E3,0E0,1.1067152E2,0E0,0E0,4.8100885E2,1.6675869E3,4.9514023E3,2.2411143E3,1.8845555E3,1.3364261E3,5.0604463E3,3.7421904E3,2.8413948E3,2.6089016E3,0E0,0E0,0E0,0E0,0E0,5.4898926E1,3.1601703E2,1.6668209E3,0E0,0E0,0E0,0E0,0E0,0E0,0E0,0E0,0E0,0E0,0E0,0E0,0E0,0E0,0E0,0E0,0E0,0E0,0E0,0E0,0E0,0E0,0E0,0E0,0E0,0E0,0E0,0E0,0E0,0E0,0E0,0E0],"parents":[2147483647,0,0,1,1,2,2,3,3,4,4,5,5,6,6,7,7,8,8,11,11,12,12,13,13,14,14,15,15,16,16,17,17,18,18,19,19,20,20,21,21,22,22,23,23,24,24,25,25,26,26,27,27,28,28,30,30,33,33,34,34,35,35,36,36,37,37,38,38,39,39,40,40,41,41,42,42,48,48,49,49,50,50],"right_children":[2,4,6,8,10,12,14,16,18,-1,-1,20,22,24,26,28,30,32,34,36,38,40,42,44,46,48,50,52,54,-1,56,-1,-1,58,60,62,64,66,68,70,72,74,76,-1,-1,-1,-1,-1,78,80,82,-1,-1,-1,-1,-1,-1,-1,-1,-1,-1,-1,-1,-1,-1,-1,-1,-1,-1,-1,-1,-1,-1,-1,-1,-1,-1,-1,-1,-1,-1,-1,-1],"split_conditions":[1.1269782E1,1.88E2,1.89E2,7.6E1,6.071583E0,8.9E1,1.94E2,1.32E2,4.3E1,-6.855166E0,-6.9732976E-1,2.037575E1,9.2E1,1E-1,7.7E1,1.07E2,8.5E1,2.9E1,6.3E1,1.64E2,1.63E2,1.37E2,6.1E1,1.52E2,1.656E1,2.838E0,1.47E2,1.07E2,1.13E2,5.535543E0,6.7179E1,1.9077424E0,7.154573E0,5.7E1,1.17E2,1.57E2,9.9E1,1.2679077E2,1.36E2,9.302204E1,5.127834E0,1.1871583E1,8.8E1,1.0861404E1,3.9230723E0,1.9122243E0,-1.22902E0,9.913917E-1,1.405845E1,7.7E1,8.317417E0,9.752497E-1,-3.1969864E0,-1.3502173E0,-9.989991E0,1.3705215E0,-1.0553308E0,5.391796E-2,-3.4439623E0,2.6565926E0,3.646488E-1,5.0734115E-1,4.9700933E0,9.600685E-2,-5.175396E0,-7.0650554E-1,1.4270626E-1,1.2409238E-1,6.0681543E0,-3.2795513E0,-1.0399696E0,-3.3982852E0,1.4955558E0,2.962995E0,1.5576755E-1,-8.5139406E-1,1.9553648E-1,1.869365E0,7.5223727E0,8.583515E-1,-2.3299148E0,-1.0145506E0,5.681346E0],"split_indices":[2,16,15,12,0,5,15,21,16,0,0,0,6,1,7,18,13,17,4,15,18,9,20,11,2,0,7,15,4,0,3,0,0,4,14,15,22,3,19,3,0,0,20,0,0,0,0,0,2,13,0,0,0,0,0,0,0,0,0,0,0,0,0,0,0,0,0,0,0,0,0,0,0,0,0,0,0,0,0,0,0,0,0],"split_type":[0,0,0,0,0,0,0,0,0,0,0,0,0,0,0,0,0,0,0,0,0,0,0,0,0,0,0,0,0,0,0,0,0,0,0,0,0,0,0,0,0,0,0,0,0,0,0,0,0,0,0,0,0,0,0,0,0,0,0,0,0,0,0,0,0,0,0,0,0,0,0,0,0,0,0,0,0,0,0,0,0,0,0],"sum_hessian":[3.905E3,2.43E2,3.662E3,2.39E2,4E0,3.618E3,4.4E1,9.3E1,1.46E2,3E0,1E0,1.857E3,1.761E3,9E0,3.5E1,8.2E1,1.1E1,6E0,1.4E2,9E2,9.57E2,5.1E2,1.251E3,6E0,3E0,8E0,2.7E1,6.2E1,2E1,6E0,5E0,2E0,4E0,1.6E1,1.24E2,8.72E2,2.8E1,9.44E2,1.3E1,4.13E2,9.7E1,1.36E2,1.115E3,4E0,2E0,1E0,2E0,3E0,5E0,1.5E1,1.2E1,5.4E1,8E0,1.5E1,5E0,3E0,2E0,1.2E1,4E0,7.9E1,4.5E1,8.5E2,2.2E1,1.5E1,1.3E1,4.38E2,5.06E2,6E0,7E0,1.35E2,2.78E2,1.6E1,8.1E1,5.2E1,8.4E1,2.88E2,8.27E2,1E0,4E0,3E0,1.2E1,7E0,5E0],"tree_param":{"num_deleted":"0","num_feature":"24","num_nodes":"83","size_leaf_vector":"1"}},{"base_weights":[1.9519398E-2,4.217749E0,-1.0438607E-1,1.6001275E-1,1.0255712E1,-1.000205E0,6.9841295E-1,-2.4711745E0,7.6061535E0,1.3133801E1,-1.5395762E1,-3.4392193E-1,-4.8193135E0,-2.8263044E0,1.0717136E0,-7.552191E-1,-1.0395053E1,1.942243E1,1.5673989E0,1.4612684E1,-4.3669432E-1,3.7870905E0,-2.555652E1,-5.5225235E-1,6.713986E0,-3.2268562E0,-1.0270745E1,-1.8917898E0,-1.4572861E1,-3.8444598E0,1.4290951E0,6.119663E-1,-2.786457E0,-1.3645548E1,2.3413365E0,6.671294E0,8.019528E-1,-4.493795E0,9.387757E0,1.637642E1,4.949341E-2,-1.5647885E0,2.0621128E0,-9.179097E0,-1.5652668E0,-3.0649966E-1,-8.616029E0,1.2043223E1,-4.6046886E0,-4.9964952E0,4.1978183E0,-1.9757595E1,-6.2812757E0,-2.2046456E0,8.069484E0,3.081328E0,-2.1942669E1,-3.124274E-1,-7.9287004E0,7.044487E0,1.0066745E0,-1.3882439E-1,2.9588175E0,-4.6686144E0,-1.5792108E0,-1.9226371E0,1.3366756E0,3.4486365E0,1.0344727E0,7.391658E0,3.8240654E0,-5.957444E-1,6.20491E-1,7.7654654E-1,7.244797E-2,-3.2682765E-1,7.5584763E-1,5.9382784E-1,-4.249408E0,3.697968E-2,5.8869143E0,1.3443334E-3,-2.2423494E0,7.2286215E0,3.9529756E-1,-8.389909E0,-3.3644474E0,7.6969735E-2,-3.7600815E0,-9.868127E-1,1.6909778E0,1.8147659E0,-2.7410203E-1,-6.9184537E0,-1.7809616E0,-4.467026E0,6.619047E-1,-3.7110324E0,-6.472211E-1,3.3522396E0,1.7050236E-1,4.268815E-1,-8.182885E-1],"categories":[],"categories_nodes":[],"categories_segments":[],"categories_sizes":[],"default_left":[0,0,0,0,0,0,0,0,0,0,0,0,0,0,0,0,0,0,0,0,0,0,0,0,0,0,0,0,0,0,0,0,0,0,0,0,0,0,0,0,0,0,0,0,0,0,0,0,0,0,0,0,0,0,0,0,0,0,0,0,0,0,0,0,0,0,0,0,0,0,0,0,0,0,0,0,0,0,0,0,0,0,0,0,0,0,0,0,0,0,0,0,0,0,0,0,0,0,0,0,0,0,0],"id":14,"left_children":[1,3,5,7,9,11,13,15,17,19,21,23,25,27,29,31,33,35,37,39,41,-1,43,45,47,49,51,53,55,57,59,61,-1,63,-1,-1,-1,65,67,69,71,-1,73,-1,-1,75,77,79,-1,81,83,85,87,89,-1,91,93,95,97,99,101,-1,-1,-1,-1,-1,-1,-1,-1,-1,-1,-1,-1,-1,-1,-1,-1,-1,-1,-1,-1,-1,-1,-1,-1,-1,-1,-1,-1,-1,-1,-1,-1,-1,-1,-1,-1,-1,-1,-1,-1,-1,-1],"loss_changes":[2.0322776E3,2.7424111E3,2.729921E3,1.3510652E3,3.5244302E3,4.494854E3,2.6372185E3,6.8559753E2,1.2539579E3,8.292178E2,1.7461078E3,2.2563252E3,2.2500063E3,2.0800781E3,3.187331E3,5.0732864E2,6.389129E2,2.2347144E2,6.583959E2,9.495576E2,7.046824E1,0E0,2.5043018E2,2.9481028E3,5.358313E3,2.7144685E3,2.1088994E3,1.6715795E3,1.8891245E3,1.7718805E3,3.999314E3,3.8235696E2,0E0,4.658618E1,0E0,0E0,0E0,1.6565904E2,3.5473083E1,6.755625E2,2.4651766E1,0E0,3.2082157E0,0E0,0E0,3.20208E3,2.6148247E3,3.2502227E3,0E0,2.0571763E3,2.2605796E3,8.7849756E2,1.7609155E3,1.532542E3,0E0,6.481066E1,4.2177734E1,2.4929495E3,1.4343755E3,3.1494624E3,2.447484E3,0E0,0E0,0E0,0E0,0E0,0E0,0E0,0E0,0E0,0E0,0E0,0E0,0E0,0E0,0E0,0E0,0E0,0E0,0E0,0E0,0E0,0E0,0E0,0E0,0E0,0E0,0E0,0E0,0E0,0E0,0E0,0E0,0E0,0E0,0E0,0E0,0E0,0E0,0E0,0E0,0E0,0E0],"parents":[2147483647,0,0,1,1,2,2,3,3,4,4,5,5,6,6,7,7,8,8,9,9,10,10,11,11,12,12,13,13,14,14,15,15,16,16,17,17,18,18,19,19,20,20,22,22,23,23,24,24,25,25,26,26,27,27,28,28,29,29,30,30,31,31,33,33,37,37,38,38,39,39,40,40,42,42,45,45,46,46,47,47,49,49,50,50,51,51,52,52,53,53,55,55,56,56,57,57,58,58,59,59,60,60],"right_children":[2,4,6,8,10,12,14,16,18,20,22,24,26,28,30,32,34,36,38,40,42,-1,44,46,48,50,52,54,56,58,60,62,-1,64,-1,-1,-1,66,68,70,72,-1,74,-1,-1,76,78,80,-1,82,84,86,88,90,-1,92,94,96,98,100,102,-1,-1,-1,-1,-1,-1,-1,-1,-1,-1,-1,-1,-1,-1,-1,-1,-1,-1,-1,-1,-1,-1,-1,-1,-1,-1,-1,-1,-1,-1,-1,-1,-1,-1,-1,-1,-1,-1,-1,-1,-1,-1],"split_conditions":[3.8E1,7.7E1,8.8E1,7.9E1,1.21E2,8E1,5.8E1,7.1E1,4.7E1,7.199999E0,7.927835E0,1.65E2,1.24E2,1.55E2,5.5E1,6.2E1,1.23E2,2.8167421E1,9.3E1,1.32E2,2.7761168E1,3.7870905E0,1.7915335E1,1.63E2,1.5E2,1.17E2,7.5E1,1.81E2,7.3E1,1E-1,6.1E1,9.6E1,-2.786457E0,2.5146584E1,2.3413365E0,6.671294E0,8.019528E-1,2.9609083E1,1.07E2,6.7179E1,1.110075E1,-1.5647885E0,1.42E1,-9.179097E0,-1.5652668E0,1.06E2,8.6E1,1.34E2,-4.6046886E0,6.3E1,4.358564E1,8.850751E0,1.05E2,1.55E2,8.069484E0,1.6595179E1,2.4E0,6.5E1,2.3267416E1,1.16E2,2.61445E1,-1.3882439E-1,2.9588175E0,-4.6686144E0,-1.5792108E0,-1.9226371E0,1.3366756E0,3.4486365E0,1.0344727E0,7.391658E0,3.8240654E0,-5.957444E-1,6.20491E-1,7.7654654E-1,7.244797E-2,-3.2682765E-1,7.5584763E-1,5.9382784E-1,-4.249408E0,3.697968E-2,5.8869143E0,1.3443334E-3,-2.2423494E0,7.2286215E0,3.9529756E-1,-8.389909E0,-3.3644474E0,7.6969735E-2,-3.7600815E0,-9.868127E-1,1.6909778E0,1.8147659E0,-2.7410203E-1,-6.9184537E0,-1.7809616E0,-4.467026E0,6.619047E-1,-3.7110324E0,-6.472211E-1,3.3522396E0,1.7050236E-1,4.268815E-1,-8.182885E-1],"split_indices":[16,4,17,13,6,17,21,4,6,1,0,8,19,5,19,17,8,0,11,7,0,0,0,6,12,23,11,6,9,1,20,22,0,0,0,0,0,0,12,3,0,0,1,0,0,6,4,9,0,11,3,0,10,18,0,2,1,13,0,16,0,0,0,0,0,0,0,0,0,0,0,0,0,0,0,0,0,0,0,0,0,0,0,0,0,0,0,0,0,0,0,0,0,0,0,0,0,0,0,0,0,0,0],"split_type":[0,0,0,0,0,0,0,0,0,0,0,0,0,0,0,0,0,0,0,0,0,0,0,0,0,0,0,0,0,0,0,0,0,0,0,0,0,0,0,0,0,0,0,0,0,0,0,0,0,0,0,0,0,0,0,0,0,0,0,0,0,0,0,0,0,0,0,0,0,0,0,0,0,0,0,0,0,0,0,0,0,0,0,0,0,0,0,0,0,0,0,0,0,0,0,0,0,0,0,0,0,0,0],"sum_hessian":[3.905E3,1.11E2,3.794E3,6.7E1,4.4E1,1.793E3,2.001E3,5E1,1.7E1,4E1,4E0,1.531E3,2.62E2,1.91E2,1.81E3,4.2E1,8E0,5E0,1.2E1,3.6E1,4E0,1E0,3E0,1.488E3,4.3E1,2.04E2,5.8E1,1.78E2,1.3E1,1.22E2,1.688E3,3.7E1,5E0,7E0,1E0,4E0,1E0,7E0,5E0,3.2E1,4E0,1E0,3E0,2E0,1E0,1.445E3,4.3E1,3.5E1,8E0,1.65E2,3.9E1,1.6E1,4.2E1,1.77E2,1E0,4E0,9E0,6.6E1,5.6E1,1.17E2,1.571E3,3.4E1,3E0,5E0,2E0,6E0,1E0,3E0,2E0,8E0,2.4E1,2E0,2E0,2E0,1E0,1.132E3,3.13E2,1.5E1,2.8E1,1.4E1,2.1E1,5.5E1,1.1E2,4E0,3.5E1,7E0,9E0,2.1E1,2.1E1,1.56E2,2.1E1,2E0,2E0,8E0,1E0,9E0,5.7E1,3.1E1,2.5E1,7.1E1,4.6E1,1.414E3,1.57E2],"tree_param":{"num_deleted":"0","num_feature":"24","num_nodes":"103","size_leaf_vector":"1"}},{"base_weights":[1.2560085E-2,-2.7131643E0,1.8305343E-1,-8.193869E0,-8.6001986E-1,3.3949688E-1,-2.9308555E0,-1.0153213E1,1.047932E1,4.6129985E0,-3.882048E0,6.9178957E-1,-1.0298573E0,-4.005037E0,2.4303284E0,-2.797511E-1,-1.3690359E1,-3.0881493E0,5.0078144E0,6.982444E-1,1.5824277E1,4.060598E0,-5.652847E0,6.310445E-1,1.3600633E1,-3.4296381E0,4.0163413E-1,-4.470002E0,1.0093977E1,-2.316161E0,5.72333E0,3.2467155E0,-3.2367642E0,-2.7303558E1,-8.696281E0,3.2424946E0,-1.2110288E1,7.396833E0,6.215508E0,-7.255629E0,8.050396E0,-2.174671E0,-1.1522245E1,7.18797E-1,-9.046971E0,2.2775658E1,-8.995063E-1,-1.4525677E0,-9.001172E0,3.2706933E0,-2.0778494E0,-1.6568102E0,-6.928253E0,7.790005E-1,3.3957415E0,6.237195E-1,-2.143414E0,-2.3121206E-1,8.719869E0,-2.2143273E-1,2.2063677E0,1.6081182E0,-9.458546E0,-3.3744397E0,1.0157425E0,4.0207553E0,-1.7727903E-1,-5.789858E-1,-5.3497496E0,3.1275308E0,-1.7036145E0,-3.831482E-3,-4.348269E0,5.3277683E0,1.0002551E0,-1.4386224E0,1.977497E0,-4.59615E0,-2.623151E-1,3.1951837E-2,5.6308544E-1,5.3037614E-1,-6.89163E0,8.636034E0,2.8703535E0,1.1849327E0,-2.1196141E0,-6.7283875E-1,4.1121063E0,-1.6796585E0,-4.3630767E0,6.3392526E-1,5.43047E0,-1.6021094E0,2.6086485E-1,-1.5828156E0,1.4337984E0,-2.3077476E0,2.6253498E0,1.1746788E0,-2.6285625E-1,-2.1032898E0,1.1648648E0,3.7601104E0,2.6212946E-1],"categories":[],"categories_nodes":[],"categories_segments":[],"categories_sizes":[],"default_left":[0,0,0,0,0,0,0,0,0,0,0,0,0,0,0,0,0,0,0,0,0,0,0,0,0,0,0,0,0,0,0,0,0,0,0,0,0,0,0,0,0,0,0,0,0,0,0,0,0,0,0,0,0,0,0,0,0,0,0,0,0,0,0,0,0,0,0,0,0,0,0,0,0,0,0,0,0,0,0,0,0,0,0,0,0,0,0,0,0,0,0,0,0,0,0,0,0,0,0,0,0,0,0,0,0],"id":15,"left_children":[1,3,5,7,9,11,13,15,17,19,21,23,25,27,29,31,33,-1,-1,35,37,39,41,43,45,47,49,51,53,55,57,59,-1,61,63,65,67,-1,69,71,73,75,77,79,81,83,85,87,89,91,93,95,97,-1,-1,99,-1,101,103,-1,-1,-1,-1,-1,-1,-1,-1,-1,-1,-1,-1,-1,-1,-1,-1,-1,-1,-1,-1,-1,-1,-1,-1,-1,-1,-1,-1,-1,-1,-1,-1,-1,-1,-1,-1,-1,-1,-1,-1,-1,-1,-1,-1,-1,-1],"loss_changes":[1.8156847E3,2.3289565E3,1.792248E3,2.2284573E3,2.879261E3,1.6901243E3,1.0232971E3,1.8471353E3,9.462629E2,2.7100938E3,1.5982151E3,2.1760542E3,2.464463E3,1.0087864E3,4.8216205E2,5.9094855E2,2.4139902E3,0E0,0E0,1.5709088E3,1.2045581E3,1.0065493E3,1.8531045E3,2.362378E3,1.7499956E3,2.9390295E3,3.2079993E3,9.774424E2,1.6534973E1,1.8899608E2,3.2319043E2,2.0185687E2,0E0,1.5490337E3,9.630344E2,1.5658273E3,4.3161633E2,0E0,5.0982986E2,3.1438385E2,6.7341003E2,1.3870896E3,1.3616763E3,1.9499003E3,3.8055818E3,3.5972266E2,2.0730702E2,2.4146687E3,1.238564E3,3.5499363E3,2.3316992E3,1.6092039E3,9.780122E2,0E0,0E0,4.7868374E1,0E0,2.2247061E2,3.4813318E2,0E0,0E0,0E0,0E0,0E0,0E0,0E0,0E0,0E0,0E0,0E0,0E0,0E0,0E0,0E0,0E0,0E0,0E0,0E0,0E0,0E0,0E0,0E0,0E0,0E0,0E0,0E0,0E0,0E0,0E0,0E0,0E0,0E0,0E0,0E0,0E0,0E0,0E0,0E0,0E0,0E0,0E0,0E0,0E0,0E0,0E0],"parents":[2147483647,0,0,1,1,2,2,3,3,4,4,5,5,6,6,7,7,8,8,9,9,10,10,11,11,12,12,13,13,14,14,15,15,16,16,19,19,20,20,21,21,22,22,23,23,24,24,25,25,26,26,27,27,28,28,29,29,30,30,31,31,33,33,34,34,35,35,36,36,38,38,39,39,40,40,41,41,42,42,43,43,44,44,45,45,46,46,47,47,48,48,49,49,50,50,51,51,52,52,55,55,57,57,58,58],"right_children":[2,4,6,8,10,12,14,16,18,20,22,24,26,28,30,32,34,-1,-1,36,38,40,42,44,46,48,50,52,54,56,58,60,-1,62,64,66,68,-1,70,72,74,76,78,80,82,84,86,88,90,92,94,96,98,-1,-1,100,-1,102,104,-1,-1,-1,-1,-1,-1,-1,-1,-1,-1,-1,-1,-1,-1,-1,-1,-1,-1,-1,-1,-1,-1,-1,-1,-1,-1,-1,-1,-1,-1,-1,-1,-1,-1,-1,-1,-1,-1,-1,-1,-1,-1,-1,-1,-1,-1],"split_conditions":[3.852832E0,8.2E1,2.1300001E1,1.69E2,1.24E2,2.2314192E1,2.6698668E1,7E1,5.9E1,1.56E2,1.272283E1,1.99E2,7.7E1,1.75E2,7.3E1,3.310638E2,1.749615E1,-3.0881493E0,5.0078144E0,1.57E2,1.03E2,1.0464797E1,1.2E2,1.84E2,1.42E2,8.5E1,1.04E2,8.1E1,2.3000002E1,7.7E1,2.67E1,1.25E2,-3.2367642E0,8.836514E0,1.57E2,8.2E1,9.9E1,7.396833E0,2.4275832E0,8E1,9.2E1,1.41E2,1.52E2,1.09E2,1.57E2,1.18E2,1.7414474E1,1.33E2,9.9E1,1.56E2,1.02E2,9.4E1,1.66E2,7.790005E-1,3.3957415E0,1.3450708E1,-2.143414E0,7.5E1,2.7217524E1,-2.2143273E-1,2.2063677E0,1.6081182E0,-9.458546E0,-3.3744397E0,1.0157425E0,4.0207553E0,-1.7727903E-1,-5.789858E-1,-5.3497496E0,3.1275308E0,-1.7036145E0,-3.831482E-3,-4.348269E0,5.3277683E0,1.0002551E0,-1.4386224E0,1.977497E0,-4.59615E0,-2.623151E-1,3.1951837E-2,5.6308544E-1,5.3037614E-1,-6.89163E0,8.636034E0,2.8703535E0,1.1849327E0,-2.1196141E0,-6.7283875E-1,4.1121063E0,-1.6796585E0,-4.3630767E0,6.3392526E-1,5.43047E0,-1.6021094E0,2.6086485E-1,-1.5828156E0,1.4337984E0,-2.3077476E0,2.6253498E0,1.1746788E0,-2.6285625E-1,-2.1032898E0,1.1648648E0,3.7601104E0,2.6212946E-1],"split_indices":[0,22,1,6,22,2,0,7,4,15,2,6,12,13,22,3,2,0,0,14,5,2,19,5,8,13,11,11,1,20,1,23,0,2,14,19,16,0,0,8,17,20,17,4,16,23,2,11,4,9,14,15,18,0,0,2,0,15,2,0,0,0,0,0,0,0,0,0,0,0,0,0,0,0,0,0,0,0,0,0,0,0,0,0,0,0,0,0,0,0,0,0,0,0,0,0,0,0,0,0,0,0,0,0,0],"split_type":[0,0,0,0,0,0,0,0,0,0,0,0,0,0,0,0,0,0,0,0,0,0,0,0,0,0,0,0,0,0,0,0,0,0,0,0,0,0,0,0,0,0,0,0,0,0,0,0,0,0,0,0,0,0,0,0,0,0,0,0,0,0,0,0,0,0,0,0,0,0,0,0,0,0,0,0,0,0,0,0,0,0,0,0,0,0,0,0,0,0,0,0,0,0,0,0,0,0,0,0,0,0,0,0,0],"sum_hessian":[3.905E3,2.29E2,3.676E3,5.7E1,1.72E2,3.501E3,1.75E2,5.2E1,5E0,6.1E1,1.11E2,2.785E3,7.16E2,1.46E2,2.9E1,1.4E1,3.8E1,1E0,4E0,4.6E1,1.5E1,2E1,9.1E1,2.773E3,1.2E1,2.67E2,4.49E2,1.42E2,4E0,1.2E1,1.7E1,1.1E1,3E0,9E0,2.9E1,3.9E1,7E0,7E0,8E0,5E0,1.5E1,5.8E1,3.3E1,2.749E3,2.4E1,7E0,5E0,1.98E2,6.9E1,2.08E2,2.41E2,6.7E1,7.5E1,1E0,3E0,8E0,4E0,6E0,1.1E1,6E0,5E0,1E0,8E0,2.4E1,5E0,1E1,2.9E1,3E0,4E0,6E0,2E0,3E0,2E0,4E0,1.1E1,4.5E1,1.3E1,2.4E1,9E0,1.799E3,9.5E2,1.4E1,1E1,4E0,3E0,3E0,2E0,1.89E2,9E0,4.4E1,2.5E1,1.94E2,1.4E1,1.14E2,1.27E2,4.3E1,2.4E1,7.2E1,3E0,2E0,6E0,2E0,4E0,7E0,4E0],"tree_param":{"num_deleted":"0","num_feature":"24","num_nodes":"105","size_leaf_vector":"1"}},{"base_weights":[1.0833117E-2,7.1825707E-1,-6.4060044E-1,6.091087E-1,9.101853E0,-2.4819682E0,1.7606291E-1,2.5946565E0,1.375321E-1,2.06866E1,-4.2067747E0,-4.9074183E0,-5.7461566E-1,1.1335051E1,1.5490792E-2,2.1105456E0,2.0971518E1,7.5636435E-1,-2.9203398E0,1.32265E0,2.6363518E1,-1.1992109E1,3.067337E0,-3.807711E0,-1.802732E1,-1.4672496E0,8.36968E0,1.8062063E1,-3.738266E0,9.579969E-1,-1.7471248E0,1.6725479E0,2.0461634E1,-6.5354743E0,8.92929E0,6.58738E-1,1.5769495E1,-3.9980617E0,3.2541487E0,-2.4588616E0,2.168301E0,2.6536186E0,2.9637375E1,-8.597615E-1,-3.973255E0,2.567683E0,-3.191103E0,-5.620443E0,2.587753E0,-2.2565535E1,-2.920863E0,-2.402497E0,6.2169805E0,1.0742236E1,-6.590567E0,2.5307022E1,-6.3770885E0,-4.683125E0,4.1326766E0,-4.579726E0,1.448205E0,-2.9237866E0,3.0512638E0,-2.956069E-1,1.2206045E0,9.490952E-1,7.7101064E0,1.284565E-1,-3.06942E0,3.7021026E-2,8.5845184E-1,-3.378812E0,7.9972043E0,-1.6020192E0,6.585229E-1,6.0577765E0,2.2746624E-2,2.609926E0,9.415692E0,-3.921585E-2,-1.8558381E0,-1.0400623E0,-3.6426742E0,2.5836558E0,-1.6404024E0,-8.575058E-2,-7.209538E0,6.093247E-1,-2.5649507E0,2.1975608E0,-9.9646294E-1,5.6462216E0,3.3908E-1,4.1138577E0,-7.306572E-1,-6.590767E-1,-3.624772E0,8.52079E0,2.2753556E0,2.0394975E-1,-2.686802E0,-9.048157E-2,2.15682E0,2.8851535E0,-1.9338835E0,3.509763E-1,5.29924E0,1.1093782E0,-1.1860359E0,3.0625942E0,-2.5796512E-1],"categories":[],"categories_nodes":[],"categories_segments":[],"categories_sizes":[],"default_left":[0,0,0,0,0,0,0,0,0,0,0,0,0,0,0,0,0,0,0,0,0,0,0,0,0,0,0,0,0,0,0,0,0,0,0,0,0,0,0,0,0,0,0,0,0,0,0,0,0,0,0,0,0,0,0,0,0,0,0,0,0,0,0,0,0,0,0,0,0,0,0,0,0,0,0,0,0,0,0,0,0,0,0,0,0,0,0,0,0,0,0,0,0,0,0,0,0,0,0,0,0,0,0,0,0,0,0,0,0,0,0],"id":16,"left_children":[1,3,5,7,9,11,13,15,17,19,21,23,25,27,29,31,33,35,37,39,41,43,45,47,49,51,53,55,57,59,61,63,65,67,-1,69,71,73,75,-1,-1,-1,77,-1,-1,-1,79,81,83,85,87,89,91,93,95,97,99,-1,101,103,105,107,109,-1,-1,-1,-1,-1,-1,-1,-1,-1,-1,-1,-1,-1,-1,-1,-1,-1,-1,-1,-1,-1,-1,-1,-1,-1,-1,-1,-1,-1,-1,-1,-1,-1,-1,-1,-1,-1,-1,-1,-1,-1,-1,-1,-1,-1,-1,-1,-1],"loss_changes":[1.8005001E3,1.7083564E3,3.0591204E3,1.7318679E3,3.787273E3,2.8885474E3,2.526294E3,3.1139731E3,2.8331045E3,1.3941885E3,7.1636053E2,3.8990723E3,2.8146582E3,2.0954883E3,2.3125085E3,2.7548713E3,2.3712903E3,1.8143798E3,1.6899143E3,2.8407556E2,3.1136426E2,3.0604248E1,2.6789465E2,2.9708267E3,1.373772E3,2.3146665E3,1.2066062E3,2.640234E3,7.186278E2,2.4688079E3,2.747271E3,2.1693652E3,6.436472E2,8.159248E1,0E0,1.4595188E3,2.654815E3,1.7986306E3,2.0442329E3,0E0,0E0,0E0,1.978955E1,0E0,0E0,0E0,3.5855034E1,2.7528901E3,2.813381E3,5.1581445E2,1.8461159E2,2.5812285E3,2.2226375E3,1.12949E3,9.410516E1,3.8806104E2,7.888545E1,0E0,6.994023E1,2.02294E3,3.7428716E3,2.6736992E3,2.696162E3,0E0,0E0,0E0,0E0,0E0,0E0,0E0,0E0,0E0,0E0,0E0,0E0,0E0,0E0,0E0,0E0,0E0,0E0,0E0,0E0,0E0,0E0,0E0,0E0,0E0,0E0,0E0,0E0,0E0,0E0,0E0,0E0,0E0,0E0,0E0,0E0,0E0,0E0,0E0,0E0,0E0,0E0,0E0,0E0,0E0,0E0,0E0,0E0],"parents":[2147483647,0,0,1,1,2,2,3,3,4,4,5,5,6,6,7,7,8,8,9,9,10,10,11,11,12,12,13,13,14,14,15,15,16,16,17,17,18,18,19,19,20,20,21,21,22,22,23,23,24,24,25,25,26,26,27,27,28,28,29,29,30,30,31,31,32,32,33,33,35,35,36,36,37,37,38,38,42,42,46,46,47,47,48,48,49,49,50,50,51,51,52,52,53,53,54,54,55,55,56,56,58,58,59,59,60,60,61,61,62,62],"right_children":[2,4,6,8,10,12,14,16,18,20,22,24,26,28,30,32,34,36,38,40,42,44,46,48,50,52,54,56,58,60,62,64,66,68,-1,70,72,74,76,-1,-1,-1,78,-1,-1,-1,80,82,84,86,88,90,92,94,96,98,100,-1,102,104,106,108,110,-1,-1,-1,-1,-1,-1,-1,-1,-1,-1,-1,-1,-1,-1,-1,-1,-1,-1,-1,-1,-1,-1,-1,-1,-1,-1,-1,-1,-1,-1,-1,-1,-1,-1,-1,-1,-1,-1,-1,-1,-1,-1,-1,-1,-1,-1,-1,-1],"split_conditions":[8.6E1,1.73E2,9.2E1,1.4154915E1,1.84E2,1.3804037E2,4.0995526E0,1.4113652E1,1.24E2,5.4E1,1.19E2,1.59E2,1.58E2,1.859845E1,1.28E2,1.6E2,4.6E1,1.73E2,1.53E2,1.1480557E1,6.7E1,3.852832E0,1.52E2,1.23E2,1.47E2,1.53E2,3.3668225E2,1.64E2,6.8E1,4.471334E0,2.8501602E2,7.2E1,6.189464E1,1.0871334E1,8.92929E0,1.06E2,4.621583E0,7.199999E0,7.5E1,-2.4588616E0,2.168301E0,2.6536186E0,5.8E1,-8.597615E-1,-3.973255E0,2.567683E0,9.0528345E0,8.3E1,1.3E0,5.6E1,1.75E2,5E1,1.803237E1,1.4000001E0,8.317417E0,2.2167166E1,2.131338E0,-4.683125E0,2.131338E0,5.3E1,1.85E2,6.9E1,1.34E2,-2.956069E-1,1.2206045E0,9.490952E-1,7.7101064E0,1.284565E-1,-3.06942E0,3.7021026E-2,8.5845184E-1,-3.378812E0,7.9972043E0,-1.6020192E0,6.585229E-1,6.0577765E0,2.2746624E-2,2.609926E0,9.415692E0,-3.921585E-2,-1.8558381E0,-1.0400623E0,-3.6426742E0,2.5836558E0,-1.6404024E0,-8.575058E-2,-7.209538E0,6.093247E-1,-2.5649507E0,2.1975608E0,-9.9646294E-1,5.6462216E0,3.3908E-1,4.1138577E0,-7.306572E-1,-6.590767E-1,-3.624772E0,8.52079E0,2.2753556E0,2.0394975E-1,-2.686802E0,-9.048157E-2,2.15682E0,2.8851535E0,-1.9338835E0,3.509763E-1,5.29924E0,1.1093782E0,-1.1860359E0,3.0625942E0,-2.5796512E-1],"split_indices":[5,7,6,2,7,3,3,2,13,4,19,19,4,2,8,7,14,11,11,2,13,0,16,19,4,12,3,17,16,0,3,4,3,0,0,8,0,1,8,0,0,0,4,0,0,0,0,6,1,7,4,16,2,1,0,0,3,0,3,10,18,11,7,0,0,0,0,0,0,0,0,0,0,0,0,0,0,0,0,0,0,0,0,0,0,0,0,0,0,0,0,0,0,0,0,0,0,0,0,0,0,0,0,0,0,0,0,0,0,0,0],"split_type":[0,0,0,0,0,0,0,0,0,0,0,0,0,0,0,0,0,0,0,0,0,0,0,0,0,0,0,0,0,0,0,0,0,0,0,0,0,0,0,0,0,0,0,0,0,0,0,0,0,0,0,0,0,0,0,0,0,0,0,0,0,0,0,0,0,0,0,0,0,0,0,0,0,0,0,0,0,0,0,0,0,0,0,0,0,0,0,0,0,0,0,0,0,0,0,0,0,0,0,0,0,0,0,0,0,0,0,0,0,0,0],"sum_hessian":[3.905E3,1.872E3,2.033E3,1.849E3,2.3E1,6.24E2,1.409E3,3.54E2,1.495E3,1.2E1,1.1E1,2.74E2,3.5E2,1.9E1,1.39E3,3.46E2,8E0,1.244E3,2.51E2,3E0,9E0,5E0,6E0,2.54E2,2E1,3.19E2,3.1E1,1.3E1,6E0,9.06E2,4.84E2,3.39E2,7E0,2E0,6E0,1.237E3,7E0,2.14E2,3.7E1,1E0,2E0,2E0,7E0,1E0,4E0,3E0,3E0,1.98E2,5.6E1,1.5E1,5E0,2.85E2,3.4E1,2.7E1,4E0,1E1,3E0,2E0,4E0,7.3E1,8.33E2,3.89E2,9.5E1,1.61E2,1.78E2,2E0,5E0,1E0,1E0,9.96E2,2.41E2,2E0,5E0,1.76E2,3.8E1,5E0,3.2E1,1E0,6E0,2E0,1E0,1.5E2,4.8E1,3.2E1,2.4E1,1E0,1.4E1,3E0,2E0,2.4E1,2.61E2,9E0,2.5E1,2.2E1,5E0,3E0,1E0,8E0,2E0,1E0,2E0,2E0,2E0,8E0,6.5E1,8.2E2,1.3E1,5.2E1,3.37E2,3.3E1,6.2E1],"tree_param":{"num_deleted":"0","num_feature":"24","num_nodes":"111","size_leaf_vector":"1"}},{"base_weights":[1.9046044E-2,2.6204805E0,-1.16144024E-1,3.2203822E0,-1.1654794E1,-1.8666326E0,2.5097767E-1,-6.0990614E-1,6.449931E0,-5.3050103E0,-1.2053795E0,-4.9959514E-1,-4.1965384E0,3.3684046E0,