{"learner":{"attributes":{"scikit_learn":"{\"_estimator_type\": \"regressor\"}"},"feature_names":["temperature_2m_mean","precipitation_sum","wind_speed_10m_max","wind_direction_10m_dominant","rain_sum"],"feature_types":["float","float","float","float","float"],"gradient_booster":{"model":{"gbtree_model_param":{"num_parallel_tree":"1","num_trees":"100"},"iteration_indptr":[0,1,2,3,4,5,6,7,8,9,10,11,12,13,14,15,16,17,18,19,20,21,22,23,24,25,26,27,28,29,30,31,32,33,34,35,36,37,38,39,40,41,42,43,44,45,46,47,48,49,50,51,52,53,54,55,56,57,58,59,60,61,62,63,64,65,66,67,68,69,70,71,72,73,74,75,76,77,78,79,80,81,82,83,84,85,86,87,88,89,90,91,92,93,94,95,96,97,98,99,100],"tree_info":[0,0,0,0,0,0,0,0,0,0,0,0,0,0,0,0,0,0,0,0,0,0,0,0,0,0,0,0,0,0,0,0,0,0,0,0,0,0,0,0,0,0,0,0,0,0,0,0,0,0,0,0,0,0,0,0,0,0,0,0,0,0,0,0,0,0,0,0,0,0,0,0,0,0,0,0,0,0,0,0,0,0,0,0,0,0,0,0,0,0,0,0,0,0,0,0,0,0,0,0],"trees":[{"base_weights":[3.4357538E-6,1.1610498E1,-1.0905261E1,3.06442E0,2.2907614E1,4.1211296E-2,-2.0694662E1,1.4720172E1,-1.9021083E0,2.9094267E1,2.6903133E0,-7.0378413E0,1.0130997E1,-1.3666466E1,-2.9129301E1,2.4707457E1,7.900303E0,1.069834E0,-1.2984314E1,3.8631E1,2.1136341E1,1.5659427E1,-8.3281765E0,3.182292E0,-1.2854246E1,1.4124105E1,-1.477876E0,-2.1960196E1,-4.301529E0,-2.0793093E1,-4.051009E1,3.810498E1,1.4195907E1,2.890449E1,5.7196493E0,5.357592E0,-6.709232E0,-2.3716377E1,-2.613021E0,4.4016758E1,2.9580318E1,-4.5855317E0,2.3608448E1,1.918954E1,-4.204389E-1,1.6913269E0,-2.2814234E1,6.288364E0,-4.4288545E0,-4.0160127E0,-1.6641151E1,2.0372217E1,3.3326113E0,-2.3792469E1,1.2062371E0,-2.709524E1,-1.58524685E1,5.1315823E0,-1.4336106E1,-3.1763752E1,-1.2350774E1,-4.821162E1,-2.8933958E1,1.1863691E1,-6.385758E0,1.1054548E0,9.823727E0,1.5074925E1,3.2258956E0,2.111649E0,-5.104364E0,9.959188E-1,7.7448144E0,-2.6152508E0,3.962061E0,-5.4754543E0,-1.111372E1,2.0084246E-1,-1.1504156E1,8.793422E0,1.50856285E1,9.353688E0,-6.0536366E0,-4.6813984E0,9.585649E-1,8.355296E0,4.105272E0,6.4495854E0,1.1420899E-1,1.9485657E1,-4.0400805E0,-2.1698518E0,5.965224E0,5.496364E0,-7.9072275E0,-3.6835406E0,2.6985753E0,-2.188095E0,8.562789E0,2.4331665E0,-5.2393703E0,-5.8423448E0,-2.249031E0,6.715529E0,-1.2200806E0,4.8196073E0,-9.4998735E-1,-1.1392929E1,-1.6929291E0,9.705029E-1,-6.150076E0,-6.008922E0,-1.0909945E1,3.5624247E0,-5.2067595E0,2.5324473E0,-3.2486546E0,-2.389497E0,-7.4640846E0,-9.705635E0,5.9142427E0,-4.683387E-1,-5.2893715E0,-9.857224E0,-1.5172763E1,-8.014914E0,-1.599293E1],"categories":[],"categories_nodes":[],"categories_segments":[],"categories_sizes":[],"default_left":[0,0,0,0,0,0,0,0,0,0,0,0,0,0,0,0,0,0,0,0,0,0,0,0,0,0,0,0,0,0,0,0,0,0,0,0,0,0,0,0,0,0,0,0,0,0,0,0,0,0,0,0,0,0,0,0,0,0,0,0,0,0,0,0,0,0,0,0,0,0,0,0,0,0,0,0,0,0,0,0,0,0,0,0,0,0,0,0,0,0,0,0,0,0,0,0,0,0,0,0,0,0,0,0,0,0,0,0,0,0,0,0,0,0,0,0,0,0,0,0,0,0,0,0,0,0,0],"id":0,"left_children":[1,3,5,7,9,11,13,15,17,19,21,23,25,27,29,31,33,35,37,39,41,43,45,47,49,51,53,55,57,59,61,63,65,67,69,71,73,75,77,79,81,83,85,87,89,91,93,95,97,99,101,103,105,107,109,111,113,115,117,119,121,123,125,-1,-1,-1,-1,-1,-1,-1,-1,-1,-1,-1,-1,-1,-1,-1,-1,-1,-1,-1,-1,-1,-1,-1,-1,-1,-1,-1,-1,-1,-1,-1,-1,-1,-1,-1,-1,-1,-1,-1,-1,-1,-1,-1,-1,-1,-1,-1,-1,-1,-1,-1,-1,-1,-1,-1,-1,-1,-1,-1,-1,-1,-1,-1,-1],"loss_changes":[4.9721912E5,1.835604E5,2.1699862E5,6.2779266E4,1.0236016E5,6.842609E4,6.297253E4,2.1873086E4,2.507794E4,4.6768125E4,2.7710121E4,3.3508125E4,1.83313E4,4.534264E4,4.5170906E4,1.7907633E4,8.720431E3,2.0082152E4,1.7858195E4,1.25415E4,2.1982266E4,5.060045E3,1.5278611E4,4.874208E3,1.1948738E4,1.9755484E4,6.137979E3,9.293141E3,2.6198979E4,2.5725898E4,1.6792438E4,5.7187734E3,1.4502727E4,6.43374E3,5.4280806E3,1.6090609E4,8.674473E3,5.0784688E3,9.761344E3,1.475025E4,9.299773E3,2.7077095E3,1.28395E4,3.1622832E3,1.537373E4,1.0372192E4,6.7501797E3,7.4481606E3,5.875573E3,1.7917893E4,6.3571797E3,9.240945E3,9.070962E3,2.6174243E3,4.117771E3,1.0211094E4,6.2087383E3,7.645755E3,8.803705E3,4.3328984E3,9.145342E3,2.7306562E3,3.1164062E3,0E0,0E0,0E0,0E0,0E0,0E0,0E0,0E0,0E0,0E0,0E0,0E0,0E0,0E0,0E0,0E0,0E0,0E0,0E0,0E0,0E0,0E0,0E0,0E0,0E0,0E0,0E0,0E0,0E0,0E0,0E0,0E0,0E0,0E0,0E0,0E0,0E0,0E0,0E0,0E0,0E0,0E0,0E0,0E0,0E0,0E0,0E0,0E0,0E0,0E0,0E0,0E0,0E0,0E0,0E0,0E0,0E0,0E0,0E0,0E0,0E0,0E0,0E0,0E0],"parents":[2147483647,0,0,1,1,2,2,3,3,4,4,5,5,6,6,7,7,8,8,9,9,10,10,11,11,12,12,13,13,14,14,15,15,16,16,17,17,18,18,19,19,20,20,21,21,22,22,23,23,24,24,25,25,26,26,27,27,28,28,29,29,30,30,31,31,32,32,33,33,34,34,35,35,36,36,37,37,38,38,39,39,40,40,41,41,42,42,43,43,44,44,45,45,46,46,47,47,48,48,49,49,50,50,51,51,52,52,53,53,54,54,55,55,56,56,57,57,58,58,59,59,60,60,61,61,62,62],"right_children":[2,4,6,8,10,12,14,16,18,20,22,24,26,28,30,32,34,36,38,40,42,44,46,48,50,52,54,56,58,60,62,64,66,68,70,72,74,76,78,80,82,84,86,88,90,92,94,96,98,100,102,104,106,108,110,112,114,116,118,120,122,124,126,-1,-1,-1,-1,-1,-1,-1,-1,-1,-1,-1,-1,-1,-1,-1,-1,-1,-1,-1,-1,-1,-1,-1,-1,-1,-1,-1,-1,-1,-1,-1,-1,-1,-1,-1,-1,-1,-1,-1,-1,-1,-1,-1,-1,-1,-1,-1,-1,-1,-1,-1,-1,-1,-1,-1,-1,-1,-1,-1,-1,-1,-1,-1,-1],"split_conditions":[1.7373667E1,1.562306E2,1.7388409E1,1.4869351E1,8.000001E-1,1.425794E2,2.4648417E1,8.077834E0,5.7000003E0,1.8486622E1,2.0421871E1,1.3684735E1,5.9000006E0,1.3404523E2,2.1650938E1,1.2287555E1,1.0041354E1,1.3004664E1,9.892419E0,9.115333E0,7.7833354E-2,3.5423154E2,6.0000005E0,3.1E0,2.1248667E1,2.81505E1,1.5712347E2,6.6688576E1,2.2007162E1,1.425794E2,1.6213223E2,1.5243614E2,6.385916E0,1.2131999E1,7.1000004E0,1.361953E2,3.3E0,2.2805367E1,3.096837E1,3.4403331E0,3.5333618E2,3.1050064E2,1.1644501E1,1.6482E1,1.4039999E1,3.7E0,1.6086092E2,2.5646257E1,2.81505E1,1.5745627E1,1.19612755E2,3.4662366E2,1.3684735E1,2.6592417E1,2.9700003E1,2.2218153E1,6.9695435E1,9.4E0,2.1346582E1,3.1583838E1,2.7365335E1,2.6002832E1,3.2696644E1,1.1863691E1,-6.385758E0,1.1054548E0,9.823727E0,1.5074925E1,3.2258956E0,2.111649E0,-5.104364E0,9.959188E-1,7.7448144E0,-2.6152508E0,3.962061E0,-5.4754543E0,-1.111372E1,2.0084246E-1,-1.1504156E1,8.793422E0,1.50856285E1,9.353688E0,-6.0536366E0,-4.6813984E0,9.585649E-1,8.355296E0,4.105272E0,6.4495854E0,1.1420899E-1,1.9485657E1,-4.0400805E0,-2.1698518E0,5.965224E0,5.496364E0,-7.9072275E0,-3.6835406E0,2.6985753E0,-2.188095E0,8.562789E0,2.4331665E0,-5.2393703E0,-5.8423448E0,-2.249031E0,6.715529E0,-1.2200806E0,4.8196073E0,-9.4998735E-1,-1.1392929E1,-1.6929291E0,9.705029E-1,-6.150076E0,-6.008922E0,-1.0909945E1,3.5624247E0,-5.2067595E0,2.5324473E0,-3.2486546E0,-2.389497E0,-7.4640846E0,-9.705635E0,5.9142427E0,-4.683387E-1,-5.2893715E0,-9.857224E0,-1.5172763E1,-8.014914E0,-1.599293E1],"split_indices":[0,3,2,2,1,3,0,0,1,2,2,2,1,3,2,2,2,0,0,0,0,3,1,1,0,0,3,3,2,3,3,3,0,0,1,3,1,2,2,0,3,3,0,0,2,1,3,3,0,2,3,3,2,0,1,2,3,1,0,0,0,0,2,0,0,0,0,0,0,0,0,0,0,0,0,0,0,0,0,0,0,0,0,0,0,0,0,0,0,0,0,0,0,0,0,0,0,0,0,0,0,0,0,0,0,0,0,0,0,0,0,0,0,0,0,0,0,0,0,0,0,0,0,0,0,0,0],"split_type":[0,0,0,0,0,0,0,0,0,0,0,0,0,0,0,0,0,0,0,0,0,0,0,0,0,0,0,0,0,0,0,0,0,0,0,0,0,0,0,0,0,0,0,0,0,0,0,0,0,0,0,0,0,0,0,0,0,0,0,0,0,0,0,0,0,0,0,0,0,0,0,0,0,0,0,0,0,0,0,0,0,0,0,0,0,0,0,0,0,0,0,0,0,0,0,0,0,0,0,0,0,0,0,0,0,0,0,0,0,0,0,0,0,0,0,0,0,0,0,0,0,0,0,0,0,0,0],"sum_hessian":[3.925E3,1.901E3,2.024E3,1.083E3,8.18E2,9.56E2,1.068E3,3.23E2,7.6E2,6.26E2,1.92E2,5.62E2,3.94E2,5.84E2,4.84E2,1.3E2,1.93E2,6E2,1.6E2,2.83E2,3.43E2,8.8E1,1.04E2,2.04E2,3.58E2,2.93E2,1.01E2,3.09E2,2.75E2,2.81E2,2.03E2,5.6E1,7.4E1,1.7E1,1.76E2,3.87E2,2.13E2,7.8E1,8.2E1,1.75E2,1.08E2,3E1,3.13E2,7.2E1,1.6E1,6.2E1,4.2E1,1.45E2,5.9E1,1.08E2,2.5E2,1.85E2,1.08E2,1E1,9.1E1,1.66E2,1.43E2,1.42E2,1.33E2,1.21E2,1.6E2,1.2E2,8.3E1,5.5E1,1E0,4.8E1,2.6E1,7E0,1E1,1.67E2,9E0,3.53E2,3.4E1,1.94E2,1.9E1,5.7E1,2.1E1,7.6E1,6E0,5.4E1,1.21E2,1.05E2,3E0,1.2E1,1.8E1,2.18E2,9.5E1,6.4E1,8E0,2E0,1.4E1,4.2E1,2E1,3E0,3.9E1,1.8E1,1.27E2,5.5E1,4E0,5.7E1,5.1E1,1.9E2,6E1,1.71E2,1.4E1,3.6E1,7.2E1,5E0,5E0,8.4E1,7E0,9.6E1,7E1,7E0,1.36E2,1.18E2,2.4E1,8.4E1,4.9E1,1.2E2,1E0,5.3E1,1.07E2,1.8E1,1.02E2,7.8E1,5E0],"tree_param":{"num_deleted":"0","num_feature":"5","num_nodes":"127","size_leaf_vector":"1"}},{"base_weights":[-7.3610814E-3,8.110069E0,-7.749205E0,2.135127E0,1.6016132E1,2.9746125E0,-1.3053527E1,1.0356923E1,-1.3576341E0,2.0339684E1,2.0372884E0,-1.7794156E0,9.910481E0,-1.817128E1,-7.471204E0,1.2205993E1,-8.294098E0,2.5096905E-1,-1.1863327E1,2.5886349E1,1.2450143E1,1.1038739E1,-5.709592E0,1.2058889E0,-1.0064458E1,1.4919551E1,3.670555E0,-1.4792524E1,-2.8242327E1,-2.286921E0,-1.6628447E1,2.5096296E1,9.172674E0,-1.3816245E1,1.6097197E1,1.4337561E0,-1.2936295E1,-8.886489E0,-2.5261543E1,2.9717392E1,1.6944183E1,-1.0097782E1,1.4254704E1,9.406909E0,8.972314E0,1.7384642E0,-1.5844478E1,3.657337E0,-1.8145092E1,1.5226852E0,-1.639162E1,1.5967575E1,-5.678811E0,-7.11349E-1,1.1737573E1,-1.3776294E1,-3.6462257E1,-1.9765759E1,-3.6211082E1,4.596067E0,-1.0080584E1,-7.9473076E0,-2.332714E1,2.9633087E-1,9.494671E0,4.7980204E0,1.3967772E0,-2.3626177E0,-8.390301E0,8.595993E0,-7.002505E0,5.7264433E0,1.857816E-1,-6.1318097E0,1.5112772E0,-3.2713797E0,4.5476437E0,-9.397226E0,-4.130357E0,5.632025E0,1.0212072E1,2.0492742E0,5.921895E0,-6.504721E-1,-3.583396E0,4.2286247E-2,4.655964E0,-6.9235855E-1,3.7600288E0,-4.891326E0,1.9184535E0,-7.530142E0,-9.0583897E-1,-6.70952E0,1.4690222E0,3.7617996E0,-8.06657E0,-1.8778658E0,1.1064331E1,-5.546543E0,4.9375707E-1,1.0220653E1,4.435616E0,2.0406482E0,-8.624346E0,4.2274547E0,-1.303256E0,5.6248007E0,-5.0503683E0,-4.8120217E0,-2.7782536E0,4.550734E0,-1.1849593E1,-1.9135627E0,-6.673738E0,-1.2145358E1,-7.289731E0,3.3292031E0,-3.759542E0,-1.8891956E0,-6.008003E0,-5.408655E-1,-7.0692034E0,-8.477233E0,-5.1618547E0],"categories":[],"categories_nodes":[],"categories_segments":[],"categories_sizes":[],"default_left":[0,0,0,0,0,0,0,0,0,0,0,0,0,0,0,0,0,0,0,0,0,0,0,0,0,0,0,0,0,0,0,0,0,0,0,0,0,0,0,0,0,0,0,0,0,0,0,0,0,0,0,0,0,0,0,0,0,0,0,0,0,0,0,0,0,0,0,0,0,0,0,0,0,0,0,0,0,0,0,0,0,0,0,0,0,0,0,0,0,0,0,0,0,0,0,0,0,0,0,0,0,0,0,0,0,0,0,0,0,0,0,0,0,0,0,0,0,0,0,0,0,0,0,0,0],"id":1,"left_children":[1,3,5,7,9,11,13,15,17,19,21,23,25,27,29,31,33,35,37,39,41,43,45,47,49,51,53,55,57,59,61,63,65,67,69,71,73,75,77,79,81,83,85,-1,87,89,91,93,95,97,99,101,103,105,107,109,111,113,115,117,119,121,123,-1,-1,-1,-1,-1,-1,-1,-1,-1,-1,-1,-1,-1,-1,-1,-1,-1,-1,-1,-1,-1,-1,-1,-1,-1,-1,-1,-1,-1,-1,-1,-1,-1,-1,-1,-1,-1,-1,-1,-1,-1,-1,-1,-1,-1,-1,-1,-1,-1,-1,-1,-1,-1,-1,-1,-1,-1,-1,-1,-1,-1,-1],"loss_changes":[2.4678792E5,9.052157E4,1.14372805E5,3.1401488E4,4.982011E4,2.1977863E4,3.82895E4,1.1344012E4,1.2981787E4,2.7246906E4,1.3730726E4,9.806554E3,8.415672E3,2.3435562E4,3.0582535E4,1.1382617E4,4.263172E3,1.04222295E4,3.8437148E3,1.2137594E4,1.0804492E4,3.5392822E3,8.0289766E3,1.3918236E4,7.7229004E3,3.3288164E3,4.320915E3,1.1102992E4,1.1105109E4,2.2201172E4,1.3364102E4,8.815262E3,7.380953E3,1.8815312E3,3.6400103E3,8.802642E3,7.5202275E3,4.290014E3,8.229922E2,1.1519391E4,3.0598164E3,2.6699792E2,4.33691E3,0E0,3.403205E3,5.313164E3,5.266082E3,8.495103E3,9.190682E3,1.0687229E4,2.6023242E3,2.5563516E3,2.4989365E3,4.363328E3,8.930299E3,5.013547E3,4.2049316E3,2.7465664E3,3.546836E3,2.4636738E4,7.1738535E3,9.840946E3,3.4671328E3,0E0,0E0,0E0,0E0,0E0,0E0,0E0,0E0,0E0,0E0,0E0,0E0,0E0,0E0,0E0,0E0,0E0,0E0,0E0,0E0,0E0,0E0,0E0,0E0,0E0,0E0,0E0,0E0,0E0,0E0,0E0,0E0,0E0,0E0,0E0,0E0,0E0,0E0,0E0,0E0,0E0,0E0,0E0,0E0,0E0,0E0,0E0,0E0,0E0,0E0,0E0,0E0,0E0,0E0,0E0,0E0,0E0,0E0,0E0,0E0,0E0,0E0],"parents":[2147483647,0,0,1,1,2,2,3,3,4,4,5,5,6,6,7,7,8,8,9,9,10,10,11,11,12,12,13,13,14,14,15,15,16,16,17,17,18,18,19,19,20,20,21,21,22,22,23,23,24,24,25,25,26,26,27,27,28,28,29,29,30,30,31,31,32,32,33,33,34,34,35,35,36,36,37,37,38,38,39,39,40,40,41,41,42,42,44,44,45,45,46,46,47,47,48,48,49,49,50,50,51,51,52,52,53,53,54,54,55,55,56,56,57,57,58,58,59,59,60,60,61,61,62,62],"right_children":[2,4,6,8,10,12,14,16,18,20,22,24,26,28,30,32,34,36,38,40,42,44,46,48,50,52,54,56,58,60,62,64,66,68,70,72,74,76,78,80,82,84,86,-1,88,90,92,94,96,98,100,102,104,106,108,110,112,114,116,118,120,122,124,-1,-1,-1,-1,-1,-1,-1,-1,-1,-1,-1,-1,-1,-1,-1,-1,-1,-1,-1,-1,-1,-1,-1,-1,-1,-1,-1,-1,-1,-1,-1,-1,-1,-1,-1,-1,-1,-1,-1,-1,-1,-1,-1,-1,-1,-1,-1,-1,-1,-1,-1,-1,-1,-1,-1,-1,-1,-1,-1,-1,-1,-1],"split_conditions":[1.7454668E1,1.562306E2,1.5745627E1,1.4869351E1,8.000001E-1,1.425794E2,1.4347415E2,4E0,2.4863466E1,2.049156E1,2.0771093E1,2.5809084E1,2E0,2.6513E1,2.2007162E1,3.048397E1,1.4764389E1,1.2700001E1,3.1550869E1,1.1121583E1,-5.138333E-1,1.7740955E2,6.0000005E0,1.1E1,1.2682018E1,3.3388256E1,2.4835446E2,3.0599998E1,1.9803272E1,2.6592417E1,2.278408E1,4.5403333E0,8.486167E0,8.525912E1,1.3004664E1,4.0962877E0,1.4375751E1,3.0599998E1,1.6532558E1,3.4403331E0,1.7470999E2,2.1602999E1,2.0969807E1,9.406909E0,2.7828082E2,4.3278327E0,1.2444501E1,1.7973667E1,1.1384199E1,2.8332003E1,2.9744501E1,1.46853E2,1.8680171E2,1.0739832E1,3.4275214E2,1.0052978E2,1.8569502E1,2.7365335E1,2.8554918E1,5.7000003E0,1.9652176E1,3.189277E2,1.8558975E2,2.9633087E-1,9.494671E0,4.7980204E0,1.3967772E0,-2.3626177E0,-8.390301E0,8.595993E0,-7.002505E0,5.7264433E0,1.857816E-1,-6.1318097E0,1.5112772E0,-3.2713797E0,4.5476437E0,-9.397226E0,-4.130357E0,5.632025E0,1.0212072E1,2.0492742E0,5.921895E0,-6.504721E-1,-3.583396E0,4.2286247E-2,4.655964E0,-6.9235855E-1,3.7600288E0,-4.891326E0,1.9184535E0,-7.530142E0,-9.0583897E-1,-6.70952E0,1.4690222E0,3.7617996E0,-8.06657E0,-1.8778658E0,1.1064331E1,-5.546543E0,4.9375707E-1,1.0220653E1,4.435616E0,2.0406482E0,-8.624346E0,4.2274547E0,-1.303256E0,5.6248007E0,-5.0503683E0,-4.8120217E0,-2.7782536E0,4.550734E0,-1.1849593E1,-1.9135627E0,-6.673738E0,-1.2145358E1,-7.289731E0,3.3292031E0,-3.759542E0,-1.8891956E0,-6.008003E0,-5.408655E-1,-7.0692034E0,-8.477233E0,-5.1618547E0],"split_indices":[0,3,2,2,1,3,3,1,2,2,2,0,1,0,2,3,2,1,2,0,0,3,1,1,2,0,3,2,2,0,0,0,0,3,0,3,0,2,3,0,3,2,2,0,3,0,0,0,2,0,0,3,3,2,3,3,0,0,0,1,2,3,3,0,0,0,0,0,0,0,0,0,0,0,0,0,0,0,0,0,0,0,0,0,0,0,0,0,0,0,0,0,0,0,0,0,0,0,0,0,0,0,0,0,0,0,0,0,0,0,0,0,0,0,0,0,0,0,0,0,0,0,0,0,0],"split_type":[0,0,0,0,0,0,0,0,0,0,0,0,0,0,0,0,0,0,0,0,0,0,0,0,0,0,0,0,0,0,0,0,0,0,0,0,0,0,0,0,0,0,0,0,0,0,0,0,0,0,0,0,0,0,0,0,0,0,0,0,0,0,0,0,0,0,0,0,0,0,0,0,0,0,0,0,0,0,0,0,0,0,0,0,0,0,0,0,0,0,0,0,0,0,0,0,0,0,0,0,0,0,0,0,0,0,0,0,0,0,0,0,0,0,0,0,0,0,0,0,0,0,0,0,0],"sum_hessian":[3.925E3,1.916E3,2.009E3,1.092E3,8.24E2,6.65E2,1.344E3,3.25E2,7.67E2,6.29E2,1.95E2,3.95E2,2.7E2,7E2,6.44E2,2.96E2,2.9E1,6.66E2,1.01E2,3.68E2,2.61E2,9E1,1.05E2,2.91E2,1.04E2,1.49E2,1.21E2,5.26E2,1.74E2,4.12E2,2.32E2,5.5E1,2.41E2,2.4E1,5E0,6.12E2,5.4E1,8.4E1,1.7E1,2.56E2,1.12E2,1.9E1,2.42E2,7E0,8.3E1,6.1E1,4.4E1,2.59E2,3.2E1,3.7E1,6.7E1,1.42E2,7E0,7.9E1,4.2E1,5.04E2,2.2E1,8.6E1,8.8E1,2.19E2,1.93E2,1.02E2,1.3E2,1.2E1,4.3E1,9.5E1,1.46E2,1.8E1,6E0,4E0,1E0,2.6E1,5.86E2,3.8E1,1.6E1,7.8E1,6E0,1E1,7E0,7.4E1,1.82E2,2.5E1,8.7E1,4E0,1.5E1,2E1,2.22E2,2E1,6.3E1,1.2E1,4.9E1,2.5E1,1.9E1,1.1E1,2.48E2,7E0,2.5E1,3.1E1,6E0,6E1,7E0,7E0,1.35E2,5E0,2E0,1.5E1,6.4E1,3.4E1,8E0,3.34E2,1.7E2,1E0,2.1E1,1.4E1,7.2E1,6.3E1,2.5E1,1.59E2,6E1,1.41E2,5.2E1,7.4E1,2.8E1,7E1,6E1],"tree_param":{"num_deleted":"0","num_feature":"5","num_nodes":"125","size_leaf_vector":"1"}},{"base_weights":[-1.6645206E-2,6.48416E0,-4.9125566E0,9.824817E0,-1.9612225E0,4.672038E-1,-9.583781E0,5.472887E0,1.5371211E1,-1.672583E1,8.2113254E-1,-4.59645E0,5.4816484E0,-3.3075624E0,-1.2901795E1,7.2430453E0,-6.497642E0,1.8505146E1,4.8252735E0,-2.7216105E1,-8.894395E0,-1.5515915E1,2.7091074E0,4.62035E0,-7.6569304E0,8.730773E0,6.2047946E-1,-1.2422804E1,1.7442559E-1,-1.1085904E1,-2.6608677E1,1.0779686E1,-2.3848648E-1,-2.090033E1,-1.2070379E-1,-5.69383E0,1.9504833E1,5.6201196E-1,9.7518215E0,-3.1344662E1,9.519962E0,1.4356004E1,-1.683882E1,7.6604877E0,-1.713996E1,6.4400897E0,-3.8689003E0,5.9103966E0,-2.302568E1,-4.243809E0,-1.0562254E1,9.720562E0,-1.1647073E1,8.190848E0,-2.657386E0,1.756899E1,-1.4829377E1,2.556512E0,-7.333168E0,-1.3197323E1,-3.4702072E0,2.572537E0,-2.7094887E1,6.7496037E0,2.183494E0,-2.5759324E-1,8.690562E0,-3.803855E0,-9.035916E0,-1.0860821E1,8.975692E-1,9.059929E-1,-4.132497E0,7.1909113E0,4.209911E0,1.1920241E0,-5.1499033E0,1.1177214E0,8.398315E0,-1.0201956E0,-1.0331453E1,3.8407485E0,-4.914551E-2,-3.8665712E0,8.876809E0,7.4102193E-1,-7.8542705E0,-3.959191E0,-8.907579E0,-5.863924E-1,2.4283483E0,1.2524409E0,-3.520441E0,6.7977977E-1,3.9175804E0,2.1391022E0,-9.144886E0,-6.3502204E-1,-7.0164022E0,-7.661337E0,-2.7332537E0,1.4460602E0,4.4162393E0,3.7293378E-1,-6.9244127E0,9.339919E-1,7.3709803E0,-1.6486776E0,3.4579227E0,1.1179319E1,-1.6920639E0,-5.0946193E0,-1.482309E-1,-8.216748E0,1.0031104E0,-4.0859337E0,1.3664781E0,-2.090098E0,-4.9593067E0,2.276057E0,-3.169945E0,-8.322715E0,-1.8714501E0],"categories":[],"categories_nodes":[],"categories_segments":[],"categories_sizes":[],"default_left":[0,0,0,0,0,0,0,0,0,0,0,0,0,0,0,0,0,0,0,0,0,0,0,0,0,0,0,0,0,0,0,0,0,0,0,0,0,0,0,0,0,0,0,0,0,0,0,0,0,0,0,0,0,0,0,0,0,0,0,0,0,0,0,0,0,0,0,0,0,0,0,0,0,0,0,0,0,0,0,0,0,0,0,0,0,0,0,0,0,0,0,0,0,0,0,0,0,0,0,0,0,0,0,0,0,0,0,0,0,0,0,0,0,0,0,0,0,0,0,0,0,0,0],"id":2,"left_children":[1,3,5,7,9,11,13,15,17,19,21,23,25,27,29,31,33,35,37,39,41,43,45,47,49,51,53,55,57,59,61,63,65,67,69,71,73,75,77,79,81,83,85,-1,87,89,91,93,95,97,99,101,103,105,107,109,111,113,115,117,119,-1,121,-1,-1,-1,-1,-1,-1,-1,-1,-1,-1,-1,-1,-1,-1,-1,-1,-1,-1,-1,-1,-1,-1,-1,-1,-1,-1,-1,-1,-1,-1,-1,-1,-1,-1,-1,-1,-1,-1,-1,-1,-1,-1,-1,-1,-1,-1,-1,-1,-1,-1,-1,-1,-1,-1,-1,-1,-1,-1,-1,-1],"loss_changes":[1.24986086E5,4.7614805E4,5.6295832E4,2.9098148E4,1.9691238E4,2.6483045E4,2.4926E4,1.4434891E4,1.7460406E4,6.001625E3,1.2502984E4,1.4675245E4,8.270923E3,1.3205656E4,1.921893E4,1.566659E4,8.0798413E3,1.0005359E4,2.5779087E3,5.151744E3,8.553733E3,3.2377432E3,8.933818E3,4.772498E3,3.822502E3,6.4465293E3,5.257658E3,8.560945E3,5.419636E3,1.1113672E4,1.7890547E3,1.6331336E4,3.4844487E3,1.6644502E3,7.0714707E3,1.2387002E3,9.264969E3,4.120271E3,6.161778E3,2.3897988E3,1.2924661E2,5.3616807E3,6.1977676E3,0E0,1.6371592E3,3.2379014E3,8.400762E3,3.226831E3,1.5666436E3,7.321001E3,4.3318086E3,7.2799297E3,2.2395469E3,5.246098E3,6.0213096E3,4.324212E3,3.2935586E3,5.5133486E3,5.517752E3,1.1162961E4,1.2006689E4,0E0,1.0423516E3,0E0,0E0,0E0,0E0,0E0,0E0,0E0,0E0,0E0,0E0,0E0,0E0,0E0,0E0,0E0,0E0,0E0,0E0,0E0,0E0,0E0,0E0,0E0,0E0,0E0,0E0,0E0,0E0,0E0,0E0,0E0,0E0,0E0,0E0,0E0,0E0,0E0,0E0,0E0,0E0,0E0,0E0,0E0,0E0,0E0,0E0,0E0,0E0,0E0,0E0,0E0,0E0,0E0,0E0,0E0,0E0,0E0,0E0,0E0,0E0],"parents":[2147483647,0,0,1,1,2,2,3,3,4,4,5,5,6,6,7,7,8,8,9,9,10,10,11,11,12,12,13,13,14,14,15,15,16,16,17,17,18,18,19,19,20,20,21,21,22,22,23,23,24,24,25,25,26,26,27,27,28,28,29,29,30,30,31,31,32,32,33,33,34,34,35,35,36,36,37,37,38,38,39,39,40,40,41,41,42,42,44,44,45,45,46,46,47,47,48,48,49,49,50,50,51,51,52,52,53,53,54,54,55,55,56,56,57,57,58,58,59,59,60,60,62,62],"right_children":[2,4,6,8,10,12,14,16,18,20,22,24,26,28,30,32,34,36,38,40,42,44,46,48,50,52,54,56,58,60,62,64,66,68,70,72,74,76,78,80,82,84,86,-1,88,90,92,94,96,98,100,102,104,106,108,110,112,114,116,118,120,-1,122,-1,-1,-1,-1,-1,-1,-1,-1,-1,-1,-1,-1,-1,-1,-1,-1,-1,-1,-1,-1,-1,-1,-1,-1,-1,-1,-1,-1,-1,-1,-1,-1,-1,-1,-1,-1,-1,-1,-1,-1,-1,-1,-1,-1,-1,-1,-1,-1,-1,-1,-1,-1,-1,-1,-1,-1,-1,-1,-1,-1],"split_conditions":[1.5896584E1,8.000001E-1,1.7287498E1,1.7108788E2,5.723416E0,1.2650615E2,2.1111166E1,2.2314192E1,2.4162945E1,5.482861E1,1.2795653E1,1.2864649E1,2.6513E1,6.6688576E1,2.8483257E1,1.1796584E1,1.2169379E1,-5.138333E-1,6.042166E0,2.5600533E1,2.1E0,5.9028325E0,2.1129883E1,1.2362899E2,1.4973577E1,2.27E1,1.2964998E1,5.5650244E0,5.7999997E0,1.8875598E2,3.140594E0,2.3824263E1,7.0000005E-1,2.5759504E1,4.432E0,-1.8075833E0,7.6028333E0,4.5403333E0,2.8483257E1,1.3830749E1,3.6549165E0,1.2E0,3.278889E2,7.6604877E0,1.3004664E1,1.3755579E1,6E0,9.6601494E1,8.225035E0,1.1E1,1.5158522E1,1.7615157E2,1.4113653E1,1.2371645E1,2.3070518E2,1.752992E1,1.6599998E1,1.7462782E1,1.8500002E1,1.9272614E1,8E-1,2.572537E0,3.009033E1,6.7496037E0,2.183494E0,-2.5759324E-1,8.690562E0,-3.803855E0,-9.035916E0,-1.0860821E1,8.975692E-1,9.059929E-1,-4.132497E0,7.1909113E0,4.209911E0,1.1920241E0,-5.1499033E0,1.1177214E0,8.398315E0,-1.0201956E0,-1.0331453E1,3.8407485E0,-4.914551E-2,-3.8665712E0,8.876809E0,7.4102193E-1,-7.8542705E0,-3.959191E0,-8.907579E0,-5.863924E-1,2.4283483E0,1.2524409E0,-3.520441E0,6.7977977E-1,3.9175804E0,2.1391022E0,-9.144886E0,-6.3502204E-1,-7.0164022E0,-7.661337E0,-2.7332537E0,1.4460602E0,4.4162393E0,3.7293378E-1,-6.9244127E0,9.339919E-1,7.3709803E0,-1.6486776E0,3.4579227E0,1.1179319E1,-1.6920639E0,-5.0946193E0,-1.482309E-1,-8.216748E0,1.0031104E0,-4.0859337E0,1.3664781E0,-2.090098E0,-4.9593067E0,2.276057E0,-3.169945E0,-8.322715E0,-1.8714501E0],"split_indices":[0,4,2,3,0,3,0,2,2,3,3,2,0,3,2,0,3,0,0,2,1,0,2,3,2,1,2,3,1,3,3,3,1,2,0,0,0,0,2,2,0,1,3,0,0,2,4,3,2,1,2,3,2,2,3,0,1,2,1,2,1,0,0,0,0,0,0,0,0,0,0,0,0,0,0,0,0,0,0,0,0,0,0,0,0,0,0,0,0,0,0,0,0,0,0,0,0,0,0,0,0,0,0,0,0,0,0,0,0,0,0,0,0,0,0,0,0,0,0,0,0,0,0],"split_type":[0,0,0,0,0,0,0,0,0,0,0,0,0,0,0,0,0,0,0,0,0,0,0,0,0,0,0,0,0,0,0,0,0,0,0,0,0,0,0,0,0,0,0,0,0,0,0,0,0,0,0,0,0,0,0,0,0,0,0,0,0,0,0,0,0,0,0,0,0,0,0,0,0,0,0,0,0,0,0,0,0,0,0,0,0,0,0,0,0,0,0,0,0,0,0,0,0,0,0,0,0,0,0,0,0,0,0,0,0,0,0,0,0,0,0,0,0,0,0,0,0,0,0],"sum_hessian":[3.925E3,1.686E3,2.239E3,1.208E3,4.78E2,1.041E3,1.198E3,6.78E2,5.3E2,7.5E1,4.03E2,5.18E2,5.23E2,4.15E2,7.83E2,5.91E2,8.7E1,4.08E2,1.22E2,3.1E1,4.4E1,4.1E1,3.62E2,1.29E2,3.89E2,3.13E2,2.1E2,1.14E2,3.01E2,6.93E2,9E1,4.01E2,1.9E2,2.6E1,6.1E1,1.6E1,3.92E2,6.6E1,5.6E1,2.8E1,3E0,1.1E1,3.3E1,1E0,4E1,2.31E2,1.31E2,1.24E2,5E0,1.8E2,2.09E2,2.99E2,1.4E1,6.3E1,1.47E2,8E0,1.06E2,2.29E2,7.2E1,5.42E2,1.51E2,1E0,8.9E1,9.1E1,3.1E2,1.87E2,3E0,1.5E1,1.1E1,4E0,5.7E1,8E0,8E0,2.14E2,1.78E2,5.6E1,1E1,4.3E1,1.3E1,3E0,2.5E1,2E0,1E0,4E0,7E0,1.1E1,2.2E1,3.2E1,8E0,3.8E1,1.93E2,6.5E1,6.6E1,8.3E1,4.1E1,1E0,4E0,1.63E2,1.7E1,1.7E1,1.92E2,1.52E2,1.47E2,7E0,7E0,4.9E1,1.4E1,1.23E2,2.4E1,4E0,4E0,9.2E1,1.4E1,5E0,2.24E2,4.7E1,2.5E1,1.9E2,3.52E2,5.9E1,9.2E1,8.6E1,3E0],"tree_param":{"num_deleted":"0","num_feature":"5","num_nodes":"123","size_leaf_vector":"1"}},{"base_weights":[-2.1657394E-2,3.5307868E0,-4.445443E0,-2.8387728E-1,7.466703E0,-9.750726E-1,-9.534597E0,1.3705581E1,-1.6409892E0,1.0193637E1,2.2653482E0,-4.531485E0,2.3583975E0,-7.5316153E0,-1.6305422E1,1.8945965E1,1.7684277E0,1.9977698E0,-4.182305E0,-7.3249593E0,1.0958272E1,4.901363E0,-5.753276E0,2.1871326E0,-6.3050237E0,5.4679923E0,-9.138708E-1,-9.479445E0,2.780079E0,-7.1071796E0,-1.8357635E1,1.4994929E1,4.3181103E1,-6.330319E0,1.9408829E1,1.9415129E1,9.7594994E-1,-1.0528129E0,-7.699223E0,-9.204854E0,-4.5607233E0,1.883252E1,9.095636E0,7.6319E0,-2.1964848E-1,3.5595093E1,-7.546986E0,7.574745E0,-2.4021804E0,-2.401524E1,-5.5506787E0,9.01169E0,-1.1643136E0,1.7218163E0,-6.358504E0,-5.769842E0,-1.2916565E1,1.0534583E1,-2.791012E0,-4.640055E0,-5.7024646E0,-1.6606995E1,-2.8425156E1,5.495101E0,-1.0341418E0,4.9794626E0,1.8338333E1,-4.1026354E0,3.4088655E0,9.896011E0,2.6632056E0,8.454472E0,-5.334113E0,4.1917046E-3,6.6925187E0,-1.2939833E-1,-1.1886878E1,-5.858269E0,-1.969402E0,3.8327375E-1,-2.7057896E0,9.386289E0,3.2905078E0,3.2759109E0,1.8810211E-1,1.628278E0,5.120245E0,-7.676138E0,4.2579743E-1,4.3708663E0,1.4800757E1,-2.8936393E0,6.9268603E0,-4.9882457E-1,5.1799245E0,-1.6223117E0,2.5252612E0,-5.936394E-1,-8.684508E0,1.9264728E0,-1.9860774E0,1.8352387E0,6.983675E0,-1.1305884E1,2.4352576E-1,-1.9415191E-1,1.7255176E0,-2.1728504E0,1.0321432E1,-2.0438569E0,2.4645417E0,-5.5592327E0,-2.959882E0,4.0298567E0,-1.1416676E0,3.0610592E0,-2.818253E0,-1.1834815E-1,-5.0141625E0,-5.378726E0,-1.4868617E0,2.1385934E0,-9.994476E0],"categories":[],"categories_nodes":[],"categories_segments":[],"categories_sizes":[],"default_left":[0,0,0,0,0,0,0,0,0,0,0,0,0,0,0,0,0,0,0,0,0,0,0,0,0,0,0,0,0,0,0,0,0,0,0,0,0,0,0,0,0,0,0,0,0,0,0,0,0,0,0,0,0,0,0,0,0,0,0,0,0,0,0,0,0,0,0,0,0,0,0,0,0,0,0,0,0,0,0,0,0,0,0,0,0,0,0,0,0,0,0,0,0,0,0,0,0,0,0,0,0,0,0,0,0,0,0,0,0,0,0,0,0,0,0,0,0,0,0,0,0,0,0],"id":3,"left_children":[1,3,5,7,9,11,13,15,17,19,21,23,25,27,29,31,33,35,37,39,41,43,45,47,49,51,53,55,57,59,61,63,65,67,69,71,73,75,77,-1,79,81,83,85,87,89,91,93,95,97,99,101,103,105,107,109,111,113,115,117,-1,119,121,-1,-1,-1,-1,-1,-1,-1,-1,-1,-1,-1,-1,-1,-1,-1,-1,-1,-1,-1,-1,-1,-1,-1,-1,-1,-1,-1,-1,-1,-1,-1,-1,-1,-1,-1,-1,-1,-1,-1,-1,-1,-1,-1,-1,-1,-1,-1,-1,-1,-1,-1,-1,-1,-1,-1,-1,-1,-1,-1,-1],"loss_changes":[6.1713773E4,3.2703047E4,3.0880234E4,2.1039174E4,1.5181883E4,1.2351944E4,9.492543E3,6.096912E3,9.3480625E3,9.4971875E3,7.8489663E3,6.0193193E3,5.479378E3,1.1053254E4,2.9086875E3,5.8637695E3,4.5516836E3,7.3847725E3,6.5405645E3,1.7970652E3,9.714172E3,3.9029658E3,7.091999E3,2.6390925E3,5.1971836E3,6.49729E3,3.78509E3,5.816133E3,3.8310947E3,8.220022E2,1.8367656E3,3.7390967E3,3.2790586E3,3.0144885E3,1.1371165E3,8.00074E3,8.0850947E3,7.5576675E3,3.6293652E3,0E0,7.4037726E2,1.2194293E4,8.442852E3,3.6927676E3,4.110825E3,4.3682666E2,5.9445244E3,4.4155195E3,1.9316174E3,1.6820508E3,4.9597393E3,7.2902627E3,7.0310645E3,1.7030544E3,3.3493323E3,3.3233506E3,3.910043E3,1.5888994E3,4.5577188E3,1.3774304E3,0E0,1.667125E3,3.3667861E3,0E0,0E0,0E0,0E0,0E0,0E0,0E0,0E0,0E0,0E0,0E0,0E0,0E0,0E0,0E0,0E0,0E0,0E0,0E0,0E0,0E0,0E0,0E0,0E0,0E0,0E0,0E0,0E0,0E0,0E0,0E0,0E0,0E0,0E0,0E0,0E0,0E0,0E0,0E0,0E0,0E0,0E0,0E0,0E0,0E0,0E0,0E0,0E0,0E0,0E0,0E0,0E0,0E0,0E0,0E0,0E0,0E0,0E0,0E0,0E0],"parents":[2147483647,0,0,1,1,2,2,3,3,4,4,5,5,6,6,7,7,8,8,9,9,10,10,11,11,12,12,13,13,14,14,15,15,16,16,17,17,18,18,19,19,20,20,21,21,22,22,23,23,24,24,25,25,26,26,27,27,28,28,29,29,30,30,31,31,32,32,33,33,34,34,35,35,36,36,37,37,38,38,40,40,41,41,42,42,43,43,44,44,45,45,46,46,47,47,48,48,49,49,50,50,51,51,52,52,53,53,54,54,55,55,56,56,57,57,58,58,59,59,61,61,62,62],"right_children":[2,4,6,8,10,12,14,16,18,20,22,24,26,28,30,32,34,36,38,40,42,44,46,48,50,52,54,56,58,60,62,64,66,68,70,72,74,76,78,-1,80,82,84,86,88,90,92,94,96,98,100,102,104,106,108,110,112,114,116,118,-1,120,122,-1,-1,-1,-1,-1,-1,-1,-1,-1,-1,-1,-1,-1,-1,-1,-1,-1,-1,-1,-1,-1,-1,-1,-1,-1,-1,-1,-1,-1,-1,-1,-1,-1,-1,-1,-1,-1,-1,-1,-1,-1,-1,-1,-1,-1,-1,-1,-1,-1,-1,-1,-1,-1,-1,-1,-1,-1,-1,-1,-1],"split_conditions":[1.9254667E1,1.3404523E2,1.8775301E1,1.1841756E1,2E-1,1.2650615E2,2.6141552E1,1.2131999E1,1.6746773E1,-5.138333E-1,3.3728976E2,1.2864649E1,2.6592417E1,2.1805315E2,2E-1,1.1503113E1,1.7073668E1,9.196609E0,5E-1,2.5488936E2,1.3755579E1,1.5792168E1,1.1841756E1,9E-1,1.3039754E1,2.6999998E0,1.6766108E1,2.4802835E1,6E-1,3.3497414E1,3.0745584E2,1.1159999E1,3.3305153E1,1E-1,7.085966E1,6E-1,1.8773666E1,1.284557E2,5.127833E0,-9.204854E0,2.1602999E1,6.042166E0,3.4548965E2,1.3794502E1,1.2074766E1,1.5675751E1,3.5911588E2,2.3215338E1,1.5799999E1,1.2964998E1,1.3684735E1,2.5417421E1,2.9E0,2.9836172E1,3.2584418E2,2.4471582E1,1.2650615E2,2.3441502E1,2.0172853E1,3.3831866E2,-5.7024646E0,2.5488936E2,2.7504095E1,5.495101E0,-1.0341418E0,4.9794626E0,1.8338333E1,-4.1026354E0,3.4088655E0,9.896011E0,2.6632056E0,8.454472E0,-5.334113E0,4.1917046E-3,6.6925187E0,-1.2939833E-1,-1.1886878E1,-5.858269E0,-1.969402E0,3.8327375E-1,-2.7057896E0,9.386289E0,3.2905078E0,3.2759109E0,1.8810211E-1,1.628278E0,5.120245E0,-7.676138E0,4.2579743E-1,4.3708663E0,1.4800757E1,-2.8936393E0,6.9268603E0,-4.9882457E-1,5.1799245E0,-1.6223117E0,2.5252612E0,-5.936394E-1,-8.684508E0,1.9264728E0,-1.9860774E0,1.8352387E0,6.983675E0,-1.1305884E1,2.4352576E-1,-1.9415191E-1,1.7255176E0,-2.1728504E0,1.0321432E1,-2.0438569E0,2.4645417E0,-5.5592327E0,-2.959882E0,4.0298567E0,-1.1416676E0,3.0610592E0,-2.818253E0,-1.1834815E-1,-5.0141625E0,-5.378726E0,-1.4868617E0,2.1385934E0,-9.994476E0],"split_indices":[0,3,2,2,1,3,2,0,2,0,3,2,0,3,1,2,0,3,1,3,2,0,2,1,2,1,2,0,1,2,3,2,3,1,3,1,0,3,0,0,2,0,3,0,2,0,3,0,1,2,2,0,1,0,3,0,3,2,2,3,0,3,2,0,0,0,0,0,0,0,0,0,0,0,0,0,0,0,0,0,0,0,0,0,0,0,0,0,0,0,0,0,0,0,0,0,0,0,0,0,0,0,0,0,0,0,0,0,0,0,0,0,0,0,0,0,0,0,0,0,0,0,0],"split_type":[0,0,0,0,0,0,0,0,0,0,0,0,0,0,0,0,0,0,0,0,0,0,0,0,0,0,0,0,0,0,0,0,0,0,0,0,0,0,0,0,0,0,0,0,0,0,0,0,0,0,0,0,0,0,0,0,0,0,0,0,0,0,0,0,0,0,0,0,0,0,0,0,0,0,0,0,0,0,0,0,0,0,0,0,0,0,0,0,0,0,0,0,0,0,0,0,0,0,0,0,0,0,0,0,0,0,0,0,0,0,0,0,0,0,0,0,0,0,0,0,0,0,0],"sum_hessian":[3.925E3,2.177E3,1.748E3,1.106E3,1.071E3,1.04E3,7.08E2,9.7E1,1.009E3,7.02E2,3.69E2,5.03E2,5.37E2,5.48E2,1.6E2,6.7E1,3E1,4.15E2,5.94E2,2.9E1,6.73E2,2.78E2,9.1E1,1.05E2,3.98E2,2.75E2,2.62E2,4.61E2,8.7E1,3E1,1.3E2,5.9E1,8E0,2.1E1,9E0,2.2E1,3.93E2,3.15E2,2.79E2,2E0,2.7E1,1.27E2,5.46E2,1.81E2,9.7E1,3E0,8.8E1,4.8E1,5.7E1,1.5E1,3.83E2,1.79E2,9.6E1,1.77E2,8.5E1,2.23E2,2.38E2,3.6E1,5.1E1,2.6E1,4E0,1.13E2,1.7E1,5E1,9E0,4E0,4E0,1.5E1,6E0,3E0,6E0,1.8E1,4E0,3.77E2,1.6E1,3.11E2,4E0,2.3E1,2.56E2,1.2E1,1.5E1,4.8E1,7.9E1,4.49E2,9.7E1,1.48E2,3.3E1,5E0,9.2E1,2E0,1E0,8.3E1,5E0,2.5E1,2.3E1,4.5E1,1.2E1,3E0,1.2E1,3.1E1,3.52E2,1.5E2,2.9E1,4E0,9.2E1,1.12E2,6.5E1,8.4E1,1E0,2.08E2,1.5E1,8.2E1,1.56E2,3E1,6E0,1.7E1,3.4E1,2E1,6E0,1.01E2,1.2E1,2E0,1.5E1],"tree_param":{"num_deleted":"0","num_feature":"5","num_nodes":"123","size_leaf_vector":"1"}},{"base_weights":[-7.4951514E-3,3.4063754E0,-2.5785632E0,5.07904E0,-8.225552E-1,1.5201339E0,-4.2623606E0,6.5666957E0,-6.251063E-1,-1.0023812E1,9.104103E-1,-6.0389614E-1,5.250937E0,-6.558589E0,-1.6944492E0,-2.788318E-1,8.192316E0,-7.041007E0,3.0051548E0,1.7552701E0,-1.3194155E1,-8.737097E0,2.2357402E0,-1.0152959E0,1.8159037E1,7.254204E0,-3.970405E-1,-4.7459164E0,-1.1506066E1,-1.2864279E0,-2.6714561E1,2.3823855E0,-9.985304E0,2.8386349E1,7.5091696E0,-1.0367085E1,-6.034391E0,1.3624226E1,-8.572415E-1,-1.1197815E1,1.7727219E1,6.258957E0,-1.469543E1,7.556646E0,-1.0716684E1,2.6771233E0,-8.785436E0,2.0285791E1,-1.3827707E0,1.3087437E1,-1.093852E1,5.923794E0,2.4831955E1,-2.0126312E1,1.6507642E0,-6.4900413E0,-9.27532E-1,-9.841483E0,-2.118602E1,1.032075E0,-6.0618267E0,-4.053434E0,-8.884298E0,6.339091E0,2.0947699E-1,-1.7163988E0,-9.9582815E0,-4.849228E-1,9.765332E0,1.4815788E0,3.8986027E0,9.818705E0,-2.3301518E0,7.9309034E-1,9.596623E0,-1.3929926E0,4.0692315E0,4.9081893E0,-4.823314E0,-1.9091576E0,8.045466E0,9.789188E0,-6.6597095E0,-3.5160007E0,-6.0977335E0,-1.7563608E0,-5.4674687E0,1.02443494E-1,2.4283085E0,1.5212859E1,-6.076836E-1,-2.5854045E-1,-4.4403157E0,-9.942567E-1,-4.475004E0,2.4397712E0,-9.272464E-1,-4.0010366E0,8.854283E0,-8.334754E0,-9.627831E-1,-3.826682E-1,6.029922E0,6.092633E-1,-2.356005E0,9.203162E-2,-5.045721E0,-3.081085E0,3.8960605E0,-6.721371E0,-5.8155596E-1,1.552725E0,-1.0383619E0,-7.171647E-1,-3.6706936E0],"categories":[],"categories_nodes":[],"categories_segments":[],"categories_sizes":[],"default_left":[0,0,0,0,0,0,0,0,0,0,0,0,0,0,0,0,0,0,0,0,0,0,0,0,0,0,0,0,0,0,0,0,0,0,0,0,0,0,0,0,0,0,0,0,0,0,0,0,0,0,0,0,0,0,0,0,0,0,0,0,0,0,0,0,0,0,0,0,0,0,0,0,0,0,0,0,0,0,0,0,0,0,0,0,0,0,0,0,0,0,0,0,0,0,0,0,0,0,0,0,0,0,0,0,0,0,0,0,0,0,0,0,0,0,0],"id":4,"left_children":[1,3,5,7,9,11,13,15,17,19,21,23,25,27,29,31,33,35,37,39,41,43,45,47,49,51,53,55,57,59,61,63,65,67,69,-1,71,73,75,77,79,81,83,-1,85,87,-1,89,91,-1,93,95,97,99,101,103,105,107,109,111,113,-1,-1,-1,-1,-1,-1,-1,-1,-1,-1,-1,-1,-1,-1,-1,-1,-1,-1,-1,-1,-1,-1,-1,-1,-1,-1,-1,-1,-1,-1,-1,-1,-1,-1,-1,-1,-1,-1,-1,-1,-1,-1,-1,-1,-1,-1,-1,-1,-1,-1,-1,-1,-1,-1],"loss_changes":[3.446844E4,1.1937311E4,1.5465562E4,1.0263447E4,7.647001E3,5.1777637E3,9.352545E3,1.0674254E4,5.8672993E3,2.8612837E3,5.18513E3,3.2372874E3,2.6843945E3,7.460707E3,7.632397E3,4.80253E3,1.0478344E4,2.3119873E3,6.6151035E3,3.7155679E3,1.8442461E3,3.5607485E3,5.0312954E3,3.2295437E3,7.1461113E3,3.9453828E3,2.5785305E3,4.0897188E3,3.40083E3,8.199371E3,5.9299805E1,4.595036E3,3.7685825E3,3.1764707E3,1.0526879E4,0E0,6.23221E3,8.586525E3,6.5604043E3,1.6078654E3,1.9227634E3,4.4767915E3,6.999336E2,0E0,1.6090854E3,4.451002E3,0E0,4.854292E3,2.80442E3,0E0,1.02217285E2,3.290584E3,2.538245E3,6.879595E2,3.1569246E3,4.91817E3,3.8104673E3,2.0226152E3,7.070967E2,9.308644E3,5.455874E3,0E0,0E0,0E0,0E0,0E0,0E0,0E0,0E0,0E0,0E0,0E0,0E0,0E0,0E0,0E0,0E0,0E0,0E0,0E0,0E0,0E0,0E0,0E0,0E0,0E0,0E0,0E0,0E0,0E0,0E0,0E0,0E0,0E0,0E0,0E0,0E0,0E0,0E0,0E0,0E0,0E0,0E0,0E0,0E0,0E0,0E0,0E0,0E0,0E0,0E0,0E0,0E0,0E0,0E0],"parents":[2147483647,0,0,1,1,2,2,3,3,4,4,5,5,6,6,7,7,8,8,9,9,10,10,11,11,12,12,13,13,14,14,15,15,16,16,17,17,18,18,19,19,20,20,21,21,22,22,23,23,24,24,25,25,26,26,27,27,28,28,29,29,30,30,31,31,32,32,33,33,34,34,36,36,37,37,38,38,39,39,40,40,41,41,42,42,44,44,45,45,47,47,48,48,50,50,51,51,52,52,53,53,54,54,55,55,56,56,57,57,58,58,59,59,60,60],"right_children":[2,4,6,8,10,12,14,16,18,20,22,24,26,28,30,32,34,36,38,40,42,44,46,48,50,52,54,56,58,60,62,64,66,68,70,-1,72,74,76,78,80,82,84,-1,86,88,-1,90,92,-1,94,96,98,100,102,104,106,108,110,112,114,-1,-1,-1,-1,-1,-1,-1,-1,-1,-1,-1,-1,-1,-1,-1,-1,-1,-1,-1,-1,-1,-1,-1,-1,-1,-1,-1,-1,-1,-1,-1,-1,-1,-1,-1,-1,-1,-1,-1,-1,-1,-1,-1,-1,-1,-1,-1,-1,-1,-1,-1,-1,-1,-1],"split_conditions":[1.5896584E1,8.000001E-1,1.5226764E1,1.2671336E1,5.723416E0,1.5041235E2,1.4347415E2,3.267167E0,1.3915082E1,1.6000001E0,1.4920457E1,1.5158522E1,5.9000006E0,2.5579666E1,3.7490158E1,2.6820002E0,9.726664E0,3.140594E0,1.4689588E1,3.3097485E2,1.3830749E1,5.9028325E0,3.09E1,8.225035E0,9.52985E1,4.7999997E0,6.6E0,1.0052978E2,1.01E1,2.754242E1,1.7615157E2,1.1928989E1,2.1479666E1,3.5076862E1,2.4835446E2,-1.0367085E1,1.1592119E1,1.2984975E1,2.5488936E2,9.000001E-1,9.0000004E-1,4.432E0,3.3531793E2,7.556646E0,1.0740334E1,1.2671336E1,-8.785436E0,2.5579666E1,1.5034041E1,1.3087437E1,1.1177225E2,2E0,1.562306E2,2.784842E1,2.9941394E2,1.3623622E1,1.4040103E2,3.1583838E1,2.8234087E1,8E-1,2.060823E1,-4.053434E0,-8.884298E0,6.339091E0,2.0947699E-1,-1.7163988E0,-9.9582815E0,-4.849228E-1,9.765332E0,1.4815788E0,3.8986027E0,9.818705E0,-2.3301518E0,7.9309034E-1,9.596623E0,-1.3929926E0,4.0692315E0,4.9081893E0,-4.823314E0,-1.9091576E0,8.045466E0,9.789188E0,-6.6597095E0,-3.5160007E0,-6.0977335E0,-1.7563608E0,-5.4674687E0,1.02443494E-1,2.4283085E0,1.5212859E1,-6.076836E-1,-2.5854045E-1,-4.4403157E0,-9.942567E-1,-4.475004E0,2.4397712E0,-9.272464E-1,-4.0010366E0,8.854283E0,-8.334754E0,-9.627831E-1,-3.826682E-1,6.029922E0,6.092633E-1,-2.356005E0,9.203162E-2,-5.045721E0,-3.081085E0,3.8960605E0,-6.721371E0,-5.8155596E-1,1.552725E0,-1.0383619E0,-7.171647E-1,-3.6706936E0],"split_indices":[0,4,2,0,0,3,3,0,0,1,3,2,1,0,2,0,2,3,2,3,2,0,1,2,3,1,1,3,1,0,3,2,2,3,3,0,3,2,3,1,1,0,3,0,0,0,0,0,2,0,3,1,3,0,3,3,3,0,0,1,2,0,0,0,0,0,0,0,0,0,0,0,0,0,0,0,0,0,0,0,0,0,0,0,0,0,0,0,0,0,0,0,0,0,0,0,0,0,0,0,0,0,0,0,0,0,0,0,0,0,0,0,0,0,0],"split_type":[0,0,0,0,0,0,0,0,0,0,0,0,0,0,0,0,0,0,0,0,0,0,0,0,0,0,0,0,0,0,0,0,0,0,0,0,0,0,0,0,0,0,0,0,0,0,0,0,0,0,0,0,0,0,0,0,0,0,0,0,0,0,0,0,0,0,0,0,0,0,0,0,0,0,0,0,0,0,0,0,0,0,0,0,0,0,0,0,0,0,0,0,0,0,0,0,0,0,0,0,0,0,0,0,0,0,0,0,0,0,0,0,0,0,0],"sum_hessian":[3.925E3,1.686E3,2.239E3,1.208E3,4.78E2,6.52E2,1.587E3,9.58E2,2.5E2,7.5E1,4.03E2,4.16E2,2.36E2,8.37E2,7.5E2,1.84E2,7.74E2,9E1,1.6E2,1.6E1,5.9E1,4.8E1,3.55E2,4.08E2,8E0,1.74E2,6.2E1,6.14E2,2.23E2,7.39E2,1.1E1,1.45E2,3.9E1,2.4E1,7.5E2,2E0,8.8E1,4.2E1,1.18E2,9E0,7E0,4E0,5.5E1,2E0,4.6E1,3.51E2,4E0,6E0,4.02E2,4E0,4E0,1.63E2,1.1E1,5E0,5.7E1,4.21E2,1.93E2,1.92E2,3.1E1,4.98E2,2.41E2,3E0,8E0,1.1E1,1.34E2,3.4E1,5E0,3E0,2.1E1,5.12E2,2.38E2,3E0,8.5E1,2.7E1,1.5E1,9.4E1,2.4E1,1E0,8E0,2E0,5E0,2E0,2E0,3.8E1,1.7E1,2.9E1,1.7E1,2.46E2,1.05E2,2E0,4E0,3.88E2,1.4E1,2E0,2E0,1.31E2,3.2E1,1E0,1E1,3E0,2E0,5E1,7E0,5.8E1,3.63E2,1.8E2,1.3E1,1.89E2,3E0,2.9E1,2E0,2.59E2,2.39E2,1.52E2,8.9E1],"tree_param":{"num_deleted":"0","num_feature":"5","num_nodes":"115","size_leaf_vector":"1"}},{"base_weights":[-4.2854277E-3,2.8636458E0,-1.5322798E0,3.6370118E0,-1.0119892E1,-8.691636E-1,-7.252753E0,5.3222146E0,4.398182E-1,8.261152E0,-1.0977711E1,-2.5113373E0,1.1497531E0,-5.419091E0,-1.2118187E1,5.702255E0,-1.7616047E1,-1.3472623E1,1.5477185E0,-6.312083E0,-1.6555485E1,-1.371143E0,-6.5441E0,1.5584588E0,-1.2539341E1,-4.3013906E0,-1.6869053E1,-1.3800392E1,-4.16331E0,3.7267456E0,1.0175256E1,-4.149514E0,-3.0489792E1,-2.1489397E1,7.1148977E0,-9.889279E0,2.5642807E0,4.426536E0,-9.700347E0,-1.7472475E1,2.0557802E0,1.2170287E1,-1.4972272E0,-7.018667E0,8.472778E0,3.2691734E0,-2.3068178E0,1.45095215E1,-1.6082159E1,-7.038033E0,2.8999069E0,-1.8057308E1,3.2145655E-1,-7.475619E0,-1.6182428E1,-6.4257135E0,1.1941597E0,-2.7084324E0,1.5256022E0,1.3161871E0,4.5258718E0,3.2710603E-1,-2.898591E0,-1.1053176E1,1.1452446E0,-7.433282E0,8.120911E0,-3.9810483E0,3.25631E0,-1.1735161E1,-1.7396778E0,6.8129E-1,1.1629469E1,-2.9180672E0,5.352662E0,-5.0876617E0,-1.2403089E0,-1.3271054E0,-5.7359304E0,-5.1079154E0,-3.6714154E-1,-3.3578143E-2,-2.4228737E0,-2.8873153E0,5.737627E0,1.2403489E0,-1.6896533E0,-1.914588E-1,-2.456006E0,6.7626967E0,-1.4383324E0,3.4424303E0,-5.6237116E0,-1.4228182E0,-4.2645636E0,3.812052E0,-7.611615E-1,-7.380273E0,-3.5013173E0,-5.7380786E0,-1.6816044E-2,-7.4794016E0,-4.017176E0,-2.417937E0,2.2118378E-2,3.012372E0,-2.415292E0],"categories":[],"categories_nodes":[],"categories_segments":[],"categories_sizes":[],"default_left":[0,0,0,0,0,0,0,0,0,0,0,0,0,0,0,0,0,0,0,0,0,0,0,0,0,0,0,0,0,0,0,0,0,0,0,0,0,0,0,0,0,0,0,0,0,0,0,0,0,0,0,0,0,0,0,0,0,0,0,0,0,0,0,0,0,0,0,0,0,0,0,0,0,0,0,0,0,0,0,0,0,0,0,0,0,0,0,0,0,0,0,0,0,0,0,0,0,0,0,0,0,0,0,0,0,0,0],"id":5,"left_children":[1,3,5,7,9,11,13,15,17,-1,19,21,23,25,27,29,31,33,35,37,39,41,43,45,47,49,51,53,55,57,59,61,63,65,67,69,71,73,75,77,-1,-1,79,81,83,85,87,89,91,93,95,97,-1,99,101,103,105,-1,-1,-1,-1,-1,-1,-1,-1,-1,-1,-1,-1,-1,-1,-1,-1,-1,-1,-1,-1,-1,-1,-1,-1,-1,-1,-1,-1,-1,-1,-1,-1,-1,-1,-1,-1,-1,-1,-1,-1,-1,-1,-1,-1,-1,-1,-1,-1,-1,-1],"loss_changes":[1.7208838E4,1.3742808E4,9.71223E3,6.9426875E3,2.789621E3,7.6183887E3,2.3074658E3,7.45799E3,6.895316E3,0E0,1.8733105E3,5.816862E3,5.7877915E3,2.4229775E3,9.060293E2,7.305174E3,2.3005874E3,5.599396E3,4.8386973E3,1.6075057E3,8.49542E2,5.290391E3,2.0477666E3,6.6331523E3,3.1082212E3,3.5480295E3,3.817544E2,7.6791113E2,1.7736395E2,1.0061886E4,7.153662E3,2.416113E2,1.6666006E3,4.5028623E3,9.063321E2,3.8379482E3,3.9574849E3,2.2622039E3,1.2631135E3,6.2475977E2,0E0,0E0,4.1699805E3,1.9785928E3,1.9191143E3,5.376552E3,3.0166484E3,7.283374E2,2.1968784E3,2.0741772E3,2.6983096E3,3.8150684E2,0E0,1.5549854E3,6.920283E2,1.0680011E2,4.8980386E2,0E0,0E0,0E0,0E0,0E0,0E0,0E0,0E0,0E0,0E0,0E0,0E0,0E0,0E0,0E0,0E0,0E0,0E0,0E0,0E0,0E0,0E0,0E0,0E0,0E0,0E0,0E0,0E0,0E0,0E0,0E0,0E0,0E0,0E0,0E0,0E0,0E0,0E0,0E0,0E0,0E0,0E0,0E0,0E0,0E0,0E0,0E0,0E0,0E0,0E0],"parents":[2147483647,0,0,1,1,2,2,3,3,4,4,5,5,6,6,7,7,8,8,10,10,11,11,12,12,13,13,14,14,15,15,16,16,17,17,18,18,19,19,20,20,21,21,22,22,23,23,24,24,25,25,26,26,27,27,28,28,29,29,30,30,31,31,32,32,33,33,34,34,35,35,36,36,37,37,38,38,39,39,42,42,43,43,44,44,45,45,46,46,47,47,48,48,49,49,50,50,51,51,53,53,54,54,55,55,56,56],"right_children":[2,4,6,8,10,12,14,16,18,-1,20,22,24,26,28,30,32,34,36,38,40,42,44,46,48,50,52,54,56,58,60,62,64,66,68,70,72,74,76,78,-1,-1,80,82,84,86,88,90,92,94,96,98,-1,100,102,104,106,-1,-1,-1,-1,-1,-1,-1,-1,-1,-1,-1,-1,-1,-1,-1,-1,-1,-1,-1,-1,-1,-1,-1,-1,-1,-1,-1,-1,-1,-1,-1,-1,-1,-1,-1,-1,-1,-1,-1,-1,-1,-1,-1,-1,-1,-1,-1,-1,-1,-1],"split_conditions":[1.3004664E1,1.0700002E1,2.5600533E1,1E-1,1.0315115E1,1.394324E2,3.2217484E1,3.0599998E1,2E-1,8.261152E0,2.0907913E1,2.5579666E1,3.09E1,3.413884E2,2.8046583E1,2.972342E2,8.257498E-1,2.520257E1,3.9945002E0,6.9715843E0,1.2671336E1,8.225035E0,3.1240334E1,2.754242E1,1.5297641E2,2.2455705E2,3.5828735E2,2.0610918E1,3.7E0,3.0799167E0,3.9945002E0,3.2696644E1,1.0373668E1,3.5828735E2,-5.138333E-1,3E-1,3.5911588E2,5.477834E0,1.6766108E1,4.5403333E0,2.0557802E0,1.2170287E1,9.565437E0,1.257426E1,7E-1,3.44361E2,2.060823E1,2.2711168E1,9.3876505E0,2.5809084E1,2E-1,1.9715338E1,3.2145655E-1,1.6408833E1,2.26445E1,2.9836172E1,6.399999E0,-2.7084324E0,1.5256022E0,1.3161871E0,4.5258718E0,3.2710603E-1,-2.898591E0,-1.1053176E1,1.1452446E0,-7.433282E0,8.120911E0,-3.9810483E0,3.25631E0,-1.1735161E1,-1.7396778E0,6.8129E-1,1.1629469E1,-2.9180672E0,5.352662E0,-5.0876617E0,-1.2403089E0,-1.3271054E0,-5.7359304E0,-5.1079154E0,-3.6714154E-1,-3.3578143E-2,-2.4228737E0,-2.8873153E0,5.737627E0,1.2403489E0,-1.6896533E0,-1.914588E-1,-2.456006E0,6.7626967E0,-1.4383324E0,3.4424303E0,-5.6237116E0,-1.4228182E0,-4.2645636E0,3.812052E0,-7.611615E-1,-7.380273E0,-3.5013173E0,-5.7380786E0,-1.6816044E-2,-7.4794016E0,-4.017176E0,-2.417937E0,2.2118378E-2,3.012372E0,-2.415292E0],"split_indices":[0,1,2,1,2,3,2,2,4,0,2,0,1,3,0,3,0,2,0,0,0,2,0,0,3,3,3,0,1,0,0,2,0,3,0,1,3,0,2,0,0,0,2,2,1,3,2,0,2,0,1,0,0,0,0,0,1,0,0,0,0,0,0,0,0,0,0,0,0,0,0,0,0,0,0,0,0,0,0,0,0,0,0,0,0,0,0,0,0,0,0,0,0,0,0,0,0,0,0,0,0,0,0,0,0,0,0],"split_type":[0,0,0,0,0,0,0,0,0,0,0,0,0,0,0,0,0,0,0,0,0,0,0,0,0,0,0,0,0,0,0,0,0,0,0,0,0,0,0,0,0,0,0,0,0,0,0,0,0,0,0,0,0,0,0,0,0,0,0,0,0,0,0,0,0,0,0,0,0,0,0,0,0,0,0,0,0,0,0,0,0,0,0,0,0,0,0,0,0,0,0,0,0,0,0,0,0,0,0,0,0,0,0,0,0,0,0],"sum_hessian":[3.925E3,1.364E3,2.561E3,1.288E3,7.6E1,2.296E3,2.65E2,8.43E2,4.45E2,1E0,7.5E1,1.266E3,1.03E3,1.94E2,7.1E1,8.3E2,1.3E1,3.2E1,4.13E2,4.2E1,3.3E1,9.88E2,2.78E2,1.001E3,2.9E1,1.78E2,1.6E1,5.8E1,1.3E1,5.77E2,2.53E2,7E0,6E0,2.3E1,9E0,3.3E1,3.8E2,1E1,3.2E1,3.2E1,1E0,2E0,9.86E2,2.7E2,8E0,6.94E2,3.07E2,3E0,2.6E1,1.29E2,4.9E1,1.5E1,1E0,1.7E1,4.1E1,9E0,4E0,5.5E1,5.22E2,1.17E2,1.36E2,4E0,3E0,5E0,1E0,2.2E1,1E0,1E0,8E0,3E0,3E1,3.78E2,2E0,5E0,5E0,1.3E1,1.9E1,4E0,2.8E1,1.6E1,9.7E2,3.6E1,2.34E2,3E0,5E0,6.33E2,6.1E1,2.4E2,6.7E1,2E0,1E0,2E0,2.4E1,9.9E1,3E1,1.7E1,3.2E1,6E0,9E0,6E0,1.1E1,8E0,3.3E1,7E0,2E0,2E0,2E0],"tree_param":{"num_deleted":"0","num_feature":"5","num_nodes":"107","size_leaf_vector":"1"}},{"base_weights":[-1.1856718E-2,1.2252097E0,-2.455054E0,6.2355666E0,2.5194213E-1,-1.0540129E1,-1.9318783E0,3.4230874E0,1.1511986E1,1.39400425E1,6.127163E-2,-1.7227964E1,-4.3848295E0,6.251385E-1,-4.4207807E0,1.5103996E1,4.0851557E-1,8.212891E0,2.4104694E1,1.8156347E1,-5.9512353E0,-1.4096878E0,1.9784822E0,-1.0153458E1,-2.191154E1,-2.0830731E0,-2.1461565E1,2.3721771E0,-2.8380504E0,-2.3772967E0,-8.372502E0,1.9022074E1,-1.1271985E1,8.840127E0,-3.0627708E0,1.7161104E1,2.8537672E0,2.6347704E1,-6.1413875E0,9.587685E0,3.2324226E1,1.3220932E1,-5.6527658E0,-1.8723869E0,7.1175394E0,2.673539E0,-4.584757E0,-3.852351E0,-1.5326402E1,-9.088642E0,-1.4956759E1,-1.074581E1,5.0993056E0,-8.206204E0,-2.524578E0,-3.6147683E0,4.053848E0,-1.7404333E0,-1.493859E1,-2.768265E0,1.790812E1,-1.4762758E1,-6.631714E0,3.003087E-1,8.015034E0,-5.7145387E-1,-4.2230673E0,3.296809E0,-4.2376757E0,-2.231494E0,2.2287652E0,-2.9043581E0,6.0262094E0,-2.2173727E-1,7.8844423E0,5.707988E0,1.7305067E1,-2.9661689E0,5.557851E0,1.1454699E1,4.6368065E0,6.696316E-1,5.279788E0,-1.829369E-1,-1.5927227E0,7.0479608E0,1.356097E-2,1.3565803E0,-2.9616988E-1,-9.292296E0,-6.993139E-1,-2.9531136E0,6.6117806E0,-9.918256E0,-2.8470993E-1,1.73267E0,-5.0987487E0,-8.121323E0,-1.7028055E0,7.98722E0,8.9817815E-2,-6.2753544E0,-2.8220877E-1,3.8524163E0,5.1320696E-1,-1.9546018E0,3.1088778E-1,7.202246E0,-6.51957E0,-1.7626601E0,-1.465229E-1,-1.0635166E0,9.446711E0,-4.932232E0,-3.346592E-1,-1.6626608E0,-4.8333917E0],"categories":[],"categories_nodes":[],"categories_segments":[],"categories_sizes":[],"default_left":[0,0,0,0,0,0,0,0,0,0,0,0,0,0,0,0,0,0,0,0,0,0,0,0,0,0,0,0,0,0,0,0,0,0,0,0,0,0,0,0,0,0,0,0,0,0,0,0,0,0,0,0,0,0,0,0,0,0,0,0,0,0,0,0,0,0,0,0,0,0,0,0,0,0,0,0,0,0,0,0,0,0,0,0,0,0,0,0,0,0,0,0,0,0,0,0,0,0,0,0,0,0,0,0,0,0,0,0,0,0,0,0,0,0,0,0,0],"id":6,"left_children":[1,3,5,7,9,11,13,15,17,19,21,23,25,27,29,31,33,35,37,39,41,43,45,47,49,51,53,55,57,59,61,63,65,67,69,71,73,75,-1,77,79,81,-1,83,85,87,89,91,93,-1,95,97,99,-1,-1,101,103,105,107,109,111,113,115,-1,-1,-1,-1,-1,-1,-1,-1,-1,-1,-1,-1,-1,-1,-1,-1,-1,-1,-1,-1,-1,-1,-1,-1,-1,-1,-1,-1,-1,-1,-1,-1,-1,-1,-1,-1,-1,-1,-1,-1,-1,-1,-1,-1,-1,-1,-1,-1,-1,-1,-1,-1,-1,-1],"loss_changes":[1.186894E4,1.271125E4,5.563124E3,6.2526797E3,5.6992046E3,3.217709E3,7.9006924E3,9.783026E3,5.909078E3,2.624084E3,6.0801885E3,1.0366143E3,1.6454727E3,3.7155813E3,5.059448E3,6.1049736E3,6.524691E3,5.609666E3,3.5389004E3,2.725079E3,1.732043E3,4.826887E3,4.2821235E3,4.9507678E2,8.296621E2,2.4813394E3,1.5418237E2,4.122426E3,2.7100425E3,3.348851E3,2.2826504E3,6.906588E3,1.833772E2,3.3635493E3,7.3087466E3,3.6505615E3,6.332415E3,5.5554355E3,0E0,3.1424678E3,2.9919434E2,1.05055725E2,0E0,5.0215015E3,7.2952314E3,5.7357354E3,5.280497E3,1.6130826E3,2.2633967E3,0E0,6.900056E2,1.3361267E3,2.2650024E3,0E0,0E0,4.144594E3,6.546431E3,2.5258867E3,5.019465E3,2.8945366E3,2.4424597E3,1.0121719E3,1.6664888E3,0E0,0E0,0E0,0E0,0E0,0E0,0E0,0E0,0E0,0E0,0E0,0E0,0E0,0E0,0E0,0E0,0E0,0E0,0E0,0E0,0E0,0E0,0E0,0E0,0E0,0E0,0E0,0E0,0E0,0E0,0E0,0E0,0E0,0E0,0E0,0E0,0E0,0E0,0E0,0E0,0E0,0E0,0E0,0E0,0E0,0E0,0E0,0E0,0E0,0E0,0E0,0E0,0E0,0E0],"parents":[2147483647,0,0,1,1,2,2,3,3,4,4,5,5,6,6,7,7,8,8,9,9,10,10,11,11,12,12,13,13,14,14,15,15,16,16,17,17,18,18,19,19,20,20,21,21,22,22,23,23,24,24,25,25,26,26,27,27,28,28,29,29,30,30,31,31,32,32,33,33,34,34,35,35,36,36,37,37,39,39,40,40,41,41,43,43,44,44,45,45,46,46,47,47,48,48,50,50,51,51,52,52,55,55,56,56,57,57,58,58,59,59,60,60,61,61,62,62],"right_children":[2,4,6,8,10,12,14,16,18,20,22,24,26,28,30,32,34,36,38,40,42,44,46,48,50,52,54,56,58,60,62,64,66,68,70,72,74,76,-1,78,80,82,-1,84,86,88,90,92,94,-1,96,98,100,-1,-1,102,104,106,108,110,112,114,116,-1,-1,-1,-1,-1,-1,-1,-1,-1,-1,-1,-1,-1,-1,-1,-1,-1,-1,-1,-1,-1,-1,-1,-1,-1,-1,-1,-1,-1,-1,-1,-1,-1,-1,-1,-1,-1,-1,-1,-1,-1,-1,-1,-1,-1,-1,-1,-1,-1,-1,-1,-1,-1,-1],"split_conditions":[2.0240196E1,7.6028333E0,9.196609E0,2.4835446E2,4.7061553E0,1E-1,4E-1,1.9134424E1,5.723416E0,1.8709612E1,1.3784856E2,4.0962877E0,8.340745E0,2.475638E1,2.3306753E1,5.2999997E0,1.224E1,1.4480773E1,1.9803272E1,1.731746E1,5E-1,1.9559633E1,3.3975906E2,5.361166E0,2.3510508E1,4.7061553E0,2.3510508E1,2.0969807E1,3.50869E2,2.3086166E1,2.1602999E1,3.9945002E0,4.0962877E0,1E-1,6.479666E0,-5.138333E-1,1.9721298E1,1.8345877E1,-6.1413875E0,1.2676196E0,5E-1,1.4771336E1,-5.6527658E0,1.7193533E1,1.5371583E1,2.6592417E1,8.211166E0,3.6549165E0,3.140594E0,-9.088642E0,2.3906818E1,9.115333E0,2E-1,-8.206204E0,-2.524578E0,3.6152073E1,2.1602999E1,1.7740955E2,2.5049164E0,1.2938379E2,2.0907913E1,2.8498667E1,4.9199997E1,3.003087E-1,8.015034E0,-5.7145387E-1,-4.2230673E0,3.296809E0,-4.2376757E0,-2.231494E0,2.2287652E0,-2.9043581E0,6.0262094E0,-2.2173727E-1,7.8844423E0,5.707988E0,1.7305067E1,-2.9661689E0,5.557851E0,1.1454699E1,4.6368065E0,6.696316E-1,5.279788E0,-1.829369E-1,-1.5927227E0,7.0479608E0,1.356097E-2,1.3565803E0,-2.9616988E-1,-9.292296E0,-6.993139E-1,-2.9531136E0,6.6117806E0,-9.918256E0,-2.8470993E-1,1.73267E0,-5.0987487E0,-8.121323E0,-1.7028055E0,7.98722E0,8.9817815E-2,-6.2753544E0,-2.8220877E-1,3.8524163E0,5.1320696E-1,-1.9546018E0,3.1088778E-1,7.202246E0,-6.51957E0,-1.7626601E0,-1.465229E-1,-1.0635166E0,9.446711E0,-4.932232E0,-3.346592E-1,-1.6626608E0,-4.8333917E0],"split_indices":[2,0,3,3,3,1,1,3,0,2,3,3,3,2,0,1,2,2,2,2,1,2,3,0,2,3,2,2,3,0,2,0,3,1,0,0,2,2,0,3,1,0,0,2,0,0,0,0,3,0,2,0,1,0,0,3,2,3,0,3,2,0,1,0,0,0,0,0,0,0,0,0,0,0,0,0,0,0,0,0,0,0,0,0,0,0,0,0,0,0,0,0,0,0,0,0,0,0,0,0,0,0,0,0,0,0,0,0,0,0,0,0,0,0,0,0,0],"split_type":[0,0,0,0,0,0,0,0,0,0,0,0,0,0,0,0,0,0,0,0,0,0,0,0,0,0,0,0,0,0,0,0,0,0,0,0,0,0,0,0,0,0,0,0,0,0,0,0,0,0,0,0,0,0,0,0,0,0,0,0,0,0,0,0,0,0,0,0,0,0,0,0,0,0,0,0,0,0,0,0,0,0,0,0,0,0,0,0,0,0,0,0,0,0,0,0,0,0,0,0,0,0,0,0,0,0,0,0,0,0,0,0,0,0,0,0,0],"sum_hessian":[3.925E3,2.606E3,1.319E3,4.23E2,2.183E3,7.9E1,1.24E3,2.77E2,1.46E2,2.9E1,2.154E3,3.7E1,4.2E1,6.12E2,6.28E2,5.6E1,2.21E2,1.17E2,2.9E1,2.4E1,5E0,1.219E3,9.35E2,1.6E1,2.1E1,3.8E1,4E0,4.07E2,2.05E2,4.15E2,2.13E2,4.9E1,7E0,6.4E1,1.57E2,4.3E1,7.4E1,2.8E1,1E0,1.6E1,8E0,2E0,3E0,1.157E3,6.2E1,8.46E2,8.9E1,8E0,8E0,8E0,1.3E1,1.7E1,2.1E1,2E0,2E0,8.9E1,3.18E2,1.89E2,1.6E1,4.08E2,7E0,4.4E1,1.69E2,1.5E1,3.4E1,2E0,5E0,5.9E1,5E0,1.11E2,4.6E1,4E0,3.9E1,6.5E1,9E0,2.4E1,4E0,5E0,1.1E1,5E0,3E0,1E0,1E0,8.47E2,3.1E2,1.8E1,4.4E1,5.62E2,2.84E2,6E0,8.3E1,7E0,1E0,3E0,5E0,1E0,1.2E1,3E0,1.4E1,3E0,1.8E1,1.1E1,7.8E1,6.6E1,2.52E2,6.9E1,1.2E2,2E0,1.4E1,1.72E2,2.36E2,3E0,4E0,3.9E1,5E0,1.53E2,1.6E1],"tree_param":{"num_deleted":"0","num_feature":"5","num_nodes":"117","size_leaf_vector":"1"}},{"base_weights":[-6.861176E-3,1.5371623E0,-1.0786157E0,5.31143E0,6.8929446E-1,-7.6804036E-1,-7.305727E0,3.2791095E0,1.7475668E1,9.3315667E-1,-9.787242E0,-1.8481232E0,1.4362662E0,-6.0763526E0,-2.0426888E1,8.670917E0,7.5028497E-1,3.8325077E1,1.2936182E1,-2.0964597E-1,3.153864E0,1.0607605E1,-1.2563263E1,-1.0986189E0,-5.687116E0,3.6139853E0,-2.7332776E0,-1.1175336E1,-4.364161E0,-6.543092E0,-1.4039326E0,1.0143284E1,-2.2207989E1,7.4170976E0,-9.817693E-1,1.5427119E1,-6.0400224E0,-9.202579E0,1.7670687E1,-9.335147E0,5.578607E-1,9.385294E0,2.4323163E0,-1.9321796E1,-3.9418476E0,-1.4314432E0,8.685615E0,7.9885187E0,-6.204166E0,6.393821E0,-7.460467E-1,-1.0848434E1,-5.472343E-1,-3.7240431E0,-1.4462766E1,4.096571E0,-5.0180297E0,1.9944006E0,7.694059E0,1.3444039E0,-9.779466E0,-2.3669126E0,4.619772E0,-4.454403E0,3.21635E-1,-5.7127156E0,3.079387E0,9.041013E0,3.2679074E0,2.68297E0,-3.603149E0,3.204684E0,-7.485643E-2,2.1377964E0,1.6319218E1,-1.5350127E0,1.1504244E0,2.1477163E0,-6.4693375E0,-2.4001322E0,2.4614234E0,-2.0735651E-1,-1.7763481E0,1.0706519E1,1.440553E0,-7.3553247E0,-1.6142846E0,3.3616607E0,9.4763887E-1,6.177372E-1,-9.464986E-1,-5.0392895E0,-1.3492334E0,8.6412895E-1,-2.60142E0,-2.4631577E0,1.1810074E0,-4.721371E0,-9.798481E-1,1.3912686E0,-1.8194381E0],"categories":[],"categories_nodes":[],"categories_segments":[],"categories_sizes":[],"default_left":[0,0,0,0,0,0,0,0,0,0,0,0,0,0,0,0,0,0,0,0,0,0,0,0,0,0,0,0,0,0,0,0,0,0,0,0,0,0,0,0,0,0,0,0,0,0,0,0,0,0,0,0,0,0,0,0,0,0,0,0,0,0,0,0,0,0,0,0,0,0,0,0,0,0,0,0,0,0,0,0,0,0,0,0,0,0,0,0,0,0,0,0,0,0,0,0,0,0,0,0,0],"id":7,"left_children":[1,3,5,7,9,11,13,15,17,19,21,23,25,27,29,31,33,35,37,39,41,-1,43,45,47,49,51,53,55,-1,-1,57,59,61,63,-1,-1,65,67,69,71,73,75,77,79,81,83,-1,85,87,89,91,93,95,97,-1,99,-1,-1,-1,-1,-1,-1,-1,-1,-1,-1,-1,-1,-1,-1,-1,-1,-1,-1,-1,-1,-1,-1,-1,-1,-1,-1,-1,-1,-1,-1,-1,-1,-1,-1,-1,-1,-1,-1,-1,-1,-1,-1,-1,-1],"loss_changes":[6.4984575E3,5.1452676E3,4.477371E3,7.235578E3,3.368736E3,5.261916E3,1.6502686E3,3.456767E3,3.479336E3,3.264311E3,4.204001E3,4.2608506E3,6.611107E3,8.417334E2,9.399634E1,3.9079365E3,2.0165089E3,6.395426E3,3.9359946E3,5.958508E3,1.942044E3,0E0,1.6136123E3,4.0569214E3,4.2087207E3,5.7982114E3,4.429084E3,5.5853E2,9.8754346E2,0E0,0E0,4.0562725E3,1.2553169E3,4.5200146E3,3.9745938E3,0E0,0E0,1.5363372E3,2.2064346E3,3.3348823E3,6.4194707E3,4.1886904E3,4.1803086E3,1.1045815E3,7.558146E2,3.9907966E3,4.1284077E3,0E0,3.471249E3,4.50988E3,1.2701511E3,1.9269678E3,5.538665E3,3.4165002E2,1.9131006E2,0E0,7.9626746E2,0E0,0E0,0E0,0E0,0E0,0E0,0E0,0E0,0E0,0E0,0E0,0E0,0E0,0E0,0E0,0E0,0E0,0E0,0E0,0E0,0E0,0E0,0E0,0E0,0E0,0E0,0E0,0E0,0E0,0E0,0E0,0E0,0E0,0E0,0E0,0E0,0E0,0E0,0E0,0E0,0E0,0E0,0E0,0E0],"parents":[2147483647,0,0,1,1,2,2,3,3,4,4,5,5,6,6,7,7,8,8,9,9,10,10,11,11,12,12,13,13,14,14,15,15,16,16,17,17,18,18,19,19,20,20,22,22,23,23,24,24,25,25,26,26,27,27,28,28,31,31,32,32,33,33,34,34,37,37,38,38,39,39,40,40,41,41,42,42,43,43,44,44,45,45,46,46,48,48,49,49,50,50,51,51,52,52,53,53,54,54,56,56],"right_children":[2,4,6,8,10,12,14,16,18,20,22,24,26,28,30,32,34,36,38,40,42,-1,44,46,48,50,52,54,56,-1,-1,58,60,62,64,-1,-1,66,68,70,72,74,76,78,80,82,84,-1,86,88,90,92,94,96,98,-1,100,-1,-1,-1,-1,-1,-1,-1,-1,-1,-1,-1,-1,-1,-1,-1,-1,-1,-1,-1,-1,-1,-1,-1,-1,-1,-1,-1,-1,-1,-1,-1,-1,-1,-1,-1,-1,-1,-1,-1,-1,-1,-1,-1,-1],"split_conditions":[1.6746773E1,7.927835E0,3.1550869E1,1.5745627E1,2.9700003E1,1.8558975E2,3.488558E2,1.1928989E1,1.5876775E1,1.5297641E2,3.140594E0,1.5788658E2,3.3359296E2,3.3305153E1,2.49945E1,3.3975906E2,2.7511923E1,4.7E0,1.6055353E1,9.719501E0,1.0215334E1,1.0607605E1,3.72E1,1.5374142E2,1.6766108E1,9.0000004E-1,3.7963333E0,1.0215334E1,3.9151646E1,-6.543092E0,-1.4039326E0,2.4421712E2,5.2153335E0,1.3441071E1,4.4494015E1,1.5427119E1,-6.0400224E0,5.809084E0,4.8549175E0,2.0026937E1,1.1644501E1,3.5911588E2,1.4771336E1,9.3876505E0,1.4917212E1,2.6513E1,1.1796584E1,7.9885187E0,1.692383E1,2.049156E1,2.1635918E1,2.1734581E1,1.7708834E1,1.3623622E1,5.4999996E1,4.096571E0,3.2217484E1,1.9944006E0,7.694059E0,1.3444039E0,-9.779466E0,-2.3669126E0,4.619772E0,-4.454403E0,3.21635E-1,-5.7127156E0,3.079387E0,9.041013E0,3.2679074E0,2.68297E0,-3.603149E0,3.204684E0,-7.485643E-2,2.1377964E0,1.6319218E1,-1.5350127E0,1.1504244E0,2.1477163E0,-6.4693375E0,-2.4001322E0,2.4614234E0,-2.0735651E-1,-1.7763481E0,1.0706519E1,1.440553E0,-7.3553247E0,-1.6142846E0,3.3616607E0,9.4763887E-1,6.177372E-1,-9.464986E-1,-5.0392895E0,-1.3492334E0,8.6412895E-1,-2.60142E0,-2.4631577E0,1.1810074E0,-4.721371E0,-9.798481E-1,1.3912686E0,-1.8194381E0],"split_indices":[2,0,2,2,1,3,3,2,2,3,3,3,3,3,0,3,3,1,2,0,0,0,1,3,2,1,0,0,3,0,0,3,0,2,3,0,0,0,0,3,0,3,0,2,2,0,0,0,2,2,0,2,0,3,1,0,2,0,0,0,0,0,0,0,0,0,0,0,0,0,0,0,0,0,0,0,0,0,0,0,0,0,0,0,0,0,0,0,0,0,0,0,0,0,0,0,0,0,0,0,0],"split_type":[0,0,0,0,0,0,0,0,0,0,0,0,0,0,0,0,0,0,0,0,0,0,0,0,0,0,0,0,0,0,0,0,0,0,0,0,0,0,0,0,0,0,0,0,0,0,0,0,0,0,0,0,0,0,0,0,0,0,0,0,0,0,0,0,0,0,0,0,0,0,0,0,0,0,0,0,0,0,0,0,0,0,0,0,0,0,0,0,0,0,0,0,0,0,0,0,0,0,0,0,0],"sum_hessian":[3.925E3,1.608E3,2.317E3,2.94E2,1.314E3,2.208E3,1.09E2,2.53E2,4.1E1,1.285E3,2.9E1,1.482E3,7.26E2,1.01E2,8E0,8E1,1.73E2,6E0,3.5E1,8.49E2,4.36E2,1E0,2.8E1,1.241E3,2.41E2,4.77E2,2.49E2,2.4E1,7.7E1,7E0,1E0,7.7E1,3E0,3.5E1,1.38E2,5E0,1E0,6E0,2.9E1,6.5E1,7.84E2,4.4E1,3.92E2,1.5E1,1.3E1,1.201E3,4E1,3E0,2.38E2,2.91E2,1.86E2,5.2E1,1.97E2,8E0,1.6E1,2E0,7.5E1,6.4E1,1.3E1,1E0,2E0,1.2E1,2.3E1,1.7E1,1.21E2,4E0,2E0,9E0,2E1,8E0,5.7E1,5.7E1,7.27E2,4.3E1,1E0,6.1E1,3.31E2,1E0,1.4E1,1E1,3E0,1.032E3,1.69E2,4E0,3.6E1,9E0,2.29E2,1.16E2,1.75E2,8.6E1,1E2,2.6E1,2.6E1,1.39E2,5.8E1,5E0,3E0,1.4E1,2E0,7E0,6.8E1],"tree_param":{"num_deleted":"0","num_feature":"5","num_nodes":"101","size_leaf_vector":"1"}},{"base_weights":[5.0918404E-3,1.6594381E0,-5.9320503E-1,1.4829102E0,2.1775774E1,6.128762E-1,-1.5071428E0,-3.1847825E0,1.96351E0,4.195759E1,-2.7611969E0,8.614518E-1,-9.474866E0,-6.1440115E0,-1.1829395E0,8.0045186E-2,-1.9717976E1,1.0471309E1,9.483393E-1,1.4385654E1,2.696885E0,3.8599625E0,-4.386875E0,1.6465015E0,-2.544209E0,1.9380285E0,-1.0247108E1,-1.6759855E1,1.5362581E0,9.6651696E-2,-2.590447E0,6.364713E0,-8.541215E0,-2.3853544E1,6.1540046E0,2.337013E1,8.099755E0,-1.6580505E1,1.115545E0,2.1312551E0,4.1049448E-1,1.2253332E0,9.692456E0,-8.769928E0,-1.5928735E0,-1.1423514E1,-3.8698196E-2,5.2728324E0,-1.7939674E1,9.577293E0,5.3122E-1,-2.0388342E-1,9.108988E0,-2.2728722E0,-1.0199573E1,5.848623E-1,9.583951E0,-6.6210704E0,1.3691962E-1,-8.656018E0,-1.2421738E0,6.477561E0,-3.7082589E0,1.183124E1,1.3144581E0,-4.6485105E0,3.1159718E0,-1.8455559E0,-7.6413584E0,2.6016933E-1,2.9468436E0,2.6400605E-1,-7.928353E-2,4.9590406E0,2.7258375E-1,-5.6918125E0,3.7986262E0,1.2901541E-2,-4.394282E0,2.38161E0,-6.578398E-1,-3.822304E-1,-3.9632845E0,-4.119797E-1,5.9475064E-1,-6.300438E0,-1.1097728E0,-6.1156255E-1,3.112217E0,1.3666709E-1,-1.2181199E0,4.3780513E0,-5.053403E0,-1.0981185E0,-2.4919741E-1,-3.31906E0,2.9277614E-1],"categories":[],"categories_nodes":[],"categories_segments":[],"categories_sizes":[],"default_left":[0,0,0,0,0,0,0,0,0,0,0,0,0,0,0,0,0,0,0,0,0,0,0,0,0,0,0,0,0,0,0,0,0,0,0,0,0,0,0,0,0,0,0,0,0,0,0,0,0,0,0,0,0,0,0,0,0,0,0,0,0,0,0,0,0,0,0,0,0,0,0,0,0,0,0,0,0,0,0,0,0,0,0,0,0,0,0,0,0,0,0,0,0,0,0,0,0],"id":8,"left_children":[1,3,5,7,9,11,13,15,17,19,21,23,25,27,29,31,33,35,37,-1,-1,39,-1,41,43,-1,45,47,49,51,53,55,57,59,61,63,65,67,69,-1,71,73,75,77,79,81,83,-1,85,-1,87,89,91,93,95,-1,-1,-1,-1,-1,-1,-1,-1,-1,-1,-1,-1,-1,-1,-1,-1,-1,-1,-1,-1,-1,-1,-1,-1,-1,-1,-1,-1,-1,-1,-1,-1,-1,-1,-1,-1,-1,-1,-1,-1,-1,-1],"loss_changes":[3.886901E3,3.6715015E3,3.179908E3,2.328061E3,4.5726597E3,3.127575E3,2.459628E3,5.237447E3,8.1000894E3,5.570742E2,4.4913562E2,3.2526294E3,4.353672E2,8.7497295E3,2.7648376E3,4.4972666E3,1.8587202E3,2.8697314E3,2.4804722E3,0E0,0E0,4.184711E1,0E0,3.3361602E3,1.3364169E3,0E0,3.4782568E2,2.1382705E3,1.9071335E3,2.1822185E3,1.7432549E3,5.3592236E3,4.270584E3,1.2603945E3,1.1243842E3,4.4036475E3,4.8012397E3,5.850481E2,1.792541E3,0E0,1.1830399E0,4.5414873E3,4.4113564E3,1.5546174E3,1.1553365E3,4.5484448E2,1.3512214E1,0E0,1.8407588E3,0E0,1.5893601E3,1.9855009E3,3.9467473E3,1.4037363E3,2.9079712E2,0E0,0E0,0E0,0E0,0E0,0E0,0E0,0E0,0E0,0E0,0E0,0E0,0E0,0E0,0E0,0E0,0E0,0E0,0E0,0E0,0E0,0E0,0E0,0E0,0E0,0E0,0E0,0E0,0E0,0E0,0E0,0E0,0E0,0E0,0E0,0E0,0E0,0E0,0E0,0E0,0E0,0E0],"parents":[2147483647,0,0,1,1,2,2,3,3,4,4,5,5,6,6,7,7,8,8,9,9,10,10,11,11,12,12,13,13,14,14,15,15,16,16,17,17,18,18,21,21,23,23,24,24,26,26,27,27,28,28,29,29,30,30,31,31,32,32,33,33,34,34,35,35,36,36,37,37,38,38,40,40,41,41,42,42,43,43,44,44,45,45,46,46,48,48,50,50,51,51,52,52,53,53,54,54],"right_children":[2,4,6,8,10,12,14,16,18,20,22,24,26,28,30,32,34,36,38,-1,-1,40,-1,42,44,-1,46,48,50,52,54,56,58,60,62,64,66,68,70,-1,72,74,76,78,80,82,84,-1,86,-1,88,90,92,94,96,-1,-1,-1,-1,-1,-1,-1,-1,-1,-1,-1,-1,-1,-1,-1,-1,-1,-1,-1,-1,-1,-1,-1,-1,-1,-1,-1,-1,-1,-1,-1,-1,-1,-1,-1,-1,-1,-1,-1,-1,-1,-1],"split_conditions":[1.4869351E1,3.569387E2,1E-1,4.66325E0,9.423418E0,3.097783E1,2E-1,4.3278327E0,7.4775834E0,1.4039999E1,1.2287555E1,2.3979893E1,1.5408671E1,1.8486622E1,2.1111166E1,1.31041975E1,2E-1,2.5646257E1,7.7194996E0,1.4385654E1,2.696885E0,1.5675751E1,-4.386875E0,2.3313995E1,1.6532558E1,1.9380285E0,2.1039983E2,9.196609E0,1.8556595E1,2.0711168E1,4.9199997E1,3.0851315E2,1.3979871E1,1.7013428E2,4.432E0,1E-1,3.5076862E1,2.1039983E2,3.0694504E1,2.1312551E0,2.094242E1,4.0962877E0,9.196609E0,8.836167E0,2.7511923E1,1.4886224E2,3.1240334E1,5.2728324E0,2.6513E1,9.577293E0,2.5925E1,3.278889E2,2.5925E1,3.3E0,2.6690336E1,5.848623E-1,9.583951E0,-6.6210704E0,1.3691962E-1,-8.656018E0,-1.2421738E0,6.477561E0,-3.7082589E0,1.183124E1,1.3144581E0,-4.6485105E0,3.1159718E0,-1.8455559E0,-7.6413584E0,2.6016933E-1,2.9468436E0,2.6400605E-1,-7.928353E-2,4.9590406E0,2.7258375E-1,-5.6918125E0,3.7986262E0,1.2901541E-2,-4.394282E0,2.38161E0,-6.578398E-1,-3.822304E-1,-3.9632845E0,-4.119797E-1,5.9475064E-1,-6.300438E0,-1.1097728E0,-6.1156255E-1,3.112217E0,1.3666709E-1,-1.2181199E0,4.3780513E0,-5.053403E0,-1.0981185E0,-2.4919741E-1,-3.31906E0,2.9277614E-1],"split_indices":[2,3,1,0,0,0,4,0,0,2,2,2,2,2,0,2,1,3,0,0,0,0,0,2,3,0,3,3,2,0,1,3,2,3,0,1,3,3,0,0,0,3,3,0,3,3,0,0,0,0,2,3,2,1,0,0,0,0,0,0,0,0,0,0,0,0,0,0,0,0,0,0,0,0,0,0,0,0,0,0,0,0,0,0,0,0,0,0,0,0,0,0,0,0,0,0,0],"split_type":[0,0,0,0,0,0,0,0,0,0,0,0,0,0,0,0,0,0,0,0,0,0,0,0,0,0,0,0,0,0,0,0,0,0,0,0,0,0,0,0,0,0,0,0,0,0,0,0,0,0,0,0,0,0,0,0,0,0,0,0,0,0,0,0,0,0,0,0,0,0,0,0,0,0,0,0,0,0,0,0,0,0,0,0,0,0,0,0,0,0,0,0,0,0,0,0,0],"sum_hessian":[3.925E3,1.042E3,2.883E3,1.034E3,8E0,1.243E3,1.64E3,9.6E1,9.38E2,4E0,4E0,1.214E3,2.9E1,1.06E2,1.534E3,8.1E1,1.5E1,9.9E1,8.39E2,3E0,1E0,3E0,1E0,9.87E2,2.27E2,1E0,2.8E1,4.4E1,6.2E1,8.04E2,7.3E2,4.7E1,3.4E1,1.3E1,2E0,1.4E1,8.5E1,7E0,8.32E2,1E0,2E0,9.39E2,4.8E1,2.9E1,1.98E2,2.5E1,3E0,1E0,4.3E1,1E0,6.1E1,7.79E2,2.5E1,7.02E2,2.8E1,4.1E1,6E0,1.3E1,2.1E1,1E1,3E0,1E0,1E0,7E0,7E0,7E0,7.8E1,4E0,3E0,8.1E2,2.2E1,1E0,1E0,1.8E1,9.21E2,4E0,4.4E1,1.2E1,1.7E1,1.1E1,1.87E2,4E0,2.1E1,2E0,1E0,3.5E1,8E0,4.9E1,1.2E1,6.66E2,1.13E2,2.1E1,4E0,3.57E2,3.45E2,2.6E1,2E0],"tree_param":{"num_deleted":"0","num_feature":"5","num_nodes":"97","size_leaf_vector":"1"}},{"base_weights":[8.446912E-3,6.217341E-1,-1.2028017E0,1.2041775E1,4.3909156E-1,-6.995398E0,-8.284177E-1,3.3978703E1,8.0511265E0,-1.6728798E-1,3.2921422E0,-1.1335706E1,-1.3069475E-1,5.309112E-1,-2.1518521E0,-2.5460176E0,4.4169132E1,1.300059E1,2.5517222E-1,-3.2024014E-1,1.2151795E1,5.360764E0,-1.5743519E0,-1.6055174E1,-2.3157804E0,7.3031993E0,-2.5738075E0,-7.262693E0,1.0011102E0,-2.2851434E0,1.9246185E1,2.704674E-1,1.6428192E1,5.952519E0,2.4590649E1,-7.7567596E0,1.7830387E1,-1.9005436E-1,-1.2028697E1,2.8473804E1,-1.715932E0,-1.7003048E1,5.701977E0,-2.3125687E1,1.4856635E-1,-1.1597271E0,-1.7556091E1,5.414E0,-1.5236007E1,-7.227737E0,5.009398E0,-1.3242851E1,-8.7905204E-1,3.5570776E0,-2.7615803E-1,-2.01724E0,-2.2728506E1,1.3776474E1,-1.4858414E0,-2.0840304E0,6.5060873E0,9.088268E0,-2.3001585E0,-3.555601E0,-1.4162064E-1,9.588303E0,-5.803814E0,-3.2031338E0,-1.2329854E-2,-7.095153E0,-1.9607024E0,3.715169E0,1.45568695E1,-1.4484065E0,6.277999E0,4.023475E0,-8.387881E0,9.3192685E-1,2.4351065E0,-1.0145353E1,-1.700988E0,3.648984E0,-7.5298876E-1,-3.4048684E0,4.4114666E0,-2.2747288E0,-6.115462E0,-2.2014127E0,3.8121827E0,-2.2535353E0,-5.7453685E0,-3.7903323E0,1.1537453E0,4.650837E0,-3.834572E0,-2.19414E0,-8.158688E0,8.227103E0,-1.2471228E0,4.9371305E-1,5.2839074E0,1.1726955E-1,-6.346275E0,-5.7422714E0,-5.6242305E-1,-2.9360929E0,-8.560809E0],"categories":[],"categories_nodes":[],"categories_segments":[],"categories_sizes":[],"default_left":[0,0,0,0,0,0,0,0,0,0,0,0,0,0,0,0,0,0,0,0,0,0,0,0,0,0,0,0,0,0,0,0,0,0,0,0,0,0,0,0,0,0,0,0,0,0,0,0,0,0,0,0,0,0,0,0,0,0,0,0,0,0,0,0,0,0,0,0,0,0,0,0,0,0,0,0,0,0,0,0,0,0,0,0,0,0,0,0,0,0,0,0,0,0,0,0,0,0,0,0,0,0,0,0,0,0,0],"id":9,"left_children":[1,3,5,7,9,11,13,15,17,19,21,23,25,27,29,-1,31,33,35,37,39,41,43,45,47,-1,49,51,53,55,57,-1,-1,59,61,63,65,67,69,71,73,75,77,79,81,83,85,87,89,91,93,95,97,99,101,103,105,-1,-1,-1,-1,-1,-1,-1,-1,-1,-1,-1,-1,-1,-1,-1,-1,-1,-1,-1,-1,-1,-1,-1,-1,-1,-1,-1,-1,-1,-1,-1,-1,-1,-1,-1,-1,-1,-1,-1,-1,-1,-1,-1,-1,-1,-1,-1,-1,-1,-1],"loss_changes":[2.9171504E3,5.4323545E3,2.8568296E3,3.3156777E3,4.4415415E3,2.3821123E3,2.2336797E3,2.9712964E3,1.3857712E3,3.9946917E3,4.538561E3,2.048713E3,1.9760784E3,2.253637E3,1.8379956E3,0E0,2.2419746E3,1.6507505E3,2.2504773E3,3.1880205E3,5.9339375E3,2.508288E3,5.016146E3,6.950586E2,1.8801569E3,0E0,1.0949578E3,1.3244902E3,1.8912183E3,3.3826536E3,2.8095107E3,0E0,0E0,3.1950996E3,1.7041523E3,3.2256335E2,3.2449492E3,3.2346663E3,1.3137224E3,3.2701533E3,1.1580211E3,2.0411804E3,1.9305186E3,1.674648E3,4.0551533E3,8.1352515E2,6.636201E2,1.2092964E3,6.783435E1,1.1861467E3,2.4384482E3,1.2901777E3,1.7839885E3,5.156167E3,5.397967E3,1.4745181E3,3.2198438E2,0E0,0E0,0E0,0E0,0E0,0E0,0E0,0E0,0E0,0E0,0E0,0E0,0E0,0E0,0E0,0E0,0E0,0E0,0E0,0E0,0E0,0E0,0E0,0E0,0E0,0E0,0E0,0E0,0E0,0E0,0E0,0E0,0E0,0E0,0E0,0E0,0E0,0E0,0E0,0E0,0E0,0E0,0E0,0E0,0E0,0E0,0E0,0E0,0E0,0E0],"parents":[2147483647,0,0,1,1,2,2,3,3,4,4,5,5,6,6,7,7,8,8,9,9,10,10,11,11,12,12,13,13,14,14,16,16,17,17,18,18,19,19,20,20,21,21,22,22,23,23,24,24,26,26,27,27,28,28,29,29,30,30,33,33,34,34,35,35,36,36,37,37,38,38,39,39,40,40,41,41,42,42,43,43,44,44,45,45,46,46,47,47,48,48,49,49,50,50,51,51,52,52,53,53,54,54,55,55,56,56],"right_children":[2,4,6,8,10,12,14,16,18,20,22,24,26,28,30,-1,32,34,36,38,40,42,44,46,48,-1,50,52,54,56,58,-1,-1,60,62,64,66,68,70,72,74,76,78,80,82,84,86,88,90,92,94,96,98,100,102,104,106,-1,-1,-1,-1,-1,-1,-1,-1,-1,-1,-1,-1,-1,-1,-1,-1,-1,-1,-1,-1,-1,-1,-1,-1,-1,-1,-1,-1,-1,-1,-1,-1,-1,-1,-1,-1,-1,-1,-1,-1,-1,-1,-1,-1,-1,-1,-1,-1,-1,-1],"split_conditions":[2.0240196E1,4.7061553E0,9.196609E0,4.3278327E0,2.3450209E2,2.5364037E1,4E-1,1.2676196E0,1.0000001E0,2.012461E1,3.3975906E2,3E-1,2.5509243E1,8.257498E-1,3.5911588E2,-2.5460176E0,8.257498E-1,3.140594E0,1.2E1,2.2703088E2,1.6821585E1,8.225035E0,3.413884E2,2.03774E1,2.3166216E1,7.3031993E0,1.5225749E1,2.520257E1,1.0509084E1,3.569387E2,2.2314192E1,2.704674E-1,1.6428192E1,1.731746E1,2.2175749E1,4.9999995E0,1.8709612E1,3.0799167E0,1E-1,5.9654697E1,1.7615157E2,9.892419E0,1.5408671E1,4E-1,3.4548965E2,2.0291357E1,5.361166E0,2.0907913E1,1.8000001E0,1.0000001E0,7.105409E0,7.7833354E-2,2.6141552E1,9.115333E0,3.5423154E2,1.1945E0,2.2401142E1,1.3776474E1,-1.4858414E0,-2.0840304E0,6.5060873E0,9.088268E0,-2.3001585E0,-3.555601E0,-1.4162064E-1,9.588303E0,-5.803814E0,-3.2031338E0,-1.2329854E-2,-7.095153E0,-1.9607024E0,3.715169E0,1.45568695E1,-1.4484065E0,6.277999E0,4.023475E0,-8.387881E0,9.3192685E-1,2.4351065E0,-1.0145353E1,-1.700988E0,3.648984E0,-7.5298876E-1,-3.4048684E0,4.4114666E0,-2.2747288E0,-6.115462E0,-2.2014127E0,3.8121827E0,-2.2535353E0,-5.7453685E0,-3.7903323E0,1.1537453E0,4.650837E0,-3.834572E0,-2.19414E0,-8.158688E0,8.227103E0,-1.2471228E0,4.9371305E-1,5.2839074E0,1.1726955E-1,-6.346275E0,-5.7422714E0,-5.6242305E-1,-2.9360929E0,-8.560809E0],"split_indices":[2,3,3,0,3,2,1,3,1,2,3,1,2,0,3,0,0,3,1,3,0,2,3,2,2,0,0,2,0,3,2,0,0,2,0,1,2,0,1,3,3,0,2,1,3,2,0,2,1,1,3,0,2,0,3,0,2,0,0,0,0,0,0,0,0,0,0,0,0,0,0,0,0,0,0,0,0,0,0,0,0,0,0,0,0,0,0,0,0,0,0,0,0,0,0,0,0,0,0,0,0,0,0,0,0,0,0],"split_type":[0,0,0,0,0,0,0,0,0,0,0,0,0,0,0,0,0,0,0,0,0,0,0,0,0,0,0,0,0,0,0,0,0,0,0,0,0,0,0,0,0,0,0,0,0,0,0,0,0,0,0,0,0,0,0,0,0,0,0,0,0,0,0,0,0,0,0,0,0,0,0,0,0,0,0,0,0,0,0,0,0,0,0,0,0,0,0,0,0,0,0,0,0,0,0,0,0,0,0,0,0,0,0,0,0,0,0],"sum_hessian":[3.925E3,2.606E3,1.319E3,4E1,2.566E3,7.9E1,1.24E3,5E0,3.5E1,2.117E3,4.49E2,4.8E1,3.1E1,6.12E2,6.28E2,1E0,4E0,2.1E1,1.4E1,2.092E3,2.5E1,3.15E2,1.34E2,3.1E1,1.7E1,2E0,2.9E1,3.4E1,5.78E2,6.25E2,3E0,1E0,3E0,1.4E1,7E0,1E1,4E0,2.07E3,2.2E1,1.1E1,1.4E1,4E0,3.11E2,9E0,1.25E2,3E0,2.8E1,1.1E1,6E0,1.8E1,1.1E1,1.7E1,1.7E1,1.92E2,3.86E2,6.18E2,7E0,1E0,2E0,8E0,6E0,6E0,1E0,6E0,4E0,3E0,1E0,2.8E1,2.042E3,6E0,1.6E1,7E0,4E0,1.3E1,1E0,1E0,3E0,1.51E2,1.6E2,5E0,4E0,2.2E1,1.03E2,2E0,1E0,7E0,2.1E1,4E0,7E0,3E0,3E0,1.2E1,6E0,7E0,4E0,1.3E1,4E0,1E0,1.6E1,1.7E2,2.2E1,3.75E2,1.1E1,4E0,6.14E2,3E0,4E0],"tree_param":{"num_deleted":"0","num_feature":"5","num_nodes":"107","size_leaf_vector":"1"}},{"base_weights":[8.130544E-3,2.9057574E0,-1.8635912E-1,1.1631857E1,2.454708E0,1.265758E-1,-2.609118E0,3.6443384E0,-1.1110849E1,-1.0538293E-1,5.1466365E0,-7.389678E0,-9.9725556E-1,2.1756332E0,1.7878098E1,-2.0813236E1,2.2158962E1,2.9344246E-1,-2.55194E0,1.2271075E1,1.6772975E0,-4.4467134E0,-1.9822092E1,4.2709284E0,-2.831272E0,3.3328254E0,-1.5260593E1,3.0488796E1,9.394977E0,-2.5874779E1,2.9235115E0,8.286832E0,4.5557786E-2,-1.2876327E-1,2.9727774E0,-4.4615383E0,-1.8115065E-1,1.6926104E0,2.9220123E1,-1.0150278E1,4.46538E0,-1.0205718E0,-1.0022201E1,-2.152422E0,-2.2813656E1,3.9814088E-1,1.3084958E1,-8.014349E0,-2.1959214E0,-4.129535E0,1.1855171E0,6.8205816E-1,-6.224455E0,1.2917355E1,4.3007402E0,4.3623486E-1,8.66508E0,-1.1412362E1,-4.466656E0,9.001241E-2,-9.0382797E-1,1.2447367E0,-2.0066254E0,-2.135565E0,-3.6252317E-1,-3.2845303E-1,4.176013E0,-1.0670283E0,4.971893E0,-1.4739974E0,1.0912311E1,4.1234168E-1,-7.8505855E0,5.187933E0,1.3868384E-1,-1.07107E0,3.722317E0,-3.8359964E0,6.56537E0,-3.4045708E0,3.8154032E0,-7.5624385E0,-9.710217E-1,5.308379E-1,-4.3475184E0,-3.8391182E0,5.5872755E0,-5.316292E0,-4.669908E-1],"categories":[],"categories_nodes":[],"categories_segments":[],"categories_sizes":[],"default_left":[0,0,0,0,0,0,0,0,0,0,0,0,0,0,0,0,0,0,0,0,0,0,0,0,0,0,0,0,0,0,0,0,0,0,0,0,0,0,0,0,0,0,0,0,0,0,0,0,0,0,0,0,0,0,0,0,0,0,0,0,0,0,0,0,0,0,0,0,0,0,0,0,0,0,0,0,0,0,0,0,0,0,0,0,0,0,0,0,0],"id":10,"left_children":[1,3,5,-1,7,9,11,13,15,17,19,21,23,25,27,29,31,33,35,37,39,41,43,45,47,49,51,53,55,57,-1,-1,-1,59,61,63,65,67,69,71,73,75,77,79,81,83,85,-1,87,-1,-1,-1,-1,-1,-1,-1,-1,-1,-1,-1,-1,-1,-1,-1,-1,-1,-1,-1,-1,-1,-1,-1,-1,-1,-1,-1,-1,-1,-1,-1,-1,-1,-1,-1,-1,-1,-1,-1,-1],"loss_changes":[2.213072E3,3.9007468E3,2.7903806E3,0E0,3.9943013E3,3.796639E3,3.2366904E3,4.685678E3,6.917132E3,3.042159E3,3.5386792E3,3.7902017E3,3.065264E3,4.207337E3,1.9600991E3,2.7269033E3,5.970183E2,3.033212E3,1.977602E3,8.377402E3,3.2769985E3,1.6516808E3,1.00809326E3,2.793849E3,3.5072778E3,2.1072803E3,1.298032E3,1.0069531E3,2.1245903E3,1.3048418E3,0E0,0E0,0E0,2.8662708E3,4.1760825E3,2.0831484E3,2.540535E3,2.402323E3,4.5743E3,3.5435078E3,4.1000615E3,1.9273666E3,3.190589E3,6.913339E2,7.153076E2,1.2099303E3,3.822537E3,0E0,2.255151E3,0E0,0E0,0E0,0E0,0E0,0E0,0E0,0E0,0E0,0E0,0E0,0E0,0E0,0E0,0E0,0E0,0E0,0E0,0E0,0E0,0E0,0E0,0E0,0E0,0E0,0E0,0E0,0E0,0E0,0E0,0E0,0E0,0E0,0E0,0E0,0E0,0E0,0E0,0E0,0E0],"parents":[2147483647,0,0,1,1,2,2,4,4,5,5,6,6,7,7,8,8,9,9,10,10,11,11,12,12,13,13,14,14,15,15,16,16,17,17,18,18,19,19,20,20,21,21,22,22,23,23,24,24,25,25,26,26,27,27,28,28,29,29,33,33,34,34,35,35,36,36,37,37,38,38,39,39,40,40,41,41,42,42,43,43,44,44,45,45,46,46,48,48],"right_children":[2,4,6,-1,8,10,12,14,16,18,20,22,24,26,28,30,32,34,36,38,40,42,44,46,48,50,52,54,56,58,-1,-1,-1,60,62,64,66,68,70,72,74,76,78,80,82,84,86,-1,88,-1,-1,-1,-1,-1,-1,-1,-1,-1,-1,-1,-1,-1,-1,-1,-1,-1,-1,-1,-1,-1,-1,-1,-1,-1,-1,-1,-1,-1,-1,-1,-1,-1,-1,-1,-1,-1,-1,-1,-1],"split_conditions":[1.1159999E1,8.257498E-1,1.0700002E1,1.1631857E1,3.203744E2,7.9E0,5.868406E1,2.4835446E2,2.4133833E1,2.7365335E1,8.107252E1,4.707592E1,1.0375795E2,2.063924E2,2.8810922E2,9E0,2.6002832E1,2.3646334E1,2.9500753E1,5.1847176E1,1.1861035E2,2.2299997E1,8.077834E0,9.3505E1,1.0690242E2,3.0799167E0,8.78872E0,1E-1,8.599999E0,1.0041354E1,2.9235115E0,8.286832E0,4.5557786E-2,2.1111166E1,2.8124344E2,1.4957426E2,4E0,1.01E1,1.4039999E1,9.500001E0,1.6694252E1,2.0199999E1,4.536027E1,1.9164719E1,2.5475752E1,8.832897E1,1.4799459E1,-8.014349E0,1.2074766E1,-4.129535E0,1.1855171E0,6.8205816E-1,-6.224455E0,1.2917355E1,4.3007402E0,4.3623486E-1,8.66508E0,-1.1412362E1,-4.466656E0,9.001241E-2,-9.0382797E-1,1.2447367E0,-2.0066254E0,-2.135565E0,-3.6252317E-1,-3.2845303E-1,4.176013E0,-1.0670283E0,4.971893E0,-1.4739974E0,1.0912311E1,4.1234168E-1,-7.8505855E0,5.187933E0,1.3868384E-1,-1.07107E0,3.722317E0,-3.8359964E0,6.56537E0,-3.4045708E0,3.8154032E0,-7.5624385E0,-9.710217E-1,5.308379E-1,-4.3475184E0,-3.8391182E0,5.5872755E0,-5.316292E0,-4.669908E-1],"split_indices":[2,0,1,0,3,4,3,3,0,0,3,3,3,3,3,1,0,0,0,3,3,1,0,3,3,0,2,1,1,2,0,0,0,0,3,3,1,1,2,1,0,1,3,2,0,3,2,0,2,0,0,0,0,0,0,0,0,0,0,0,0,0,0,0,0,0,0,0,0,0,0,0,0,0,0,0,0,0,0,0,0,0,0,0,0,0,0,0,0],"split_type":[0,0,0,0,0,0,0,0,0,0,0,0,0,0,0,0,0,0,0,0,0,0,0,0,0,0,0,0,0,0,0,0,0,0,0,0,0,0,0,0,0,0,0,0,0,0,0,0,0,0,0,0,0,0,0,0,0,0,0,0,0,0,0,0,0,0,0,0,0,0,0,0,0,0,0,0,0,0,0,0,0,0,0,0,0,0,0,0,0],"sum_hessian":[3.925E3,2.46E2,3.679E3,2E0,2.44E2,3.259E3,4.2E2,2.25E2,1.9E1,3.116E3,1.43E2,1.05E2,3.15E2,2.05E2,2E1,1.5E1,4E0,2.68E3,4.36E2,4.6E1,9.7E1,8.6E1,1.9E1,8.1E1,2.34E2,1.93E2,1.2E1,7E0,1.3E1,1.3E1,2E0,3E0,1E0,2.316E3,3.64E2,2.41E2,1.95E2,2.9E1,1.7E1,1.8E1,7.9E1,5.4E1,3.2E1,3E0,1.6E1,5.7E1,2.4E1,5E0,2.29E2,6E0,1.87E2,3E0,9E0,3E0,4E0,1E1,3E0,5E0,8E0,2.017E3,2.99E2,3.25E2,3.9E1,1.32E2,1.09E2,1.84E2,1.1E1,2.2E1,7E0,3E0,1.4E1,1.1E1,7E0,1.8E1,6.1E1,4.6E1,8E0,3E1,2E0,2E0,1E0,1.4E1,2E0,5.3E1,4E0,4E0,2E1,8E0,2.21E2],"tree_param":{"num_deleted":"0","num_feature":"5","num_nodes":"89","size_leaf_vector":"1"}},{"base_weights":[1.0083045E-2,-4.731416E-1,1.0163506E0,3.3338967E-1,-1.603317E0,1.7532576E0,-1.5239993E0,9.501121E0,2.7240425E-1,-8.058651E0,-8.9596015E-1,2.010914E0,-6.836522E0,1.9060533E0,-4.336549E0,2.249201E0,-5.203499E-1,-2.0711884E1,-5.328211E0,-6.875795E-1,-1.0099758E1,1.7882017E0,1.1425284E1,-9.136201E0,6.029176E0,-6.1175494E0,3.334576E0,-1.9930834E0,-8.688983E0,4.158039E0,-1.3599691E0,-1.4656574E1,-1.7955157E-1,5.8825016E0,-2.4041248E1,1.4956186E0,-1.0953664E1,-9.786109E-1,7.164967E0,-1.7029408E1,-1.6219798E0,1.9714216E0,-6.729325E0,-5.3176794E0,1.6960981E1,-4.2311335E0,-1.7386194E1,5.3151965E0,-7.6686935E0,3.4530282E0,-7.6511145E0,7.7599916E0,6.3168967E-1,-5.278226E0,1.6604351E0,-3.1810717E1,-6.251774E0,7.466365E-1,4.8745837E0,-2.7813747E0,2.1279201E-1,-5.453503E0,3.3713914E-2,-1.5063962E0,6.384338E-2,-3.534521E0,-9.801206E0,-9.7723E-2,1.1425718E1,-4.7411532E0,-8.664604E-1,-2.52073E-1,-5.1084003E0,-4.9332347E0,2.728238E0,1.6105558E0,-5.8660893E0,1.3990437E0,-2.2911327E0,1.3376898E0,4.0304315E-1,1.7765002E0,-2.793056E0,5.97917E0,-5.473732E0,3.3158267E0,-2.4887207E0,3.1799836E0,-6.662837E0,-3.200798E-1,-3.1308324E0,-8.469357E-1,-2.8986773E0,8.1986624E-1,3.538199E0,7.228895E-1,-5.620389E0,1.2038381E0,-3.087986E0,1.6494529E0,-2.0515203E0,-1.0542352E1,-2.773335E0,1.9046737E0,-2.8439891E0],"categories":[],"categories_nodes":[],"categories_segments":[],"categories_sizes":[],"default_left":[0,0,0,0,0,0,0,0,0,0,0,0,0,0,0,0,0,0,0,0,0,0,0,0,0,0,0,0,0,0,0,0,0,0,0,0,0,0,0,0,0,0,0,0,0,0,0,0,0,0,0,0,0,0,0,0,0,0,0,0,0,0,0,0,0,0,0,0,0,0,0,0,0,0,0,0,0,0,0,0,0,0,0,0,0,0,0,0,0,0,0,0,0,0,0,0,0,0,0,0,0,0,0,0,0],"id":11,"left_children":[1,3,5,7,9,11,13,-1,15,17,19,21,23,25,27,29,31,33,35,37,39,41,43,45,47,49,51,53,55,57,59,61,63,-1,65,67,69,71,73,75,77,79,81,-1,83,85,87,-1,89,-1,91,93,95,97,99,101,103,-1,-1,-1,-1,-1,-1,-1,-1,-1,-1,-1,-1,-1,-1,-1,-1,-1,-1,-1,-1,-1,-1,-1,-1,-1,-1,-1,-1,-1,-1,-1,-1,-1,-1,-1,-1,-1,-1,-1,-1,-1,-1,-1,-1,-1,-1,-1,-1],"loss_changes":[1.9095112E3,2.4188018E3,2.387602E3,2.9516672E3,5.0384585E3,2.2004023E3,2.7770103E3,0E0,2.4254956E3,3.6554717E3,1.9051952E3,1.9923994E3,9.1310596E2,1.510446E3,1.5942473E3,3.0576243E3,5.3208184E3,3.0219824E3,3.5096116E3,2.237501E3,1.2648354E3,1.4786509E3,3.850793E3,9.381062E2,9.3638214E2,6.287278E2,1.3228127E3,1.2570061E3,2.9005132E3,5.8123975E3,2.5276519E3,1.3543765E3,2.052777E3,0E0,1.5193516E3,2.811447E3,1.9103022E3,2.0776064E3,1.7436443E3,7.8342236E2,4.5150174E2,1.4310862E3,7.0814087E2,0E0,2.3500884E3,1.1477804E3,1.4502788E3,0E0,4.3674805E1,0E0,1.5720825E2,8.1950146E2,2.455397E3,2.6040312E3,1.668415E3,5.0918945E1,2.134735E3,0E0,0E0,0E0,0E0,0E0,0E0,0E0,0E0,0E0,0E0,0E0,0E0,0E0,0E0,0E0,0E0,0E0,0E0,0E0,0E0,0E0,0E0,0E0,0E0,0E0,0E0,0E0,0E0,0E0,0E0,0E0,0E0,0E0,0E0,0E0,0E0,0E0,0E0,0E0,0E0,0E0,0E0,0E0,0E0,0E0,0E0,0E0,0E0],"parents":[2147483647,0,0,1,1,2,2,3,3,4,4,5,5,6,6,8,8,9,9,10,10,11,11,12,12,13,13,14,14,15,15,16,16,17,17,18,18,19,19,20,20,21,21,22,22,23,23,24,24,25,25,26,26,27,27,28,28,29,29,30,30,31,31,32,32,34,34,35,35,36,36,37,37,38,38,39,39,40,40,41,41,42,42,44,44,45,45,46,46,48,48,50,50,51,51,52,52,53,53,54,54,55,55,56,56],"right_children":[2,4,6,8,10,12,14,-1,16,18,20,22,24,26,28,30,32,34,36,38,40,42,44,46,48,50,52,54,56,58,60,62,64,-1,66,68,70,72,74,76,78,80,82,-1,84,86,88,-1,90,-1,92,94,96,98,100,102,104,-1,-1,-1,-1,-1,-1,-1,-1,-1,-1,-1,-1,-1,-1,-1,-1,-1,-1,-1,-1,-1,-1,-1,-1,-1,-1,-1,-1,-1,-1,-1,-1,-1,-1,-1,-1,-1,-1,-1,-1,-1,-1,-1,-1,-1,-1,-1,-1],"split_conditions":[1.7740955E2,1.0375795E2,2.3979893E1,8.225035E0,1.1177225E2,3.1583838E1,3.123702E2,9.501121E0,1.4973577E1,1.1292167E1,3.4199997E1,2.3683512E1,1.5000001E0,2.063924E2,4E-1,2.0842415E1,1.5158522E1,9.565437E0,4E-1,1.8500002E1,2.290743E1,2.7E1,2.5049164E0,4E-1,1.9E0,1.2444501E1,2.7828082E2,3.3831866E2,6E-1,1.8773666E1,2.2175749E1,2.2948416E1,5.127833E0,5.8825016E0,1.5072783E1,3E-1,2.5142168E1,1.7199999E1,1.2671336E1,9.3876505E0,2.487575E1,2.0348875E2,1.3276144E1,-5.3176794E0,3.54736E2,1.5408671E1,1.7830229E2,5.3151965E0,3.2004917E1,3.4530282E0,2.3999999E0,2.4835446E2,7.5E0,2.6820002E0,3.5423154E2,1.2569248E1,1.5000001E0,7.466365E-1,4.8745837E0,-2.7813747E0,2.1279201E-1,-5.453503E0,3.3713914E-2,-1.5063962E0,6.384338E-2,-3.534521E0,-9.801206E0,-9.7723E-2,1.1425718E1,-4.7411532E0,-8.664604E-1,-2.52073E-1,-5.1084003E0,-4.9332347E0,2.728238E0,1.6105558E0,-5.8660893E0,1.3990437E0,-2.2911327E0,1.3376898E0,4.0304315E-1,1.7765002E0,-2.793056E0,5.97917E0,-5.473732E0,3.3158267E0,-2.4887207E0,3.1799836E0,-6.662837E0,-3.200798E-1,-3.1308324E0,-8.469357E-1,-2.8986773E0,8.1986624E-1,3.538199E0,7.228895E-1,-5.620389E0,1.2038381E0,-3.087986E0,1.6494529E0,-2.0515203E0,-1.0542352E1,-2.773335E0,1.9046737E0,-2.8439891E0],"split_indices":[3,3,2,2,3,0,3,0,2,0,1,2,1,3,4,0,2,2,1,1,2,1,0,1,1,0,3,3,1,0,0,0,0,0,2,1,0,1,0,2,0,3,2,0,3,2,3,0,0,0,1,3,1,0,3,0,1,0,0,0,0,0,0,0,0,0,0,0,0,0,0,0,0,0,0,0,0,0,0,0,0,0,0,0,0,0,0,0,0,0,0,0,0,0,0,0,0,0,0,0,0,0,0,0,0],"split_type":[0,0,0,0,0,0,0,0,0,0,0,0,0,0,0,0,0,0,0,0,0,0,0,0,0,0,0,0,0,0,0,0,0,0,0,0,0,0,0,0,0,0,0,0,0,0,0,0,0,0,0,0,0,0,0,0,0,0,0,0,0,0,0,0,0,0,0,0,0,0,0,0,0,0,0,0,0,0,0,0,0,0,0,0,0,0,0,0,0,0,0,0,0,0,0,0,0,0,0,0,0,0,0,0,0],"sum_hessian":[3.925E3,2.652E3,1.273E3,1.548E3,1.104E3,9.87E2,2.86E2,2E0,1.546E3,1.08E2,9.96E2,9.59E2,2.8E1,1.29E2,1.57E2,4.42E2,1.104E3,1.8E1,9E1,9.75E2,2.1E1,9.38E2,2.1E1,2.4E1,4E0,1.9E1,1.1E2,1.03E2,5.4E1,2.89E2,1.53E2,2.5E1,1.079E3,1E0,1.7E1,4.1E1,4.9E1,9.41E2,3.4E1,1.1E1,1E1,9.19E2,1.9E1,3E0,1.8E1,1.6E1,8E0,2E0,2E0,1E0,1.8E1,4.1E1,6.9E1,5.4E1,4.9E1,4E0,5E1,2.55E2,3.4E1,3.1E1,1.22E2,2E1,5E0,8E1,9.99E2,8E0,9E0,4E1,1E0,3E1,1.9E1,9.34E2,7E0,2E0,3.2E1,1E0,1E1,5E0,5E0,1.84E2,7.35E2,3E0,1.6E1,1.7E1,1E0,3E0,1.3E1,1E0,7E0,1E0,1E0,6E0,1.2E1,1.9E1,2.2E1,6.4E1,5E0,1.9E1,3.5E1,3.4E1,1.5E1,3E0,1E0,1E1,4E1],"tree_param":{"num_deleted":"0","num_feature":"5","num_nodes":"105","size_leaf_vector":"1"}},{"base_weights":[-8.398606E-4,-7.102151E0,5.750232E-2,-1.1260897E1,-2.7702637E0,1.1911135E1,8.606539E-3,-1.2444726E1,9.744828E-1,1.3882939E1,-5.91622E0,1.6304247E1,1.966835E0,1.3847944E0,-2.894983E-1,-7.903515E0,-1.54303465E1,-2.404992E0,8.652315E0,-3.6008155E0,-3.3943691E0,1.051714E1,-5.760536E0,2.0967546E0,-5.7454863E0,-7.0234065E0,-1.2067903E-1,-3.134561E0,-3.5666487E0,-6.9310343E-1,-1.6974583E1,6.545448E-2,-8.251213E0,-1.0349098E0,4.025969E0,-1.0036718E1,3.6259108E0,6.348608E-1,6.072117E0,-2.004874E1,-4.1667795E0,3.4514523E0,-1.656051E1,7.801639E0,-2.0029992E-1,-2.1869385E0,6.196579E-1,-5.5662937E0,-1.1244324E0,9.521962E-1,-3.2541413E0,-3.5230556E0,-6.025513E-1,-4.0408387E0,1.583962E0,5.349386E-1,-1.1783987E0,4.391965E0,3.2920834E-1,-6.717506E0,-1.2501023E0,-3.07408E0,-1.316812E-1,-5.014205E-1,1.1278971E1,-6.246688E0,1.0866383E0,1.4091454E-1,5.811413E0,-2.077811E0,-2.8844347E-2],"categories":[],"categories_nodes":[],"categories_segments":[],"categories_sizes":[],"default_left":[0,0,0,0,0,0,0,0,0,0,0,0,0,0,0,0,0,0,0,0,0,0,0,0,0,0,0,0,0,0,0,0,0,0,0,0,0,0,0,0,0,0,0,0,0,0,0,0,0,0,0,0,0,0,0,0,0,0,0,0,0,0,0,0,0,0,0,0,0,0,0],"id":12,"left_children":[1,3,5,7,9,11,13,15,-1,17,19,-1,21,23,25,27,29,-1,-1,-1,31,33,35,37,39,41,43,45,-1,-1,47,49,51,-1,-1,53,-1,55,57,59,61,63,65,67,69,-1,-1,-1,-1,-1,-1,-1,-1,-1,-1,-1,-1,-1,-1,-1,-1,-1,-1,-1,-1,-1,-1,-1,-1,-1,-1],"loss_changes":[1.6269735E3,5.4529126E2,2.2574106E3,3.1524585E2,9.727688E2,6.6451045E3,1.5921642E3,8.142139E1,0E0,1.2139373E3,1.8949695E2,0E0,9.855837E2,3.519891E3,3.625587E3,1.1477997E2,1.2286597E2,0E0,0E0,0E0,2.0218596E2,3.3009094E2,7.3184033E2,3.6516145E3,1.339042E3,7.849343E3,1.9651868E3,1.2309515E2,0E0,0E0,7.6716064E1,3.0580588E2,8.542029E1,0E0,0E0,4.3916266E2,0E0,2.4223584E3,7.1871436E3,1.2995386E2,1.3101218E3,6.7098154E3,3.6019941E3,2.6205825E3,2.1589739E3,0E0,0E0,0E0,0E0,0E0,0E0,0E0,0E0,0E0,0E0,0E0,0E0,0E0,0E0,0E0,0E0,0E0,0E0,0E0,0E0,0E0,0E0,0E0,0E0,0E0,0E0],"parents":[2147483647,0,0,1,1,2,2,3,3,4,4,5,5,6,6,7,7,9,9,10,10,12,12,13,13,14,14,15,15,16,16,20,20,21,21,22,22,23,23,24,24,25,25,26,26,27,27,30,30,31,31,32,32,35,35,37,37,38,38,39,39,40,40,41,41,42,42,43,43,44,44],"right_children":[2,4,6,8,10,12,14,16,-1,18,20,-1,22,24,26,28,30,-1,-1,-1,32,34,36,38,40,42,44,46,-1,-1,48,50,52,-1,-1,54,-1,56,58,60,62,64,66,68,70,-1,-1,-1,-1,-1,-1,-1,-1,-1,-1,-1,-1,-1,-1,-1,-1,-1,-1,-1,-1,-1,-1,-1,-1,-1,-1],"split_conditions":[-5.138333E-1,3.0851315E2,7.7833354E-2,3.7490158E1,1.933639E1,1.2964998E1,7.927835E0,-1.8075833E0,9.744828E-1,1.3202726E1,3.1457938E2,1.6304247E1,1.6981165E1,5.7000003E0,8.386167E0,2.1602999E1,1.2795653E1,-2.404992E0,8.652315E0,-3.6008155E0,3.2356625E2,1.4440443E1,2.6717722E1,6.2653327E0,6.2E0,1.757744E1,8.604917E0,1.8374111E1,-3.5666487E0,-6.9310343E-1,2.2007162E1,1E-1,-1.8075833E0,-1.0349098E0,4.025969E0,3.2930472E2,3.6259108E0,2E-1,5.2448193E1,1.913426E1,3.2227406E1,1.7114204E1,3.2584418E2,1.7731598E1,8.938251E0,-2.1869385E0,6.196579E-1,-5.5662937E0,-1.1244324E0,9.521962E-1,-3.2541413E0,-3.5230556E0,-6.025513E-1,-4.0408387E0,1.583962E0,5.349386E-1,-1.1783987E0,4.391965E0,3.2920834E-1,-6.717506E0,-1.2501023E0,-3.07408E0,-1.316812E-1,-5.014205E-1,1.1278971E1,-6.246688E0,1.0866383E0,1.4091454E-1,5.811413E0,-2.077811E0,-2.8844347E-2],"split_indices":[0,3,0,2,2,2,0,0,0,2,3,0,2,1,0,2,3,0,0,0,3,2,2,0,1,2,0,2,0,0,2,1,0,0,0,3,0,1,3,2,3,2,3,2,0,0,0,0,0,0,0,0,0,0,0,0,0,0,0,0,0,0,0,0,0,0,0,0,0,0,0],"split_type":[0,0,0,0,0,0,0,0,0,0,0,0,0,0,0,0,0,0,0,0,0,0,0,0,0,0,0,0,0,0,0,0,0,0,0,0,0,0,0,0,0,0,0,0,0,0,0,0,0,0,0,0,0,0,0,0,0,0,0,0,0,0,0,0,0,0,0,0,0,0,0],"sum_hessian":[3.925E3,3.1E1,3.894E3,1.5E1,1.6E1,1.5E1,3.879E3,1.4E1,1E0,2E0,1.4E1,2E0,1.3E1,6.9E2,3.189E3,7E0,7E0,1E0,1E0,3E0,1.1E1,6E0,7E0,6.28E2,6.2E1,7.7E1,3.112E3,4E0,3E0,1E0,6E0,7E0,4E0,1E0,5E0,6E0,1E0,4.6E2,1.68E2,5E0,5.7E1,3.7E1,4E1,3E1,3.082E3,2E0,2E0,5E0,1E0,6E0,1E0,2E0,2E0,5E0,1E0,3.68E2,9.2E1,6.1E1,1.07E2,4E0,1E0,2.1E1,3.6E1,3.3E1,4E0,3.3E1,7E0,1.9E1,1.1E1,4.6E1,3.036E3],"tree_param":{"num_deleted":"0","num_feature":"5","num_nodes":"71","size_leaf_vector":"1"}},{"base_weights":[1.3258959E-3,9.8464794E-2,-3.369406E0,-2.059151E-1,1.6298257E0,-1.9154452E0,-7.559025E0,-9.285958E-2,-7.9187064E0,4.317625E0,-6.844117E-1,-2.867091E0,6.2277637E0,-8.382809E0,2.2024693E0,-3.1710632E0,8.221084E-2,-1.4268797E1,-2.9216504E0,-3.7547562E0,5.875172E0,6.218787E0,-1.8091366E0,-6.347786E0,-9.997879E-1,1.0687969E1,-2.0194855E0,-1.5625166E0,-9.861852E0,-6.139124E-1,-9.244804E0,1.02274475E1,-1.775318E-2,-7.6506243E0,-6.9719186E0,8.344542E0,-6.493199E0,2.9407522E-1,-1.7400288E1,1.1233491E1,2.4875705E0,9.856868E0,3.7128193E0,-7.8382497E0,-2.941926E-1,-2.3272128E0,-1.01893425E1,6.028575E0,-3.632147E0,1.2132471E1,5.1981926E-1,8.283108E-1,-1.3600014E0,3.1657486E0,-2.2038095E0,-1.4462866E1,-3.9460306E0,-1.6313912E0,1.0654932E0,-6.949895E0,-1.2716694E0,5.636881E0,-8.652126E-2,-6.0568128E-2,9.437129E-1,-3.6398845E0,1.6403521E0,-3.074027E0,4.7324E0,2.0625637E0,-4.3613963E0,-7.7880883E0,1.2209382E0,4.711131E0,-1.5800146E0,-5.970524E0,9.681475E-1,-3.257314E-1,4.682477E0,2.2114227E0,-2.8149176E0,2.3195047E0,-5.47588E-1,9.6395916E-1,-1.728672E0,-3.7183037E0,3.876343E-1,4.85979E-1,4.0920453E0,-2.9418902E0,-7.0829666E-1,5.43433E-1,4.2779603E0,1.9480592E0,-3.2406617E-2,-5.648639E0,-1.375441E0,1.628389E-1,-1.9765851E0],"categories":[],"categories_nodes":[],"categories_segments":[],"categories_sizes":[],"default_left":[0,0,0,0,0,0,0,0,0,0,0,0,0,0,0,0,0,0,0,0,0,0,0,0,0,0,0,0,0,0,0,0,0,0,0,0,0,0,0,0,0,0,0,0,0,0,0,0,0,0,0,0,0,0,0,0,0,0,0,0,0,0,0,0,0,0,0,0,0,0,0,0,0,0,0,0,0,0,0,0,0,0,0,0,0,0,0,0,0,0,0,0,0,0,0,0,0,0,0],"id":13,"left_children":[1,3,5,7,9,11,13,15,17,19,21,23,25,27,-1,29,31,33,35,37,39,41,43,45,47,49,51,53,55,57,59,61,63,65,-1,-1,67,69,71,73,75,-1,77,79,81,83,85,87,89,91,-1,-1,-1,93,-1,95,97,-1,-1,-1,-1,-1,-1,-1,-1,-1,-1,-1,-1,-1,-1,-1,-1,-1,-1,-1,-1,-1,-1,-1,-1,-1,-1,-1,-1,-1,-1,-1,-1,-1,-1,-1,-1,-1,-1,-1,-1,-1,-1],"loss_changes":[1.2858187E3,1.7794983E3,6.555906E2,2.7765005E3,3.9403452E3,6.6105994E2,4.05239E2,1.6924142E3,1.4179724E3,3.7059824E3,2.6588428E3,4.81117E2,3.5264398E2,2.5695337E2,0E0,2.619143E3,3.014261E3,1.00962476E3,3.1446133E3,2.6570425E3,4.437412E3,3.0821338E3,2.683022E3,3.77864E2,9.469554E2,5.6592896E1,6.0586807E1,1.8733165E2,5.417422E2,2.4306997E3,3.3862896E3,2.6165315E3,1.7155793E3,8.3075665E2,0E0,0E0,2.251232E3,3.8092014E3,2.1272773E3,7.089956E3,2.5811733E3,0E0,2.585607E3,1.4554316E3,2.9141802E3,2.8495563E2,3.451311E2,4.4769812E2,2.6723553E2,8.395361E1,0E0,0E0,0E0,4.427902E1,0E0,4.3119678E2,1.3405952E2,0E0,0E0,0E0,0E0,0E0,0E0,0E0,0E0,0E0,0E0,0E0,0E0,0E0,0E0,0E0,0E0,0E0,0E0,0E0,0E0,0E0,0E0,0E0,0E0,0E0,0E0,0E0,0E0,0E0,0E0,0E0,0E0,0E0,0E0,0E0,0E0,0E0,0E0,0E0,0E0,0E0,0E0],"parents":[2147483647,0,0,1,1,2,2,3,3,4,4,5,5,6,6,7,7,8,8,9,9,10,10,11,11,12,12,13,13,15,15,16,16,17,17,18,18,19,19,20,20,21,21,22,22,23,23,24,24,25,25,26,26,27,27,28,28,29,29,30,30,31,31,32,32,33,33,36,36,37,37,38,38,39,39,40,40,42,42,43,43,44,44,45,45,46,46,47,47,48,48,49,49,53,53,55,55,56,56],"right_children":[2,4,6,8,10,12,14,16,18,20,22,24,26,28,-1,30,32,34,36,38,40,42,44,46,48,50,52,54,56,58,60,62,64,66,-1,-1,68,70,72,74,76,-1,78,80,82,84,86,88,90,92,-1,-1,-1,94,-1,96,98,-1,-1,-1,-1,-1,-1,-1,-1,-1,-1,-1,-1,-1,-1,-1,-1,-1,-1,-1,-1,-1,-1,-1,-1,-1,-1,-1,-1,-1,-1,-1,-1,-1,-1,-1,-1,-1,-1,-1,-1,-1,-1],"split_conditions":[3.1550869E1,2.972342E2,3.0233673E2,2.8810922E2,3.3359296E2,2.6975888E2,2.6002832E1,4.948667E0,7.7194996E0,1.3684735E1,1.4512064E1,2.4E0,3.5309376E1,8.257498E-1,2.2024693E0,4.3278327E0,5.361166E0,4.1528325E0,8.486167E0,1.31041975E1,2.049156E1,1.5213331E0,3.7963333E0,5E-1,8.7E0,1.752992E1,-1.8075833E0,3.2696644E1,3.3497414E1,3.0799167E0,4.432E0,1.4440443E1,2.3450209E2,3.6549165E0,-6.9719186E0,8.344542E0,2.7943514E1,3.203744E2,1.4375751E1,1.9715338E1,2.060823E1,9.856868E0,1.3979871E1,7.7833354E-2,6.1424165E0,3.2217484E1,3.5309376E1,2.4373667E1,3.2696644E1,9.569501E0,5.1981926E-1,8.283108E-1,-1.3600014E0,-1.8075833E0,-2.2038095E0,1.9038E1,1.4494499E1,-1.6313912E0,1.0654932E0,-6.949895E0,-1.2716694E0,5.636881E0,-8.652126E-2,-6.0568128E-2,9.437129E-1,-3.6398845E0,1.6403521E0,-3.074027E0,4.7324E0,2.0625637E0,-4.3613963E0,-7.7880883E0,1.2209382E0,4.711131E0,-1.5800146E0,-5.970524E0,9.681475E-1,-3.257314E-1,4.682477E0,2.2114227E0,-2.8149176E0,2.3195047E0,-5.47588E-1,9.6395916E-1,-1.728672E0,-3.7183037E0,3.876343E-1,4.85979E-1,4.0920453E0,-2.9418902E0,-7.0829666E-1,5.43433E-1,4.2779603E0,1.9480592E0,-3.2406617E-2,-5.648639E0,-1.375441E0,1.628389E-1,-1.9765851E0],"split_indices":[2,3,3,3,3,3,0,0,0,2,2,1,2,0,0,0,0,0,0,2,2,0,0,1,1,0,0,2,2,0,0,2,3,0,0,0,2,3,0,0,2,0,2,0,0,2,2,0,2,0,0,0,0,0,0,0,0,0,0,0,0,0,0,0,0,0,0,0,0,0,0,0,0,0,0,0,0,0,0,0,0,0,0,0,0,0,0,0,0,0,0,0,0,0,0,0,0,0,0],"split_type":[0,0,0,0,0,0,0,0,0,0,0,0,0,0,0,0,0,0,0,0,0,0,0,0,0,0,0,0,0,0,0,0,0,0,0,0,0,0,0,0,0,0,0,0,0,0,0,0,0,0,0,0,0,0,0,0,0,0,0,0,0,0,0,0,0,0,0,0,0,0,0,0,0,0,0,0,0,0,0,0,0,0,0,0,0,0,0,0,0,0,0,0,0,0,0,0,0,0,0],"sum_hessian":[3.925E3,3.816E3,1.09E2,3.184E3,6.32E2,8.2E1,2.7E1,3.139E3,4.5E1,2.92E2,3.4E2,7.4E1,8E0,2.6E1,1E0,1.68E2,2.971E3,1.9E1,2.6E1,4.7E1,2.45E2,4.7E1,2.93E2,2.5E1,4.9E1,5E0,3E0,5E0,2.1E1,1.19E2,4.9E1,2.8E1,2.943E3,1.2E1,7E0,2E0,2.4E1,3.7E1,1E1,9.4E1,1.51E2,3E0,4.4E1,5.8E1,2.35E2,1.3E1,1.2E1,1.3E1,3.6E1,4E0,1E0,1E0,2E0,3E0,2E0,1.1E1,1E1,5.5E1,6.4E1,1.2E1,3.7E1,1.5E1,1.3E1,2.782E3,1.61E2,9E0,3E0,2.1E1,3E0,2.6E1,1.1E1,7E0,3E0,7.4E1,2E1,4E0,1.47E2,3.2E1,1.2E1,5E0,5.3E1,3.7E1,1.98E2,5E0,8E0,1E1,2E0,9E0,4E0,5E0,3.1E1,1E0,3E0,1E0,2E0,7E0,4E0,4E0,6E0],"tree_param":{"num_deleted":"0","num_feature":"5","num_nodes":"99","size_leaf_vector":"1"}},{"base_weights":[4.3007068E-4,-5.4063854E0,4.485052E-2,-1.3375624E1,-4.120753E0,4.437895E0,-2.6201535E-2,-3.444294E-1,-5.12063E0,2.294824E0,-5.8941565E0,2.6436234E1,1.1574471E0,1.9157374E-1,-1.1012157E0,-4.7091484E0,6.647799E0,2.0372391E-1,-7.59933E0,1.3572465E-1,3.0083578E1,-1.916136E0,7.97332E0,-9.540846E-2,1.9567926E0,-7.0478754E0,-6.3355863E-1,-2.1580708E0,1.7312877E-1,1.0228539E0,-2.2515488E0,-3.938749E0,-3.740317E0,2.6886865E-1,3.4798763E1,1.6615276E0,-1.0374786E1,1.8867739E-1,-1.7655087E0,6.6711016E0,7.1276003E-1,-1.5834824E1,-2.0018756E0,1.2995242E1,-9.101496E-1,-8.760304E-1,9.539383E-1,-1.3699958E0,7.040646E-1,-2.249252E0,-2.7736017E-1,5.1744156E0,1.3980039E1,-2.7091296E0,2.6627932E0,3.4774883E0,-5.8249073E0,3.9260622E-2,2.9425793E0,-1.7511431E0,2.3717333E-1,-4.020882E0,2.6154313E0,2.8690095E0,-1.3354865E-1,-4.2201888E-2,-7.314745E0,-1.9818984E0,2.0911293E0,8.2073765E0,7.1824896E-1,-4.5091787E-1,7.053251E-1],"categories":[],"categories_nodes":[],"categories_segments":[],"categories_sizes":[],"default_left":[0,0,0,0,0,0,0,0,0,0,0,0,0,0,0,0,0,0,0,0,0,0,0,0,0,0,0,0,0,0,0,0,0,0,0,0,0,0,0,0,0,0,0,0,0,0,0,0,0,0,0,0,0,0,0,0,0,0,0,0,0,0,0,0,0,0,0,0,0,0,0,0,0],"id":14,"left_children":[1,3,5,7,9,11,13,-1,-1,15,17,19,21,23,25,27,-1,29,31,-1,33,35,-1,37,39,41,43,-1,45,-1,47,-1,49,-1,51,53,55,57,59,61,63,65,67,69,71,-1,-1,-1,-1,-1,-1,-1,-1,-1,-1,-1,-1,-1,-1,-1,-1,-1,-1,-1,-1,-1,-1,-1,-1,-1,-1,-1,-1],"loss_changes":[9.4316235E2,2.7273865E2,1.2158813E3,1.6103534E2,3.434709E2,4.443594E3,8.977945E2,0E0,0E0,1.0782646E3,2.4070087E2,7.4456494E2,4.348152E3,1.6156908E3,1.7920591E3,7.402319E1,0E0,5.4903202E1,3.350072E2,0E0,9.321787E2,1.5303483E3,0E0,1.3022289E3,2.6109253E3,2.052231E3,2.273589E3,0E0,3.7186245E1,0E0,5.330078E1,0E0,1.200215E2,0E0,4.3897314E2,2.8570713E3,3.2042305E3,1.303361E3,4.1571875E3,3.9383691E3,3.6321592E3,2.2770903E3,1.3267383E3,1.7616193E3,1.1424347E3,0E0,0E0,0E0,0E0,0E0,0E0,0E0,0E0,0E0,0E0,0E0,0E0,0E0,0E0,0E0,0E0,0E0,0E0,0E0,0E0,0E0,0E0,0E0,0E0,0E0,0E0,0E0,0E0],"parents":[2147483647,0,0,1,1,2,2,3,3,4,4,5,5,6,6,9,9,10,10,11,11,12,12,13,13,14,14,15,15,17,17,18,18,20,20,21,21,23,23,24,24,25,25,26,26,28,28,30,30,32,32,34,34,35,35,36,36,37,37,38,38,39,39,40,40,41,41,42,42,43,43,44,44],"right_children":[2,4,6,8,10,12,14,-1,-1,16,18,20,22,24,26,28,-1,30,32,-1,34,36,-1,38,40,42,44,-1,46,-1,48,-1,50,-1,52,54,56,58,60,62,64,66,68,70,72,-1,-1,-1,-1,-1,-1,-1,-1,-1,-1,-1,-1,-1,-1,-1,-1,-1,-1,-1,-1,-1,-1,-1,-1,-1,-1,-1,-1],"split_conditions":[-5.138333E-1,2.5488936E2,1.5213331E0,1.2795653E1,1.933639E1,1.2964998E1,2.6513E1,-3.444294E-1,-5.12063E0,1.8374111E1,3.0233673E2,1.0041354E1,3.5009155E2,2.3646334E1,2.6823668E1,3.058861E2,6.647799E0,2.1602999E1,3.1457938E2,1.3572465E-1,3.140594E0,3.278889E2,7.97332E0,2.1248667E1,2.4242418E1,1.3684735E1,9.3876505E0,-2.1580708E0,-1.8075833E0,1.0228539E0,3.096837E1,-3.938749E0,2.3906818E1,2.6886865E-1,1.1609651E1,2.9941394E2,1.7287498E1,3.5911588E2,2.2175749E1,9.885262E0,1.1609651E1,8E-1,2.6690336E1,5.2E0,2.1039983E2,-8.760304E-1,9.539383E-1,-1.3699958E0,7.040646E-1,-2.249252E0,-2.7736017E-1,5.1744156E0,1.3980039E1,-2.7091296E0,2.6627932E0,3.4774883E0,-5.8249073E0,3.9260622E-2,2.9425793E0,-1.7511431E0,2.3717333E-1,-4.020882E0,2.6154313E0,2.8690095E0,-1.3354865E-1,-4.2201888E-2,-7.314745E0,-1.9818984E0,2.0911293E0,8.2073765E0,7.1824896E-1,-4.5091787E-1,7.053251E-1],"split_indices":[0,3,0,3,2,2,0,0,0,2,3,2,3,0,0,3,0,2,3,0,3,3,0,0,0,2,2,0,0,0,2,0,2,0,2,3,2,3,0,2,2,1,0,1,3,0,0,0,0,0,0,0,0,0,0,0,0,0,0,0,0,0,0,0,0,0,0,0,0,0,0,0,0],"split_type":[0,0,0,0,0,0,0,0,0,0,0,0,0,0,0,0,0,0,0,0,0,0,0,0,0,0,0,0,0,0,0,0,0,0,0,0,0,0,0,0,0,0,0,0,0,0,0,0,0,0,0,0,0,0,0,0,0,0,0,0,0,0,0,0,0,0,0,0,0,0,0,0,0],"sum_hessian":[3.925E3,3.1E1,3.894E3,3E0,2.8E1,6.1E1,3.833E3,1E0,2E0,6E0,2.2E1,7E0,5.4E1,3.188E3,6.45E2,5E0,1E0,5E0,1.7E1,1E0,6E0,4.9E1,5E0,2.743E3,4.45E2,4.6E1,5.99E2,3E0,2E0,2E0,3E0,6E0,1.1E1,1E0,5E0,3.5E1,1.4E1,2.345E3,3.98E2,9.2E1,3.53E2,1.6E1,3E1,1.1E1,5.88E2,1E0,1E0,2E0,1E0,4E0,7E0,3E0,2E0,1.4E1,2.1E1,4E0,1E1,2.332E3,1.3E1,1.53E2,2.45E2,8E0,8.4E1,4E1,3.13E2,6E0,1E1,2E1,1E1,4E0,7E0,4.98E2,9E1],"tree_param":{"num_deleted":"0","num_feature":"5","num_nodes":"73","size_leaf_vector":"1"}},{"base_weights":[6.124178E-3,4.606056E-2,-4.7065544E0,-3.37425E-2,3.9507043E0,5.9872093E0,-6.1009693E0,7.4982546E-2,-2.3811033E0,7.8697906E0,-1.701715E-1,-7.8372607E0,1.3295604E1,-2.388529E-2,4.601661E0,-1.2148736E1,-1.3508226E0,-2.1106568E-1,1.2229138E1,-7.495942E0,7.9356894E0,-5.561726E0,-1.6012445E1,5.3155255E0,6.6749614E-1,5.0424226E-2,-5.5981717E0,3.633036E0,1.18778715E1,-1.4378575E1,-1.8645735E0,8.415813E0,-2.387599E0,1.7313868E1,-4.239045E0,3.0582588E1,7.5020304E0,-1.229914E1,-2.0112956E0,1.6148497E1,1.7991772E0,-8.528372E0,1.2145254E1,-5.9852753E0,5.5198634E-1,3.995604E-2,-1.0152994E0,1.0086704E0,-3.2363431E0,5.4939544E-1,3.1162887E0,-5.4855137E0,-2.8954203E0,1.5606233E0,-3.459679E0,5.4109664E0,-6.223043E-4,-4.032929E0,-3.1575584E-1,9.065163E-1,6.8847246E0,1.9020207E0,-1.6946932E0,1.2029713E1,3.2615824E0,3.4677155E0,-2.581096E0,-4.9574647E0,-1.1769823E0,1.2202528E0,-3.0358093E0,3.55628E-1,7.4667764E0,-8.2435995E-1,3.4740694E0,-3.6508596E0,-5.750244E-1,-8.2588124E-1,5.408689E0],"categories":[],"categories_nodes":[],"categories_segments":[],"categories_sizes":[],"default_left":[0,0,0,0,0,0,0,0,0,0,0,0,0,0,0,0,0,0,0,0,0,0,0,0,0,0,0,0,0,0,0,0,0,0,0,0,0,0,0,0,0,0,0,0,0,0,0,0,0,0,0,0,0,0,0,0,0,0,0,0,0,0,0,0,0,0,0,0,0,0,0,0,0,0,0,0,0,0,0],"id":15,"left_children":[1,3,5,7,9,-1,11,13,15,17,19,21,23,25,27,29,31,33,35,37,39,41,43,-1,-1,45,47,49,-1,51,53,55,57,59,61,63,65,67,69,71,73,75,77,-1,-1,-1,-1,-1,-1,-1,-1,-1,-1,-1,-1,-1,-1,-1,-1,-1,-1,-1,-1,-1,-1,-1,-1,-1,-1,-1,-1,-1,-1,-1,-1,-1,-1,-1,-1],"loss_changes":[7.391187E2,1.2135134E3,1.2566866E3,9.743415E2,1.2610447E3,0E0,1.1819006E3,1.633194E3,1.6843042E3,1.4116716E3,2.375371E3,4.6903052E2,1.0746661E2,1.4798851E3,2.4998428E3,3.4010254E2,1.5794698E3,1.1322454E3,2.0262959E3,5.284834E2,9.2850793E2,1.4168372E3,4.5857568E2,0E0,0E0,1.00278406E3,2.2218308E3,9.18057E2,0E0,6.3589355E1,3.3326447E2,1.2148322E3,2.0522466E3,1.7227222E2,2.2972067E2,5.0192236E2,1.5369545E3,3.24505E2,5.833216E2,1.0168037E3,5.655194E2,5.0630164E2,4.0025916E2,0E0,0E0,0E0,0E0,0E0,0E0,0E0,0E0,0E0,0E0,0E0,0E0,0E0,0E0,0E0,0E0,0E0,0E0,0E0,0E0,0E0,0E0,0E0,0E0,0E0,0E0,0E0,0E0,0E0,0E0,0E0,0E0,0E0,0E0,0E0,0E0],"parents":[2147483647,0,0,1,1,2,2,3,3,4,4,6,6,7,7,8,8,9,9,10,10,11,11,12,12,13,13,14,14,15,15,16,16,17,17,18,18,19,19,20,20,21,21,22,22,25,25,26,26,27,27,29,29,30,30,31,31,32,32,33,33,34,34,35,35,36,36,37,37,38,38,39,39,40,40,41,41,42,42],"right_children":[2,4,6,8,10,-1,12,14,16,18,20,22,24,26,28,30,32,34,36,38,40,42,44,-1,-1,46,48,50,-1,52,54,56,58,60,62,64,66,68,70,72,74,76,78,-1,-1,-1,-1,-1,-1,-1,-1,-1,-1,-1,-1,-1,-1,-1,-1,-1,-1,-1,-1,-1,-1,-1,-1,-1,-1,-1,-1,-1,-1,-1,-1,-1,-1,-1,-1],"split_conditions":[3.2004917E1,3.0450752E1,4.358564E1,2.9007002E1,1.7901839E2,5.9872093E0,2.1039983E2,2.8498667E1,2.9134087E1,1.4153311E2,2.0122586E2,1.909265E2,3.3388256E1,2.8234087E1,1.6100002E1,1.8671474E1,1.2682018E1,1.457889E1,1.4886224E2,1E-1,1.7114204E1,1.8314487E2,1.803237E1,5.3155255E0,6.6749614E-1,3.2217484E1,1.24972496E2,1.909265E2,1.18778715E1,1.284557E2,2.1434364E1,1.46853E2,1.4480773E1,3.097783E1,2.3824263E1,1E-1,3E-1,3.1240334E1,1.2371645E1,1.2864649E1,3.6E0,3E-1,3.3388256E1,-5.9852753E0,5.5198634E-1,3.995604E-2,-1.0152994E0,1.0086704E0,-3.2363431E0,5.4939544E-1,3.1162887E0,-5.4855137E0,-2.8954203E0,1.5606233E0,-3.459679E0,5.4109664E0,-6.223043E-4,-4.032929E0,-3.1575584E-1,9.065163E-1,6.8847246E0,1.9020207E0,-1.6946932E0,1.2029713E1,3.2615824E0,3.4677155E0,-2.581096E0,-4.9574647E0,-1.1769823E0,1.2202528E0,-3.0358093E0,3.55628E-1,7.4667764E0,-8.2435995E-1,3.4740694E0,-3.6508596E0,-5.750244E-1,-8.2588124E-1,5.408689E0],"split_indices":[0,0,3,0,3,0,3,0,0,3,3,3,0,0,1,2,2,2,3,1,2,3,2,0,0,2,3,3,0,3,2,3,2,0,3,1,1,0,2,2,1,1,0,0,0,0,0,0,0,0,0,0,0,0,0,0,0,0,0,0,0,0,0,0,0,0,0,0,0,0,0,0,0,0,0,0,0,0,0],"split_type":[0,0,0,0,0,0,0,0,0,0,0,0,0,0,0,0,0,0,0,0,0,0,0,0,0,0,0,0,0,0,0,0,0,0,0,0,0,0,0,0,0,0,0,0,0,0,0,0,0,0,0,0,0,0,0,0,0,0,0,0,0,0,0,0,0,0,0,0,0,0,0,0,0,0,0,0,0,0,0],"sum_hessian":[3.925E3,3.893E3,3.2E1,3.816E3,7.7E1,1E0,3.1E1,3.648E3,1.68E2,3.9E1,3.8E1,2.9E1,2E0,3.571E3,7.7E1,1.5E1,1.53E2,1.4E1,2.5E1,2E1,1.8E1,2.4E1,5E0,1E0,1E0,3.525E3,4.6E1,7.6E1,1E0,1.2E1,3E0,1.4E1,1.39E2,2E0,1.2E1,4E0,2.1E1,1E1,1E1,7E0,1.1E1,2.1E1,3E0,4E0,1E0,3.443E3,8.2E1,1.7E1,2.9E1,6.1E1,1.5E1,5E0,7E0,2E0,1E0,6E0,8E0,1.4E1,1.25E2,1E0,1E0,1E0,1.1E1,2E0,2E0,1.7E1,4E0,6E0,4E0,6E0,4E0,3E0,4E0,8E0,3E0,1.3E1,8E0,1E0,2E0],"tree_param":{"num_deleted":"0","num_feature":"5","num_nodes":"79","size_leaf_vector":"1"}},{"base_weights":[1.3638857E-2,5.3724945E-1,-2.9020828E-1,5.2562762E-2,3.5295062E0,-5.2085137E0,-1.3077387E-1,3.7318453E-1,-1.1705161E1,1.3842514E1,8.812899E-1,-1.1710905E1,-1.7321085E0,5.6694446E0,-2.7381167E-1,9.291905E-1,-1.4346566E0,-1.6799833E1,9.617882E0,2.1672909E1,2.632959E0,9.650846E0,-9.5773125E-1,-2.1526367E1,4.523073E0,6.736452E0,-3.148683E0,-1.1135545E-1,2.0851004E1,-2.0358438E0,4.059576E-2,8.303606E-1,9.317723E0,-2.8216467E0,3.5995438E0,-2.7253384E1,-6.6201005E0,1.5757731E1,-4.0831823E0,2.9901987E1,-7.9979935E0,-8.157678E0,1.7140965E1,1.1911792E1,4.4559913E0,-7.414627E0,2.281358E0,9.514052E0,-2.629936E1,8.092923E0,-1.2161177E1,4.417493E0,-4.6028523E0,-1.6750406E1,6.869903E0,2.6740313E1,2.546463E0,-1.3182582E0,-2.0867659E1,5.964143E0,-9.908838E-2,1.6830608E-1,3.033415E0,4.6060094E-1,-1.6643982E0,2.1844501E0,-1.3489915E0,-3.905055E0,-1.0357234E1,7.9922014E-1,-6.297109E0,5.566079E0,2.6676065E-1,-2.3260376E0,1.0436439E1,-5.9376483E0,-5.0421846E-1,-5.3544016E0,8.676788E-1,1.9083076E0,6.7010174E0,-3.6019108E0,3.4575124E0,-4.8838654E0,3.0614865E-1,2.2723541E0,-6.3139695E-1,1.5430127E-1,4.1270223E0,-8.383521E0,-4.8891222E-1,-8.268656E0,-1.4650086E-1,-6.57529E-1,-3.6883316E0,3.4410715E0,-6.017394E0,2.8762183E0,-6.5067406E0,5.216744E-1,8.656526E0,-3.9172845E0,5.190516E0,-1.0508518E0,5.9044987E-1,-8.18892E0,2.8980823E0,6.611467E0,2.6608437E-1,-4.613068E-2,3.5150535E0],"categories":[],"categories_nodes":[],"categories_segments":[],"categories_sizes":[],"default_left":[0,0,0,0,0,0,0,0,0,0,0,0,0,0,0,0,0,0,0,0,0,0,0,0,0,0,0,0,0,0,0,0,0,0,0,0,0,0,0,0,0,0,0,0,0,0,0,0,0,0,0,0,0,0,0,0,0,0,0,0,0,0,0,0,0,0,0,0,0,0,0,0,0,0,0,0,0,0,0,0,0,0,0,0,0,0,0,0,0,0,0,0,0,0,0,0,0,0,0,0,0,0,0,0,0,0,0,0,0,0,0],"id":16,"left_children":[1,3,5,7,9,11,13,15,17,19,21,23,25,27,29,31,33,35,37,39,41,43,45,47,49,-1,51,53,55,57,59,61,-1,63,65,67,69,71,-1,73,75,77,79,-1,81,83,85,87,89,-1,91,-1,93,95,97,99,101,103,105,107,109,-1,-1,-1,-1,-1,-1,-1,-1,-1,-1,-1,-1,-1,-1,-1,-1,-1,-1,-1,-1,-1,-1,-1,-1,-1,-1,-1,-1,-1,-1,-1,-1,-1,-1,-1,-1,-1,-1,-1,-1,-1,-1,-1,-1,-1,-1,-1,-1,-1,-1],"loss_changes":[6.24773E2,2.091157E3,1.9479243E3,4.6864375E3,5.477326E3,1.7429016E3,1.9993507E3,1.2175894E3,3.746498E3,3.5417207E3,2.605754E3,4.3996533E3,1.8523593E3,5.092492E3,1.3025272E3,2.7315918E3,2.0001365E3,2.692767E3,1.2128082E3,6.0990967E3,2.9577415E3,4.194766E3,2.8194534E3,2.7688599E3,4.4488525E3,0E0,1.367343E3,5.110019E3,1.6567246E3,4.7832744E3,1.6521324E3,2.3040996E3,0E0,2.669335E3,1.880949E3,8.962344E2,2.0571584E3,2.3292456E2,0E0,3.7655332E3,4.1377597E2,1.2294741E3,3.0599536E2,0E0,3.0477046E3,3.381565E3,2.105369E3,1.0747336E2,5.6344434E2,0E0,1.2449551E3,0E0,8.446733E2,1.4435139E3,2.613818E3,5.84291E2,1.3771301E3,2.476629E3,2.8150215E3,3.7345698E3,1.2623462E3,0E0,0E0,0E0,0E0,0E0,0E0,0E0,0E0,0E0,0E0,0E0,0E0,0E0,0E0,0E0,0E0,0E0,0E0,0E0,0E0,0E0,0E0,0E0,0E0,0E0,0E0,0E0,0E0,0E0,0E0,0E0,0E0,0E0,0E0,0E0,0E0,0E0,0E0,0E0,0E0,0E0,0E0,0E0,0E0,0E0,0E0,0E0,0E0,0E0,0E0],"parents":[2147483647,0,0,1,1,2,2,3,3,4,4,5,5,6,6,7,7,8,8,9,9,10,10,11,11,12,12,13,13,14,14,15,15,16,16,17,17,18,18,19,19,20,20,21,21,22,22,23,23,24,24,26,26,27,27,28,28,29,29,30,30,31,31,33,33,34,34,35,35,36,36,37,37,39,39,40,40,41,41,42,42,44,44,45,45,46,46,47,47,48,48,50,50,52,52,53,53,54,54,55,55,56,56,57,57,58,58,59,59,60,60],"right_children":[2,4,6,8,10,12,14,16,18,20,22,24,26,28,30,32,34,36,38,40,42,44,46,48,50,-1,52,54,56,58,60,62,-1,64,66,68,70,72,-1,74,76,78,80,-1,82,84,86,88,90,-1,92,-1,94,96,98,100,102,104,106,108,110,-1,-1,-1,-1,-1,-1,-1,-1,-1,-1,-1,-1,-1,-1,-1,-1,-1,-1,-1,-1,-1,-1,-1,-1,-1,-1,-1,-1,-1,-1,-1,-1,-1,-1,-1,-1,-1,-1,-1,-1,-1,-1,-1,-1,-1,-1,-1,-1,-1,-1],"split_conditions":[1.6215992E1,1.5542662E1,1.6454008E1,1.5463246E1,4.8605583E1,8.751206E1,1.662249E1,2.6999998E0,1.8E2,1.5876775E1,1.5629972E1,1.9038E1,6.042166E0,4.3999996E0,1.7713316E1,3.5911588E2,2.7273417E1,1.3182E1,3.3359296E2,1.8846582E1,1.5792168E1,6.773729E1,1.584409E1,1.0426589E1,7.0000005E-1,6.736452E0,1.0052978E2,7.181927E1,2.1781748E1,3.488558E2,1.7873556E1,2.1000001E0,9.317723E0,8.9570816E1,1.926983E2,2.9161892E1,1.1283782E2,2.340883E1,-4.0831823E0,1.55843E1,2.2357E1,2.6476425E1,1E-1,1.1911792E1,1.1050153E2,1.155544E2,1.8702833E1,5.477834E0,7.0000005E-1,8.092923E0,1.6299694E1,4.417493E0,1.9E0,3.0799167E0,3.4548965E2,6.479666E0,2.2490335E1,1.4347415E2,5.9000006E0,4.358564E1,3.5911588E2,1.6830608E-1,3.033415E0,4.6060094E-1,-1.6643982E0,2.1844501E0,-1.3489915E0,-3.905055E0,-1.0357234E1,7.9922014E-1,-6.297109E0,5.566079E0,2.6676065E-1,-2.3260376E0,1.0436439E1,-5.9376483E0,-5.0421846E-1,-5.3544016E0,8.676788E-1,1.9083076E0,6.7010174E0,-3.6019108E0,3.4575124E0,-4.8838654E0,3.0614865E-1,2.2723541E0,-6.3139695E-1,1.5430127E-1,4.1270223E0,-8.383521E0,-4.8891222E-1,-8.268656E0,-1.4650086E-1,-6.57529E-1,-3.6883316E0,3.4410715E0,-6.017394E0,2.8762183E0,-6.5067406E0,5.216744E-1,8.656526E0,-3.9172845E0,5.190516E0,-1.0508518E0,5.9044987E-1,-8.18892E0,2.8980823E0,6.611467E0,2.6608437E-1,-4.613068E-2,3.5150535E0],"split_indices":[2,2,2,2,3,3,2,1,3,2,2,0,0,1,2,3,0,0,3,0,0,3,2,3,1,0,3,3,0,3,2,1,0,3,3,3,3,0,0,2,0,3,1,0,3,3,0,0,1,0,2,0,1,0,3,0,0,3,1,3,3,0,0,0,0,0,0,0,0,0,0,0,0,0,0,0,0,0,0,0,0,0,0,0,0,0,0,0,0,0,0,0,0,0,0,0,0,0,0,0,0,0,0,0,0,0,0,0,0,0,0],"split_type":[0,0,0,0,0,0,0,0,0,0,0,0,0,0,0,0,0,0,0,0,0,0,0,0,0,0,0,0,0,0,0,0,0,0,0,0,0,0,0,0,0,0,0,0,0,0,0,0,0,0,0,0,0,0,0,0,0,0,0,0,0,0,0,0,0,0,0,0,0,0,0,0,0,0,0,0,0,0,0,0,0,0,0,0,0,0,0,0,0,0,0,0,0,0,0,0,0,0,0,0,0,0,0,0,0,0,0,0,0,0,0],"sum_hessian":[3.925E3,1.441E3,2.484E3,1.241E3,2E2,7.7E1,2.407E3,1.209E3,3.2E1,4E1,1.6E2,2.6E1,5.1E1,5.7E1,2.35E3,9.25E2,2.84E2,2.6E1,6E0,2.3E1,1.7E1,2.7E1,1.33E2,1.6E1,1E1,2E0,4.9E1,4.2E1,1.5E1,3.55E2,1.995E3,9.23E2,2E0,2.23E2,6.1E1,1.2E1,1.4E1,5E0,1E0,1.8E1,5E0,1E1,7E0,3E0,2.4E1,4.4E1,8.9E1,2E0,1.4E1,4E0,6E0,3E0,4.6E1,1.2E1,3E1,1.1E1,4E0,3.43E2,1.2E1,4.5E1,1.95E3,8.98E2,2.5E1,8.6E1,1.37E2,4.2E1,1.9E1,5E0,7E0,9E0,5E0,4E0,1E0,2E0,1.6E1,1E0,4E0,5E0,5E0,3E0,4E0,7E0,1.7E1,2.1E1,2.3E1,4E1,4.9E1,1E0,1E0,1.3E1,1E0,2E0,4E0,3.6E1,1E1,1E0,1.1E1,2.8E1,2E0,1E0,1E1,2E0,2E0,2.06E2,1.37E2,1E1,2E0,1E1,3.5E1,1.942E3,8E0],"tree_param":{"num_deleted":"0","num_feature":"5","num_nodes":"111","size_leaf_vector":"1"}},{"base_weights":[1.4512241E-2,-3.899022E0,4.666079E-2,-1.0838081E1,-2.8074615E0,3.3039088E0,-6.02467E-3,-1.2197702E0,-4.673194E0,4.207279E0,-4.444169E0,2.0768013E1,7.0360446E-1,-2.8437645E0,7.6991886E-2,-2.4866683E0,5.6515527E0,-5.8058505E0,6.085167E-1,9.894355E0,1.1200093E1,